{
  "defaults": {},
  "inputs": [
    {
      "name": "jet3_pt",
      "offset": 0,
      "scale": 1
    },
    {
      "name": "jet3_eta",
      "offset": 0,
      "scale": 1
    },
    {
      "name": "lep1_eta",
      "offset": 0,
      "scale": 1
    },
    {
      "name": "jet2_pt",
      "offset": 0,
      "scale": 1
    },
    {
      "name": "jet1_pt",
      "offset": 0,
      "scale": 1
    },
    {
      "name": "jetFwd1_eta",
      "offset": 0,
      "scale": 1
    },
    {
      "name": "mT_lep1",
      "offset": 0,
      "scale": 1
    },
    {
      "name": "resTop_BDT",
      "offset": 0,
      "scale": 1
    },
    {
      "name": "jet4_phi",
      "offset": 0,
      "scale": 1
    },
    {
      "name": "lep2_conePt",
      "offset": 0,
      "scale": 1
    },
    {
      "name": "mass_dilep",
      "offset": 0,
      "scale": 1
    },
    {
      "name": "jet1_phi",
      "offset": 0,
      "scale": 1
    },
    {
      "name": "jet2_eta",
      "offset": 0,
      "scale": 1
    },
    {
      "name": "n_presel_jetFwd",
      "offset": 0,
      "scale": 1
    },
    {
      "name": "n_presel_jet",
      "offset": 0,
      "scale": 1
    },
    {
      "name": "lep1_charge",
      "offset": 0,
      "scale": 1
    },
    {
      "name": "avg_dr_jet",
      "offset": 0,
      "scale": 1
    },
    {
      "name": "lep1_phi",
      "offset": 0,
      "scale": 1
    },
    {
      "name": "nBJetLoose",
      "offset": 0,
      "scale": 1
    },
    {
      "name": "jet4_pt",
      "offset": 0,
      "scale": 1
    },
    {
      "name": "mindr_lep1_jet",
      "offset": 0,
      "scale": 1
    },
    {
      "name": "lep1_conePt",
      "offset": 0,
      "scale": 1
    },
    {
      "name": "jetFwd1_pt",
      "offset": 0,
      "scale": 1
    },
    {
      "name": "lep2_phi",
      "offset": 0,
      "scale": 1
    },
    {
      "name": "jet2_phi",
      "offset": 0,
      "scale": 1
    },
    {
      "name": "lep2_eta",
      "offset": 0,
      "scale": 1
    },
    {
      "name": "mbb",
      "offset": 0,
      "scale": 1
    },
    {
      "name": "mindr_lep2_jet",
      "offset": 0,
      "scale": 1
    },
    {
      "name": "jet4_eta",
      "offset": 0,
      "scale": 1
    },
    {
      "name": "nBJetMedium",
      "offset": 0,
      "scale": 1
    },
    {
      "name": "Hj_tagger_resTop",
      "offset": 0,
      "scale": 1
    },
    {
      "name": "Dilep_pdgId",
      "offset": 0,
      "scale": 1
    },
    {
      "name": "mT_lep2",
      "offset": 0,
      "scale": 1
    },
    {
      "name": "metLD",
      "offset": 0,
      "scale": 1
    },
    {
      "name": "jet3_phi",
      "offset": 0,
      "scale": 1
    },
    {
      "name": "maxeta",
      "offset": 0,
      "scale": 1
    },
    {
      "name": "jet1_eta",
      "offset": 0,
      "scale": 1
    }
  ],
  "layers": [
    {
      "activation": "rectified",
      "architecture": "dense",
      "bias": [
        -0.35583871603012085,
        -0.3429979979991913,
        -1.7773473262786865,
        1.9376448392868042,
        8.96380615234375,
        1.4897116422653198,
        -1.7841780185699463,
        -1.5324490070343018,
        9.207674980163574,
        2.515460252761841,
        2.278172254562378,
        -3.2487447261810303,
        4.287853240966797,
        -2.291524887084961,
        2.750108480453491,
        0.2489631623029709,
        -3.280090570449829,
        3.037963390350342,
        2.2467920780181885,
        -0.45790985226631165,
        -0.693942129611969,
        -1.637746810913086,
        -1.3672446012496948,
        2.3485336303710938,
        0.8304280042648315,
        -0.2343463897705078,
        -1.046738862991333,
        0.497102290391922,
        -0.2097243219614029,
        1.3074300289154053,
        -2.1054494380950928,
        0.18272626399993896
      ],
      "weights": [
        0.18275576829910278,
        -0.6968252062797546,
        -0.19121581315994263,
        0.18822556734085083,
        -0.32472676038742065,
        -6.807204723358154,
        -0.07618935406208038,
        1.9896239042282104,
        0.8468782901763916,
        -0.37844038009643555,
        0.11353977769613266,
        1.7073122262954712,
        -0.5288800001144409,
        3.191617012023926,
        8.080778121948242,
        2.7442383766174316,
        -7.374317169189453,
        -0.475395143032074,
        2.6404924392700195,
        -0.011227150447666645,
        -7.339395999908447,
        0.4499707520008087,
        -0.3268950581550598,
        -1.8881239891052246,
        2.3929386138916016,
        -0.11285889893770218,
        -0.08991877734661102,
        -2.8404035568237305,
        2.4871037006378174,
        0.7967344522476196,
        -7.952398300170898,
        -3.795139789581299,
        -0.11063440889120102,
        0.12721529603004456,
        2.159116744995117,
        -2.7922439575195312,
        -3.2523136138916016,
        0.06119293347001076,
        1.082191824913025,
        0.335622102022171,
        -0.0677918791770935,
        -0.6916809678077698,
        0.062610924243927,
        0.13947831094264984,
        0.016862668097019196,
        -0.8855299353599548,
        0.33831173181533813,
        -0.0322004035115242,
        -0.23446199297904968,
        -1.3134950399398804,
        -3.2246251106262207,
        -4.031862258911133,
        -2.2180557250976562,
        3.991891622543335,
        -1.2337970733642578,
        2.201422929763794,
        -0.2270713746547699,
        10.15241527557373,
        0.7658571600914001,
        0.0017054511699825525,
        -0.5657243728637695,
        -1.17291259765625,
        -0.13760823011398315,
        0.2985440790653229,
        3.8418009281158447,
        0.40725815296173096,
        -17.537538528442383,
        23.827823638916016,
        6.562182426452637,
        0.08132064342498779,
        0.0220577884465456,
        -0.5169630646705627,
        5.036709785461426,
        0.682518720626831,
        -0.12568418681621552,
        0.8686600923538208,
        1.940863013267517,
        0.12862935662269592,
        0.3466808795928955,
        3.058896064758301,
        -0.1761816293001175,
        0.13239188492298126,
        1.1761906147003174,
        0.8601586222648621,
        0.031843151897192,
        0.8016876578330994,
        2.6322178840637207,
        9.334014892578125,
        -5.547373294830322,
        6.447970867156982,
        6.3408966064453125,
        -2.951176166534424,
        5.512174129486084,
        0.03428880497813225,
        6.069823265075684,
        0.20527046918869019,
        2.137002468109131,
        -2.2993056774139404,
        -0.07426893711090088,
        -0.0509035624563694,
        -0.09500133991241455,
        0.7535881400108337,
        0.07132835686206818,
        14.021170616149902,
        -3.6768798828125,
        1.5861907005310059,
        -0.08756498247385025,
        -0.02232094295322895,
        0.16387970745563507,
        -0.6123796105384827,
        2.619575023651123,
        0.660955548286438,
        -0.9164642691612244,
        2.7720189094543457,
        -0.06339611113071442,
        0.3895195424556732,
        -0.5479912757873535,
        0.07381939142942429,
        15.224058151245117,
        0.3419443964958191,
        0.46393367648124695,
        -0.3010760247707367,
        -2.0669846534729004,
        -2.317641019821167,
        -3.3758842945098877,
        2.591536045074463,
        5.15601921081543,
        -1.433165431022644,
        -0.3858388364315033,
        4.280888080596924,
        -0.1941014528274536,
        4.021717071533203,
        0.40686413645744324,
        -2.3096296787261963,
        -1.7225100994110107,
        -0.04091206565499306,
        4.957822322845459,
        -0.04847181960940361,
        1.0085309743881226,
        2.4071900844573975,
        6.952929496765137,
        9.392065048217773,
        5.252858638763428,
        -0.418875515460968,
        0.36159801483154297,
        -0.3959873616695404,
        -1.8160595893859863,
        1.4617599248886108,
        0.007721783127635717,
        -1.0712007284164429,
        0.5658205151557922,
        -0.16877864301204681,
        -0.007062873337417841,
        5.793806076049805,
        0.15006816387176514,
        -0.0992322787642479,
        -1.8738070726394653,
        -0.0558430440723896,
        -0.5783658623695374,
        -1.425190806388855,
        -0.24863995611667633,
        10.01654052734375,
        8.971211433410645,
        3.3830959796905518,
        7.73203706741333,
        -1.8129773139953613,
        -3.4239144325256348,
        0.40976887941360474,
        0.06671831756830215,
        -0.0334305465221405,
        0.469107449054718,
        -0.3098579943180084,
        0.5206268429756165,
        0.41404294967651367,
        -0.06859126687049866,
        1.0374125242233276,
        1.2064045667648315,
        0.5107528567314148,
        -1.4591861963272095,
        3.2826383113861084,
        0.2721502184867859,
        -0.10090111941099167,
        -0.9143662452697754,
        7.969404697418213,
        1.7599903345108032,
        0.15477502346038818,
        -1.2256489992141724,
        0.10239243507385254,
        0.23918800055980682,
        0.06927134841680527,
        -1.0581934452056885,
        0.03878641873598099,
        23.319028854370117,
        -0.3798735439777374,
        0.2918020784854889,
        0.16351252794265747,
        0.27180737257003784,
        -3.6274454593658447,
        -2.0081751346588135,
        -0.9394798874855042,
        -0.7300279140472412,
        -4.057436943054199,
        -0.17227107286453247,
        -1.713861346244812,
        0.04017180949449539,
        4.207816123962402,
        0.19422483444213867,
        -4.092068672180176,
        -0.21716494858264923,
        -0.32168662548065186,
        0.8553350567817688,
        0.057482123374938965,
        7.038669109344482,
        0.23308099806308746,
        -3.9162416458129883,
        2.177243947982788,
        2.8741769790649414,
        0.23600077629089355,
        -0.18816296756267548,
        0.716140627861023,
        4.773066520690918,
        -10.227807998657227,
        0.06395499408245087,
        0.443996399641037,
        -0.055961765348911285,
        0.7444568276405334,
        0.8568580150604248,
        -3.6517951488494873,
        0.34080204367637634,
        -0.20080795884132385,
        -0.18651065230369568,
        0.15136992931365967,
        -0.16795854270458221,
        -1.2590748071670532,
        1.9369416236877441,
        -2.2604992389678955,
        0.09090102463960648,
        2.7317252159118652,
        -9.332237243652344,
        2.9351489543914795,
        -2.9674127101898193,
        0.5929716229438782,
        2.6658122539520264,
        -1.8400702476501465,
        0.01642416976392269,
        4.018957614898682,
        -3.3164708614349365,
        0.20335276424884796,
        -0.05103473737835884,
        0.9854573011398315,
        0.5975669026374817,
        -2.6808273792266846,
        -1.4748283624649048,
        -6.830387115478516,
        0.03866676613688469,
        -0.2919260561466217,
        -1.9747505187988281,
        -2.2073709964752197,
        2.507014036178589,
        -0.332397997379303,
        -7.621100425720215,
        12.124640464782715,
        -0.0325840525329113,
        0.023575814440846443,
        0.8639056086540222,
        -0.31372490525245667,
        1.123822569847107,
        8.590017318725586,
        2.203068256378174,
        -0.3070409595966339,
        7.913042068481445,
        -7.712213039398193,
        -8.396726608276367,
        -4.301570415496826,
        4.211622714996338,
        -1.2498301267623901,
        3.718385696411133,
        -0.0706503838300705,
        0.5417671799659729,
        -9.84648609161377,
        -0.20039673149585724,
        0.3142032027244568,
        -1.687260389328003,
        -3.6806530952453613,
        -1.1291025876998901,
        0.5299587845802307,
        -8.87016773223877,
        -0.8774531483650208,
        1.0878921747207642,
        10.10915470123291,
        0.6659663319587708,
        -0.012760940007865429,
        -1.0520033836364746,
        -3.8802292346954346,
        -4.407834529876709,
        -5.052123069763184,
        0.04679608717560768,
        -0.9428433179855347,
        -0.09051301330327988,
        0.04070316627621651,
        -0.04050378128886223,
        0.6775524616241455,
        -0.027274256572127342,
        -0.007229658775031567,
        0.4118810296058655,
        0.5653848052024841,
        -0.4101813733577728,
        0.2540881335735321,
        -1.1926748752593994,
        9.04869556427002,
        7.864420413970947,
        -3.3301196098327637,
        3.0244250297546387,
        -0.014504100196063519,
        1.1745030879974365,
        0.045854851603507996,
        4.670619964599609,
        0.09524904191493988,
        -0.022338030859827995,
        -0.2567002475261688,
        0.46655020117759705,
        0.16488711535930634,
        -0.013690123334527016,
        6.1270318031311035,
        1.0010297298431396,
        0.5878332257270813,
        -2.624217987060547,
        -18.92302703857422,
        -0.050999343395233154,
        0.04563293233513832,
        0.3276059925556183,
        11.766230583190918,
        -2.9431300163269043,
        0.18204927444458008,
        -3.999027967453003,
        1.1710666418075562,
        -0.006612539291381836,
        -0.008378198370337486,
        3.5886945724487305,
        1.4284486770629883,
        0.01957104355096817,
        0.45685216784477234,
        0.6211223006248474,
        0.03615277260541916,
        1.4992741346359253,
        -3.6585333347320557,
        -3.4078047275543213,
        -1.975780963897705,
        1.2223986387252808,
        5.899714946746826,
        -1.2121667861938477,
        -5.515603542327881,
        -0.17404231429100037,
        -6.682116508483887,
        -2.184673309326172,
        0.5470961928367615,
        -2.220625162124634,
        1.4401636123657227,
        -0.07556844502687454,
        0.12243867665529251,
        -10.847002029418945,
        0.3797874450683594,
        -3.9700281620025635,
        4.025539875030518,
        -7.10299015045166,
        0.16180956363677979,
        -0.8778935670852661,
        0.9007422924041748,
        -2.687849760055542,
        -1.8434172868728638,
        0.07700156420469284,
        0.4014284312725067,
        0.13265562057495117,
        0.11095035076141357,
        0.1568506360054016,
        -12.573524475097656,
        0.054889991879463196,
        21.159469604492188,
        0.1739700585603714,
        0.025030337274074554,
        0.10784623771905899,
        0.024171683937311172,
        0.8494375348091125,
        -1.9648523330688477,
        1.6733489036560059,
        0.06980013847351074,
        -0.045481353998184204,
        0.27109983563423157,
        -2.902815580368042,
        0.1567799299955368,
        2.7624266147613525,
        -0.18798193335533142,
        0.3124144673347473,
        0.6952565908432007,
        -0.3174230754375458,
        0.2520216107368469,
        0.041919607669115067,
        4.22646951675415,
        0.5428114533424377,
        -0.7526016235351562,
        4.347455978393555,
        0.5298160314559937,
        0.14447076618671417,
        -0.05909924581646919,
        -0.3359767496585846,
        5.085078716278076,
        0.5675050020217896,
        0.2865951955318451,
        3.334608554840088,
        1.316261649131775,
        0.1127723678946495,
        -0.19242261350154877,
        3.143507957458496,
        1.019147276878357,
        0.004517898429185152,
        -0.10589625686407089,
        -0.3278787136077881,
        -0.08201752603054047,
        1.379045009613037,
        2.5473461151123047,
        1.2481619119644165,
        -6.00326681137085,
        1.9040852785110474,
        10.363131523132324,
        0.7361965775489807,
        -1.989405632019043,
        0.4180782735347748,
        -7.3393025398254395,
        0.19264793395996094,
        0.20477338135242462,
        -3.333977460861206,
        -1.6562620401382446,
        -0.11035475134849548,
        0.03704250231385231,
        -12.160398483276367,
        2.3773820400238037,
        -4.430220127105713,
        10.0894775390625,
        -0.8200263977050781,
        -1.0178675651550293,
        0.21447835862636566,
        2.807098388671875,
        -8.807255744934082,
        2.2029998302459717,
        0.34163835644721985,
        0.5877809524536133,
        -2.9493255615234375,
        0.2797853350639343,
        0.027511198073625565,
        -1.137186050415039,
        -0.010480248369276524,
        -0.017200369387865067,
        -0.059585150331258774,
        0.044141147285699844,
        -0.35648447275161743,
        -0.4292423725128174,
        4.365052700042725,
        3.981536388397217,
        5.853156089782715,
        -2.6372768878936768,
        0.9048642516136169,
        1.1847089529037476,
        3.685882329940796,
        -0.21450580656528473,
        -7.775991439819336,
        0.34259241819381714,
        -0.07134126871824265,
        -0.3337157666683197,
        1.1566988229751587,
        -0.41972771286964417,
        0.02827937714755535,
        -3.455349922180176,
        -1.8053520917892456,
        4.484859466552734,
        3.4423794746398926,
        18.253108978271484,
        0.013335798867046833,
        0.051032669842243195,
        0.5110973119735718,
        3.3037350177764893,
        -4.603245735168457,
        0.02974860556423664,
        0.26058337092399597,
        -0.21881446242332458,
        -0.002717353403568268,
        -2.3961172103881836,
        -0.2165055125951767,
        0.04166112095117569,
        1.645317792892456,
        -0.24770070612430573,
        -0.025944849476218224,
        -0.004221819341182709,
        0.498667448759079,
        0.009104330092668533,
        -0.03267022222280502,
        -0.5898354053497314,
        -0.5572949647903442,
        0.8358232378959656,
        -0.5335344672203064,
        0.30114462971687317,
        0.035192202776670456,
        0.705422580242157,
        2.758617401123047,
        -0.004092819523066282,
        0.09736113250255585,
        -0.03563709557056427,
        0.2400934100151062,
        0.0069632926024496555,
        -0.6377624273300171,
        -0.14493869245052338,
        -0.19585467875003815,
        1.4921056032180786,
        1.2496795654296875,
        0.010713592171669006,
        -0.042963601648807526,
        0.11242489516735077,
        1.277423620223999,
        4.139372825622559,
        -0.07628065347671509,
        10.070869445800781,
        -2.720249891281128,
        0.14369632303714752,
        -0.4286443591117859,
        0.7833531498908997,
        0.5474519729614258,
        6.924025058746338,
        -0.7953976988792419,
        1.352481722831726,
        -1.1884130239486694,
        -1.729138970375061,
        7.79589319229126,
        5.965444564819336,
        0.6526511907577515,
        1.9908415079116821,
        5.756813049316406,
        -1.4485554695129395,
        -0.8767581582069397,
        -0.07880968600511551,
        -0.8502229452133179,
        0.31833046674728394,
        -0.45418062806129456,
        1.965200662612915,
        -0.13426446914672852,
        -0.47402146458625793,
        0.0719168409705162,
        1.8654842376708984,
        2.0328447818756104,
        1.5968950986862183,
        -7.082696914672852,
        -3.996898889541626,
        0.6261653304100037,
        -0.45007866621017456,
        0.5582796335220337,
        0.6827359795570374,
        4.838243007659912,
        0.10135359317064285,
        -0.418933629989624,
        -0.032237760722637177,
        0.222784161567688,
        0.1892869770526886,
        -0.3864921033382416,
        0.04915110766887665,
        0.6094745993614197,
        -0.09570803493261337,
        -0.21961122751235962,
        0.006715066265314817,
        -1.1448546648025513,
        -0.5339090824127197,
        2.685800552368164,
        5.955843448638916,
        5.090577125549316,
        -8.770127296447754,
        1.3535878658294678,
        3.2820115089416504,
        0.4355531632900238,
        6.758617401123047,
        -0.33992016315460205,
        0.6994891166687012,
        1.5672448873519897,
        -1.1625229120254517,
        0.19559653103351593,
        -0.002557302126660943,
        4.270561695098877,
        1.973530888557434,
        -15.47805404663086,
        -1.414035677909851,
        4.93621826171875,
        -0.03130810335278511,
        0.0440802276134491,
        -0.6507630348205566,
        4.806821823120117,
        1.1705124378204346,
        0.26021552085876465,
        0.19089773297309875,
        1.6264197826385498,
        0.043128468096256256,
        -0.08169551938772202,
        -4.840693950653076,
        0.44367465376853943,
        -0.008102983236312866,
        0.6392959356307983,
        -2.6696231365203857,
        -0.03761017322540283,
        -1.0027636289596558,
        1.2275201082229614,
        -10.456646919250488,
        -1.898321509361267,
        7.883484840393066,
        -1.413672924041748,
        1.3442072868347168,
        1.6942968368530273,
        -0.1712169051170349,
        -1.2796396017074585,
        -0.11304603517055511,
        -0.18849347531795502,
        0.9374070167541504,
        -0.571064829826355,
        -2.2315964698791504,
        0.09104761481285095,
        -3.631412982940674,
        -2.4789979457855225,
        -2.1410300731658936,
        1.8834127187728882,
        0.7484992146492004,
        0.7434676885604858,
        1.265946388244629,
        -2.788060188293457,
        1.1324726343154907,
        -6.445186138153076,
        -0.42286959290504456,
        1.0856364965438843,
        -1.301220178604126,
        -0.19280382990837097,
        0.3678036034107208,
        4.408708572387695,
        -0.1087527722120285,
        0.0066815526224672794,
        0.202748641371727,
        -4.042627334594727,
        0.07150685042142868,
        -0.129720076918602,
        -1.2178431749343872,
        5.665405750274658,
        2.2765042781829834,
        -2.7836666107177734,
        6.290277481079102,
        -0.5050377249717712,
        4.512836933135986,
        0.029475636780261993,
        -1.3361642360687256,
        -0.022318098694086075,
        0.37075576186180115,
        -1.3123116493225098,
        -1.6496107578277588,
        0.5160674452781677,
        -0.029744671657681465,
        8.652474403381348,
        -0.2461417317390442,
        10.277427673339844,
        0.9545949101448059,
        4.9182538986206055,
        -0.6248486042022705,
        -0.2024952471256256,
        -2.111661195755005,
        6.767613410949707,
        0.24920347332954407,
        -0.0406673401594162,
        -0.42818889021873474,
        -0.1813291311264038,
        -0.15422536432743073,
        -1.7622087001800537,
        0.8455265760421753,
        -0.05773593857884407,
        3.383795976638794,
        -0.13607268035411835,
        -0.044573426246643066,
        -0.012925763614475727,
        0.46727651357650757,
        -0.7444390058517456,
        2.761669874191284,
        3.6794581413269043,
        -0.3533497154712677,
        -4.065612316131592,
        -0.264750212430954,
        -0.6596025824546814,
        0.08433190733194351,
        0.7853067517280579,
        2.0951831340789795,
        0.01317401323467493,
        0.6601817011833191,
        0.20422610640525818,
        0.5050185322761536,
        -0.06773722171783447,
        0.5061164498329163,
        -1.0094554424285889,
        3.9787487983703613,
        -18.874086380004883,
        1.809045672416687,
        -0.12276060879230499,
        -0.03074442595243454,
        0.10811064392328262,
        1.129176378250122,
        2.2535197734832764,
        0.05514580383896828,
        4.244578838348389,
        0.9015432596206665,
        0.34715789556503296,
        0.11691482365131378,
        -9.718252182006836,
        -0.5531264543533325,
        -0.04283873364329338,
        1.307694911956787,
        0.5479723215103149,
        0.1608051061630249,
        0.16281136870384216,
        4.723349571228027,
        -0.19456925988197327,
        2.2877306938171387,
        -4.144164085388184,
        -1.629278302192688,
        -2.311196804046631,
        -6.998297214508057,
        0.20064739882946014,
        5.131138801574707,
        -0.14565488696098328,
        -1.0084725618362427,
        -2.1411077976226807,
        0.8417834639549255,
        0.3260859549045563,
        0.07164822518825531,
        -0.44159772992134094,
        0.3014642894268036,
        -13.665075302124023,
        -10.227791786193848,
        5.807424545288086,
        -0.7376201152801514,
        0.12579220533370972,
        -0.6494208574295044,
        -3.728175401687622,
        1.2910776138305664,
        -0.09743864834308624,
        3.207099676132202,
        0.34728750586509705,
        0.2508661150932312,
        0.11676063388586044,
        -6.579851150512695,
        0.17457151412963867,
        -0.01996602490544319,
        -0.29424458742141724,
        -0.025023164227604866,
        0.02304886281490326,
        -1.8147021532058716,
        6.125603199005127,
        -1.021203637123108,
        -4.123254299163818,
        -0.09753195941448212,
        11.45112133026123,
        1.3635457754135132,
        1.1133151054382324,
        0.3244219124317169,
        0.7291841506958008,
        -0.004736061207950115,
        0.9290294051170349,
        1.6195696592330933,
        -0.7630390524864197,
        -0.17499709129333496,
        -0.08869102597236633,
        2.728515386581421,
        0.3064756393432617,
        11.970189094543457,
        -14.205836296081543,
        3.9729349613189697,
        0.3380134403705597,
        -0.6754727959632874,
        -1.203965187072754,
        9.84045696258545,
        7.50060510635376,
        0.4222084581851959,
        -1.6848410367965698,
        0.5305584073066711,
        0.22421474754810333,
        -0.03531026467680931,
        8.741122245788574,
        -0.016552016139030457,
        0.006555408239364624,
        -0.48422732949256897,
        0.052659567445516586,
        -0.04730093851685524,
        -0.32363271713256836,
        -2.9923253059387207,
        -2.653407096862793,
        -2.5126121044158936,
        8.280503273010254,
        -1.1050035953521729,
        -0.1826021820306778,
        14.662566184997559,
        0.3634404242038727,
        -0.048802636563777924,
        0.32742974162101746,
        -0.11500530689954758,
        0.7307056784629822,
        0.2953677773475647,
        0.5376575589179993,
        0.2221662402153015,
        0.5997879505157471,
        1.0168788433074951,
        18.326204299926758,
        0.7861791253089905,
        0.10168731957674026,
        0.010804789140820503,
        -0.10644885897636414,
        0.03581339493393898,
        1.639650821685791,
        -7.537927627563477,
        0.10847871750593185,
        2.997143507003784,
        -0.17376822233200073,
        -0.09143434464931488,
        0.0719422772526741,
        5.175673484802246,
        -0.1010298877954483,
        0.011315133422613144,
        0.5311066508293152,
        0.07160035520792007,
        0.07286418229341507,
        0.30166006088256836,
        2.519477367401123,
        1.220018982887268,
        -2.665804147720337,
        9.680520057678223,
        4.9912109375,
        -0.9597877860069275,
        -9.122057914733887,
        -0.0734315887093544,
        -14.938085556030273,
        0.43310052156448364,
        0.1741989254951477,
        -0.554469645023346,
        0.33802103996276855,
        0.17925766110420227,
        0.09065589308738708,
        -15.068326950073242,
        0.5781198740005493,
        -18.5274658203125,
        -2.1727278232574463,
        -3.9745779037475586,
        0.21651707589626312,
        -0.2041601836681366,
        0.11758513003587723,
        -6.2401838302612305,
        2.1967580318450928,
        -0.07148804515600204,
        -1.3438071012496948,
        1.112897515296936,
        0.08760292083024979,
        -0.05077120661735535,
        -0.3379867672920227,
        0.10630302131175995,
        17.884397506713867,
        0.9594097137451172,
        0.08077722787857056,
        -0.14258736371994019,
        0.5115858316421509,
        -0.3982046842575073,
        6.877050876617432,
        1.5554940700531006,
        1.1841981410980225,
        1.1579667329788208,
        -0.5985997319221497,
        5.168514728546143,
        0.20680220425128937,
        1.1662112474441528,
        -0.3007100820541382,
        0.17799317836761475,
        0.22161750495433807,
        -0.9563621878623962,
        -0.8295718431472778,
        -0.051974717527627945,
        1.2653262615203857,
        0.9259665608406067,
        3.984478235244751,
        3.4310452938079834,
        16.224992752075195,
        0.006891443859785795,
        0.04109261929988861,
        0.19870880246162415,
        0.19761984050273895,
        -0.002803417621180415,
        -0.14909732341766357,
        -1.3227128982543945,
        -0.010968044400215149,
        0.08611976355314255,
        0.2431364804506302,
        5.798247814178467,
        0.021823737770318985,
        0.014361640438437462,
        -0.687937319278717,
        0.3054276704788208,
        0.009104839526116848,
        -0.7440035343170166,
        -2.542609214782715,
        1.5347400903701782,
        11.192977905273438,
        -12.207722663879395,
        1.0671238899230957,
        0.6327823400497437,
        3.169679641723633,
        0.026031706482172012,
        -11.02099609375,
        -0.08698681741952896,
        0.20421412587165833,
        0.9210036396980286,
        -1.4427250623703003,
        0.24976707994937897,
        -0.06961681693792343,
        -13.375914573669434,
        -0.019986651837825775,
        -5.0589704513549805,
        8.446324348449707,
        -2.3406763076782227,
        0.20289327204227448,
        -0.16897939145565033,
        -0.8737812042236328,
        -13.222647666931152,
        -3.9895734786987305,
        0.5390550494194031,
        -1.3127673864364624,
        0.4879312515258789,
        0.06533174961805344,
        0.31647613644599915,
        -2.978773593902588,
        0.04956390708684921,
        -0.11439429968595505,
        -0.5292637348175049,
        0.3263693153858185,
        -0.014828943647444248,
        0.6578904986381531,
        -5.075392246246338,
        -9.738666534423828,
        -0.6721726059913635,
        -0.9767678380012512,
        -9.866601943969727,
        -2.2561895847320557,
        -4.5827460289001465,
        0.419322669506073,
        6.151784420013428,
        0.5336360335350037,
        -0.20085789263248444,
        -1.1898648738861084,
        0.6442148685455322,
        0.6225240230560303,
        0.0048892321065068245,
        10.904812812805176,
        -0.06454644352197647,
        -4.9623260498046875,
        -0.18900039792060852,
        -1.3458490371704102,
        0.4850395619869232,
        -0.4519597589969635,
        0.1951145976781845,
        18.396915435791016,
        -4.980053424835205,
        0.25472840666770935,
        0.4478848874568939,
        -0.22236615419387817,
        0.1026877611875534,
        0.027189433574676514,
        1.3152666091918945,
        -0.0018479690188542008,
        0.02408798411488533,
        -0.3497617840766907,
        -0.03452375903725624,
        -0.12046784907579422,
        0.009900539182126522,
        0.8022700548171997,
        2.455493211746216,
        -1.7145401239395142,
        -1.0823948383331299,
        16.321401596069336,
        0.3949628472328186,
        1.0593822002410889,
        0.08576028794050217,
        7.073464870452881,
        -0.03971261903643608,
        0.008739031851291656,
        0.416808158159256,
        0.27934783697128296,
        0.32093337178230286,
        0.021356502547860146,
        7.2554779052734375,
        0.1705063432455063,
        3.7878382205963135,
        16.61833381652832,
        3.6328842639923096,
        0.04232880100607872,
        -0.05905560776591301,
        0.5187548398971558,
        2.192169427871704,
        2.4503331184387207,
        -0.25602439045906067,
        -6.093600749969482,
        -0.02192811109125614,
        -0.12085337936878204,
        -0.11387263238430023,
        12.392011642456055,
        0.004028739873319864,
        -0.03895220533013344,
        0.0017982402350753546,
        -0.12102636694908142,
        0.17486213147640228,
        -0.1599932163953781,
        -5.460232734680176,
        -1.4088495969772339,
        -4.517647743225098,
        -0.1996224969625473,
        4.59212589263916,
        0.37020930647850037,
        -2.769317865371704,
        -0.0851019024848938,
        4.287853717803955,
        -0.2595415413379669,
        0.6114600896835327,
        0.2849874794483185,
        -0.18178071081638336,
        -0.15444420278072357,
        -0.086078941822052,
        5.956655025482178,
        -1.9050248861312866,
        -0.00574782257899642,
        -4.001769065856934,
        3.8718998432159424,
        -0.060550857335329056,
        -0.15777623653411865,
        -0.4150529205799103,
        -1.1177239418029785,
        -4.850905418395996,
        0.15336477756500244,
        1.6061490774154663,
        -0.818808376789093,
        0.08526654541492462,
        -0.44209617376327515,
        -6.430568218231201,
        0.14867526292800903,
        1.5576221942901611,
        0.42937666177749634,
        2.408367156982422,
        0.003020239993929863,
        -0.4430246949195862,
        5.05067777633667,
        -1.1279442310333252,
        2.228881359100342,
        0.058290667831897736,
        2.218297004699707,
        1.0145455598831177,
        -2.461811065673828,
        0.16651339828968048,
        -1.3371039628982544,
        0.6730664968490601,
        -0.1367456167936325,
        0.29704201221466064,
        0.0779905766248703,
        0.747431218624115,
        0.037337981164455414,
        -0.494620680809021,
        0.17401501536369324,
        -9.13076114654541,
        -8.150901794433594,
        -0.459134042263031,
        -1.2864218950271606,
        0.733022928237915,
        -0.571755588054657,
        1.7925628423690796,
        6.270710468292236,
        0.3458348214626312,
        0.3216572701931,
        1.2467480897903442,
        -0.0678979754447937,
        0.05990871414542198,
        -1.0336265563964844,
        -0.035657916218042374,
        0.7790418267250061,
        -0.07053329795598984,
        0.19824327528476715,
        0.09119515120983124,
        -0.6826838850975037,
        0.5457597970962524,
        1.058677077293396,
        -2.0319180488586426,
        3.0020229816436768,
        2.9485394954681396,
        0.6186655163764954,
        -3.2987048625946045,
        -0.04956836998462677,
        1.5019575357437134,
        0.5004816651344299,
        -0.2494058758020401,
        1.0145807266235352,
        -1.6870341300964355,
        0.8579395413398743,
        -3.653360366821289,
        -3.1594607830047607,
        1.4490303993225098,
        1.4652678966522217,
        15.900444984436035,
        1.2432563304901123,
        0.017790216952562332,
        0.2156924158334732,
        -0.7448508739471436,
        3.0757551193237305,
        1.0978434085845947,
        0.02332325279712677,
        2.1897616386413574,
        -0.08978082984685898,
        -0.033586837351322174,
        0.0629325807094574,
        -0.276096910238266,
        0.04442889988422394,
        -0.012260401621460915,
        0.19280096888542175,
        0.08021404594182968,
        -0.014876596629619598,
        0.04210304096341133,
        1.3248428106307983,
        -3.8965256214141846,
        -3.402292490005493,
        -0.7932224273681641,
        -5.265130043029785,
        0.16347496211528778,
        -1.8428623676300049,
        0.031124811619520187,
        -7.178711891174316,
        -0.07539303600788116,
        0.044566668570041656,
        0.17996157705783844,
        0.1104002445936203,
        0.26078182458877563,
        0.023672910407185555,
        -7.291836738586426,
        -0.4074360430240631,
        -0.39040565490722656,
        -12.305943489074707,
        26.57452392578125,
        0.029797088354825974,
        -0.0064993966370821,
        0.2548021376132965,
        2.099137783050537,
        1.511112928390503,
        0.531390905380249,
        0.1129622608423233,
        0.7380179166793823,
        -0.11032754182815552,
        -0.08856811374425888,
        1.0237025022506714,
        -0.042997464537620544,
        -0.03739145025610924,
        -0.2180047482252121,
        -0.3885195553302765,
        0.06923293322324753,
        -0.3982594311237335,
        1.7610323429107666,
        9.661810874938965,
        8.132028579711914,
        -13.921960830688477,
        1.9509836435317993,
        -0.43458741903305054,
        0.9292290210723877,
        0.5981637835502625,
        -11.64449691772461,
        0.0808788314461708,
        1.3867119550704956,
        0.6161156296730042,
        0.5032792687416077,
        0.25185006856918335,
        0.2197510451078415,
        -9.613697052001953,
        0.8483206629753113,
        -3.029730796813965,
        12.96917724609375,
        -1.625554084777832,
        0.0825948417186737,
        -0.04174043983221054,
        0.23720894753932953,
        -19.159923553466797,
        4.911770820617676
      ]
    },
    {
      "activation": "rectified",
      "architecture": "dense",
      "bias": [
        -1.6118041276931763,
        0.6877261996269226,
        1.134034276008606,
        0.8011656403541565,
        2.521167755126953,
        -3.5983777046203613,
        0.5579119920730591,
        -1.6142971515655518,
        3.5282580852508545,
        0.09856435656547546,
        1.6648257970809937,
        0.49736830592155457,
        6.710585594177246,
        -1.6800777912139893,
        1.9758555889129639,
        0.24984364211559296
      ],
      "weights": [
        -0.38589781522750854,
        0.8246537446975708,
        0.7673031687736511,
        0.7497376799583435,
        -1.6642297506332397,
        1.312830924987793,
        0.10740377008914948,
        1.3194127082824707,
        -0.03882770612835884,
        -0.15013140439987183,
        0.9174065589904785,
        0.04821304604411125,
        -0.9355452656745911,
        -0.24580103158950806,
        -0.7471967339515686,
        0.5460124611854553,
        0.03199392184615135,
        0.19888301193714142,
        0.4595226049423218,
        -0.0968111976981163,
        0.17814847826957703,
        -0.6161932945251465,
        -0.7433987259864807,
        1.555729866027832,
        -0.7530872225761414,
        0.09954214841127396,
        2.1315834522247314,
        -1.3566439151763916,
        0.044916100800037384,
        0.35703542828559875,
        -1.6829012632369995,
        -0.2193589210510254,
        0.5840668678283691,
        -0.11892328411340714,
        0.2670244872570038,
        0.6763512492179871,
        -0.6717920899391174,
        -1.2939281463623047,
        -0.10605835914611816,
        0.11721357703208923,
        0.01198663841933012,
        -0.23037117719650269,
        1.3257265090942383,
        -0.14009472727775574,
        0.6858428716659546,
        -0.1190083771944046,
        0.5905511379241943,
        -0.1017109826207161,
        0.024843847379088402,
        -0.005044433753937483,
        0.2884405553340912,
        0.14612729847431183,
        1.5357682704925537,
        -1.0957183837890625,
        -0.08255862444639206,
        0.7182013392448425,
        -0.9351261258125305,
        -0.17938557267189026,
        -0.10284580290317535,
        -2.0540006160736084,
        0.02664373442530632,
        0.022571071982383728,
        0.49673640727996826,
        0.388007253408432,
        0.3147128224372864,
        -0.5883354544639587,
        -0.6410139799118042,
        0.46801671385765076,
        -1.3744539022445679,
        0.4343717694282532,
        -0.1467360556125641,
        0.7642267942428589,
        2.1917262077331543,
        0.16102145612239838,
        0.7795351147651672,
        0.44252339005470276,
        1.3100476264953613,
        0.5887196660041809,
        -0.9061458110809326,
        0.704993724822998,
        0.3245922029018402,
        0.31364530324935913,
        -0.9087507128715515,
        0.3355658948421478,
        0.1394929140806198,
        0.8389601111412048,
        -0.19314812123775482,
        1.111598253250122,
        1.8033934831619263,
        1.0276820659637451,
        -0.3014698624610901,
        -0.6061608195304871,
        0.5170438885688782,
        -0.2528117597103119,
        -0.6608781218528748,
        0.14173012971878052,
        0.09533818811178207,
        0.29054152965545654,
        0.6010146737098694,
        -0.30239641666412354,
        0.7955713868141174,
        -0.29081276059150696,
        0.18664796650409698,
        1.5974422693252563,
        0.4981003403663635,
        -0.3368971347808838,
        -0.18389634788036346,
        0.012464775703847408,
        -0.602468729019165,
        -0.19589301943778992,
        0.35724908113479614,
        0.9575558304786682,
        -0.19690294563770294,
        -0.881925106048584,
        0.2860458791255951,
        0.2895863950252533,
        -0.8942246437072754,
        -1.5060985088348389,
        0.9633821845054626,
        -0.360540509223938,
        0.9116111993789673,
        0.5813560485839844,
        1.8672549724578857,
        1.0830812454223633,
        0.4502657353878021,
        -0.7076076865196228,
        -0.955562174320221,
        -0.4623880088329315,
        -3.0647754669189453,
        -0.10449257493019104,
        -0.5090877413749695,
        1.6678392887115479,
        -0.34809035062789917,
        -0.6147075295448303,
        0.39968234300613403,
        1.9482858180999756,
        -1.4590824842453003,
        0.6830735802650452,
        1.2714964151382446,
        0.31115949153900146,
        -0.3717986047267914,
        0.940382719039917,
        0.46903660893440247,
        0.5182110667228699,
        -0.687100887298584,
        -1.0700733661651611,
        -0.035671431571245193,
        -0.8910921216011047,
        -0.1847686618566513,
        0.39505159854888916,
        -0.6365129947662354,
        -0.022981496527791023,
        0.13002483546733856,
        -0.014795521274209023,
        1.6229355335235596,
        0.028699001297354698,
        -0.28068289160728455,
        0.34135010838508606,
        -3.2308475971221924,
        -0.7111970782279968,
        -0.6303287148475647,
        -0.6255249381065369,
        0.3489399254322052,
        -0.39913409948349,
        -0.2767556309700012,
        -0.5232346057891846,
        -0.020828409120440483,
        1.244901418685913,
        -2.551050901412964,
        -0.2774520516395569,
        0.035875894129276276,
        0.46659448742866516,
        -0.2404521107673645,
        0.4511443078517914,
        -0.6344214081764221,
        0.4992224872112274,
        0.4832853674888611,
        0.0813378095626831,
        -0.25978052616119385,
        -0.5179046988487244,
        0.5482724905014038,
        1.475296974182129,
        0.8764791488647461,
        0.9368403553962708,
        -1.2135883569717407,
        0.6214243173599243,
        1.071986198425293,
        0.9884371161460876,
        0.1753431111574173,
        -0.09550239145755768,
        -0.2170683890581131,
        -1.4220815896987915,
        0.7235515117645264,
        0.6480446457862854,
        0.446208655834198,
        0.5671178102493286,
        0.0175202377140522,
        -0.9839881658554077,
        -0.18625855445861816,
        0.3523011803627014,
        2.288409471511841,
        -0.40679433941841125,
        -0.8254274129867554,
        0.41015344858169556,
        -0.9442200064659119,
        -1.2459454536437988,
        -0.273295134305954,
        -0.9023145437240601,
        -0.1484123170375824,
        1.0091091394424438,
        0.9816375374794006,
        0.16092342138290405,
        0.25069937109947205,
        0.9479398727416992,
        0.23237411677837372,
        -1.8016868829727173,
        1.176927924156189,
        -0.919052243232727,
        2.108297109603882,
        0.6174939870834351,
        -0.23133672773838043,
        0.32148563861846924,
        1.3684089183807373,
        0.9639313220977783,
        0.7633862495422363,
        0.4172074794769287,
        -0.029934385791420937,
        -0.005731001030653715,
        0.43538421392440796,
        0.509701132774353,
        0.6107606887817383,
        0.08897649496793747,
        -1.6384153366088867,
        0.11546270549297333,
        0.43233609199523926,
        -0.3223501741886139,
        -0.14068138599395752,
        1.3123977184295654,
        1.9317059516906738,
        -1.8791885375976562,
        0.4617210030555725,
        -0.1060849204659462,
        -1.6959887742996216,
        -0.9120084047317505,
        1.1941804885864258,
        -0.522814929485321,
        1.0689995288848877,
        3.7695021629333496,
        -0.254379004240036,
        0.08165301382541656,
        -0.3351931571960449,
        -0.28428179025650024,
        -2.2226366996765137,
        0.09810943156480789,
        -1.528648018836975,
        0.5892845988273621,
        0.46103253960609436,
        1.3200489282608032,
        -0.9770641326904297,
        0.3191395401954651,
        1.8480842113494873,
        0.44026094675064087,
        -0.0774555653333664,
        -0.23711399734020233,
        3.0504961013793945,
        -0.24399691820144653,
        1.3969124555587769,
        0.04680507257580757,
        -0.09829648584127426,
        -0.5655474066734314,
        0.8741195797920227,
        -0.04137562960386276,
        0.04484734311699867,
        0.581170380115509,
        0.4172150492668152,
        0.34240639209747314,
        -0.29065707325935364,
        -0.7816181182861328,
        0.3950779438018799,
        2.109522819519043,
        -0.05029948055744171,
        0.25719931721687317,
        -0.756096601486206,
        1.5998804569244385,
        0.03175918385386467,
        -0.19179604947566986,
        1.0208572149276733,
        0.6762495040893555,
        -0.2755344808101654,
        1.0110595226287842,
        -0.21887195110321045,
        -0.17428219318389893,
        -0.6012111902236938,
        0.11927659809589386,
        -0.3424513041973114,
        -0.9665212035179138,
        2.7913379669189453,
        -0.288942813873291,
        -0.07800759375095367,
        0.39022520184516907,
        -0.9609209299087524,
        -1.1621330976486206,
        0.8635132312774658,
        -1.0011049509048462,
        0.48999765515327454,
        0.4428165853023529,
        1.2258723974227905,
        0.3519499897956848,
        1.5835455656051636,
        -0.5527890920639038,
        0.9460356831550598,
        -1.3766587972640991,
        0.18612147867679596,
        -0.007149016950279474,
        2.9387857913970947,
        0.5558039546012878,
        0.24803437292575836,
        0.07880278676748276,
        2.651012897491455,
        -0.41524243354797363,
        -0.051653821021318436,
        0.5000837445259094,
        0.459236741065979,
        -2.025869607925415,
        -1.5113863945007324,
        0.49769505858421326,
        -1.7095733880996704,
        0.3723198175430298,
        -3.5497820377349854,
        -0.4119757115840912,
        1.633306860923767,
        -0.20028047263622284,
        -0.19579198956489563,
        -0.7481005787849426,
        -2.394118309020996,
        -2.0658228397369385,
        -0.22093702852725983,
        -0.5261151790618896,
        0.8885600566864014,
        0.24619829654693604,
        -0.4092029333114624,
        0.6148242354393005,
        0.6425559520721436,
        3.6555304527282715,
        0.5502877235412598,
        -1.7858314514160156,
        -1.304294466972351,
        -0.03802560269832611,
        -0.04408096894621849,
        0.23087982833385468,
        -0.3205776810646057,
        0.05393878370523453,
        0.8431918025016785,
        0.21427421271800995,
        0.5000081658363342,
        0.9714415073394775,
        0.852025032043457,
        0.10681479424238205,
        0.130672425031662,
        0.5787697434425354,
        2.053264856338501,
        -0.49027788639068604,
        -1.1575944423675537,
        1.2978790998458862,
        0.49331536889076233,
        0.4095313847064972,
        -1.2205969095230103,
        -0.19448158144950867,
        -0.12641136348247528,
        0.6073707938194275,
        -1.2906941175460815,
        1.3075475692749023,
        -0.514503538608551,
        -0.30359548330307007,
        1.0792052745819092,
        -1.287388563156128,
        -1.1293971538543701,
        -0.2880266010761261,
        0.34219035506248474,
        -0.45957836508750916,
        -0.5502118468284607,
        -0.24307283759117126,
        0.9733390808105469,
        0.9464457631111145,
        -1.8048232793807983,
        0.5330657958984375,
        0.2388719767332077,
        -0.41203007102012634,
        -0.11559649556875229,
        -0.8748394846916199,
        -0.48086321353912354,
        1.6822388172149658,
        -2.0942139625549316,
        0.7733597755432129,
        -1.2792397737503052,
        -0.12081330269575119,
        1.636983036994934,
        0.9065955877304077,
        -2.282025098800659,
        -0.33300986886024475,
        -0.8627290725708008,
        1.684404969215393,
        -0.30634957551956177,
        -2.4016969203948975,
        0.09302905201911926,
        0.08944612741470337,
        -0.13240550458431244,
        1.9312479496002197,
        0.4568586051464081,
        -1.0245435237884521,
        1.2996364831924438,
        -0.28147757053375244,
        0.19461427628993988,
        0.4125588536262512,
        2.0898399353027344,
        -0.9701887369155884,
        -0.5354720950126648,
        0.10478038340806961,
        -0.4994359612464905,
        0.33632197976112366,
        0.8469915390014648,
        -0.5011276602745056,
        0.15312650799751282,
        -0.7929267883300781,
        -3.6019985675811768,
        0.6434881091117859,
        0.4136474132537842,
        0.4047563672065735,
        0.3989359736442566,
        0.5027040243148804,
        0.07192973047494888,
        0.6945281624794006,
        0.04496356099843979,
        0.7843174338340759,
        -0.35940587520599365,
        -0.4553254544734955,
        0.32144811749458313,
        -0.0726902037858963,
        2.487675905227661,
        0.5844442248344421,
        1.2676286697387695,
        -1.2552987337112427,
        1.1650357246398926,
        -0.058351218700408936,
        0.17137295007705688,
        -0.0760573297739029,
        -0.31873512268066406,
        0.5707917213439941,
        1.5968271493911743,
        1.2218177318572998,
        -1.0787327289581299,
        0.5521221160888672,
        0.6315352320671082,
        -1.096272587776184,
        0.6075970530509949,
        0.019261449575424194,
        -1.337695837020874,
        -0.0675731971859932,
        -0.6882175207138062,
        -0.06904823333024979,
        -0.41388311982154846,
        -1.3372384309768677,
        -0.44938895106315613,
        -1.5106735229492188,
        -0.03079983778297901,
        -0.44419434666633606,
        1.1596039533615112,
        0.35143300890922546,
        0.01612507365643978,
        0.8589383363723755,
        0.3324205279350281,
        3.7168047428131104,
        0.08419971168041229,
        0.4407150447368622,
        -0.5189803838729858,
        0.24212154746055603,
        -0.16353322565555573,
        0.7320410013198853,
        1.1255550384521484,
        -0.7194871306419373,
        -0.6801075339317322,
        0.3654782474040985,
        -0.20713457465171814,
        1.0564098358154297,
        -1.7861807346343994,
        0.0536079928278923,
        -0.44693422317504883,
        -0.06861377507448196,
        0.605850338935852,
        -0.2223304808139801,
        -0.4330577552318573,
        -0.6906206607818604,
        -0.16452400386333466,
        -0.4615918695926666,
        0.5337303280830383,
        0.2394617348909378,
        -0.21884959936141968,
        0.3798408806324005,
        0.7158176898956299,
        -0.5816667079925537,
        0.2882798910140991,
        -0.3355567455291748,
        -0.6843448281288147,
        -1.0336986780166626,
        -0.2693672478199005,
        0.14823570847511292,
        2.42779541015625,
        -0.18907593190670013,
        0.05440203472971916,
        0.28168198466300964,
        3.645374298095703,
        -0.43021076917648315
      ]
    },
    {
      "activation": "rectified",
      "architecture": "dense",
      "bias": [
        0.9834550619125366,
        -2.3447017669677734,
        -3.248188018798828,
        1.4389656782150269,
        -2.0210514068603516,
        -0.1841445416212082,
        -1.142781376838684,
        1.0996094942092896,
        -0.22255420684814453,
        -1.5077800750732422,
        0.030113330110907555,
        -0.28331756591796875,
        -0.33384063839912415,
        -1.2086776494979858,
        5.099144458770752,
        3.244619846343994
      ],
      "weights": [
        -0.7077036499977112,
        -0.4206394851207733,
        -0.6782038807868958,
        -0.46448057889938354,
        0.8894999623298645,
        0.23642808198928833,
        0.7932620048522949,
        -0.9796297550201416,
        0.39413243532180786,
        0.4029787480831146,
        1.1782903671264648,
        -0.9031280279159546,
        -3.7049803733825684,
        -0.12162898480892181,
        -0.23094169795513153,
        -1.2163541316986084,
        -1.0783618688583374,
        -1.9031697511672974,
        0.10372886061668396,
        0.8290072083473206,
        -0.9813311696052551,
        0.9534431099891663,
        0.618710994720459,
        0.5351723432540894,
        -0.11444678902626038,
        -0.5163895487785339,
        -0.5766175389289856,
        -0.2650059461593628,
        0.6124640703201294,
        0.7486264705657959,
        -1.1200286149978638,
        -0.628935694694519,
        0.004200589843094349,
        0.32283756136894226,
        0.39840495586395264,
        0.13813255727291107,
        -0.5537760257720947,
        -0.410565584897995,
        -0.6847177743911743,
        -0.07672178745269775,
        -1.4617738723754883,
        0.8573790192604065,
        1.6656986474990845,
        0.05779464170336723,
        -0.7292474508285522,
        0.7652438879013062,
        -0.7118350863456726,
        -0.6267217397689819,
        -1.1705968379974365,
        -2.125816583633423,
        0.7184548377990723,
        0.48553577065467834,
        -0.8920263051986694,
        0.34164223074913025,
        -0.897789716720581,
        0.4150930941104889,
        0.14099475741386414,
        -0.019862454384565353,
        -2.8290903568267822,
        0.2840310037136078,
        2.0081326961517334,
        -0.9084008932113647,
        -0.14216774702072144,
        0.4485308825969696,
        -0.8405764102935791,
        0.5588959455490112,
        0.4327615201473236,
        0.4925253987312317,
        -1.3629974126815796,
        0.24862121045589447,
        -0.1740841269493103,
        -0.4724614918231964,
        0.2293703407049179,
        -0.1446489840745926,
        -0.34395840764045715,
        0.7160304188728333,
        1.3396873474121094,
        1.135695219039917,
        0.10822516679763794,
        1.3161909580230713,
        -0.12040727585554123,
        -0.5465782284736633,
        -0.1135854721069336,
        -0.2851623296737671,
        -0.5631400346755981,
        -0.4895190894603729,
        -0.19846904277801514,
        0.11466144025325775,
        -0.09307479113340378,
        -0.5229220390319824,
        -0.2690303325653076,
        -0.0797729641199112,
        -0.37001046538352966,
        0.30440080165863037,
        -0.28005385398864746,
        -0.5128965973854065,
        0.31012019515037537,
        0.3958679437637329,
        0.5956713557243347,
        -0.8653208017349243,
        -0.6812792420387268,
        0.3715798258781433,
        1.3216097354888916,
        -0.6450158953666687,
        -0.8271492123603821,
        -0.5464656949043274,
        0.09202613681554794,
        -0.6002179980278015,
        -0.4906785488128662,
        -0.9381037354469299,
        -0.3231485188007355,
        -1.7624365091323853,
        -0.4655968248844147,
        0.8994376063346863,
        1.137684941291809,
        -0.34774911403656006,
        -0.831052303314209,
        0.9108428955078125,
        -0.5259503722190857,
        -0.488552987575531,
        0.41339901089668274,
        0.10521673411130905,
        0.33941635489463806,
        -0.3274472653865814,
        -0.031448379158973694,
        -0.09984045475721359,
        0.6383065581321716,
        1.2154078483581543,
        -0.43732669949531555,
        0.05682224780321121,
        0.31631413102149963,
        -1.3879255056381226,
        -0.48950067162513733,
        -0.3419756293296814,
        -0.4940423369407654,
        0.4661477506160736,
        -0.14848433434963226,
        1.20664381980896,
        -0.12213452160358429,
        -1.5785750150680542,
        -2.0852694511413574,
        1.2128169536590576,
        0.15426111221313477,
        -0.6503720283508301,
        -0.5310351848602295,
        0.3370058238506317,
        0.6390772461891174,
        0.15546560287475586,
        -0.11740735173225403,
        -1.0591013431549072,
        -0.3208261728286743,
        1.3421001434326172,
        -0.3875819742679596,
        -1.3661799430847168,
        -0.5023989677429199,
        -0.1182655468583107,
        0.9902735948562622,
        1.0585824251174927,
        0.6242868900299072,
        0.282536119222641,
        -0.2501245439052582,
        -0.1027190089225769,
        -0.09445040673017502,
        -0.1682499796152115,
        0.7473568916320801,
        -0.26332738995552063,
        0.5436549186706543,
        -0.05139957740902901,
        -0.15398837625980377,
        1.6178392171859741,
        0.38145115971565247,
        0.17424073815345764,
        0.09781121462583542,
        -0.6582553386688232,
        -0.8953928351402283,
        -0.46572640538215637,
        0.4045507311820984,
        -0.3868477940559387,
        -0.3225730359554291,
        0.07341888546943665,
        -0.23667383193969727,
        0.47410762310028076,
        0.9975956082344055,
        -1.288964867591858,
        0.22700023651123047,
        0.995864987373352,
        -0.09685055166482925,
        -0.7208525538444519,
        -0.3623046576976776,
        -0.11470362544059753,
        -0.23044006526470184,
        -1.3288354873657227,
        0.7929544448852539,
        -0.12110298871994019,
        -2.0115628242492676,
        -0.04781990125775337,
        -1.4878287315368652,
        -0.24682281911373138,
        0.8136433959007263,
        -0.6443952918052673,
        -0.3996230661869049,
        -0.915655255317688,
        0.22362317144870758,
        -0.32762372493743896,
        0.6604477167129517,
        0.32941269874572754,
        1.2634154558181763,
        2.5995335578918457,
        -0.2304249405860901,
        0.32502081990242004,
        -0.1854480654001236,
        -2.3850932121276855,
        0.07994285225868225,
        0.22647283971309662,
        0.211159348487854,
        -0.43233367800712585,
        1.1248012781143188,
        -0.8588020205497742,
        -0.4685753583908081,
        0.34299367666244507,
        -0.5836131572723389,
        0.5861445069313049,
        -0.4496481716632843,
        0.7296138405799866,
        -0.6072769165039062,
        0.4344753623008728,
        0.9491927623748779,
        0.18314893543720245,
        -0.21040908992290497,
        -0.8499636054039001,
        1.023613452911377,
        -0.7630146145820618,
        0.9181579351425171,
        -0.2018347978591919,
        0.45637524127960205,
        -0.27650776505470276,
        1.0288501977920532,
        -0.3760261833667755,
        -0.42621102929115295,
        -0.12540705502033234,
        -0.2391115427017212,
        -0.28260013461112976,
        -1.5582998991012573,
        -0.19165751338005066,
        -1.6742942333221436,
        0.059796374291181564,
        0.46108102798461914,
        -0.28906551003456116,
        1.2737683057785034,
        -0.33456507325172424,
        0.5473191142082214,
        -1.0104494094848633,
        0.9953700304031372,
        -0.393232524394989,
        -0.08655087649822235,
        0.5882779955863953
      ]
    },
    {
      "activation": "rectified",
      "architecture": "dense",
      "bias": [
        -5.3245062828063965,
        0.8806942701339722,
        1.4763773679733276,
        3.093395471572876,
        -2.339905023574829,
        1.7082277536392212,
        2.5572493076324463,
        -0.4147215783596039,
        -0.936373233795166,
        0.5314853191375732,
        -4.905755996704102,
        1.8096871376037598,
        1.1358790397644043,
        0.15742291510105133,
        2.5050792694091797,
        1.237744927406311
      ],
      "weights": [
        0.8526695966720581,
        -1.1277838945388794,
        1.3843774795532227,
        0.3341120481491089,
        0.9227259755134583,
        0.09203135967254639,
        0.1657545119524002,
        -0.5991749167442322,
        -0.06958596408367157,
        0.2506484389305115,
        -0.6544849872589111,
        0.4782949984073639,
        -0.5204808712005615,
        -0.33893847465515137,
        -0.2831878066062927,
        0.18881374597549438,
        0.6285475492477417,
        0.8312680125236511,
        -0.1949680596590042,
        -0.08425025641918182,
        -0.034276291728019714,
        -0.05518191307783127,
        0.3419695794582367,
        -0.48369133472442627,
        -0.4047245681285858,
        0.18840746581554413,
        0.02856661006808281,
        1.0268551111221313,
        -0.5129067897796631,
        -0.14571423828601837,
        -0.0105364378541708,
        1.2338899374008179,
        0.07304968684911728,
        0.5673986077308655,
        -0.21867509186267853,
        -0.7181298136711121,
        -0.14875642955303192,
        -0.39884477853775024,
        0.33587098121643066,
        -0.5638173818588257,
        -1.3351844549179077,
        0.22864781320095062,
        -0.6991942524909973,
        0.7138059139251709,
        -0.9990967512130737,
        0.3301672339439392,
        0.8322484493255615,
        -0.34145259857177734,
        -0.572102427482605,
        0.14230681955814362,
        -0.12652850151062012,
        0.970399796962738,
        -0.3419509828090668,
        0.2010684609413147,
        0.21449558436870575,
        0.4601282775402069,
        0.27164989709854126,
        1.0727059841156006,
        -0.7814081907272339,
        0.15343564748764038,
        -0.08449838310480118,
        0.86013263463974,
        0.5370863676071167,
        -0.44112277030944824,
        0.732213020324707,
        -0.15088436007499695,
        -0.6958339810371399,
        0.7632362842559814,
        -0.9433040618896484,
        0.07398319244384766,
        0.11484091728925705,
        -0.20906636118888855,
        0.16208139061927795,
        -2.258061408996582,
        0.14209343492984772,
        0.5607362985610962,
        -1.9309453964233398,
        -0.4203093349933624,
        0.12622830271720886,
        -1.9948490858078003,
        0.9731926321983337,
        -0.07335558533668518,
        0.21363462507724762,
        -0.35073938965797424,
        -0.46018844842910767,
        0.04340231046080589,
        -0.7942624688148499,
        0.9990268349647522,
        0.22013632953166962,
        0.204294815659523,
        0.5524998903274536,
        -0.8819872140884399,
        1.334793210029602,
        0.8564803600311279,
        -0.2918505370616913,
        0.3252696394920349,
        -0.3695756494998932,
        -0.28195926547050476,
        0.049059659242630005,
        0.1593448370695114,
        -1.151145339012146,
        0.06536177545785904,
        -1.1120474338531494,
        -0.3031351864337921,
        -0.39277416467666626,
        0.18117055296897888,
        0.6477617025375366,
        0.5439538359642029,
        -2.2984864711761475,
        -0.11267444491386414,
        0.24576076865196228,
        0.6702268123626709,
        -0.28462669253349304,
        0.9060257077217102,
        1.2786933183670044,
        -0.368731290102005,
        0.6421979665756226,
        0.06528010964393616,
        0.31257960200309753,
        -0.236317440867424,
        0.637921154499054,
        0.9775195717811584,
        0.41044309735298157,
        -0.7558449506759644,
        0.16062556207180023,
        0.9040122628211975,
        0.8175592422485352,
        0.4049100875854492,
        0.24652370810508728,
        0.39619797468185425,
        0.8430872559547424,
        -0.44386938214302063,
        -0.5869781374931335,
        -0.48468297719955444,
        1.460970163345337,
        -0.3713357746601105,
        -0.19793342053890228,
        0.53510981798172,
        1.0603052377700806,
        -0.9808580279350281,
        0.408565491437912,
        0.5652564167976379,
        0.1577494889497757,
        -0.49245092272758484,
        0.7989098429679871,
        -0.39489489793777466,
        -2.346998691558838,
        -0.46890097856521606,
        0.1759171187877655,
        0.08464547246694565,
        1.0793596506118774,
        0.16040407121181488,
        -0.2535289525985718,
        0.11626511812210083,
        0.21525651216506958,
        -0.34971699118614197,
        1.7936546802520752,
        -0.17417943477630615,
        -0.6500109434127808,
        1.6110813617706299,
        -0.25879988074302673,
        0.09613324701786041,
        0.7169768214225769,
        0.3468462824821472,
        -0.003688209690153599,
        -0.24974317848682404,
        0.8579047918319702,
        0.605165421962738,
        -0.36624228954315186,
        0.20935586094856262,
        0.6455543637275696,
        0.487590491771698,
        0.3058440089225769,
        0.24782590568065643,
        -0.39988505840301514,
        0.07209982722997665,
        0.9984674453735352,
        -0.44822296500205994,
        -0.39982542395591736,
        -0.7195555567741394,
        -0.49069303274154663,
        -0.2964601516723633,
        -0.593127965927124,
        0.8894203305244446,
        -0.6450492143630981,
        0.32621246576309204,
        -0.05253932997584343,
        -0.17244282364845276,
        0.9189922213554382,
        -0.43997645378112793,
        0.5228277444839478,
        0.08947962522506714,
        0.27034521102905273,
        -0.325283020734787,
        0.01271982304751873,
        0.7469272613525391,
        -0.5461306571960449,
        -0.19292744994163513,
        -0.4522281587123871,
        0.0639433041214943,
        0.7249336242675781,
        0.3328675925731659,
        0.4465111196041107,
        0.4030281901359558,
        0.6162687540054321,
        -0.16805937886238098,
        1.0898346900939941,
        -0.04614102095365524,
        0.10407816618680954,
        0.2873142957687378,
        0.6762484908103943,
        0.8576305508613586,
        -0.38373780250549316,
        0.23390012979507446,
        0.4786423146724701,
        -0.05351857468485832,
        -0.23563972115516663,
        0.602989673614502,
        0.8884774446487427,
        -0.7083035707473755,
        -1.0134656429290771,
        1.6689927577972412,
        -1.1096798181533813,
        -2.7678651809692383,
        0.36507636308670044,
        0.9414258003234863,
        0.43138569593429565,
        0.4403238296508789,
        0.570023775100708,
        -0.17783747613430023,
        0.8044265508651733,
        -1.1686574220657349,
        -0.6009728312492371,
        -1.3437402248382568,
        -0.1830991953611374,
        0.2579316794872284,
        -0.7313226461410522,
        0.865993320941925,
        -0.9628037214279175,
        0.6053767204284668,
        0.9183081984519958,
        0.8491978049278259,
        0.9973118901252747,
        -0.04017307609319687,
        -0.4501844048500061,
        0.34294041991233826,
        0.716752290725708,
        -0.09074308723211288,
        0.706286609172821,
        -0.19929860532283783,
        -0.7106241583824158,
        0.015529245138168335,
        0.23026058077812195,
        0.33330053091049194,
        0.09089304506778717,
        -0.35306164622306824
      ]
    },
    {
      "activation": "rectified",
      "architecture": "dense",
      "bias": [
        -0.24780312180519104,
        -1.120070457458496,
        -4.125584125518799,
        2.008115530014038,
        -0.11654787510633469,
        1.1791493892669678,
        1.0283836126327515,
        -9.465238571166992,
        2.9043054580688477,
        2.483642578125,
        -1.8554871082305908,
        -0.1361536979675293,
        -0.14966610074043274,
        0.879608154296875,
        0.00936457235366106,
        0.09738717973232269
      ],
      "weights": [
        0.1652446687221527,
        0.5354403257369995,
        -1.4686839580535889,
        -0.19517309963703156,
        0.5886307954788208,
        0.6560954451560974,
        -0.07149211317300797,
        -1.3926196098327637,
        0.04883086681365967,
        0.48048800230026245,
        0.505516767501831,
        -0.2739223837852478,
        -0.16298559308052063,
        0.9155060648918152,
        -1.0611149072647095,
        0.3650878965854645,
        0.33722829818725586,
        0.6164454221725464,
        -0.13745810091495514,
        -0.33854252099990845,
        0.11086241155862808,
        0.1809135228395462,
        -0.525471568107605,
        0.760277509689331,
        -0.12470440566539764,
        0.5426723957061768,
        0.10372263938188553,
        -0.3343925178050995,
        -0.716148316860199,
        -0.010324636474251747,
        0.9119963049888611,
        0.44817662239074707,
        0.8119019269943237,
        -0.25693342089653015,
        0.4935913681983948,
        0.3943438231945038,
        1.7085317373275757,
        -2.9927115440368652,
        -1.0327295064926147,
        -0.1893322467803955,
        -1.7486293315887451,
        1.8401832580566406,
        -0.08648411184549332,
        -0.8269019722938538,
        -0.2749125361442566,
        -0.015152950771152973,
        0.5131174325942993,
        -0.9986838698387146,
        0.746435821056366,
        -0.06556856632232666,
        -2.1498165130615234,
        -0.5666125416755676,
        -0.5741212368011475,
        -0.7347287535667419,
        1.6126694679260254,
        -1.2202531099319458,
        0.26027989387512207,
        0.4114767014980316,
        0.4075957238674164,
        -0.21194759011268616,
        -0.11811944842338562,
        0.5747348070144653,
        -2.444460868835449,
        0.29496294260025024,
        0.07329931110143661,
        -0.3878101110458374,
        0.16455607116222382,
        -0.38268089294433594,
        0.17175598442554474,
        -0.3715479373931885,
        -0.015743643045425415,
        -0.5299752950668335,
        -0.2538769543170929,
        -0.36405500769615173,
        -0.2805923521518707,
        -0.030194593593478203,
        -0.20985616743564606,
        -0.06976604461669922,
        0.1576056182384491,
        -0.06818746030330658,
        -0.2479843646287918,
        0.7067989706993103,
        0.47982320189476013,
        0.09408465772867203,
        -0.20286162197589874,
        -0.25352221727371216,
        0.13159653544425964,
        -0.7282806038856506,
        -0.3059803247451782,
        0.631350040435791,
        -1.1745717525482178,
        0.4667825400829315,
        0.44422590732574463,
        1.140384316444397,
        -0.28063493967056274,
        0.40777722001075745,
        -1.2338656187057495,
        -0.2104944884777069,
        -1.0748422145843506,
        -0.30685099959373474,
        0.4491390883922577,
        0.44645410776138306,
        0.7674248218536377,
        0.25047123432159424,
        1.44723641872406,
        -0.446903258562088,
        -0.3114375174045563,
        -1.0181080102920532,
        0.2530800700187683,
        0.4152740240097046,
        0.5591768622398376,
        -1.5781283378601074,
        0.13963359594345093,
        -0.6727076172828674,
        0.10691769421100616,
        -0.08783683180809021,
        1.2532877922058105,
        -0.28437256813049316,
        0.8875951170921326,
        0.03486640751361847,
        -0.16038498282432556,
        0.235043466091156,
        0.7645387053489685,
        -0.5051255822181702,
        -0.21724233031272888,
        0.48455849289894104,
        -1.1712368726730347,
        0.053121522068977356,
        -1.2902965545654297,
        0.177788645029068,
        -0.08944665640592575,
        -0.4576382339000702,
        -0.1812872737646103,
        -0.17133188247680664,
        0.31588214635849,
        -0.44256266951560974,
        -0.6444698572158813,
        0.24942664802074432,
        -0.26410967111587524,
        0.8387356996536255,
        0.6259158849716187,
        0.08753513544797897,
        0.39247825741767883,
        -0.4429170787334442,
        0.3461850583553314,
        0.48780009150505066,
        -0.04862946644425392,
        -0.20699501037597656,
        -1.4098877906799316,
        0.5674560070037842,
        -0.02988821640610695,
        -0.8617824912071228,
        -1.2256014347076416,
        -0.21649572253227234,
        0.7484302520751953,
        -0.5835749506950378,
        -0.6417078375816345,
        -0.45315733551979065,
        -0.10530111193656921,
        -0.5562581419944763,
        0.07002801448106766,
        0.788316547870636,
        0.29551804065704346,
        -0.5401996970176697,
        0.5439757108688354,
        -0.03205934166908264,
        0.39146971702575684,
        0.06209922954440117,
        -0.10433461517095566,
        0.20440664887428284,
        0.5785219669342041,
        -0.17842337489128113,
        0.7659062743186951,
        -0.26372456550598145,
        0.6006395220756531,
        -0.26698341965675354,
        0.07001540064811707,
        0.12384900450706482,
        -0.015899019315838814,
        -0.38755837082862854,
        -0.5809146761894226,
        -0.5643985271453857,
        -0.7633365392684937,
        -0.0716392919421196,
        -0.30007848143577576,
        -0.2722841203212738,
        -0.32537344098091125,
        -0.43420520424842834,
        -0.6409915685653687,
        0.048302751034498215,
        -0.5381214022636414,
        0.03900584578514099,
        -0.09937765449285507,
        -0.29626429080963135,
        -0.3010621964931488,
        -0.3988299071788788,
        -0.28997084498405457,
        -0.33188626170158386,
        -0.5044159889221191,
        -0.3334895074367523,
        0.21115775406360626,
        0.23039254546165466,
        -0.23612160980701447,
        0.030784690752625465,
        -0.04253077134490013,
        0.13753588497638702,
        -0.23305146396160126,
        -0.38721269369125366,
        0.12401524186134338,
        -0.35671621561050415,
        0.8302382230758667,
        -0.023971272632479668,
        0.11202611029148102,
        -0.4299938976764679,
        0.23425020277500153,
        0.9202215671539307,
        0.25452977418899536,
        -0.20735764503479004,
        -0.5641946196556091,
        0.1043212041258812,
        0.5184104442596436,
        -0.6325042247772217,
        0.16903728246688843,
        0.17125166952610016,
        1.0299009084701538,
        -0.3939811885356903,
        0.2281244993209839,
        0.39154013991355896,
        -0.02623794972896576,
        0.9060786962509155,
        -0.30980533361434937,
        -0.08512631058692932,
        -0.4161864221096039,
        -0.14007914066314697,
        0.37910884618759155,
        0.5592362880706787,
        0.4511920213699341,
        -0.44777747988700867,
        0.3134409487247467,
        0.07828377187252045,
        0.0023222165182232857,
        -0.1621849238872528,
        0.41288426518440247,
        0.3341860771179199,
        0.35959702730178833,
        -0.5786287188529968,
        -0.060955025255680084,
        -0.6765698790550232,
        0.8499388098716736,
        0.9965459108352661,
        0.3531661629676819,
        -0.10353294759988785,
        -0.13556739687919617,
        -0.09872129559516907,
        -0.28404298424720764,
        0.12875567376613617
      ]
    },
    {
      "activation": "rectified",
      "architecture": "dense",
      "bias": [
        1.4101793766021729,
        7.156920433044434,
        -0.7127540707588196,
        1.7217669486999512,
        -1.9823052883148193,
        0.6914536356925964,
        4.513424873352051,
        1.0214802026748657,
        -0.9244774580001831,
        -1.638454556465149,
        0.3918503522872925,
        1.7915745973587036,
        -0.7915225625038147,
        -2.8230581283569336,
        -0.13670867681503296,
        1.1262799501419067
      ],
      "weights": [
        -0.2633528411388397,
        -0.15595503151416779,
        0.8447821140289307,
        0.36555740237236023,
        -0.03123733401298523,
        -0.8251073360443115,
        -0.836578905582428,
        0.7440065145492554,
        0.8698848485946655,
        -1.1958099603652954,
        0.3139604330062866,
        -0.17241552472114563,
        0.35069897770881653,
        0.09123028814792633,
        -2.0017480850219727,
        -0.363515704870224,
        -0.10390090942382812,
        0.35315999388694763,
        0.502406656742096,
        -2.6421830654144287,
        0.3462795317173004,
        -0.27510347962379456,
        0.28546494245529175,
        -0.4871676564216614,
        1.5143877267837524,
        -0.4112015962600708,
        -1.535664439201355,
        0.7584855556488037,
        -0.20738153159618378,
        -0.010016974061727524,
        0.09681372344493866,
        -0.07928860932588577,
        0.3084326684474945,
        -0.3921884298324585,
        -0.29383721947669983,
        -0.39014145731925964,
        -0.319002628326416,
        0.363180935382843,
        -0.12471718341112137,
        -0.22481252253055573,
        0.25874173641204834,
        0.192201167345047,
        0.5479424595832825,
        -0.04038785398006439,
        -0.2742224633693695,
        -0.3048531413078308,
        -0.0970575287938118,
        -0.3352069854736328,
        0.27809104323387146,
        0.04178999364376068,
        -0.4463331401348114,
        0.5382423996925354,
        -0.36128437519073486,
        -0.018893951550126076,
        -0.9037687182426453,
        -1.0366947650909424,
        0.040911756455898285,
        -0.4125990569591522,
        0.494323194026947,
        0.0622948482632637,
        0.38295090198516846,
        -0.012628975324332714,
        -0.4130338132381439,
        0.5283173322677612,
        0.22206677496433258,
        -0.7291848659515381,
        -0.12073484063148499,
        1.145289421081543,
        -0.029929708689451218,
        -1.0704351663589478,
        -0.18093103170394897,
        -0.9125242233276367,
        -0.275415301322937,
        -1.3632965087890625,
        0.49884599447250366,
        0.28628939390182495,
        0.209201842546463,
        0.039528027176856995,
        -0.05751442164182663,
        -0.2283683866262436,
        0.32354265451431274,
        0.03935929760336876,
        -0.3588988482952118,
        -0.05886346474289894,
        -0.1905798614025116,
        -0.02002899907529354,
        -0.3074598014354706,
        -0.010554986074566841,
        -0.04817651957273483,
        -1.1202318668365479,
        -0.04153386875987053,
        -0.001073658000677824,
        -0.23100771009922028,
        1.0347929000854492,
        -0.2508735954761505,
        0.08530494570732117,
        0.07509459555149078,
        -0.618207573890686,
        0.44211485981941223,
        0.5819628238677979,
        0.23879104852676392,
        0.19521941244602203,
        0.49390265345573425,
        -0.15415719151496887,
        0.16032247245311737,
        0.3734268248081207,
        -0.5284264087677002,
        -0.18065261840820312,
        0.25528645515441895,
        0.20989057421684265,
        0.5899144411087036,
        0.4496484696865082,
        -0.2014680653810501,
        -0.10817348212003708,
        -1.8986800909042358,
        0.5066725015640259,
        -0.020392535254359245,
        0.2969036102294922,
        0.05426129698753357,
        -1.2990820407867432,
        0.375922828912735,
        1.427998661994934,
        -0.7260383367538452,
        0.07341671735048294,
        -0.07952680438756943,
        0.32167819142341614,
        -0.13121847808361053,
        -1.367285966873169,
        0.5635291337966919,
        -0.7019258737564087,
        1.3755714893341064,
        -0.6457698345184326,
        -0.3038291037082672,
        0.6686132550239563,
        -2.911005973815918,
        0.40920308232307434,
        -3.3757922649383545,
        -0.9699534177780151,
        -0.0845242440700531,
        0.10349783301353455,
        0.27418288588523865,
        -0.5894642472267151,
        -0.3892272710800171,
        -0.11526869237422943,
        0.15996569395065308,
        0.5629134178161621,
        -2.1119091510772705,
        1.9477471113204956,
        0.40397724509239197,
        1.395519733428955,
        -2.6839020252227783,
        -0.8940219283103943,
        0.22902080416679382,
        -0.5903387069702148,
        -0.6248021125793457,
        0.10218562930822372,
        0.02644021064043045,
        -0.13402651250362396,
        -0.3755865693092346,
        0.04195725545287132,
        -0.1876586526632309,
        0.7137489318847656,
        -0.3318614959716797,
        -0.8289132714271545,
        -0.2578156292438507,
        -0.15047681331634521,
        -0.7906320095062256,
        0.060533713549375534,
        -0.060478076338768005,
        -0.21444754302501678,
        0.5791621208190918,
        0.23114420473575592,
        0.334398090839386,
        -0.19767889380455017,
        -0.7599108815193176,
        0.37133243680000305,
        0.9079332947731018,
        -0.2655281722545624,
        0.17802482843399048,
        -0.11483334004878998,
        -0.17139163613319397,
        -0.06316086649894714,
        0.6820197105407715,
        -0.17450077831745148,
        0.3269428312778473,
        0.8007370233535767,
        0.13655391335487366,
        -0.2019115686416626,
        -0.1750713288784027,
        -1.495261788368225,
        0.33316272497177124,
        -0.12487516552209854,
        0.12227728962898254,
        -0.3258175849914551,
        -0.03290775418281555,
        -0.37932565808296204,
        -0.267623633146286,
        0.5760101079940796,
        -0.1005076915025711,
        0.27324649691581726,
        -0.04717852175235748,
        -0.1250057965517044,
        0.7914710640907288,
        -0.10965028405189514,
        -0.1692023128271103,
        0.023937134072184563,
        -0.09996288269758224,
        0.10399865359067917,
        -0.4561288356781006,
        -0.35846519470214844,
        0.0446823351085186,
        0.3530784845352173,
        -0.024983415380120277,
        0.11919345706701279,
        0.23711666464805603,
        -0.207627534866333,
        0.8472529053688049,
        0.08045073598623276,
        0.24809706211090088,
        0.21023011207580566,
        -0.2025780826807022,
        0.1173473671078682,
        0.21799799799919128,
        -0.3272116184234619,
        0.05675113573670387,
        -0.07627002149820328,
        0.05324769765138626,
        -0.14506402611732483,
        0.33011141419410706,
        -0.265526682138443,
        -0.3653315305709839,
        -0.008901763707399368,
        0.101150743663311,
        -0.29887157678604126,
        -0.3680207431316376,
        -0.4077938497066498,
        -0.07368108630180359,
        -0.12071835994720459,
        -0.19768652319908142,
        -0.4765101969242096,
        0.2049715369939804,
        -0.2757974863052368,
        0.16411739587783813,
        0.715623140335083,
        0.00552406907081604,
        -5.184267044067383,
        -0.4118388593196869,
        -0.46391719579696655,
        -2.3253097534179688,
        -3.9408698081970215,
        -0.024103457108139992,
        -0.07907145470380783,
        -0.08137548714876175,
        0.5534424185752869,
        -0.9908865094184875,
        -0.1348552107810974
      ]
    },
    {
      "activation": "rectified",
      "architecture": "dense",
      "bias": [
        4.205070495605469,
        2.5485219955444336,
        -1.7158446311950684,
        1.2044379711151123,
        1.7321760654449463,
        0.4068514406681061,
        1.1225007772445679,
        -4.437211990356445,
        -3.2699880599975586,
        -4.665929794311523,
        -1.2765846252441406,
        0.07005713880062103,
        -1.527856469154358,
        -0.31843122839927673,
        -2.301222324371338,
        -0.7885943651199341
      ],
      "weights": [
        -0.00602793088182807,
        0.9844963550567627,
        -2.2190568447113037,
        -1.7336937189102173,
        0.39044618606567383,
        -0.06010593846440315,
        0.3325728178024292,
        0.17465059459209442,
        1.3430484533309937,
        1.2043750286102295,
        -0.6860942244529724,
        0.1629599630832672,
        -0.48434048891067505,
        -0.26276060938835144,
        0.14297500252723694,
        0.5450438857078552,
        -1.43074631690979,
        -0.5488477945327759,
        -0.057425547391176224,
        -1.3153698444366455,
        0.18786121904850006,
        -0.41799286007881165,
        0.41496846079826355,
        0.0874018669128418,
        0.12985917925834656,
        -0.17281705141067505,
        -0.936557412147522,
        0.3713935613632202,
        -0.3141666352748871,
        0.30640003085136414,
        0.12835687398910522,
        -0.31359565258026123,
        0.22425122559070587,
        -0.13847605884075165,
        0.44568508863449097,
        0.15072253346443176,
        0.20227879285812378,
        -0.34799912571907043,
        -0.04685867577791214,
        -0.4697535037994385,
        -0.19699175655841827,
        0.2472989410161972,
        -0.03837718069553375,
        0.20304687321186066,
        0.4147002696990967,
        0.3629470765590668,
        0.18838050961494446,
        -0.1520201712846756,
        0.35168758034706116,
        0.21014687418937683,
        -1.2718788385391235,
        -0.21043312549591064,
        -0.1971333771944046,
        0.4645548462867737,
        -0.033670831471681595,
        0.21364068984985352,
        -0.8169277906417847,
        0.10789752006530762,
        0.13882553577423096,
        0.13430051505565643,
        -0.6703665256500244,
        -0.23413710296154022,
        0.4024108350276947,
        -0.030175041407346725,
        0.14109747111797333,
        0.4306480884552002,
        1.2389553785324097,
        -1.1489685773849487,
        -1.7474215030670166,
        0.14329306781291962,
        0.18605582416057587,
        -0.9024530053138733,
        0.854224443435669,
        0.42572224140167236,
        0.024810103699564934,
        0.25400441884994507,
        -0.4667850732803345,
        -1.565268874168396,
        -0.287856787443161,
        -0.7737315893173218,
        -0.03247503191232681,
        0.04482876881957054,
        -2.0889275074005127,
        0.17859101295471191,
        -0.8484142422676086,
        0.0025717190001159906,
        -0.5780808329582214,
        -0.4979151487350464,
        -2.0055882930755615,
        1.5286611318588257,
        0.08204062283039093,
        -1.967827320098877,
        -0.38372454047203064,
        -0.17205850780010223,
        0.31394192576408386,
        0.367502361536026,
        0.17628659307956696,
        -0.558547854423523,
        0.6090044975280762,
        0.010505999438464642,
        0.16299541294574738,
        -0.775352954864502,
        0.2366504967212677,
        0.423427551984787,
        0.07530080527067184,
        -0.042290762066841125,
        0.2097267359495163,
        0.1920907199382782,
        -0.5223113894462585,
        -0.1339079886674881,
        -0.377311110496521,
        -0.11909547448158264,
        -0.3006170988082886,
        0.21044383943080902,
        -3.0339550971984863,
        -0.46394166350364685,
        -0.06971297413110733,
        -0.1978968381881714,
        -0.5604013204574585,
        1.2164909839630127,
        1.2126153707504272,
        0.24315252900123596,
        0.05973086506128311,
        0.1306292712688446,
        0.01977313496172428,
        -0.7729142308235168,
        0.36528265476226807,
        0.005764415021985769,
        0.06380326300859451,
        0.06652770936489105,
        0.17499658465385437,
        -0.1587701141834259,
        0.16591419279575348,
        0.5448583364486694,
        0.2806668281555176,
        0.20717637240886688,
        0.4296366274356842,
        0.1857467144727707,
        -0.43983298540115356,
        -0.3021593987941742,
        -0.03462495654821396,
        0.22959770262241364,
        -0.017736319452524185,
        -0.2816309332847595,
        0.2826370894908905,
        -1.1197588443756104,
        -0.30918267369270325,
        0.5156107544898987,
        -3.3067288398742676,
        -0.7128853797912598,
        -2.837695837020874,
        0.0996151939034462,
        -1.3956618309020996,
        0.49883365631103516,
        0.06771504133939743,
        -0.011798761785030365,
        -0.24302345514297485,
        0.07382732629776001,
        -0.08348262310028076,
        -1.5042295455932617,
        1.0824339389801025,
        -0.4631907045841217,
        -0.6307194828987122,
        -0.606412410736084,
        0.09260525554418564,
        -0.10600874572992325,
        -0.0840175598859787,
        0.10804913938045502,
        0.7112114429473877,
        1.1479661464691162,
        0.012889389880001545,
        -0.9958121180534363,
        0.03810298815369606,
        0.3190652132034302,
        0.03408108651638031,
        -1.321198582649231,
        1.4783077239990234,
        0.375432550907135,
        1.2114193439483643,
        -0.32826992869377136,
        -0.10825414210557938,
        -0.5274757146835327,
        -0.13355030119419098,
        1.426192045211792,
        1.0964970588684082,
        1.1420048475265503,
        -0.3743073046207428,
        -0.31884539127349854,
        -0.7604985237121582,
        -0.6011598110198975,
        -0.21506348252296448,
        -0.783275842666626,
        -1.4686341285705566,
        0.11773756146430969,
        -1.138694405555725,
        0.3993671238422394,
        -1.096055030822754,
        -0.2366848886013031,
        -0.08739402145147324,
        0.5837339162826538,
        -1.1736068725585938,
        -1.8200258016586304,
        -0.012581574730575085,
        -1.8111006021499634,
        -0.33879053592681885,
        -0.3701733350753784,
        -0.42539817094802856,
        0.8080629706382751,
        1.1595757007598877,
        0.2986294627189636,
        0.2478022426366806,
        -0.4293171763420105,
        0.6588727831840515,
        -3.870457887649536,
        -1.8728495836257935,
        0.7294009327888489,
        1.5471032857894897,
        -1.4596588611602783,
        -1.5102260112762451,
        -0.2606373131275177,
        -0.8618646860122681,
        0.4729883074760437,
        0.33045583963394165,
        0.5821601748466492,
        0.25909438729286194,
        -0.18681925535202026,
        -0.19938910007476807,
        0.09382697194814682,
        -0.10072930157184601,
        -0.7231373190879822,
        -0.04471832886338234,
        -1.2703834772109985,
        0.9896946549415588,
        -0.2731958031654358,
        0.6930546164512634,
        0.45434072613716125,
        -0.0245882086455822,
        -0.38450905680656433,
        0.2898646593093872,
        -0.11003705114126205,
        0.29634106159210205,
        0.33282050490379333,
        -0.005043359939008951,
        0.31087321043014526,
        -0.14505913853645325,
        0.4179295301437378,
        -0.4389077425003052,
        -0.23770931363105774,
        1.1641309261322021,
        0.18805170059204102,
        0.579264760017395,
        -0.20883767306804657,
        0.3449651896953583,
        -0.24607975780963898,
        -0.26602357625961304,
        0.09317177534103394
      ]
    },
    {
      "activation": "rectified",
      "architecture": "dense",
      "bias": [
        -0.02046183869242668,
        2.0331764221191406,
        -0.4380617141723633,
        -4.520964622497559,
        5.434765815734863,
        -0.6278787851333618,
        2.0612244606018066,
        -1.6487195491790771,
        2.5601022243499756,
        0.5684608817100525,
        -5.325680732727051,
        -0.3001924753189087,
        -1.6667957305908203,
        -1.3617750406265259,
        0.2334476262331009,
        -0.9070444703102112
      ],
      "weights": [
        0.1630488485097885,
        0.47918522357940674,
        0.2131105661392212,
        -0.28566670417785645,
        0.5747451186180115,
        -1.7406662702560425,
        0.23249374330043793,
        0.5370138883590698,
        -0.5029272437095642,
        0.12484260648488998,
        0.17847579717636108,
        0.9309520721435547,
        -0.5366122126579285,
        -0.016402607783675194,
        0.3571816682815552,
        -0.3179943263530731,
        -1.00942063331604,
        0.596420168876648,
        -1.0705856084823608,
        0.5632795691490173,
        0.2685887813568115,
        0.5205317735671997,
        -0.5517936944961548,
        0.41615602374076843,
        -0.37973761558532715,
        0.6256078481674194,
        0.4211709499359131,
        0.6757579445838928,
        0.44014060497283936,
        0.9909306764602661,
        -0.2750329375267029,
        -1.2072128057479858,
        -0.05705878138542175,
        -0.42380857467651367,
        -0.1769407093524933,
        0.17532126605510712,
        -0.3253744840621948,
        0.04397248104214668,
        0.2044469118118286,
        -0.15398339927196503,
        0.4202137291431427,
        -0.09735967963933945,
        0.015014149248600006,
        -0.2891868054866791,
        0.1762114018201828,
        1.1747660636901855,
        -0.2792479395866394,
        0.34409698843955994,
        -0.11069386452436447,
        0.036340486258268356,
        0.43728354573249817,
        -0.3162899613380432,
        -0.030994119122624397,
        -0.2365163117647171,
        -0.007125745993107557,
        0.23703765869140625,
        0.18322642147541046,
        -0.16266454756259918,
        0.16777287423610687,
        0.2553868293762207,
        -0.23104703426361084,
        -0.08792141079902649,
        -0.19730979204177856,
        0.0044322023168206215,
        0.15564975142478943,
        -1.4578700065612793,
        -0.4205370247364044,
        0.4318576157093048,
        0.16188377141952515,
        0.10592857003211975,
        0.552947998046875,
        -0.14944078028202057,
        -0.23041775822639465,
        -1.3918204307556152,
        -0.017029331997036934,
        -0.005794720258563757,
        -0.3164882957935333,
        0.33858558535575867,
        -0.14489254355430603,
        -0.07312749326229095,
        -0.9793583154678345,
        -0.37223079800605774,
        0.06348508596420288,
        -0.09029769897460938,
        0.13391590118408203,
        0.24834944307804108,
        -0.10847204178571701,
        -0.6470050811767578,
        -0.2293570339679718,
        0.3271642029285431,
        -0.14649388194084167,
        -0.5025448799133301,
        0.1038103923201561,
        -0.6650483012199402,
        0.24258725345134735,
        0.4321337938308716,
        0.2722786068916321,
        0.4577941596508026,
        -0.11476530879735947,
        0.05703508108854294,
        -0.0033789530862122774,
        0.5319246053695679,
        0.23396284878253937,
        0.3181273341178894,
        0.3094189763069153,
        0.7796761393547058,
        0.10223785042762756,
        0.35976022481918335,
        0.8415881395339966,
        -0.1509021818637848,
        -0.2637439966201782,
        -0.5568772554397583,
        -0.6195687055587769,
        0.3890361785888672,
        -1.220097303390503,
        0.16412991285324097,
        0.6075353026390076,
        0.15462592244148254,
        -0.07144346088171005,
        0.5529606938362122,
        -0.3461079001426697,
        1.4271000623703003,
        0.6996159553527832,
        0.3929133415222168,
        0.30709683895111084,
        0.7779684066772461,
        -0.37492603063583374,
        -0.5914108753204346,
        -0.26525309681892395,
        0.48449164628982544,
        -0.28571876883506775,
        0.7744383811950684,
        0.28769513964653015,
        -0.30740824341773987,
        0.2879753112792969,
        -0.5371524095535278,
        -0.5513838529586792,
        0.3734397888183594,
        0.15713463723659515,
        0.7815907001495361,
        0.30777737498283386,
        0.3895561397075653,
        -0.2348896563053131,
        -0.4483300447463989,
        0.07003330439329147,
        0.1270948201417923,
        -0.5968191623687744,
        0.15703950822353363,
        0.16843901574611664,
        -0.3906426429748535,
        0.22074738144874573,
        0.9595537781715393,
        -0.4185680150985718,
        0.8634797930717468,
        -1.2452900409698486,
        -0.10142835229635239,
        0.1221604198217392,
        -0.2729378044605255,
        -0.13498549163341522,
        -0.5417293906211853,
        -0.705097496509552,
        0.15961025655269623,
        -0.6045167446136475,
        0.5137335062026978,
        -0.09468481689691544,
        0.1911541223526001,
        0.16800956428050995,
        -0.2055383026599884,
        -0.2745874524116516,
        0.3214539587497711,
        -0.5898375511169434,
        -0.9035843014717102,
        0.1365857869386673,
        -1.7693750858306885,
        0.2633991241455078,
        0.004274197854101658,
        -0.8357939124107361,
        -0.6778298020362854,
        -0.11513003706932068,
        -0.07731243968009949,
        -1.5963619947433472,
        -1.1945842504501343,
        0.173703134059906,
        -1.2245980501174927,
        -0.6389061808586121,
        0.9257804155349731,
        -0.941422164440155,
        0.4479539394378662,
        -0.14721478521823883,
        0.9380998015403748,
        0.019145067781209946,
        -0.08603811264038086,
        -0.9953472018241882,
        -1.1216888427734375,
        -0.47762787342071533,
        0.08367609232664108,
        -0.1524890512228012,
        -0.35412541031837463,
        -2.021730661392212,
        -0.31592798233032227,
        -0.7966017723083496,
        -0.2893151640892029,
        -0.4025394916534424,
        0.27101776003837585,
        -0.9919180274009705,
        -0.6212657690048218,
        0.3968484401702881,
        -0.49717187881469727,
        -0.7630005478858948,
        0.3181268870830536,
        -0.8306236863136292,
        0.24461407959461212,
        -0.3902631103992462,
        0.31968173384666443,
        -0.034701913595199585,
        -0.09195241332054138,
        -0.19710680842399597,
        0.6864789128303528,
        0.3587932288646698,
        0.36041536927223206,
        0.4080548882484436,
        1.1023777723312378,
        0.370688796043396,
        -0.4447116255760193,
