{
  "defaults": {},
  "inputs": [
    {
      "name": "jet3_pt",
      "offset": 0,
      "scale": 1
    },
    {
      "name": "jet3_eta",
      "offset": 0,
      "scale": 1
    },
    {
      "name": "lep1_eta",
      "offset": 0,
      "scale": 1
    },
    {
      "name": "jet2_pt",
      "offset": 0,
      "scale": 1
    },
    {
      "name": "jet1_pt",
      "offset": 0,
      "scale": 1
    },
    {
      "name": "jetFwd1_eta",
      "offset": 0,
      "scale": 1
    },
    {
      "name": "mT_lep1",
      "offset": 0,
      "scale": 1
    },
    {
      "name": "mT_lep2",
      "offset": 0,
      "scale": 1
    },
    {
      "name": "jet4_phi",
      "offset": 0,
      "scale": 1
    },
    {
      "name": "lep2_conePt",
      "offset": 0,
      "scale": 1
    },
    {
      "name": "hadTop_BDT",
      "offset": 0,
      "scale": 1
    },
    {
      "name": "jet1_phi",
      "offset": 0,
      "scale": 1
    },
    {
      "name": "jet2_eta",
      "offset": 0,
      "scale": 1
    },
    {
      "name": "n_presel_jetFwd",
      "offset": 0,
      "scale": 1
    },
    {
      "name": "n_presel_jet",
      "offset": 0,
      "scale": 1
    },
    {
      "name": "lep1_charge",
      "offset": 0,
      "scale": 1
    },
    {
      "name": "avg_dr_jet",
      "offset": 0,
      "scale": 1
    },
    {
      "name": "lep1_phi",
      "offset": 0,
      "scale": 1
    },
    {
      "name": "Hj_tagger_hadTop",
      "offset": 0,
      "scale": 1
    },
    {
      "name": "nBJetLoose",
      "offset": 0,
      "scale": 1
    },
    {
      "name": "jet4_pt",
      "offset": 0,
      "scale": 1
    },
    {
      "name": "mindr_lep1_jet",
      "offset": 0,
      "scale": 1
    },
    {
      "name": "lep1_conePt",
      "offset": 0,
      "scale": 1
    },
    {
      "name": "jetFwd1_pt",
      "offset": 0,
      "scale": 1
    },
    {
      "name": "lep2_phi",
      "offset": 0,
      "scale": 1
    },
    {
      "name": "jet2_phi",
      "offset": 0,
      "scale": 1
    },
    {
      "name": "lep2_eta",
      "offset": 0,
      "scale": 1
    },
    {
      "name": "mbb",
      "offset": 0,
      "scale": 1
    },
    {
      "name": "mindr_lep2_jet",
      "offset": 0,
      "scale": 1
    },
    {
      "name": "jet4_eta",
      "offset": 0,
      "scale": 1
    },
    {
      "name": "nBJetMedium",
      "offset": 0,
      "scale": 1
    },
    {
      "name": "Dilep_pdgId",
      "offset": 0,
      "scale": 1
    },
    {
      "name": "metLD",
      "offset": 0,
      "scale": 1
    },
    {
      "name": "jet3_phi",
      "offset": 0,
      "scale": 1
    },
    {
      "name": "maxeta",
      "offset": 0,
      "scale": 1
    },
    {
      "name": "jet1_eta",
      "offset": 0,
      "scale": 1
    }
  ],
  "layers": [
    {
      "activation": "rectified",
      "architecture": "dense",
      "bias": [
        -0.2605288326740265,
        2.2171077728271484,
        0.3411881625652313,
        -0.10874991118907928,
        3.390281915664673,
        -1.9998505115509033,
        0.4350894093513489,
        -0.5101847052574158,
        -1.2121027708053589,
        3.7112603187561035,
        -1.3723570108413696,
        0.07480849325656891,
        4.463747978210449,
        1.0386912822723389,
        -2.0295639038085938,
        -1.1184134483337402,
        -3.8620617389678955,
        -3.0954513549804688,
        1.399024486541748,
        4.124415397644043,
        4.6971845626831055,
        2.6904704570770264,
        -0.6536755561828613,
        4.051828861236572,
        0.7064687609672546,
        -0.11925685405731201,
        2.860482692718506,
        -3.6499547958374023,
        -3.799440383911133,
        3.0406925678253174,
        2.7847771644592285,
        0.4517049193382263
      ],
      "weights": [
        -0.12866997718811035,
        -0.23588794469833374,
        -0.5207375288009644,
        -0.25952696800231934,
        -0.27394306659698486,
        -0.21758681535720825,
        0.4398961067199707,
        0.48259255290031433,
        -0.2473895102739334,
        -0.4527570307254791,
        -0.6294248700141907,
        1.0148413181304932,
        0.12360326200723648,
        -0.7547008991241455,
        -0.26398393511772156,
        -1.9595104455947876,
        0.26890408992767334,
        0.5404940843582153,
        -0.3586951792240143,
        -0.29372313618659973,
        -0.08065816760063171,
        0.28943854570388794,
        -0.32700544595718384,
        -0.05235288664698601,
        -0.41167208552360535,
        -0.07556634396314621,
        0.7126995325088501,
        0.01808050274848938,
        0.07539556920528412,
        0.22988934814929962,
        -1.2377734184265137,
        -0.6324774622917175,
        -0.48078155517578125,
        0.4990805685520172,
        0.309639573097229,
        0.39251410961151123,
        -0.22830574214458466,
        0.1600371152162552,
        1.0701837539672852,
        -0.49740883708000183,
        -0.19949623942375183,
        0.5520233511924744,
        -0.08122223615646362,
        -0.08502373844385147,
        0.22478045523166656,
        0.4126233458518982,
        0.19584830105304718,
        0.060694701969623566,
        1.1234827041625977,
        -1.6200599670410156,
        2.2663393020629883,
        -1.6197940111160278,
        -2.400416851043701,
        0.10448611527681351,
        -0.2587907016277313,
        3.532531499862671,
        -0.03202119097113609,
        2.608637809753418,
        0.08475867658853531,
        -0.05896385759115219,
        0.24115730822086334,
        0.05713333189487457,
        0.343168705701828,
        0.03396875783801079,
        -1.3080339431762695,
        0.0019922247156500816,
        -1.7390879392623901,
        1.186869740486145,
        0.32572582364082336,
        0.36571964621543884,
        1.6800533533096313,
        -0.2878919243812561,
        0.13095802068710327,
        1.2231645584106445,
        -3.308119058609009,
        0.1041865423321724,
        -0.02741188369691372,
        -4.418659210205078,
        -0.0713203102350235,
        0.0008115328964777291,
        -0.40643060207366943,
        0.3734302222728729,
        -0.8276726603507996,
        0.5697418451309204,
        1.6792399883270264,
        -1.4521431922912598,
        1.0747008323669434,
        -0.7986724972724915,
        0.14997389912605286,
        0.12533266842365265,
        -0.8656905889511108,
        0.6185106635093689,
        0.06456883251667023,
        -1.655761480331421,
        0.1585371047258377,
        -0.11551813781261444,
        1.226226568222046,
        -0.22084465622901917,
        -0.8462246656417847,
        0.006868588738143444,
        -0.36777374148368835,
        0.23230741918087006,
        -1.2510149478912354,
        -0.2736596167087555,
        -0.006033200770616531,
        0.25522851943969727,
        -0.3701484203338623,
        1.8742762804031372,
        -0.02440011501312256,
        -0.25949805974960327,
        0.303810715675354,
        -0.21806985139846802,
        0.07944964617490768,
        -0.25574585795402527,
        -0.24090853333473206,
        -0.22372518479824066,
        0.06836747378110886,
        -0.2054075002670288,
        -0.2607937157154083,
        0.21666906774044037,
        0.16598516702651978,
        0.0582159198820591,
        -0.40622279047966003,
        -0.03276224806904793,
        0.2431814819574356,
        -0.20037943124771118,
        0.10748198628425598,
        -0.01629282534122467,
        -0.07937512546777725,
        -0.15104947984218597,
        -0.1800774186849594,
        -0.1771908849477768,
        0.1773107796907425,
        0.2323673665523529,
        -0.1792815923690796,
        -0.16762466728687286,
        -0.36437374353408813,
        0.18559055030345917,
        -0.3009519875049591,
        -0.3562315106391907,
        -0.038264986127614975,
        0.2509516179561615,
        0.023134084418416023,
        -0.2539501190185547,
        0.06381040066480637,
        -0.5712485313415527,
        -1.2836154699325562,
        0.10573054105043411,
        0.14611433446407318,
        -0.021022958680987358,
        -0.09049099683761597,
        -0.06723855435848236,
        0.9667131304740906,
        -0.11143433302640915,
        9.360702514648438,
        0.029896598309278488,
        0.3097360134124756,
        0.3553059995174408,
        0.8453073501586914,
        -1.046879768371582,
        -3.0321671962738037,
        -0.7689212560653687,
        1.6436665058135986,
        0.9853819608688354,
        -0.10719030350446701,
        0.2238665670156479,
        0.03373369947075844,
        0.12967626750469208,
        1.245103120803833,
        -0.4193347990512848,
        -0.07136081159114838,
        -0.09619200229644775,
        0.5396040678024292,
        -0.15625494718551636,
        -1.0870403051376343,
        -0.6676753163337708,
        -0.008373896591365337,
        0.1151600331068039,
        2.913640022277832,
        -1.84775972366333,
        -0.10292281210422516,
        -0.8977922797203064,
        -1.583064317703247,
        -0.18457922339439392,
        0.05275630205869675,
        2.548644542694092,
        -0.045338425785303116,
        -0.006188644096255302,
        0.35999515652656555,
        0.10482330620288849,
        -0.10381533205509186,
        0.9401975274085999,
        0.018872300162911415,
        3.2109224796295166,
        -2.3865082263946533,
        2.0908172130584717,
        -0.9000862240791321,
        -0.056178979575634,
        1.4219436645507812,
        2.2679738998413086,
        -0.4833563268184662,
        0.5114554166793823,
        0.09653106331825256,
        0.35038718581199646,
        1.094002366065979,
        0.37426134943962097,
        2.301103115081787,
        0.07221584767103195,
        2.1245527267456055,
        -0.692834734916687,
        3.470829486846924,
        -0.9853483438491821,
        -0.06714041531085968,
        0.3851882517337799,
        1.1923960447311401,
        -2.0775527954101562,
        0.032610829919576645,
        0.9530024528503418,
        -0.3686036467552185,
        0.02974345162510872,
        -0.1292518824338913,
        -1.8665046691894531,
        0.20946791768074036,
        0.13523931801319122,
        -0.10892217606306076,
        -0.33408045768737793,
        1.1154124736785889,
        1.1230143308639526,
        -0.1659187376499176,
        -2.529947519302368,
        -0.5028303861618042,
        0.31000110507011414,
        -0.9687442779541016,
        0.8855485916137695,
        0.23340405523777008,
        0.6935824155807495,
        -0.03821656480431557,
        -4.461230754852295,
        0.04112858325242996,
        -0.06622441112995148,
        0.8689072132110596,
        0.5235163569450378,
        -0.3611648380756378,
        -0.025739863514900208,
        -1.7435846328735352,
        -0.5217124223709106,
        -1.4123997688293457,
        0.9082999229431152,
        0.3364230692386627,
        -0.6072023510932922,
        0.6509147882461548,
        0.766028106212616,
        -0.05185166746377945,
        0.5339618921279907,
        0.9421737194061279,
        0.03895825892686844,
        -0.048239510506391525,
        -6.93025016784668,
        -0.016112513840198517,
        -0.011500234715640545,
        0.14562417566776276,
        -0.025807153433561325,
        -0.02851921319961548,
        -0.1352081149816513,
        1.3395895957946777,
        1.6503345966339111,
        0.019835542887449265,
        0.11913598328828812,
        0.4372120499610901,
        0.06363757699728012,
        -0.45300447940826416,
        -0.5649393200874329,
        -0.0054771387949585915,
        -0.359558641910553,
        0.034728944301605225,
        0.3466794788837433,
        -0.010939877480268478,
        -0.005654939450323582,
        2.0088090896606445,
        0.015947511419653893,
        -0.7988033890724182,
        -0.2523624300956726,
        -0.8355034589767456,
        -0.4480362832546234,
        0.029578451067209244,
        0.18099400401115417,
        3.016453742980957,
        2.550959587097168,
        0.06424663215875626,
        0.2449219822883606,
        1.898827314376831,
        0.04517624154686928,
        -0.08559952676296234,
        1.1836198568344116,
        -0.04975122585892677,
        -0.015322496183216572,
        -0.374623566865921,
        -0.41614073514938354,
        -1.0456668138504028,
        0.42958351969718933,
        1.551439642906189,
        -0.29533082246780396,
        2.3224642276763916,
        2.977062702178955,
        3.73085618019104,
        -0.10124433785676956,
        -0.04864327609539032,
        1.9541174173355103,
        0.09920891374349594,
        -3.3828418254852295,
        -0.1851172000169754,
        0.12121670693159103,
        0.09193222969770432,
        -0.20904797315597534,
        -0.43942776322364807,
        -0.02249607816338539,
        -1.9456292390823364,
        0.39389029145240784,
        2.720515727996826,
        1.9626576900482178,
        0.0006792134372517467,
        0.30435433983802795,
        1.2159017324447632,
        0.9434010982513428,
        0.06453318893909454,
        -0.7598451375961304,
        1.468614101409912,
        0.021863780915737152,
        -0.07058202475309372,
        0.30226871371269226,
        -0.05853218957781792,
        -0.020896149799227715,
        0.1349368840456009,
        -0.08687832951545715,
        11.842567443847656,
        -0.03250007703900337,
        0.7771609425544739,
        0.4803888201713562,
        1.3789578676223755,
        0.2518216669559479,
        -2.4757280349731445,
        0.497217059135437,
        -0.4238707721233368,
        -1.9303818941116333,
        0.015358028933405876,
        0.09493915736675262,
        0.13497380912303925,
        -0.04876750335097313,
        -0.451762855052948,
        -0.640171468257904,
        1.1605674028396606,
        0.028941186144948006,
        0.5152072310447693,
        -0.35275471210479736,
        -2.085726022720337,
        1.1031227111816406,
        0.02650441974401474,
        -0.17104417085647583,
        -1.2454994916915894,
        0.7391993999481201,
        0.26428037881851196,
        1.404565453529358,
        -1.8657053709030151,
        -0.2886713445186615,
        -0.029083309695124626,
        0.9629644751548767,
        -0.0012962501496076584,
        -0.3660396635532379,
        1.0680289268493652,
        -1.5451401472091675,
        -2.1595613956451416,
        0.28324952721595764,
        2.040776491165161,
        -0.02388181909918785,
        -0.5327693223953247,
        3.478640079498291,
        0.6603113412857056,
        2.169286012649536,
        -1.2986632585525513,
        2.174605131149292,
        0.43275633454322815,
        -2.607065439224243,
        -0.12754659354686737,
        0.16550257802009583,
        -2.294841766357422,
        -1.2698003053665161,
        2.0559587478637695,
        0.1381981074810028,
        1.3361669778823853,
        -0.4144379794597626,
        2.286928415298462,
        -0.20072218775749207,
        -0.09180310368537903,
        -0.8658279180526733,
        0.7313674092292786,
        -2.755922794342041,
        -0.2509172856807709,
        -0.44782108068466187,
        0.15727046132087708,
        -0.03989383578300476,
        -0.004034584388136864,
        -0.4508112967014313,
        -0.033892177045345306,
        -0.09917799383401871,
        0.22931787371635437,
        -0.004553896375000477,
        0.30239418148994446,
        -0.20563824474811554,
        0.7336637377738953,
        -0.7530056238174438,
        -0.2914833426475525,
        -0.09560322761535645,
        -1.4164037704467773,
        -0.20775730907917023,
        0.81109619140625,
        1.7644762992858887,
        -0.317613422870636,
        -0.7310973405838013,
        0.03223239257931709,
        -0.07297622412443161,
        -0.2578671872615814,
        0.4718810021877289,
        -0.4927718937397003,
        0.28500795364379883,
        -2.3067445755004883,
        -0.707643985748291,
        -1.3445698022842407,
        4.036027431488037,
        -0.06119617447257042,
        0.606964111328125,
        7.112561225891113,
        2.498944044113159,
        0.08029386401176453,
        -2.184901237487793,
        1.2793827056884766,
        0.03956332802772522,
        0.007704315707087517,
        1.8951336145401,
        -0.10338617861270905,
        -0.08336028456687927,
        0.0026018989738076925,
        -0.015454220585525036,
        7.0898823738098145,
        0.3622871935367584,
        -1.481614589691162,
        1.2147680521011353,
        1.0054148435592651,
        -1.30510413646698,
        -2.759929895401001,
        0.48329079151153564,
        -0.12627288699150085,
        0.9950597286224365,
        0.06150931119918823,
        -1.6880015134811401,
        0.04787401482462883,
        -0.04215046763420105,
        -0.21780844032764435,
        0.33342212438583374,
        1.046775460243225,
        0.0012804080033674836,
        -0.003727138275280595,
        0.22279581427574158,
        -0.6533299088478088,
        -0.339404821395874,
        0.04797371104359627,
        -0.558603823184967,
        -3.8031423091888428,
        -3.0955026149749756,
        -0.02502998150885105,
        1.1818461418151855,
        -0.6312577128410339,
        0.14192941784858704,
        0.028996123000979424,
        -0.47275152802467346,
        -0.003720455337315798,
        0.0758524015545845,
        0.017064886167645454,
        0.3071137070655823,
        1.1851614713668823,
        0.026959020644426346,
        0.039834555238485336,
        -2.0990147590637207,
        -2.867799997329712,
        3.3820886611938477,
        -3.0277998447418213,
        -0.5191677808761597,
        0.377255380153656,
        0.28010720014572144,
        0.15645483136177063,
        2.2835819721221924,
        0.016646919772028923,
        0.09413023293018341,
        0.30963605642318726,
        0.05186684802174568,
        -1.6573872566223145,
        -0.008952030912041664,
        2.041130781173706,
        0.6888978481292725,
        1.0721714496612549,
        -0.6991289258003235,
        -0.14783798158168793,
        -0.994391143321991,
        3.270606517791748,
        1.5160553455352783,
        -0.11605256050825119,
        -0.9402344822883606,
        -4.213986873626709,
        -0.033384375274181366,
        -0.04693115875124931,
        3.122134208679199,
        -0.023183150216937065,
        0.01570812612771988,
        0.08825081586837769,
        -0.02494807355105877,
        -0.035107407718896866,
        -0.6371344923973083,
        -0.9316324591636658,
        -0.6464573740959167,
        -1.9423595666885376,
        -0.4475429058074951,
        0.2810154855251312,
        0.037357039749622345,
        0.26037439703941345,
        1.1532403230667114,
        -0.09720451384782791,
        0.9921462535858154,
        0.02126198075711727,
        0.5457274317741394,
        -0.2859219014644623,
        -0.2585080862045288,
        5.105705261230469,
        0.025164354592561722,
        -0.9299372434616089,
        -0.3287922143936157,
        1.0304399728775024,
        -1.2079440355300903,
        0.004720066208392382,
        0.29503658413887024,
        -0.24603356420993805,
        -4.804558753967285,
        0.0902518630027771,
        0.4184722602367401,
        -5.934741020202637,
        -0.20629745721817017,
        0.1556486189365387,
        -1.9898639917373657,
        0.009856048040091991,
        0.08413495123386383,
        -0.48670125007629395,
        -0.32221880555152893,
        -0.33248651027679443,
        0.10082311928272247,
        -1.7318342924118042,
        -2.061084270477295,
        -0.5704711079597473,
        -5.839513301849365,
        -0.7937843203544617,
        -0.4936080276966095,
        1.1099634170532227,
        -0.40375497937202454,
        0.04358993470668793,
        0.8547340035438538,
        -0.04155133292078972,
        0.1818968802690506,
        -0.1927783191204071,
        1.5420585870742798,
        -4.113254547119141,
        -0.010436730459332466,
        0.3599334955215454,
        -1.176347017288208,
        -1.3790345191955566,
        0.15381759405136108,
        0.03615592420101166,
        1.310510516166687,
        1.6501593589782715,
        -5.275892734527588,
        0.30514106154441833,
        -0.9152507185935974,
        1.501441240310669,
        -0.14415974915027618,
        0.09293686598539352,
        0.3406718373298645,
        0.0006033066310919821,
        0.02826763316988945,
        0.16270387172698975,
        0.1726190745830536,
        -1.192133903503418,
        -0.13409368693828583,
        2.711101770401001,
        1.2275664806365967,
        -0.018709944561123848,
        0.940420925617218,
        3.8404622077941895,
        0.3046097457408905,
        -0.3496817648410797,
        1.4175457954406738,
        0.058084167540073395,
        3.2327632904052734,
        0.13200408220291138,
        -0.05561625957489014,
        -0.2564547657966614,
        0.054927099496126175,
        0.7648800015449524,
        -0.11473875492811203,
        0.05660068616271019,
        -0.3400006592273712,
        1.7300688028335571,
        -0.27137118577957153,
        -0.042415592819452286,
        1.275909423828125,
        0.6311015486717224,
        1.0264568328857422,
        0.08966051787137985,
        -0.9768351316452026,
        -0.7998456954956055,
        -0.06915395706892014,
        0.1900198757648468,
        -0.22685720026493073,
        0.014393884688615799,
        0.003006099257618189,
        -0.25331491231918335,
        -0.27857738733291626,
        -1.029552698135376,
        -0.32019442319869995,
        2.142216682434082,
        -1.661876916885376,
        1.9327592849731445,
        2.502004384994507,
        4.1399245262146,
        0.3958435356616974,
        -0.2750500440597534,
        1.3783633708953857,
        -0.013906994834542274,
        -1.6784276962280273,
        -0.18930235505104065,
        -0.15602461993694305,
        -0.36696478724479675,
        -0.20447216928005219,
        1.4629437923431396,
        -0.04658792167901993,
        0.3024802505970001,
        -0.7619382739067078,
        3.047851324081421,
        -0.4288773834705353,
        -0.12956048548221588,
        0.5674481987953186,
        -3.8661696910858154,
        5.387143135070801,
        0.18447910249233246,
        0.7765322327613831,
        4.451721668243408,
        0.06847748160362244,
        -0.014219079166650772,
        -1.4583443403244019,
        -0.03789776936173439,
        -0.10503848642110825,
        -0.7515294551849365,
        0.16288338601589203,
        -0.8252182006835938,
        -0.6068052053451538,
        -2.0368266105651855,
        -0.8722013831138611,
        0.4399010241031647,
        -0.7710321545600891,
        -1.1911933422088623,
        -0.7155283689498901,
        -0.9043420553207397,
        -0.6425573825836182,
        0.2816316783428192,
        -1.151122808456421,
        -0.052023615688085556,
        -0.2301001399755478,
        -1.3312830924987793,
        0.7740510106086731,
        4.1152424812316895,
        -0.027991311624646187,
        -0.15290921926498413,
        0.8406131863594055,
        -1.2269718647003174,
        1.6309375762939453,
        0.05638938397169113,
        -0.33231687545776367,
        -1.2786791324615479,
        -2.9046647548675537,
        0.03185253590345383,
        0.43770021200180054,
        0.3470953404903412,
        0.033431123942136765,
        -0.0027405787259340286,
        2.995417833328247,
        -0.039989180862903595,
        -0.02425455115735531,
        0.20364536345005035,
        -0.23633840680122375,
        -0.20689167082309723,
        -0.06678970158100128,
        0.077426016330719,
        0.284046471118927,
        1.1186896562576294,
        -3.714038610458374,
        0.7186315059661865,
        -0.12042790651321411,
        -1.50300931930542,
        -3.026960849761963,
        -0.03514370322227478,
        -0.8797188401222229,
        0.04234188050031662,
        0.26284825801849365,
        0.5429057478904724,
        -0.32291895151138306,
        -0.23705099523067474,
        -0.03789932280778885,
        2.0304338932037354,
        0.5089898109436035,
        -5.986493110656738,
        1.1127163171768188,
        0.0564374141395092,
        0.3960777223110199,
        -1.3641611337661743,
        -2.217519998550415,
        0.1926189363002777,
        -1.4454716444015503,
        -0.24523930251598358,
        -0.05633042752742767,
        -4.0579994674772024e-05,
        0.7250462174415588,
        0.029421277344226837,
        0.04652237147092819,
        0.15945014357566833,
        0.013364377431571484,
        11.633140563964844,
        -0.5183231830596924,
        0.725547730922699,
        0.6928889751434326,
        1.291235327720642,
        0.4273934066295624,
        -3.7893166542053223,
        -0.23697073757648468,
        -0.3705611526966095,
        -0.4160650968551636,
        -0.050767555832862854,
        -0.963103175163269,
        -0.05275742709636688,
        -0.01676456816494465,
        0.42856404185295105,
        0.3653724491596222,
        -0.8951815962791443,
        0.016181115061044693,
        -1.4849802255630493,
        0.08977163583040237,
        -1.1831514835357666,
        0.33992648124694824,
        -0.0388791449368,
        1.2924858331680298,
        -1.640669584274292,
        -0.3400513529777527,
        -0.002387870103120804,
        0.47459647059440613,
        -0.11643009632825851,
        0.024720540270209312,
        -0.04661984369158745,
        1.009081482887268,
        -0.0020793762523680925,
        -0.0295477993786335,
        -0.2125970721244812,
        0.22464647889137268,
        1.552007794380188,
        0.211355060338974,
        -0.6934493780136108,
        2.2157976627349854,
        3.5731120109558105,
        -3.383148431777954,
        -1.7376422882080078,
        -0.08399825543165207,
        1.0018141269683838,
        1.6038011312484741,
        0.1331610381603241,
        -4.13238525390625,
        0.030870536342263222,
        0.07793770730495453,
        -0.05491213500499725,
        0.15231359004974365,
        -0.669928252696991,
        0.006592772901058197,
        -4.277647018432617,
        0.7778797149658203,
        1.8348344564437866,
        -0.5810540318489075,
        0.034614745527505875,
        -0.3616611361503601,
        -5.399050712585449,
        0.3544601798057556,
        0.1104808822274208,
        -0.06010984256863594,
        0.1880922019481659,
        -0.4482659697532654,
        -0.034843262284994125,
        -0.5767244696617126,
        -0.1729704588651657,
        -0.38103288412094116,
        0.29940545558929443,
        -0.4444604218006134,
        -0.34530502557754517,
        0.14341172575950623,
        0.018568668514490128,
        -0.19335174560546875,
        -1.0181866884231567,
        -0.5949304699897766,
        0.07325293868780136,
        0.46478739380836487,
        0.426467627286911,
        -0.44068366289138794,
        0.182755246758461,
        -0.33630484342575073,
        0.05234481394290924,
        0.14540444314479828,
        -0.3155364990234375,
        -0.0034189375583082438,
        -0.1729743480682373,
        0.05226300284266472,
        -0.34641289710998535,
        -0.3464139699935913,
        -0.6096129417419434,
        -0.474702388048172,
        -0.24405862390995026,
        -0.03728346899151802,
        -0.16270793974399567,
        0.37255221605300903,
        0.09325405210256577,
        -0.0767175629734993,
        0.49374306201934814,
        0.007854262366890907,
        0.02043585665524006,
        0.2656598687171936,
        0.003448380855843425,
        -0.019199363887310028,
        0.05118627846240997,
        0.04174932837486267,
        14.58786392211914,
        -0.10126945376396179,
        -0.48072102665901184,
        0.05590908229351044,
        -0.5791642665863037,
        -0.778364360332489,
        -4.8669328689575195,
        0.03007681295275688,
        -0.6685935258865356,
        1.1862057447433472,
        -0.006186531390994787,
        1.109069585800171,
        -0.023623179644346237,
        0.036886658519506454,
        -0.22455453872680664,
        0.08679426461458206,
        -0.2985038459300995,
        -0.023793987929821014,
        0.6420504450798035,
        0.3336605131626129,
        -0.7776973247528076,
        -0.12218524515628815,
        0.028576401993632317,
        0.4558694362640381,
        0.5516393184661865,
        -0.9096813201904297,
        -0.07146614044904709,
        0.5580174922943115,
        0.5164600610733032,
        -0.043549515306949615,
        0.04487628489732742,
        0.31619998812675476,
        0.08335695415735245,
        -0.0004086314293090254,
        0.10638324916362762,
        0.3453206717967987,
        1.1059490442276,
        0.03138487786054611,
        -1.0149787664413452,
        1.2060890197753906,
        -1.2035061120986938,
        -0.8607669472694397,
        -0.5097208023071289,
        0.05519004166126251,
        -0.1681382954120636,
        0.3132430613040924,
        0.09126769751310349,
        4.130490779876709,
        0.25576475262641907,
        -0.12432276457548141,
        -0.9497507810592651,
        0.6382110714912415,
        0.42700302600860596,
        0.0047965580597519875,
        1.0386466979980469,
        -0.13256333768367767,
        2.3467540740966797,
        -4.009374618530273,
        -0.8788214921951294,
        -0.46177515387535095,
        0.014805047772824764,
        0.5835549235343933,
        -0.08444730192422867,
        0.05432681366801262,
        1.6687833070755005,
        0.05152073875069618,
        -0.02600809559226036,
        -1.03068208694458,
        0.043312445282936096,
        -0.03443840518593788,
        -0.26121100783348083,
        0.2077355831861496,
        1.0668858289718628,
        0.2526514530181885,
        0.4322364032268524,
        -2.853512763977051,
        -0.7040443420410156,
        0.9994108080863953,
        0.06383010745048523,
        0.03592545911669731,
        -0.24583376944065094,
        1.5581837892532349,
        0.45375004410743713,
        3.722991704940796,
        0.008242130279541016,
        -1.113158106803894,
        0.4220931828022003,
        0.585297703742981,
        0.8452526330947876,
        0.05803631618618965,
        1.1375185251235962,
        0.18145303428173065,
        3.4353978633880615,
        -0.8884387612342834,
        0.19659198820590973,
        -0.013019610196352005,
        0.09617191553115845,
        0.12799911201000214,
        0.19956471025943756,
        1.1225416660308838,
        0.8197633624076843,
        0.14067530632019043,
        -0.020761825144290924,
        0.29374274611473083,
        -0.009384670294821262,
        0.023154454305768013,
        -0.7196342349052429,
        -0.08026348799467087,
        -0.15513409674167633,
        0.3055037260055542,
        -1.6774098873138428,
        -0.7961731553077698,
        0.405704528093338,
        2.390774965286255,
        -2.674644947052002,
        0.11321382224559784,
        -0.5280832648277283,
        1.381670355796814,
        0.29633110761642456,
        -1.9615472555160522,
        0.1292387843132019,
        -1.0707167387008667,
        -0.06667301058769226,
        -0.18684235215187073,
        -0.14438210427761078,
        0.01045349519699812,
        -0.6966092586517334,
        0.9896264672279358,
        -0.4048507809638977,
        -0.012173478491604328,
        0.02478855475783348,
        -0.6021040678024292,
        0.5355971455574036,
        -1.938364028930664,
        0.0768028050661087,
        -1.2281759977340698,
        -0.36926189064979553,
        0.13243456184864044,
        0.059910278767347336,
        0.1990562379360199,
        -0.06089664250612259,
        -0.017361469566822052,
        -0.07831417769193649,
        -0.1736535131931305,
        -0.5537219643592834,
        -0.5839051604270935,
        0.6299085021018982,
        3.8727221488952637,
        -1.941521406173706,
        0.8296651840209961,
        0.8745728731155396,
        -0.5379241108894348,
        0.1657218039035797,
        2.870607376098633,
        -0.30991294980049133,
        2.685845136642456,
        0.029807426035404205,
        0.023807909339666367,
        -0.16501684486865997,
        -0.4407174587249756,
        0.17622880637645721,
        0.22902566194534302,
        0.6218268275260925,
        0.12694960832595825,
        6.338672637939453,
        0.18544022738933563,
        0.14736241102218628,
        0.7995812296867371,
        -1.8543100357055664,
        0.6589324474334717,
        0.13685590028762817,
        -1.5231486558914185,
        1.7484956979751587,
        0.07544832676649094,
        -0.023576797917485237,
        0.70151287317276,
        -0.027586502954363823,
        -0.03509686142206192,
        0.2821581959724426,
        0.0580795593559742,
        -1.1247880458831787,
        -0.05967235937714577,
        -0.9605264663696289,
        1.1570333242416382,
        -1.1396867036819458,
        -0.15496256947517395,
        6.410914421081543,
        -0.14391033351421356,
        -0.14560040831565857,
        -0.4978484809398651,
        -0.004653597250580788,
        2.359557628631592,
        0.036636028438806534,
        0.012244932353496552,
        0.21855859458446503,
        0.6502732634544373,
        -1.2053359746932983,
        -0.005488049704581499,
        0.7335978746414185,
        -0.5524596571922302,
        0.5650643110275269,
        -0.49009695649147034,
        0.013262251392006874,
        0.5099077224731445,
        0.5011458992958069,
        1.835657000541687,
        -0.43496787548065186,
        0.4453867971897125,
        2.953449010848999,
        0.08864348381757736,
        0.02405054308474064,
        -1.1703904867172241,
        0.18159964680671692,
        0.25775641202926636,
        0.5125133395195007,
        -0.0655970349907875,
        2.3180689811706543,
        -1.0182304382324219,
        -1.9374589920043945,
        -0.0024011116474866867,
        -0.2770331799983978,
        -1.1524683237075806,
        -2.9653680324554443,
        0.532597541809082,
        -0.305317223072052,
        0.8368054628372192,
        0.16568203270435333,
        -1.5332012176513672,
        0.09666086733341217,
        -0.24728162586688995,
        1.496939778327942,
        1.2117798328399658,
        3.1300761699676514,
        0.03132854029536247,
        0.18241684138774872,
        -0.23865708708763123,
        -1.9400986433029175,
        1.4964560270309448,
        -0.08688274025917053,
        -0.21176393330097198,
        0.6091018319129944,
        -2.0421981811523438,
        0.05110607296228409,
        0.6389009356498718,
        -1.3044209480285645,
        0.028106218203902245,
        -0.04209226742386818,
        0.020846305415034294,
        0.05342366173863411,
        0.08096745610237122,
        -0.4575301706790924,
        0.17721563577651978,
        -0.6733846068382263,
        0.30372846126556396,
        0.4284723997116089,
        2.1356515884399414,
        2.398831367492676,
        0.5053925514221191,
        0.8402529358863831,
        -0.5065741539001465,
        -0.323604941368103,
        -2.7140560150146484,
        0.09311050921678543,
        0.4622798562049866,
        -0.025649186223745346,
        -0.5402992963790894,
        -0.6115580797195435,
        -0.6263914108276367,
        0.47412994503974915,
        0.018429461866617203,
        1.365312099456787,
        -0.0019071996212005615,
        -5.865555763244629,
        2.456216812133789,
        0.04693477228283882,
        -0.39229506254196167,
        0.6063525080680847,
        -1.4162535667419434,
        -0.22366863489151,
        -0.3417896032333374,
        -0.6485278606414795,
        -0.0262753926217556,
        -0.35661426186561584,
        3.365391492843628,
        0.051772747188806534,
        -0.014206591993570328,
        -0.2918107509613037,
        0.03979121893644333,
        0.6626772880554199,
        0.04146268218755722,
        0.7189669609069824,
        2.5143864154815674,
        -0.5365647673606873,
        2.284505844116211,
        0.5303635597229004,
        0.7422109842300415,
        -0.1338529735803604,
        0.5650005340576172,
        0.09138965606689453,
        3.08502459526062,
        0.02779114805161953,
        0.16673453152179718,
        0.22631128132343292,
        -0.05972477048635483,
        1.094548225402832,
        0.02184179052710533,
        3.275437593460083,
        0.26776123046875,
        2.264528512954712,
        0.15346436202526093,
        0.020538631826639175,
        -0.367289662361145,
        1.1225500106811523,
        -0.5976001024246216
      ]
    },
    {
      "activation": "rectified",
      "architecture": "dense",
      "bias": [
        3.0067942142486572,
        -0.6310470700263977,
        -1.0228184461593628,
        -0.07283303141593933,
        2.675215244293213,
        0.17684558033943176,
        1.8709408044815063,
        -3.397414445877075,
        -0.331331729888916,
        -2.520585298538208,
        -3.788717269897461,
        -0.17530852556228638,
        -1.9189651012420654,
        -1.3171577453613281,
        -0.160952627658844,
        1.5417150259017944
      ],
      "weights": [
        -0.47706666588783264,
        -0.5385562181472778,
        0.15204845368862152,
        0.0683441311120987,
        0.24731577932834625,
        -0.16768214106559753,
        0.3569529056549072,
        0.4248190224170685,
        -0.14966943860054016,
        -0.05361638218164444,
        -0.8331555128097534,
        -0.2948437035083771,
        -0.03267868980765343,
        0.40686365962028503,
        -0.3219205439090729,
        -0.06565523147583008,
        0.10159359127283096,
        -0.5661588311195374,
        0.2639867663383484,
        -0.49897098541259766,
        0.7797574400901794,
        0.29368868470191956,
        -0.30482834577560425,
        0.3626907467842102,
        0.42808255553245544,
        0.3040056824684143,
        0.24932128190994263,
        0.40455734729766846,
        -0.865032434463501,
        0.10514678806066513,
        -0.2094336450099945,
        -0.20132532715797424,
        -0.21966338157653809,
        0.30583542585372925,
        -0.6496926546096802,
        -0.29291895031929016,
        0.1597786396741867,
        0.38358017802238464,
        0.22021427750587463,
        -0.5036757588386536,
        0.11516332626342773,
        0.5550301671028137,
        0.40514954924583435,
        -0.3323122560977936,
        -1.0976735353469849,
        -0.2636631727218628,
        -0.7901573777198792,
        0.3760814964771271,
        -0.5439431071281433,
        0.611247718334198,
        0.05007573217153549,
        0.6284961700439453,
        -2.239785671234131,
        -0.8766920566558838,
        -0.0031675759237259626,
        0.022221723571419716,
        -4.467622756958008,
        0.1614321768283844,
        -0.504000186920166,
        0.34422367811203003,
        -2.0238883735146374e-05,
        -2.8504161834716797,
        0.053265105932950974,
        0.35175621509552,
        -1.2007790803909302,
        -0.32117217779159546,
        -1.1175185441970825,
        -0.299114853143692,
        0.31442734599113464,
        -0.6483355164527893,
        0.04029667004942894,
        0.5417220592498779,
        0.35556548833847046,
        -2.3377091884613037,
        0.5696719288825989,
        -3.474260091781616,
        -1.2645992040634155,
        0.29545676708221436,
        0.2786095440387726,
        -1.6839543581008911,
        -0.48904794454574585,
        0.6561143398284912,
        -4.208466053009033,
        -0.6567286849021912,
        -0.7647508382797241,
        -0.00763328094035387,
        0.03012137860059738,
        -0.34106960892677307,
        -5.501303672790527,
        -3.50203537940979,
        -2.659712314605713,
        0.4984419345855713,
        -0.48043081164360046,
        -3.1335673332214355,
        1.1044371128082275,
        -0.5305324196815491,
        -0.375301331281662,
        0.09093672782182693,
        -0.3493138551712036,
        -0.27436137199401855,
        0.16546522080898285,
        0.1292242407798767,
        -0.15762761235237122,
        -0.09444054216146469,
        -0.3281818926334381,
        0.26514431834220886,
        -0.0005376048502512276,
        -0.10290049016475677,
        -0.31106966733932495,
        -0.07633450627326965,
        -0.0054652635008096695,
        -0.07017199695110321,
        -0.43848568201065063,
        -0.39089351892471313,
        -0.510913074016571,
        0.100119449198246,
        -0.3981753885746002,
        -0.4965495765209198,
        0.2416902333498001,
        -0.3558724820613861,
        0.11013355106115341,
        -0.5108327269554138,
        -0.21899357438087463,
        -0.2925534248352051,
        0.10661981999874115,
        0.0531005784869194,
        -0.41407713294029236,
        -0.22924937307834625,
        -0.2966744601726532,
        -0.21111410856246948,
        -0.18231800198554993,
        -0.2922450006008148,
        0.3534877896308899,
        0.3260664939880371,
        0.1327749490737915,
        0.2906368374824524,
        0.10567482560873032,
        0.8595770597457886,
        -0.058312058448791504,
        -0.09747271239757538,
        0.2433970421552658,
        0.18678830564022064,
        -0.2749388515949249,
        0.17463967204093933,
        -0.45513632893562317,
        -0.123325876891613,
        -0.10852307081222534,
        -0.8554650545120239,
        0.8407055139541626,
        0.3635512590408325,
        -0.13800537586212158,
        1.1984565258026123,
        0.27649545669555664,
        0.31975457072257996,
        -0.19474585354328156,
        -0.20691588521003723,
        -0.8003113865852356,
        -0.00087369279935956,
        -0.3244989812374115,
        -0.24592767655849457,
        -0.175201416015625,
        -0.17136795818805695,
        -0.7751379013061523,
        -0.2944556772708893,
        -0.07726859301328659,
        0.5973913073539734,
        0.04866190627217293,
        -1.2314656972885132,
        0.44567081332206726,
        -0.2638245224952698,
        -0.4533560872077942,
        0.5547547340393066,
        -0.022408319637179375,
        0.3088752329349518,
        0.07457051426172256,
        -0.4381709694862366,
        -0.0655740350484848,
        -0.8786529898643494,
        -0.3932185173034668,
        0.4826994240283966,
        0.15181560814380646,
        -0.0012480849400162697,
        -0.3032826781272888,
        0.5295732021331787,
        -0.024933453649282455,
        -0.24817341566085815,
        -0.31238284707069397,
        -0.23255212604999542,
        0.5057475566864014,
        -0.0235016867518425,
        0.0765773132443428,
        0.46110814809799194,
        0.05380652844905853,
        0.047356490045785904,
        0.22397808730602264,
        -0.12953852117061615,
        0.5280561447143555,
        -0.5044264197349548,
        0.11052518337965012,
        0.36375540494918823,
        -0.4064393639564514,
        0.21097518503665924,
        -0.0703565701842308,
        0.612718403339386,
        0.7548764944076538,
        -0.11903329938650131,
        -0.6647752523422241,
        0.7854666113853455,
        -0.25150957703590393,
        -0.8777627348899841,
        0.44427990913391113,
        0.3759590983390808,
        0.7212636470794678,
        0.3478347659111023,
        0.16103696823120117,
        0.598024845123291,
        -0.06851055473089218,
        -0.3566398322582245,
        0.1542414128780365,
        -0.530897855758667,
        -0.33531925082206726,
        0.5009576082229614,
        0.6558395624160767,
        -0.43700239062309265,
        -0.21113140881061554,
        -0.11262143403291702,
        0.02331305295228958,
        0.004046775866299868,
        0.00563633069396019,
        -0.054888349026441574,
        0.23375478386878967,
        0.4200519025325775,
        -0.2851434648036957,
        0.2295612245798111,
        -0.12403542548418045,
        -0.13084286451339722,
        -0.3200134038925171,
        0.6430914998054504,
        0.11471531540155411,
        0.05842198431491852,
        0.07652433961629868,
        -0.31658169627189636,
        -0.08364059776067734,
        -0.5166594982147217,
        0.01170298084616661,
        -1.3703142404556274,
        0.023249410092830658,
        0.6241018176078796,
        0.31901195645332336,
        0.2448520064353943,
        0.17539921402931213,
        0.040871307253837585,
        0.1472574919462204,
        -0.08509151637554169,
        0.033051956444978714,
        0.12694470584392548,
        -0.28641000390052795,
        0.020491059869527817,
        -0.1687975972890854,
        0.05612897872924805,
        -0.3306933343410492,
        -0.10676837712526321,
        0.05479174479842186,
        -0.41948357224464417,
        -0.019122274592518806,
        -0.2880186140537262,
        -0.16862192749977112,
        -0.44254112243652344,
        -0.46607863903045654,
        0.06995042413473129,
        -0.1655300408601761,
        -0.7085526585578918,
        -0.38787445425987244,
        -0.45040515065193176,
        -0.5511434078216553,
        -0.32354772090911865,
        0.4878256618976593,
        0.0013181314570829272,
        0.12667669355869293,
        0.2589932084083557,
        0.1078062355518341,
        -0.1982240080833435,
        -0.10068628191947937,
        -0.5888066291809082,
        -0.4420536458492279,
        -0.37607482075691223,
        0.011584771797060966,
        -0.07975742965936661,
        -0.24900788068771362,
        0.033071983605623245,
        -0.49663814902305603,
        0.25355470180511475,
        -0.8801968097686768,
        0.23763182759284973,
        -0.4684215188026428,
        -0.5083898305892944,
        0.3330376148223877,
        -0.2714114189147949,
        0.11868998408317566,
        -0.8746070265769958,
        -0.17450512945652008,
        0.22124359011650085,
        0.3719862103462219,
        -0.2427891194820404,
        0.1505739688873291,
        0.3044072091579437,
        -0.30244767665863037,
        -0.5194838047027588,
        -0.7188822627067566,
        0.3301181197166443,
        0.16863146424293518,
        -0.43842464685440063,
        0.1605767458677292,
        0.11798717826604843,
        -0.21108900010585785,
        0.7663978338241577,
        0.3113146126270294,
        -0.41258564591407776,
        -0.394978791475296,
        0.09728354960680008,
        -1.492606520652771,
        -0.7533440589904785,
        0.39208918809890747,
        0.06100653111934662,
        0.11821283400058746,
        -0.4683881103992462,
        0.24695822596549988,
        -0.14675559103488922,
        0.2807239294052124,
        -0.44351840019226074,
        0.177749902009964,
        0.16883371770381927,
        -0.3326779901981354,
        -0.2719711363315582,
        0.7060167193412781,
        -0.7590174674987793,
        0.39083096385002136,
        0.2898467183113098,
        -0.018680084496736526,
        -0.18502475321292877,
        -0.4959648847579956,
        -0.037190031260252,
        -0.029744433239102364,
        -1.5474601984024048,
        -0.022585270926356316,
        0.3928981423377991,
        -0.24610678851604462,
        -0.07431870698928833,
        0.9874361157417297,
        -0.22691209614276886,
        0.1933441311120987,
        -0.24183006584644318,
        0.17445744574069977,
        -0.28580591082572937,
        -0.22187283635139465,
        0.20981545746326447,
        0.5348252654075623,
        -0.20660005509853363,
        0.018964005634188652,
        0.33336445689201355,
        0.6542617082595825,
        0.11954250931739807,
        -0.008833975531160831,
        0.16358382999897003,
        -0.09861473739147186,
        -0.2558286190032959,
        -0.1733892858028412,
        0.16242755949497223,
        -0.14174284040927887,
        -0.17774097621440887,
        -0.05078107863664627,
        -0.45776674151420593,
        0.8594456315040588,
        1.2608859539031982,
        0.13895003497600555,
        -1.0673834085464478,
        -0.08919234573841095,
        -0.21271635591983795,
        0.13027283549308777,
        -0.09074129164218903,
        -0.4589724838733673,
        0.06984339654445648,
        0.09179376065731049,
        -0.2872611880302429,
        -0.820934534072876,
        -0.26191404461860657,
        -0.4607159197330475,
        -0.27383366227149963,
        0.5386850237846375,
        0.6093214750289917,
        0.17000630497932434,
        -1.0139057636260986,
        0.2525089383125305,
        -1.5386089086532593,
        0.6597653031349182,
        0.15141473710536957,
        -0.40068089962005615,
        0.18202242255210876,
        0.11310116201639175,
        -0.2405184656381607,
        0.17412064969539642,
        -0.1399374157190323,
        -0.9591332674026489,
        0.013307536020874977,
        0.0031331542413681746,
        -0.09263341128826141,
        0.1641613394021988,
        0.002761777024716139,
        0.7155040502548218,
        -0.4937760531902313,
        -1.0298027992248535,
        0.06725874543190002,
        0.17625218629837036,
        -0.07415641844272614,
        -0.03846888244152069,
        0.5864775776863098,
        -0.28451454639434814,
        -0.5061142444610596,
        0.15767674148082733,
        0.30284520983695984,
        0.17490772902965546,
        0.25429725646972656,
        0.41440415382385254,
        1.0198564529418945,
        0.4077066481113434,
        -0.07283324748277664,
        -0.02340449020266533,
        -0.04845681041479111,
        -0.2634662389755249,
        0.23185886442661285,
        -0.5283001661300659,
        -0.28932201862335205,
        0.49844396114349365,
        0.15033717453479767,
        -0.03502146154642105,
        -0.4712288975715637,
        -0.19286198914051056,
        0.33929383754730225,
        -0.1637708693742752,
        0.6220585703849792,
        0.1182335913181305,
        0.28065937757492065,
        0.17949695885181427,
        0.36105066537857056,
        -0.7253459692001343,
        -0.01868603006005287,
        -0.40592077374458313,
        0.07697506994009018,
        -0.285528302192688,
        0.26846709847450256,
        -0.19751624763011932,
        0.2498566210269928,
        -0.09124678373336792,
        -0.05438872426748276,
        0.02961377054452896,
        -0.16610990464687347,
        0.029743406921625137,
        -0.08271124213933945,
        0.11208413541316986,
        0.020759373903274536,
        -0.10746140778064728,
        -0.29142293334007263,
        0.07831430435180664,
        0.29054737091064453,
        -0.0030142199248075485,
        -0.26493707299232483,
        -0.4842635691165924,
        -0.48150143027305603,
        -0.25400426983833313,
        -0.13032835721969604,
        -0.30456775426864624,
        0.14302384853363037,
        0.11901973932981491,
        -0.09736955165863037,
        -0.28045767545700073,
        -0.551058292388916,
        0.09994553029537201,
        -0.12920592725276947,
        -0.35646966099739075,
        -0.26034265756607056,
        0.6007421612739563,
        -0.04700124263763428,
        0.10584656149148941,
        -0.25017261505126953,
        0.007046967279165983,
        0.07624195516109467,
        -0.08958263695240021,
        -0.26908397674560547,
        -0.24840134382247925,
        0.009306805208325386,
        0.0027131277602165937,
        0.003277789568528533,
        0.549473762512207,
        -0.6360316872596741,
        0.08101010322570801,
        -0.13723009824752808,
        -0.11142978072166443,
        0.4089515805244446,
        0.24525894224643707,
        0.3225579857826233,
        0.12081386893987656,
        1.4116579294204712,
        -0.09678485989570618,
        -0.15242166817188263,
        -0.11296553909778595,
        -0.07025425136089325,
        -0.14897890388965607,
        0.07900211215019226,
        -0.3873920440673828,
        0.016084592789411545,
        -0.4676038920879364,
        -0.1852496862411499
      ]
    },
    {
      "activation": "rectified",
      "architecture": "dense",
      "bias": [
        -0.30689987540245056,
        0.23673982918262482,
        0.35808297991752625,
        1.2641890048980713,
        2.5693061351776123,
        0.09942737966775894,
        -1.017534613609314,
        -0.49893125891685486,
        2.572777032852173,
        1.6623811721801758,
        -2.7904648780822754,
        -1.0100822448730469,
        -0.8513107299804688,
        0.0017664373153820634,
        -1.1505886316299438,
        -1.9873403310775757
      ],
      "weights": [
        -0.6186342239379883,
        0.2171613574028015,
        -0.4275747537612915,
        -0.024714399129152298,
        0.7040653824806213,
        -0.34833192825317383,
        0.19565331935882568,
        -0.023515503853559494,
        0.15629947185516357,
        0.14617890119552612,
        -0.5001247525215149,
        0.41442766785621643,
        -0.2235061228275299,
        0.43889757990837097,
        0.1714661717414856,
        0.0915961042046547,
        0.2579856514930725,
        0.07066968828439713,
        1.3738889694213867,
        0.15405288338661194,
        0.5207064747810364,
        -0.16287025809288025,
        0.2877914309501648,
        0.20187121629714966,
        -0.08459002524614334,
        0.06944383680820465,
        -1.254625678062439,
        -0.4149165451526642,
        -0.3177480399608612,
        -0.32217684388160706,
        -0.21921606361865997,
        0.7358312010765076,
        0.8983836770057678,
        -0.0053658075630664825,
        0.2565464377403259,
        -0.20147162675857544,
        0.10247749835252762,
        -0.1337134689092636,
        -0.49763011932373047,
        -0.30590811371803284,
        -0.0072151655331254005,
        0.2197684943675995,
        -0.1869429051876068,
        -0.010769604705274105,
        0.09921816736459732,
        -0.5947777628898621,
        0.2710624635219574,
        0.2973761558532715,
        0.23412194848060608,
        0.08074646443128586,
        -0.16410598158836365,
        -0.40773627161979675,
        0.6270309090614319,
        -0.06202065199613571,
        0.17952445149421692,
        -0.10820935666561127,
        -0.3834650218486786,
        -0.15793538093566895,
        -0.43278318643569946,
        0.003707064548507333,
        0.0035186423920094967,
        0.28256431221961975,
        -0.28944528102874756,
        -0.28452885150909424,
        0.22245103120803833,
        0.22995829582214355,
        -1.1192169189453125,
        -0.12205920368432999,
        0.5194661021232605,
        -0.38640692830085754,
        0.19482232630252838,
        -0.3747681975364685,
        0.1243099793791771,
        0.0895465761423111,
        -0.09420081973075867,
        0.6174001097679138,
        -0.04191362485289574,
        0.26792335510253906,
        0.11254813522100449,
        0.5196449160575867,
        0.002623863285407424,
        -0.35588470101356506,
        -0.6220630407333374,
        0.06217420846223831,
        -0.32044991850852966,
        0.14289377629756927,
        -0.1407993584871292,
        -0.46220943331718445,
        -0.2102251499891281,
        0.3629736304283142,
        0.12078224122524261,
        0.17582248151302338,
        0.030977565795183182,
        0.3753274083137512,
        -0.49170440435409546,
        0.38356468081474304,
        0.03505556285381317,
        0.161956325173378,
        0.5840674638748169,
        -0.037247031927108765,
        0.14953695237636566,
        0.4348011016845703,
        -0.06700650602579117,
        -0.5195366144180298,
        -0.0356907844543457,
        0.08622542768716812,
        -0.15279294550418854,
        0.34654584527015686,
        0.6122335195541382,
        -0.14918772876262665,
        -0.20599454641342163,
        0.15652024745941162,
        -0.6798622608184814,
        0.21026678383350372,
        1.053221583366394,
        -0.07466086000204086,
        -0.15460772812366486,
        -0.1451638638973236,
        -0.8400369882583618,
        0.25027668476104736,
        -0.3714049756526947,
        0.23917898535728455,
        0.46419450640678406,
        0.7263854742050171,
        0.39497002959251404,
        -0.5329931378364563,
        -0.1823687106370926,
        -0.45545727014541626,
        0.16910991072654724,
        0.31620150804519653,
        -3.1556127071380615,
        0.07218356430530548,
        0.4896712005138397,
        -0.10753409564495087,
        0.43862757086753845,
        -0.2867496609687805,
        0.48847058415412903,
        0.05312630906701088,
        -0.04927319288253784,
        0.1899002641439438,
        0.27304285764694214,
        -0.15199093520641327,
        0.25649818778038025,
        -0.5276591181755066,
        0.489436537027359,
        0.31832122802734375,
        1.1011426448822021,
        0.2924255430698395,
        0.6698564291000366,
        -0.08125437796115875,
        -0.061646606773138046,
        -0.19998863339424133,
        0.00842823926359415,
        -0.2128576785326004,
        -0.683851957321167,
        0.12691830098628998,
        -0.536323606967926,
        -0.0656750351190567,
        0.3582482635974884,
        0.11107408255338669,
        -0.02938760817050934,
        0.5652479529380798,
        1.2357977628707886,
        0.26140543818473816,
        0.27719902992248535,
        -0.9763340353965759,
        -0.3159152865409851,
        0.5760152339935303,
        -0.08167481422424316,
        0.19082124531269073,
        0.22989016771316528,
        -0.2253558337688446,
        0.04611073434352875,
        -0.055265408009290695,
        0.3017924129962921,
        -0.007968539372086525,
        -0.9217012524604797,
        -0.06326226890087128,
        -0.5083206295967102,
        -0.36093956232070923,
        0.634832501411438,
        -0.21025487780570984,
        0.1280117928981781,
        0.2044062316417694,
        -0.2615070641040802,
        -0.18440642952919006,
        -0.01857694610953331,
        -0.12470000982284546,
        -0.4767051637172699,
        0.17963182926177979,
        0.3850886821746826,
        -0.15722748637199402,
        0.24430616199970245,
        0.03199964389204979,
        0.02878180518746376,
        -0.3084132671356201,
        0.5614906549453735,
        -0.3385753333568573,
        0.029069479554891586,
        0.39864999055862427,
        0.12690292298793793,
        0.07181399315595627,
        -0.21453741192817688,
        -0.4087924659252167,
        0.17682857811450958,
        0.45492976903915405,
        -0.051601342856884,
        -0.39220625162124634,
        -0.1026839092373848,
        0.7752026319503784,
        0.4191718101501465,
        0.0052728429436683655,
        0.9093306064605713,
        -0.3589355945587158,
        -0.22236883640289307,
        -0.5481325387954712,
        0.23392342031002045,
        0.01306893490254879,
        0.06303522735834122,
        0.5668545365333557,
        0.4163723886013031,
        -0.28821104764938354,
        -0.15456657111644745,
        -0.2179577797651291,
        -0.033105943351984024,
        0.7200716137886047,
        0.911672830581665,
        0.22095084190368652,
        -0.34552228450775146,
        0.36251604557037354,
        -0.3307701051235199,
        -0.2576099634170532,
        0.1656288057565689,
        0.9270965456962585,
        0.2172880470752716,
        0.46122562885284424,
        0.4973038136959076,
        0.461140900850296,
        0.09785860776901245,
        -0.09911984950304031,
        -0.39194220304489136,
        0.6025952696800232,
        1.2985796928405762,
        -0.014526979066431522,
        -0.8917915225028992,
        0.382183700799942,
        -0.13823507726192474,
        0.3199877440929413,
        -0.015599194914102554,
        0.6398840546607971,
        0.10508155822753906,
        1.0081312656402588,
        0.10554323345422745,
        0.008776342496275902,
        0.12423398345708847,
        -0.10559201240539551
      ]
    },
    {
      "activation": "rectified",
      "architecture": "dense",
      "bias": [
        -0.5637699961662292,
        -0.6414559483528137,
        -1.1420873403549194,
        -0.5381287932395935,
        -1.737585186958313,
        0.04635930433869362,
        0.9916683435440063,
        0.4395630657672882,
        1.2156028747558594,
        -0.16823047399520874,
        -0.44363343715667725,
        -0.2722839415073395,
        -2.1739609241485596,
        0.6389890313148499,
        0.7027329802513123,
        0.7287243008613586
      ],
      "weights": [
        -0.2135682851076126,
        -0.07762710750102997,
        -0.1146794930100441,
        -0.013094465248286724,
        -0.02242024429142475,
        -0.1832846701145172,
        -0.04538831114768982,
        -0.26947465538978577,
        -0.586178183555603,
        0.7217276096343994,
        -0.3349807560443878,
        0.3522958755493164,
        0.19864100217819214,
        0.6845089197158813,
        -0.047577016055583954,
        -0.0525318905711174,
        -0.2038906067609787,
        -0.08583437651395798,
        0.28366774320602417,
        -0.14309653639793396,
        -0.22914403676986694,
        -0.051738105714321136,
        -0.10299767553806305,
        -0.29558491706848145,
        0.04126964136958122,
        -0.1282782256603241,
        0.2948485016822815,
        -0.371739000082016,
        0.6351504325866699,
        -0.0859413594007492,
        -0.14095640182495117,
        0.3892388343811035,
        -0.5442194938659668,
        -1.2041877508163452,
        -2.1334400177001953,
        -1.0059109926223755,
        -1.3714348077774048,
        0.10987227410078049,
        0.2265484482049942,
        0.9492190480232239,
        -0.03374888747930527,
        -0.9249610304832458,
        0.22186273336410522,
        -0.8387447595596313,
        0.1319163739681244,
        -1.0839269161224365,
        0.004055522382259369,
        0.5058397054672241,
        -0.20183613896369934,
        -0.14458709955215454,
        0.37502384185791016,
        1.0260980129241943,
        -0.07438699156045914,
        -0.06753852218389511,
        -0.20372289419174194,
        -0.3664812743663788,
        -0.2117014080286026,
        -0.1502944976091385,
        0.49379485845565796,
        1.125118613243103,
        -0.9692984223365784,
        -0.15580657124519348,
        0.03606974333524704,
        0.040970247238874435,
        -0.1504814773797989,
        -0.17568649351596832,
        0.1338815540075302,
        -0.2533455193042755,
        -0.10393983870744705,
        0.10038658231496811,
        0.062811478972435,
        0.5450270175933838,
        -0.30924883484840393,
        -0.07526323944330215,
        0.3024787902832031,
        0.18379537761211395,
        0.11286991089582443,
        -0.46648237109184265,
        0.6183081865310669,
        0.32072633504867554,
        0.13056285679340363,
        0.2772466838359833,
        0.3880886435508728,
        0.5997322201728821,
        0.07740017771720886,
        0.2331656664609909,
        -0.9412847757339478,
        -0.4206504225730896,
        0.14808174967765808,
        0.13146013021469116,
        -0.1872171312570572,
        0.4634552597999573,
        0.3115050494670868,
        1.0018993616104126,
        -0.35507452487945557,
        -0.47938409447669983,
        0.3632771074771881,
        0.16714464128017426,
        0.6602272391319275,
        0.27693670988082886,
        0.73154217004776,
        -0.036113109439611435,
        0.0796111673116684,
        -0.1910581737756729,
        -0.007915272377431393,
        -0.12382059544324875,
        -0.40253907442092896,
        0.2724631726741791,
        -0.25966107845306396,
        0.30273959040641785,
        -0.05872030183672905,
        -0.20403698086738586,
        0.109039306640625,
        -0.010120315477252007,
        -0.291118323802948,
        -0.2353639006614685,
        0.3696380853652954,
        -0.02023925445973873,
        0.3343479633331299,
        0.2892392873764038,
        -0.021112658083438873,
        0.3328770399093628,
        -0.9997581243515015,
        0.4474804103374481,
        -0.5378292798995972,
        0.3882814943790436,
        0.17506060004234314,
        -0.5275553464889526,
        0.1767294704914093,
        0.07593058794736862,
        0.5772586464881897,
        -0.008679102174937725,
        0.39325347542762756,
        0.12741179764270782,
        -0.1995392143726349,
        -2.6918857097625732,
        0.3140206038951874,
        0.2782018482685089,
        -0.256301611661911,
        0.8065389394760132,
        0.43830350041389465,
        0.30926787853240967,
        -0.1488076001405716,
        -0.3648631274700165,
        0.3456437289714813,
        0.1393193155527115,
        -0.13356345891952515,
        0.20146067440509796,
        -1.290636658668518,
        0.7976653575897217,
        -0.05311070382595062,
        0.008286479860544205,
        0.21960538625717163,
        0.5592467188835144,
        0.3923934996128082,
        -0.010416323319077492,
        -0.20090170204639435,
        0.34458014369010925,
        -0.26233693957328796,
        -0.24729859828948975,
        0.9923012256622314,
        -0.23050132393836975,
        -2.156761884689331,
        0.03658000007271767,
        -0.1200433224439621,
        0.07843337208032608,
        -0.15724876523017883,
        0.3233596384525299,
        -1.2156893014907837,
        -0.6038153767585754,
        -0.0407964363694191,
        -0.010387211106717587,
        0.20460426807403564,
        0.5156486630439758,
        -0.029786547645926476,
        -0.04618595913052559,
        0.13367801904678345,
        -0.019155453890562057,
        0.5626002550125122,
        0.051133543252944946,
        -0.17924323678016663,
        1.0211811065673828,
        0.2729314863681793,
        0.12309464812278748,
        -0.21001732349395752,
        -0.24588042497634888,
        0.057375770062208176,
        -0.17515957355499268,
        -0.08141306787729263,
        0.7596301436424255,
        -0.5175861716270447,
        0.3300762474536896,
        -0.05571356415748596,
        0.5188406705856323,
        0.38965460658073425,
        0.20581267774105072,
        -0.3977850079536438,
        -0.18683934211730957,
        -0.07530771195888519,
        -0.24099977314472198,
        0.08310636878013611,
        -0.21750764548778534,
        0.093851238489151,
        0.5498424768447876,
        0.5754930973052979,
        0.35194382071495056,
        -0.32720279693603516,
        0.022483548149466515,
        0.09012317657470703,
        0.3125403821468353,
        -0.30336689949035645,
        0.013389529660344124,
        0.2461257427930832,
        -0.007652446161955595,
        -0.568939745426178,
        0.22051291167736053,
        0.211710587143898,
        0.25171762704849243,
        -0.22048147022724152,
        0.39110898971557617,
        -0.13360421359539032,
        0.1687750220298767,
        -0.9650946855545044,
        -0.0030332289170473814,
        0.033858221024274826,
        -0.12304792553186417,
        0.476724773645401,
        0.23194833099842072,
        -0.014773654751479626,
        0.1700219064950943,
        -0.1732853204011917,
        -0.18422634899616241,
        -0.15220777690410614,
        0.008745314553380013,
        0.2928614616394043,
        0.3436969518661499,
        0.4842129647731781,
        -0.16889098286628723,
        0.5190215110778809,
        -0.11357329785823822,
        -0.03651002049446106,
        0.7240870594978333,
        -0.7100077271461487,
        0.24345695972442627,
        -0.4622766077518463,
        -0.6430525183677673,
        -0.3286266624927521,
        0.30548423528671265,
        -0.02368473820388317,
        0.1789037585258484,
        0.031539324671030045,
        0.8918078541755676,
        0.035623352974653244,
        0.6698551774024963,
        -0.27844369411468506,
        -0.2165713906288147
      ]
    },
    {
      "activation": "rectified",
      "architecture": "dense",
      "bias": [
        0.3524529039859772,
        0.8899074792861938,
        0.09900716692209244,
        -0.12737928330898285,
        0.15128473937511444,
        -1.1859451532363892,
        0.006526397541165352,
        -1.5295360088348389,
        0.2671279013156891,
        -0.12279205024242401,
        -1.3115557432174683,
        0.43807104229927063,
        -0.717204213142395,
        -0.1318565160036087,
        -0.6415368914604187,
        -1.342848777770996
      ],
      "weights": [
        0.4451386034488678,
        -0.0951739028096199,
        0.1000375747680664,
        -1.702682375907898,
        -0.23057708144187927,
        -0.6196664571762085,
        0.06358767300844193,
        -0.19532090425491333,
        -0.03591037541627884,
        -0.33005788922309875,
        0.01822400465607643,
        -0.3958691954612732,
        1.0523661375045776,
        0.2069549262523651,
        -0.04399671405553818,
        0.5543398261070251,
        0.024231260642409325,
        -0.1947699785232544,
        -0.82112056016922,
        -0.11420641839504242,
        -0.47230324149131775,
        -0.09260343015193939,
        0.139060378074646,
        0.3072683811187744,
        0.44494765996932983,
        0.6293043494224548,
        -0.02600104548037052,
        -0.32014286518096924,
        0.3830074667930603,
        0.4409655034542084,
        -0.08421013504266739,
        0.2868477702140808,
        0.156510591506958,
        -0.18991819024085999,
        -0.06043165549635887,
        -1.1437082290649414,
        0.019990719854831696,
        0.11577995866537094,
        0.5751107335090637,
        0.047019366174936295,
        -0.32919472455978394,
        0.5480877757072449,
        0.13049434125423431,
        0.17098134756088257,
        -0.1965462863445282,
        -0.011589166708290577,
        -0.1406906694173813,
        -0.034622229635715485,
        0.20695054531097412,
        -0.7306721806526184,
        0.5967851877212524,
        -0.296122670173645,
        -0.2632126808166504,
        -0.8566661477088928,
        -0.7811603546142578,
        0.38581135869026184,
        0.19055944681167603,
        0.6532233953475952,
        -2.668619394302368,
        -0.20709876716136932,
        -1.0665494203567505,
        -0.23427055776119232,
        -1.0461198091506958,
        -1.8746329545974731,
        -0.19658812880516052,
        -0.11617795377969742,
        0.6086005568504333,
        -0.31099897623062134,
        -0.9884611964225769,
        -0.019573163241147995,
        -0.8206294178962708,
        0.6239834427833557,
        -0.028360648080706596,
        -0.21915596723556519,
        -0.28885403275489807,
        0.5807348489761353,
        -0.11902426183223724,
        0.6280506253242493,
        0.5121052861213684,
        -0.5237787961959839,
        0.13547024130821228,
        0.2000093311071396,
        0.08195541054010391,
        0.42186641693115234,
        0.02649451419711113,
        -0.18451383709907532,
        -0.40082740783691406,
        -0.38752055168151855,
        0.12902885675430298,
        -0.7264085412025452,
        0.07101455330848694,
        -0.32265570759773254,
        0.4504455327987671,
        0.03445162624120712,
        0.11714593321084976,
        -0.11886239051818848,
        0.4104016423225403,
        0.16603924334049225,
        -0.0670643225312233,
        0.8058192729949951,
        -0.12428396940231323,
        0.2705470323562622,
        0.0340915285050869,
        -0.21089191734790802,
        0.27221766114234924,
        0.09407010674476624,
        0.21074923872947693,
        -0.19791191816329956,
        0.43700480461120605,
        -0.01805482991039753,
        0.5035665035247803,
        -0.3903169631958008,
        -0.9202291965484619,
        0.25325560569763184,
        0.497514009475708,
        0.32067713141441345,
        0.6886882185935974,
        -0.44900691509246826,
        -0.2040417343378067,
        -0.05891124904155731,
        -0.2722284197807312,
        -0.8204975724220276,
        -0.5459438562393188,
        -0.16850720345973969,
        -0.0157364159822464,
        -2.0215554237365723,
        -0.019451593980193138,
        -0.398187518119812,
        -0.08598028868436813,
        -0.17726373672485352,
        -0.22880931198596954,
        -0.14084601402282715,
        0.13577792048454285,
        -0.03214513137936592,
        0.21306593716144562,
        0.27204570174217224,
        0.19857676327228546,
        0.5081092715263367,
        -0.16627603769302368,
        0.24413935840129852,
        -0.2146494835615158,
        -0.2404605597257614,
        -0.1915787011384964,
        -0.15815097093582153,
        0.1784755140542984,
        0.690646231174469,
        0.1870226114988327,
        0.48156142234802246,
        -0.219077005982399,
        0.42761507630348206,
        0.03471136465668678,
        -0.02530614286661148,
        -0.5622841119766235,
        -0.10479456931352615,
        -0.22854474186897278,
        0.041966166347265244,
        -0.7310842275619507,
        0.12474395334720612,
        0.11872624605894089,
        0.2968137264251709,
        -1.075621485710144,
        -0.38972654938697815,
        0.40507230162620544,
        -0.21147724986076355,
        0.5267699360847473,
        -3.36612868309021,
        -0.9414914846420288,
        0.570996105670929,
        -0.8216477036476135,
        -0.8325627446174622,
        -0.5107811093330383,
        -0.6055430173873901,
        -0.2918905019760132,
        -0.7678194046020508,
        0.028606394305825233,
        -1.1791986227035522,
        0.2611330449581146,
        -0.06464724987745285,
        -0.7179919481277466,
        -0.17857655882835388,
        -0.23519232869148254,
        0.5836095213890076,
        0.3825298845767975,
        0.07858794927597046,
        0.09264850616455078,
        0.7550414204597473,
        0.22561998665332794,
        -0.13175611197948456,
        0.1346081793308258,
        0.1593947559595108,
        -0.1625773012638092,
        -0.013089969754219055,
        0.20846328139305115,
        -0.3034418821334839,
        -0.3666244447231293,
        0.47591137886047363,
        -0.07593529671430588,
        -0.07301560044288635,
        -0.03693711757659912,
        -0.24408195912837982,
        -0.1277901828289032,
        -0.06511199474334717,
        0.1814018040895462,
        -0.327042818069458,
        -0.19599677622318268,
        0.19891147315502167,
        -0.024710286408662796,
        0.15710857510566711,
        0.0051439860835671425,
        -0.19526006281375885,
        -0.11796920746564865,
        0.06093508377671242,
        0.3773556649684906,
        -0.1262076199054718,
        0.39940688014030457,
        0.24063976109027863,
        0.005207574926316738,
        0.3605876863002777,
        -0.27762678265571594,
        0.21484634280204773,
        -0.19680780172348022,
        -0.19747668504714966,
        0.4883217215538025,
        -0.1577705442905426,
        0.10573098063468933,
        0.057434242218732834,
        -0.07065953314304352,
        0.12492583692073822,
        0.08591723442077637,
        -0.5051177144050598,
        -0.37378841638565063,
        0.010338730178773403,
        0.8806765675544739,
        -0.10432780534029007,
        0.026302704587578773,
        0.024401424452662468,
        -0.07354001700878143,
        -0.04079370200634003,
        -0.39504826068878174,
        0.04521675035357475,
        -0.1992555409669876,
        0.7957062125205994,
        -0.32975271344184875,
        0.23352473974227905,
        0.2899472713470459,
        0.07394029945135117,
        0.023057246580719948,
        -0.5345222353935242,
        0.23562553524971008,
        -0.5942666530609131,
        0.07975613325834274,
        0.6990500092506409,
        0.1453346461057663,
        -0.13916094601154327,
        -0.7194774150848389,
        -0.2054002583026886
      ]
    },
    {
      "activation": "rectified",
      "architecture": "dense",
      "bias": [
        -0.4283568561077118,
        -0.5741361379623413,
        -0.3070293366909027,
        -0.73854660987854,
        -0.012773584574460983,
        -0.04652527719736099,
        -0.3952702283859253,
        0.07797130942344666,
        0.6326817274093628,
        0.3474195897579193,
        0.03716050833463669,
        -0.836520254611969,
        -0.7795609831809998,
        -0.8629412055015564,
        -0.5011599659919739,
        0.1341358721256256
      ],
      "weights": [
        -0.09780346602201462,
        0.3906901776790619,
        -0.1071724221110344,
        -0.545073390007019,
        -0.04949764534831047,
        -0.2437390238046646,
        0.11337403208017349,
        -0.3569220304489136,
        -0.1666645109653473,
        0.3584953844547272,
        0.7649652361869812,
        -0.21307110786437988,
        0.4730362296104431,
        0.03536473214626312,
        0.10056288540363312,
        -0.07105425000190735,
        0.021269164979457855,
        -0.5334275960922241,
        -0.05149818956851959,
        -0.03807632625102997,
        0.5960555672645569,
        0.08808926492929459,
        -0.06932549923658371,
        -0.00747754005715251,
        0.04741709306836128,
        -0.824127197265625,
        0.05415486544370651,
        0.32217293977737427,
        0.42081335186958313,
        -0.09437909722328186,
        0.6360159516334534,
        -0.5316261649131775,
        0.24923281371593475,
        0.1660638153553009,
        -0.5271406173706055,
        0.03928608447313309,
        0.009168668650090694,
        0.6108685731887817,
        -0.0016564190154895186,
        0.03134066238999367,
        -0.25097960233688354,
        0.4551240801811218,
        0.0076919542625546455,
        -0.13148276507854462,
        0.27456167340278625,
        0.05383976921439171,
        -0.7442625164985657,
        0.2770606577396393,
        -0.2226504236459732,
        -0.1474633365869522,
        -0.10900091379880905,
        0.16057351231575012,
        -0.8209185600280762,
        -0.28282108902931213,
        -0.10084670782089233,
        0.13954989612102509,
        0.44385334849357605,
        -0.7632477283477783,
        0.04172535985708237,
        0.1666870415210724,
        0.1160849779844284,
        -0.496479868888855,
        0.6851661205291748,
        0.46417170763015747,
        -0.9050300121307373,
        0.13416706025600433,
        -0.2892680764198303,
        0.7280316352844238,
        -1.8198816776275635,
        -1.246383547782898,
        -1.6820544004440308,
        0.06192966178059578,
        -0.3818896412849426,
        -1.183359980583191,
        0.3926878869533539,
        -0.2661641240119934,
        0.05091884732246399,
        -0.23929283022880554,
        -1.6575177907943726,
        -0.755592942237854,
        -0.21069616079330444,
        0.1423628330230713,
        0.4707080125808716,
        0.16689710319042206,
        -0.016652660444378853,
        -0.07529569417238235,
        0.04098837822675705,
        -0.26519712805747986,
        0.5235189199447632,
        0.02848081849515438,
        0.3523797392845154,
        -0.152450829744339,
        0.008337749168276787,
        -0.051960449665784836,
        0.03351406753063202,
        -0.1047598347067833,
        -0.20633628964424133,
        0.004421551246196032,
        0.04130271077156067,
        -0.6580885052680969,
        0.6083390116691589,
        -0.026284629479050636,
        -0.05259183049201965,
        0.044454626739025116,
        -0.030522672459483147,
        -0.03836022689938545,
        -0.06264330446720123,
        0.0002364901447435841,
        -0.2092275619506836,
        0.8108562231063843,
        -0.03230350837111473,
        0.31734925508499146,
        -0.09549190104007721,
        -0.18154528737068176,
        -0.49786901473999023,
        0.2055429220199585,
        0.0637042373418808,
        0.840448260307312,
        -2.478590965270996,
        -0.16056188941001892,
        -0.22406093776226044,
        -0.00017040580860339105,
        -0.059532281011343,
        0.523403525352478,
        0.14724692702293396,
        0.28949174284935,
        0.35553500056266785,
        -0.07732459157705307,
        0.1918613165616989,
        0.5640518069267273,
        0.08113756775856018,
        0.30865082144737244,
        -0.03651878982782364,
        -0.25886014103889465,
        -0.11741571128368378,
        -0.0009088178630918264,
        -0.38241419196128845,
        0.3222483992576599,
        0.13451458513736725,
        0.011948345229029655,
        0.8222343921661377,
        -0.228633314371109,
        -0.0029576709493994713,
        0.12132956087589264,
        0.008911476470530033,
        0.2968657314777374,
        0.19730690121650696,
        -0.21516132354736328,
        -0.2256154865026474,
        -0.013534937053918839,
        0.12972921133041382,
        -0.33734482526779175,
        0.07930316030979156,
        0.3305245637893677,
        -1.6035356521606445,
        0.6017494201660156,
        0.4271780550479889,
        0.04978316277265549,
        0.7779277563095093,
        -0.36195024847984314,
        -1.0360928773880005,
        -0.8160785436630249,
        -0.7541057467460632,
        -0.582590639591217,
        -1.2077068090438843,
        -0.9848076701164246,
        -0.7505784630775452,
        -0.4342893064022064,
        0.36966419219970703,
        0.33189666271209717,
        -0.9144866466522217,
        -0.8629027009010315,
        0.07550005614757538,
        -0.2275071144104004,
        -0.6937301754951477,
        0.3466566205024719,
        0.37747758626937866,
        -0.1698177456855774,
        -0.5316076278686523,
        0.10166711360216141,
        -0.28654614090919495,
        0.34809720516204834,
        -0.16260740160942078,
        -0.12956178188323975,
        -0.9489041566848755,
        0.23584048449993134,
        -0.11608701199293137,
        0.33196908235549927,
        0.25247058272361755,
        -0.25961780548095703,
        -0.1342659890651703,
        0.2995441257953644,
        0.5219155550003052,
        -1.237485647201538,
        -0.293740838766098,
        0.8533822298049927,
        1.0316767692565918,
        -0.049268584698438644,
        0.02376585453748703,
        0.6498762965202332,
        0.01996016688644886,
        0.09151795506477356,
        0.5915873050689697,
        -1.2211003303527832,
        -1.299533486366272,
        -0.013389152474701405,
        -1.6112909317016602,
        0.4503941535949707,
        -0.6481330990791321,
        -1.2796103954315186,
        -0.3877207040786743,
        0.07628154754638672,
        0.5579285025596619,
        -0.043444134294986725,
        -0.3568466007709503,
        0.6450449824333191,
        -0.24673667550086975,
        0.24348938465118408,
        -0.4214332699775696,
        -2.828300714492798,
        -0.2829744219779968,
        0.016430966556072235,
        -1.2096997499465942,
        0.14063698053359985,
        -0.5837047696113586,
        -0.46173152327537537,
        -0.28531238436698914,
        0.6885823011398315,
        0.38112151622772217,
        0.0753319188952446,
        0.12334708124399185,
        0.29814276099205017,
        0.2949925363063812,
        0.1060914695262909,
        0.07289208471775055,
        -0.1714181900024414,
        -0.0032195800449699163,
        0.08135321736335754,
        -0.023883745074272156,
        0.4537920355796814,
        -0.06355366110801697,
        -0.09149715304374695,
        0.0005234396667219698,
        -0.6843736171722412,
        -0.09087249636650085,
        0.10510866343975067,
        0.7029377818107605,
        -0.004554597660899162,
        -0.006095236167311668,
        0.3642945885658264,
        0.012381276115775108,
        -0.002941669197753072,
        0.8064713478088379,
        0.0034813496749848127,
        0.5081430077552795,
        0.1368626356124878
      ]
    },
    {
      "activation": "rectified",
      "architecture": "dense",
      "bias": [
        -0.21726162731647491,
        -0.3724867105484009,
        0.5460928678512573,
        0.012547911144793034,
        -0.35530683398246765,
        0.07507909089326859,
        -0.14939388632774353,
        0.17052005231380463,
        -0.1802327036857605,
        -0.08627726882696152,
        -0.15972048044204712,
        -0.8857399225234985,
        0.1905820220708847,
        -0.057885318994522095,
        0.22038587927818298,
        -0.3877411484718323
      ],
      "weights": [
        0.00943823717534542,
        -0.3341327905654907,
        0.027822664007544518,
        0.05047443136572838,
        -0.4739331603050232,
        0.0019428185187280178,
        -0.25119322538375854,
        0.8773362040519714,
        -0.13790388405323029,
        -0.020639078691601753,
        -0.4037318825721741,
        0.15022078156471252,
        0.1241828054189682,
        -0.06584963947534561,
        0.17287765443325043,
        0.4702773690223694,
        -0.005768094677478075,
        0.006709923967719078,
        -0.18663381040096283,
        0.2392067164182663,
        0.26656243205070496,
        0.3369239568710327,
        -0.06891331076622009,
        0.19268891215324402,
        0.24319647252559662,
        -0.5110973119735718,
        -0.27117398381233215,
        0.08202146738767624,
        -0.2868025600910187,
        -0.5762091279029846,
        -0.1944735199213028,
        0.3203590512275696,
        -0.05349022150039673,
        0.6576846241950989,
        -1.28302001953125,
        -0.6129721999168396,
        0.3190942704677582,
        0.4541262090206146,
        0.08665993809700012,
        -0.19788230955600739,
        0.6346760988235474,
        -0.10027435421943665,
        -0.3331463932991028,
        0.3343169391155243,
        -0.018568577244877815,
        -0.004577306564897299,
        0.21392551064491272,
        -0.974523663520813,
        -0.21057343482971191,
        0.5464763641357422,
        -0.1796758472919464,
        0.09093576669692993,
        0.007359358482062817,
        0.22782346606254578,
        0.09555120021104813,
        0.27734947204589844,
        0.47415003180503845,
        -1.7311954498291016,
        0.9563028812408447,
        -0.43897706270217896,
        -0.2654264271259308,
        -0.043568775057792664,
        -0.22230684757232666,
        0.06980434060096741,
        0.008913966827094555,
        -0.07688993215560913,
        0.12339074164628983,
        -0.5309134721755981,
        0.7154325246810913,
        0.1287093460559845,
        -0.23759645223617554,
        -0.7627745866775513,
        0.27906563878059387,
        -0.07846386730670929,
        0.2862221896648407,
        -0.21082496643066406,
        0.5366153717041016,
        0.2119920253753662,
        0.04314986616373062,
        -0.4041697084903717,
        0.06941910833120346,
        -0.07120101153850555,
        -0.11253015697002411,
        0.2540333569049835,
        -0.029877956956624985,
        -0.14512303471565247,
        0.04397407919168472,
        0.8632854223251343,
        0.041598428040742874,
        0.13251085579395294,
        -0.18635354936122894,
        -0.07827938348054886,
        -0.29005223512649536,
        -0.2683001160621643,
        -0.08082930743694305,
        0.464950829744339,
        0.3747551739215851,
        -0.10128550976514816,
        -0.04994230717420578,
        0.26534056663513184,
        -1.0062830448150635,
        0.008779973722994328,
        0.15762722492218018,
        0.08028544485569,
        0.10156147927045822,
        -0.17242692410945892,
        -0.2274966686964035,
        0.15786363184452057,
        -0.6926451325416565,
        -0.06011172756552696,
        -0.5977050065994263,
        -1.419958472251892,
        -0.10075169056653976,
        -0.09784946590662003,
        0.23764406144618988,
        0.12766101956367493,
        -0.27368760108947754,
        0.1686471700668335,
        -0.04618722200393677,
        0.43805864453315735,
        0.08215492218732834,
        -0.1622825264930725,
        0.6787248849868774,
        0.08694443106651306,
        -0.03957469016313553,
        0.09195174276828766,
        -0.008885628543794155,
        0.47482508420944214,
        0.0411376915872097,
        -0.3330230712890625,
        0.017851009964942932,
        0.4727139472961426,
        -0.025891873985528946,
        0.04620245844125748,
        0.617374837398529,
        0.10219018161296844,
        -0.3250316083431244,
        -0.3125483989715576,
        0.32268527150154114,
        -0.368793249130249,
        0.3072875440120697,
        -0.008147042244672775,
        0.15444807708263397,
        0.14779528975486755,
        -2.001919746398926,
        -1.4935647249221802,
        -0.47173455357551575,
        -0.47589656710624695,
        -1.5735944509506226,
        -0.9391970634460449,
        -0.12001416832208633,
        -1.7636919021606445,
        -1.263986349105835,
        -1.4555915594100952,
        -1.0916130542755127,
        -0.7940182685852051,
        -0.4592950642108917,
        1.0351786613464355,
        0.277416855096817,
        -0.17562472820281982,
        0.06596645712852478,
        0.46557483077049255,
        0.2123974859714508,
        -0.4867236912250519,
        0.5948660373687744,
        -0.04091139882802963,
        -0.6941877007484436,
        -0.24285173416137695,
        0.25152456760406494,
        0.3648756444454193,
        0.869247555732727,
        0.37582695484161377,
        -0.24171458184719086,
        0.8217607140541077,
        -1.0038249492645264,
        -0.18402042984962463,
        0.16299518942832947,
        -0.3148631751537323,
        -0.4768526554107666,
        0.26277637481689453,
        0.5099214315414429,
        0.09800286591053009,
        -1.3869044780731201,
        0.1409682035446167,
        -0.012012132443487644,
        -0.934185266494751,
        -0.5215569138526917,
        0.7287845015525818,
        -0.11220147460699081,
        -0.2678775191307068,
        0.15795262157917023,
        -1.4812345504760742,
        -0.18319261074066162,
        -0.2955557405948639,
        -0.7275410294532776,
        0.004855409264564514,
        -0.009554619900882244,
        0.6004362106323242,
        -2.04364275932312,
        0.6126915216445923,
        -0.2588783800601959,
        -0.05710693448781967,
        -0.1525050848722458,
        -1.0758411884307861,
        0.08178804069757462,
        -0.163290873169899,
        0.8793246150016785,
        0.30447623133659363,
        -0.11288457363843918,
        0.44341787695884705,
        -0.13581028580665588,
        -0.05225903540849686,
        0.1546490639448166,
        0.18619920313358307,
        0.1211567297577858,
        0.17656002938747406,
        0.007568882778286934,
        0.4925454556941986,
        0.20901520550251007,
        -0.1035301461815834,
        -0.1724308878183365,
        -0.2599039673805237,
        -0.024867171421647072,
        0.1298200488090515,
        0.21813371777534485,
        0.035327643156051636,
        0.5623469948768616,
        0.08370955288410187,
        -0.5902832746505737,
        -0.3778557777404785,
        0.068377286195755,
        -0.9481573104858398,
        -0.284865140914917,
        0.24068394303321838,
        -1.45186185836792,
        -0.013068515807390213,
        -0.14407144486904144,
        -0.14450053870677948,
        0.3114754557609558,
        -3.4983479976654053,
        0.8167846202850342,
        0.536300539970398,
        -0.16499756276607513,
        0.15827669203281403,
        -0.29053354263305664,
        0.7706179618835449,
        -0.00845591351389885,
        0.34960588812828064,
        0.2726850211620331,
        -0.9307818412780762,
        0.014170244336128235,
        0.016189198940992355,
        -0.8972683548927307,
        0.7301008701324463,
        -0.18470649421215057,
        0.2692885398864746
      ]
    },
    {
      "activation": "rectified",
      "architecture": "dense",
      "bias": [
        -0.548048198223114,
        -0.08046946674585342,
        -0.6441466212272644,
        -0.9524958729743958,
        0.507106602191925,
        -0.17630290985107422,
        0.06718627363443375,
        0.05794679373502731,
        -0.8716383576393127,
        0.019072813913226128,
        -0.15846464037895203,
        0.22120478749275208,
        0.15525324642658234,
        -0.7676448822021484,
        0.11374197900295258,
        -0.3958376944065094
      ],
      "weights": [
        -0.028828036040067673,
        0.08319879323244095,
        -0.390325129032135,
        -0.7269962430000305,
        -0.45619428157806396,
        -0.14868076145648956,
        -0.6133543252944946,
        -0.048348937183618546,
        -0.33114713430404663,
        -0.10110218077898026,
        0.3129749596118927,
        -0.6293400526046753,
        -0.6329353451728821,
        -0.58798748254776,
        0.2280665785074234,
        0.11316574364900589,
        -0.009422107599675655,
        0.0511779747903347,
        -0.1378849893808365,
        0.27307984232902527,
        -0.14273856580257416,
        0.2684284448623657,
        0.20048126578330994,
        -0.0708463117480278,
        -0.5380345582962036,
        0.6751123666763306,
        0.45294252038002014,
        0.6834334135055542,
        -0.4856177866458893,
        0.3521063029766083,
        0.2987620234489441,
        0.8294190764427185,
        -0.7138628959655762,
        0.17839810252189636,
        -0.7648299336433411,
        -0.1635301411151886,
        0.2337094396352768,
        -1.0613651275634766,
        0.15183760225772858,
        -0.5156907439231873,
        -0.5536419749259949,
        -0.4984150826931,
        -0.6841576099395752,
        -0.6167128682136536,
        -0.9285581707954407,
        -0.5891905426979065,
        -0.7948051691055298,
        -1.0144764184951782,
        -0.05598079785704613,
        -1.727339506149292,
        0.09847383946180344,
        -0.7134494185447693,
        0.46447762846946716,
        -0.19017595052719116,
        0.8694702982902527,
        0.013889692723751068,
        0.04756966233253479,
        0.4373059570789337,
        -0.1012263298034668,
        0.32130715250968933,
        -0.11268603801727295,
        -0.6293669939041138,
        -0.33313482999801636,
        1.0436519384384155,
        -0.40601444244384766,
        -1.440671682357788,
        0.32480892539024353,
        0.908226728439331,
        0.0005980177083984017,
        -0.9025171399116516,
        -1.314453125,
        0.33750587701797485,
        -0.14047424495220184,
        -0.5267944931983948,
        -0.8915629982948303,
        0.2822982370853424,
        -0.5790185928344727,
        -1.130589485168457,
        0.5206045508384705,
        0.02086220309138298,
        0.007021480239927769,
        -0.3526148498058319,
        0.05124058201909065,
        -0.393083781003952,
        0.01510834600776434,
        -0.1549459844827652,
        -0.4752371609210968,
        0.010911554098129272,
        0.6797364950180054,
        0.3282794654369354,
        -0.8906081318855286,
        -0.17834101617336273,
        0.8178871870040894,
        -0.48937663435935974,
        -0.21333031356334686,
        0.004817634355276823,
        0.2025996595621109,
        0.06594228744506836,
        -0.16520659625530243,
        0.5085802674293518,
        -0.8859180212020874,
        -0.2595674991607666,
        0.006678832229226828,
        -0.8773607015609741,
        -0.14642532169818878,
        -0.6591020822525024,
        -0.01601778343319893,
        0.0775996670126915,
        -0.14772778749465942,
        -0.08624910563230515,
        0.6343679428100586,
        0.05310322344303131,
        -0.43008771538734436,
        -0.15789029002189636,
        0.26257142424583435,
        0.3794202208518982,
        0.16916945576667786,
        0.06628037989139557,
        -0.0394749790430069,
        -0.08140476047992706,
        -0.459597647190094,
        0.4317947030067444,
        0.23945137858390808,
        0.10308373719453812,
        0.31533363461494446,
        -0.44317540526390076,
        0.048487234860658646,
        0.049450214952230453,
        -0.1757080852985382,
        -0.6052303910255432,
        -0.1970246136188507,
        0.4056761562824249,
        0.05714884400367737,
        -0.31112754344940186,
        0.8261047005653381,
        -0.5813897848129272,
        -0.07077760994434357,
        0.4794282019138336,
        0.5956125855445862,
        0.770732581615448,
        0.46274006366729736,
        -0.5002234578132629,
        0.021126462146639824,
        -0.26225534081459045,
        -0.42586612701416016,
        -0.8645092844963074,
        0.52863609790802,
        -0.32479894161224365,
        0.11929381638765335,
        -1.7965642213821411,
        -0.11215884238481522,
        -1.1035103797912598,
        0.10933035612106323,
        0.2454490214586258,
        0.21155321598052979,
        -0.23880456387996674,
        0.45891496539115906,
        -0.7540726065635681,
        -0.20475639402866364,
        0.08958765119314194,
        0.20898692309856415,
        -0.045268259942531586,
        -0.16771620512008667,
        -0.0027668154798448086,
        -0.10330142825841904,
        0.44625386595726013,
        0.22993120551109314,
        0.25244277715682983,
        0.12798158824443817,
        0.027492592111229897,
        -0.14607016742229462,
        -0.3503611087799072,
        0.0754832848906517,
        -0.011904158629477024,
        1.1677207946777344,
        -0.04911661148071289,
        -0.18070785701274872,
        -1.7529431581497192,
        0.004031188320368528,
        -0.3448460102081299,
        0.15445543825626373,
        -0.006855897139757872,
        -1.946029543876648,
        -0.46623972058296204,
        0.02986270748078823,
        0.1265168935060501,
        -1.397070288658142,
        -0.5781410336494446,
        0.20324669778347015,
        -0.7666138410568237,
        -0.17476610839366913,
        1.2277047634124756,
        -0.4095081090927124,
        0.1452755182981491,
        0.11452068388462067,
        0.13790516555309296,
        -0.25471967458724976,
        -0.055952396243810654,
        -0.034565817564725876,
        -0.2839648723602295,
        0.34218356013298035,
        0.20845891535282135,
        -0.3538397252559662,
        0.2986748218536377,
        0.810402512550354,
        0.4532315731048584,
        -0.25593382120132446,
        0.21191848814487457,
        -0.12050646543502808,
        -0.16448411345481873,
        0.14139533042907715,
        0.2911893129348755,
        0.04080745205283165,
        -0.5614389777183533,
        1.4265559911727905,
        -1.3629260063171387,
        -0.179329052567482,
        0.0653000995516777,
        -0.10857255011796951,
        -0.1542634516954422,
        0.37321677803993225,
        -0.2084374874830246,
        0.34728559851646423,
        0.04850893095135689,
        0.3372916579246521,
        -0.0860736295580864,
        -0.07710160315036774,
        0.14321669936180115,
