{
  "defaults": {},
  "inputs": [
    {
      "name": "jet3_pt",
      "offset": 0,
      "scale": 1
    },
    {
      "name": "jet3_eta",
      "offset": 0,
      "scale": 1
    },
    {
      "name": "lep1_eta",
      "offset": 0,
      "scale": 1
    },
    {
      "name": "jet2_pt",
      "offset": 0,
      "scale": 1
    },
    {
      "name": "jet1_pt",
      "offset": 0,
      "scale": 1
    },
    {
      "name": "jetFwd1_eta",
      "offset": 0,
      "scale": 1
    },
    {
      "name": "mT_lep1",
      "offset": 0,
      "scale": 1
    },
    {
      "name": "mT_lep2",
      "offset": 0,
      "scale": 1
    },
    {
      "name": "jet4_phi",
      "offset": 0,
      "scale": 1
    },
    {
      "name": "lep2_conePt",
      "offset": 0,
      "scale": 1
    },
    {
      "name": "hadTop_BDT",
      "offset": 0,
      "scale": 1
    },
    {
      "name": "jet1_phi",
      "offset": 0,
      "scale": 1
    },
    {
      "name": "jet2_eta",
      "offset": 0,
      "scale": 1
    },
    {
      "name": "n_presel_jetFwd",
      "offset": 0,
      "scale": 1
    },
    {
      "name": "n_presel_jet",
      "offset": 0,
      "scale": 1
    },
    {
      "name": "lep1_charge",
      "offset": 0,
      "scale": 1
    },
    {
      "name": "avg_dr_jet",
      "offset": 0,
      "scale": 1
    },
    {
      "name": "lep1_phi",
      "offset": 0,
      "scale": 1
    },
    {
      "name": "Hj_tagger_hadTop",
      "offset": 0,
      "scale": 1
    },
    {
      "name": "nBJetLoose",
      "offset": 0,
      "scale": 1
    },
    {
      "name": "jet4_pt",
      "offset": 0,
      "scale": 1
    },
    {
      "name": "mindr_lep1_jet",
      "offset": 0,
      "scale": 1
    },
    {
      "name": "lep1_conePt",
      "offset": 0,
      "scale": 1
    },
    {
      "name": "jetFwd1_pt",
      "offset": 0,
      "scale": 1
    },
    {
      "name": "lep2_phi",
      "offset": 0,
      "scale": 1
    },
    {
      "name": "jet2_phi",
      "offset": 0,
      "scale": 1
    },
    {
      "name": "lep2_eta",
      "offset": 0,
      "scale": 1
    },
    {
      "name": "mbb",
      "offset": 0,
      "scale": 1
    },
    {
      "name": "mindr_lep2_jet",
      "offset": 0,
      "scale": 1
    },
    {
      "name": "jet4_eta",
      "offset": 0,
      "scale": 1
    },
    {
      "name": "nBJetMedium",
      "offset": 0,
      "scale": 1
    },
    {
      "name": "Dilep_pdgId",
      "offset": 0,
      "scale": 1
    },
    {
      "name": "metLD",
      "offset": 0,
      "scale": 1
    },
    {
      "name": "jet3_phi",
      "offset": 0,
      "scale": 1
    },
    {
      "name": "maxeta",
      "offset": 0,
      "scale": 1
    },
    {
      "name": "jet1_eta",
      "offset": 0,
      "scale": 1
    }
  ],
  "layers": [
    {
      "activation": "rectified",
      "architecture": "dense",
      "bias": [
        -3.392820358276367,
        0.40690600872039795,
        2.452711582183838,
        -2.853010654449463,
        3.742050886154175,
        -1.4985284805297852,
        -1.327778697013855,
        -3.0303094387054443,
        -3.0690624713897705,
        0.9242063164710999,
        -1.3573681116104126,
        0.1570802628993988,
        2.698812961578369,
        -0.27664047479629517,
        -0.10515128821134567,
        0.10465390980243683,
        1.8627022504806519,
        -4.083255290985107,
        2.268982172012329,
        0.4170754551887512,
        4.030570030212402,
        1.5384198427200317,
        -2.8274664878845215,
        3.0995705127716064,
        2.0620830059051514,
        1.099187970161438,
        1.2137309312820435,
        -1.6067428588867188,
        0.01985684596002102,
        1.0641778707504272,
        -2.4440925121307373,
        -0.04019404202699661
      ],
      "weights": [
        0.17554758489131927,
        -0.601267397403717,
        -2.788456439971924,
        0.02055388130247593,
        -0.10164108127355576,
        -1.3202508687973022,
        0.25717124342918396,
        0.3534676432609558,
        -0.3735826015472412,
        -0.28616970777511597,
        -1.7346422672271729,
        -0.3859834372997284,
        0.9960691332817078,
        -0.08241355419158936,
        -0.7001454830169678,
        0.7830315828323364,
        2.1758954524993896,
        0.9746679067611694,
        0.1397872120141983,
        1.1603604555130005,
        -0.09377502650022507,
        -0.555544912815094,
        -0.16872632503509521,
        -0.07144449651241302,
        -1.0745688676834106,
        0.09304233640432358,
        0.9328072667121887,
        0.38864028453826904,
        -1.3646637201309204,
        0.20115818083286285,
        1.40635085105896,
        -1.8799515962600708,
        -0.10273534059524536,
        1.3885222673416138,
        -0.679951548576355,
        4.199952125549316,
        0.41667792201042175,
        0.16011932492256165,
        -3.8844258785247803,
        -0.8556153178215027,
        -0.5329912304878235,
        2.282679557800293,
        0.26415708661079407,
        -0.3986985683441162,
        0.6009944677352905,
        0.14543040096759796,
        0.744866669178009,
        2.7582461833953857,
        -0.5224584341049194,
        -0.709818422794342,
        0.7621266841888428,
        -1.3345953226089478,
        0.8570884466171265,
        0.40231212973594666,
        -0.6291636228561401,
        2.086266279220581,
        0.29991307854652405,
        -2.5115978717803955,
        -0.030268222093582153,
        0.3991718888282776,
        0.12971168756484985,
        -0.4575614929199219,
        1.5643725395202637,
        -0.25139960646629333,
        -1.2678589820861816,
        0.5704860687255859,
        0.30782437324523926,
        -2.643655776977539,
        -0.20284000039100647,
        0.9668254256248474,
        0.04868675768375397,
        -0.5855894684791565,
        0.27111560106277466,
        1.3431106805801392,
        -0.3892393112182617,
        0.030238620936870575,
        0.10252237319946289,
        0.9588111639022827,
        -0.5520567893981934,
        -0.11471568048000336,
        -0.29765114188194275,
        0.3917500972747803,
        0.9681121110916138,
        -0.7126856446266174,
        0.05751011520624161,
        1.6197044849395752,
        0.21050359308719635,
        2.0735411643981934,
        -3.375727415084839,
        -0.9143657684326172,
        -0.2152424156665802,
        0.4880392849445343,
        0.17135629057884216,
        2.7968852519989014,
        0.060223523527383804,
        -0.01566818729043007,
        0.7297231554985046,
        1.2475662231445312,
        0.6345260143280029,
        0.10028113424777985,
        3.066269636154175,
        0.6628354787826538,
        0.9660930633544922,
        0.6919584274291992,
        -0.361076295375824,
        -1.6106529235839844,
        -0.297154039144516,
        -1.7049505710601807,
        0.36792486906051636,
        -1.2956949472427368,
        0.014627078548073769,
        -0.00019509770208969712,
        -0.011312315240502357,
        -0.04697273671627045,
        -0.1805579513311386,
        -0.11265777051448822,
        -0.4707597494125366,
        0.03686445578932762,
        -1.61936354637146,
        -0.5660141706466675,
        1.5025866031646729,
        1.4468116760253906,
        0.2827513813972473,
        -1.1693086624145508,
        6.710633754730225,
        0.15421439707279205,
        -0.3531992733478546,
        -1.4650914669036865,
        0.08248419314622879,
        -0.3181520700454712,
        0.08554345369338989,
        -0.3729143440723419,
        0.40179547667503357,
        0.3152828812599182,
        -0.6543712019920349,
        -0.0012103451881557703,
        -0.8885968327522278,
        0.11632684618234634,
        -0.4569084048271179,
        -0.8717918395996094,
        0.22425724565982819,
        0.41928184032440186,
        -2.3545615673065186,
        3.7820677757263184,
        0.14351299405097961,
        -0.38025617599487305,
        0.13026684522628784,
        -0.001992908539250493,
        0.02288723550736904,
        -0.2622925937175751,
        -0.008314266800880432,
        0.006272377911955118,
        0.13811253011226654,
        -0.00754034798592329,
        15.43140697479248,
        -0.049541741609573364,
        0.10955464839935303,
        0.9078322052955627,
        0.7215589284896851,
        -1.4066050052642822,
        -4.9423508644104,
        0.22236470878124237,
        -0.3869600296020508,
        0.11675029993057251,
        0.03591454401612282,
        1.594012975692749,
        0.02573421038687229,
        -0.03218667209148407,
        0.02717810869216919,
        0.3843132257461548,
        -0.19335797429084778,
        -0.010402088984847069,
        1.1087578535079956,
        -0.3739032447338104,
        -0.7964293956756592,
        0.5104425549507141,
        0.04496925324201584,
        0.6016128063201904,
        0.22253546118736267,
        -1.202500581741333,
        -0.3780328929424286,
        -1.7892478704452515,
        1.3569706678390503,
        -0.25110334157943726,
        0.027357719838619232,
        -0.36622509360313416,
        -0.1667785346508026,
        0.0033968957141041756,
        3.142606258392334,
        -0.0783277153968811,
        0.39922696352005005,
        -1.7677756547927856,
        2.3125789165496826,
        -0.2213423252105713,
        -0.4703000783920288,
        -2.218834638595581,
        -0.49809908866882324,
        0.2110191434621811,
        1.5690044164657593,
        -0.0106131536886096,
        -0.5304989814758301,
        -1.3866844177246094,
        0.3349218964576721,
        -0.0021451276261359453,
        -3.0234262943267822,
        0.0005854676710441709,
        -2.2376744747161865,
        0.3759634792804718,
        -2.7321033477783203,
        -1.5745551586151123,
        -0.05114816501736641,
        -0.21281863749027252,
        0.015312179923057556,
        2.2716939449310303,
        1.1956108808517456,
        -2.240086555480957,
        -0.1191195398569107,
        -0.3308330774307251,
        0.6964230537414551,
        0.2283136248588562,
        -0.07880516350269318,
        -1.36451256275177,
        0.05119660496711731,
        0.12750069797039032,
        -0.201097309589386,
        -0.27345773577690125,
        0.901244044303894,
        -0.01620609126985073,
        -1.0488933324813843,
        -2.366342067718506,
        -2.8427677154541016,
        2.3887746334075928,
        -3.4577431678771973,
        0.012209409847855568,
        0.1618148535490036,
        0.14644880592823029,
        -0.057025473564863205,
        1.110068917274475,
        0.11345070600509644,
        -0.15576601028442383,
        0.17297221720218658,
        0.20349450409412384,
        -0.12369361519813538,
        -0.0006267648423090577,
        -0.6300306916236877,
        -0.8650767803192139,
        1.2669658660888672,
        -0.5243508815765381,
        0.3293662965297699,
        -0.7496770620346069,
        1.5494825839996338,
        1.0031074285507202,
        -0.17338795959949493,
        -1.0468310117721558,
        1.1526453495025635,
        -0.07062795013189316,
        0.22243371605873108,
        1.0102941989898682,
        -0.12639985978603363,
        0.005800010170787573,
        0.6967639327049255,
        0.23260512948036194,
        0.02156011015176773,
        -0.8378307223320007,
        0.21009939908981323,
        1.690983772277832,
        -2.513413906097412,
        3.9941327571868896,
        0.5994563102722168,
        -0.29696524143218994,
        -0.008668774738907814,
        0.9913860559463501,
        -0.2350749671459198,
        4.216978073120117,
        0.05876599997282028,
        0.15105362236499786,
        -1.322002649307251,
        -0.3744058609008789,
        -0.8183085918426514,
        0.18063703179359436,
        0.8980736136436462,
        -0.5042843222618103,
        1.5783694982528687,
        -0.6007970571517944,
        -0.11173506826162338,
        0.9130702018737793,
        0.31822851300239563,
        1.5062686204910278,
        0.35617968440055847,
        -0.3045985698699951,
        0.2319038361310959,
        0.05629762262105942,
        -0.07177407294511795,
        -1.928918480873108,
        0.09508468955755234,
        0.055254410952329636,
        0.07149381190538406,
        -0.21014699339866638,
        -2.7352163791656494,
        -0.15732061862945557,
        2.445483684539795,
        -0.1759166568517685,
        -2.045945405960083,
        4.453632354736328,
        1.6043047904968262,
        0.4420250654220581,
        -0.3482062816619873,
        1.8278472423553467,
        0.301256388425827,
        -1.082984209060669,
        0.1853332221508026,
        0.08531871438026428,
        0.4491265118122101,
        0.2991732656955719,
        0.3294368088245392,
        0.022927438840270042,
        -1.5612304210662842,
        0.2649945318698883,
        2.3197805881500244,
        -1.1891453266143799,
        -0.022265620529651642,
        0.8945303559303284,
        0.2844082713127136,
        3.274031162261963,
        0.07076506316661835,
        -0.20496556162834167,
        0.010502110235393047,
        -0.004129935521632433,
        -0.029471661895513535,
        0.33437252044677734,
        0.019329480826854706,
        0.0014021607348695397,
        -0.04296821728348732,
        0.09661850333213806,
        6.378287315368652,
        0.0800049901008606,
        -0.09643848985433578,
        1.1622004508972168,
        3.2659554481506348,
        -2.243232011795044,
        -2.6301865577697754,
        0.0237570907920599,
        0.08717218041419983,
        0.19214513897895813,
        0.11621227115392685,
        -5.922345161437988,
        -5.698530003428459e-06,
        0.1096658706665039,
        0.03302090987563133,
        -0.2503760755062103,
        0.42334455251693726,
        0.031687263399362564,
        -5.662005424499512,
        0.35952821373939514,
        0.8910458087921143,
        -0.1706666648387909,
        0.037442900240421295,
        -0.11760461330413818,
        -5.59510612487793,
        0.5933038592338562,
        0.07657106965780258,
        1.62924325466156,
        -2.90031099319458,
        -0.3789367377758026,
        -0.30840054154396057,
        -0.3339437246322632,
        -0.005308849271386862,
        0.009708530269563198,
        -0.9349951148033142,
        -0.3089859187602997,
        -1.6813515424728394,
        0.2838844954967499,
        2.568986415863037,
        -3.164621591567993,
        0.2881849408149719,
        1.5931079387664795,
        2.256962537765503,
        -0.9782803058624268,
        0.27968907356262207,
        1.1927632093429565,
        0.3322190046310425,
        -0.5681325793266296,
        -0.4201865792274475,
        -1.1749576330184937,
        1.7208967208862305,
        -2.0120229721069336,
        3.1962132453918457,
        0.32260316610336304,
        -0.9051884412765503,
        0.9319480061531067,
        1.514651894569397,
        1.9208474159240723,
        -0.11274831742048264,
        1.2358945608139038,
        3.160712242126465,
        -1.3988710641860962,
        -0.006057286635041237,
        -0.0390239953994751,
        0.14647166430950165,
        0.07346035540103912,
        -0.11924877762794495,
        -0.30117323994636536,
        0.035625968128442764,
        0.09977376461029053,
        -0.4055938720703125,
        -0.8811421394348145,
        -0.748434841632843,
        -1.0516477823257446,
        -0.06039755418896675,
        0.16703949868679047,
        0.6847569942474365,
        -3.7338321208953857,
        -0.07587811350822449,
        -0.22632114589214325,
        0.2364911288022995,
        0.39254647493362427,
        0.1126292422413826,
        -1.5627392530441284,
        0.15514017641544342,
        -0.07646303623914719,
        -1.3369860649108887,
        -0.10613895207643509,
        0.22889918088912964,
        0.46950194239616394,
        -0.9165074825286865,
        -0.24066504836082458,
        -0.622547447681427,
        3.133033514022827,
        -0.2623777985572815,
        0.08303243666887283,
        2.5958166122436523,
        0.6689355373382568,
        -0.5522919297218323,
        -3.2163517475128174,
        -0.5554541349411011,
        0.24144047498703003,
        -0.06832896918058395,
        0.8660265207290649,
        0.19194315373897552,
        -0.3527541160583496,
        0.8370203971862793,
        0.30704841017723083,
        7.848761558532715,
        -0.23686304688453674,
        -2.1990253925323486,
        2.5496675968170166,
        0.5797639489173889,
        -0.7405282258987427,
        -3.2538492679595947,
        -0.9145413041114807,
        -1.0109236240386963,
        0.4549335539340973,
        0.4356215298175812,
        -0.36912474036216736,
        -0.004961621481925249,
        -0.1655108779668808,
        1.1166354417800903,
        -2.7128169536590576,
        -0.39516380429267883,
        0.11792745441198349,
        -1.4950486421585083,
        -0.046313852071762085,
        0.8898853659629822,
        0.5148554444313049,
        -0.28947001695632935,
        0.2662801742553711,
        -2.270979881286621,
        -2.269942283630371,
        -0.019501900300383568,
        0.2109760046005249,
        0.13141076266765594,
        0.09272101521492004,
        -0.07271896302700043,
        -0.7839696407318115,
        0.2307550460100174,
        -0.037324775010347366,
        0.34573304653167725,
        0.6101524829864502,
        0.7945298552513123,
        -0.981214165687561,
        -1.192971110343933,
        0.9801526665687561,
        -1.2944183349609375,
        -3.2938451766967773,
        -0.9818743467330933,
        -1.013303518295288,
        0.12605512142181396,
        0.7626592516899109,
        -0.1343982219696045,
        3.0258140563964844,
        0.20856262743473053,
        -0.3716996908187866,
        0.1127961128950119,
        -0.1863498091697693,
        0.12041911482810974,
        0.02575872093439102,
        1.8436206579208374,
        0.23536518216133118,
        1.0340311527252197,
        -0.5414860844612122,
        -1.3795934915542603,
        -0.6863240003585815,
        0.6713265776634216,
        1.0404378175735474,
        -0.37366965413093567,
        0.2802655100822449,
        1.2333685159683228,
        -0.3713816702365875,
        0.3034513592720032,
        -0.07810846716165543,
        -0.4407843053340912,
        -1.0550721883773804,
        0.3970412611961365,
        -0.456712931394577,
        -0.45095551013946533,
        -0.6271873116493225,
        -2.6180262565612793,
        -0.2213497906923294,
        -0.6022303104400635,
        1.5863419771194458,
        0.029881881549954414,
        0.18749845027923584,
        0.3293837606906891,
        1.0083448886871338,
        0.1514074206352234,
        0.4600062668323517,
        -0.43146800994873047,
        -0.5033418536186218,
        -0.47858530282974243,
        -0.6654049754142761,
        -3.9872756004333496,
        0.3630842864513397,
        -0.1608978509902954,
        -0.3102738857269287,
        0.7455922961235046,
        0.20727969706058502,
        0.4162633717060089,
        -2.151507616043091,
        -0.5173394083976746,
        -1.3279236555099487,
        0.07648375630378723,
        0.4141179323196411,
        -0.0027388697490096092,
        -0.18853901326656342,
        -0.08643525093793869,
        -5.011737823486328,
        -0.03642744943499565,
        0.018800200894474983,
        0.09507451951503754,
        -0.20047886669635773,
        -0.5251839756965637,
        0.042592015117406845,
        1.038456916809082,
        2.9477436542510986,
        0.19303661584854126,
        -0.1352536976337433,
        -0.0049298289231956005,
        -0.5479950904846191,
        -1.2444711923599243,
        -0.32018107175827026,
        0.1579788327217102,
        -0.9299259781837463,
        0.10956718027591705,
        0.5071218013763428,
        0.19880059361457825,
        -0.04619855061173439,
        -0.6477301716804504,
        -0.013713349588215351,
        -0.5835272073745728,
        0.2245502769947052,
        -0.09662062674760818,
        -0.24066166579723358,
        -0.012427748180925846,
        0.18303285539150238,
        2.335071086883545,
        2.8483662605285645,
        0.11870944499969482,
        -0.898322582244873,
        0.18797394633293152,
        0.05652815103530884,
        0.030078092589974403,
        1.292989730834961,
        0.023731714114546776,
        0.022011607885360718,
        0.49292832612991333,
        -0.12034086138010025,
        -0.3384464979171753,
        0.261342853307724,
        -0.957983136177063,
        1.5219918489456177,
        1.087166428565979,
        -2.214299440383911,
        4.987043380737305,
        -0.14681759476661682,
        -1.2184267044067383,
        -4.201752662658691,
        0.032114557921886444,
        0.239582359790802,
        0.027720721438527107,
        0.10200569778680801,
        -0.16047149896621704,
        -0.030707860365509987,
        0.3166826665401459,
        -0.3325755298137665,
        1.062666654586792,
        -0.8609570860862732,
        -4.162589073181152,
        -0.05322261527180672,
        -0.044460829347372055,
        0.5843021869659424,
        -0.5226864218711853,
        -0.6174598932266235,
        0.10616646707057953,
        -0.663631796836853,
        1.0804510116577148,
        0.24859420955181122,
        0.1566447764635086,
        0.10782396793365479,
        0.07152705639600754,
        -0.0025823540054261684,
        0.4050033986568451,
        0.09535406529903412,
        -2.346620798110962,
        0.24143186211585999,
        0.9572605490684509,
        -0.1690034121274948,
        -1.5519707202911377,
        3.87283992767334,
        5.124213695526123,
        -0.7737314701080322,
        -0.026610489934682846,
        0.415482759475708,
        0.000253604055615142,
        1.341736078262329,
        -0.1943327784538269,
        0.09094326943159103,
        -0.17525933682918549,
        0.5097627639770508,
        -0.4128272533416748,
        0.06981127709150314,
        -0.0820632204413414,
        -0.14521506428718567,
        0.9483258128166199,
        -0.5975631475448608,
        -0.082781121134758,
        1.412370204925537,
        0.27596113085746765,
        2.846933603286743,
        0.05565744638442993,
        -0.7529191374778748,
        0.2697860598564148,
        0.11007868498563766,
        0.0263759084045887,
        1.1351237297058105,
        -0.026528475806117058,
        0.02214171551167965,
        0.3595901131629944,
        -0.3765142858028412,
        3.032381057739258,
        -0.377220094203949,
        -2.471329689025879,
        1.1055724620819092,
        3.8418874740600586,
        -0.7836599946022034,
        -1.7717339992523193,
        -0.08801490068435669,
        0.22605149447917938,
        1.8147594928741455,
        -0.06419450044631958,
        -4.3592634201049805,
        0.06535477936267853,
        0.10523726046085358,
        -0.5652406215667725,
        0.7354725003242493,
        -0.24296835064888,
        -0.0017194106476381421,
        -1.2109344005584717,
        0.03850855305790901,
        0.08771833032369614,
        1.0607075691223145,
        -0.05293115973472595,
        -0.2873328626155853,
        -4.003323554992676,
        -2.6718862056732178,
        -0.11153174936771393,
        0.2949160933494568,
        0.7265145182609558,
        -1.0421254634857178,
        0.05316825211048126,
        2.3748505115509033,
        -0.009627921506762505,
        0.10940144211053848,
        -0.45993733406066895,
        -0.5709097981452942,
        -0.3538070023059845,
        -0.18146680295467377,
        1.2868893146514893,
        -0.0011612463276833296,
        -0.10479380190372467,
        1.4270133972167969,
        -1.4393250942230225,
        -0.753266453742981,
        -0.8805109858512878,
        0.4999510943889618,
        -0.1085200086236,
        2.2607169151306152,
        0.06710823625326157,
        0.07075954973697662,
        0.23964416980743408,
        -1.6171594858169556,
        -1.8060652017593384,
        -0.8026794791221619,
        2.3930845260620117,
        0.3003752827644348,
        0.8243005275726318,
        0.31193605065345764,
        -0.0679149404168129,
        -0.5118111968040466,
        -0.11874190717935562,
        -4.360040664672852,
        0.1036406010389328,
        -0.7171164155006409,
        -0.06561801582574844,
        0.037381611764431,
        -0.049662698060274124,
        0.6356431841850281,
        0.02429880015552044,
        0.05180196091532707,
        -0.2974599599838257,
        0.006470422260463238,
        12.045591354370117,
        0.4071306884288788,
        -1.7398836612701416,
        -0.08387338370084763,
        0.08940701931715012,
        2.6894919872283936,
        -4.468449115753174,
        -0.134073868393898,
        -1.2327516078948975,
        1.3101568222045898,
        -0.0059299408458173275,
        0.6436244249343872,
        -0.019420811906456947,
        -0.18036341667175293,
        -0.0477907732129097,
        -0.8458342552185059,
        1.2095087766647339,
        0.019461482763290405,
        1.5540639162063599,
        0.4484338164329529,
        -0.005249156150966883,
        0.5235950350761414,
        -0.0747111514210701,
        0.7487680912017822,
        0.6337466835975647,
        -1.4738273620605469,
        -0.1795135736465454,
        0.3233287036418915,
        -0.18965527415275574,
        -0.055797528475522995,
        0.05775810033082962,
        -3.3366262912750244,
        -0.13798882067203522,
        -0.11417555809020996,
        -0.41182631254196167,
        0.3188706338405609,
        1.3832225799560547,
        0.13320164382457733,
        0.32429999113082886,
        0.5427685379981995,
        1.0862480401992798,
        -4.3187174797058105,
        -2.0568416118621826,
        0.7174014449119568,
        -1.1023428440093994,
        0.32972490787506104,
        -0.0177890807390213,
        -0.1942998319864273,
        0.362956166267395,
        -0.051953915506601334,
        0.45554953813552856,
        -0.034821443259716034,
        -2.0443334579467773,
        0.10415022075176239,
        -1.0315080881118774,
        0.2711479961872101,
        -0.3777233958244324,
        0.2569194734096527,
        0.2851516902446747,
        -0.5954325199127197,
        0.5698311924934387,
        0.7659462094306946,
        0.5592262148857117,
        -0.6158179044723511,
        -0.04308735579252243,
        -0.2561328709125519,
        0.11041717976331711,
        0.003980834037065506,
        -0.19275645911693573,
        -0.1676926612854004,
        2.661795139312744,
        -0.5866686701774597,
        -2.291189193725586,
        -0.4245578646659851,
        -1.0736857652664185,
        -2.3460824489593506,
        -0.253073513507843,
        1.4283959865570068,
        2.0272486209869385,
        0.5835145115852356,
        0.4180412292480469,
        1.7043637037277222,
        0.36685651540756226,
        -5.476505756378174,
        0.2594189941883087,
        0.3690639138221741,
        0.042162857949733734,
        0.35975968837738037,
        2.199934482574463,
        0.12167216092348099,
        -2.6700024604797363,
        0.4535404145717621,
        -0.3679076135158539,
        0.15289875864982605,
        -0.45115095376968384,
        1.8368489742279053,
        0.8356050252914429,
        0.1469016671180725,
        0.12020765990018845,
        -2.449967384338379,
        1.3965479135513306,
        -0.20532892644405365,
        -0.23236973583698273,
        1.1608270406723022,
        0.046172574162483215,
        -0.08890845626592636,
        0.03255707025527954,
        0.17045748233795166,
        13.311261177062988,
        -0.8254534602165222,
        -1.0810002088546753,
        3.783578634262085,
        0.5023382902145386,
        -0.4510299563407898,
        -3.441690444946289,
        0.3163538873195648,
        -0.7747456431388855,
        -0.5283178687095642,
        -0.201490119099617,
        -1.013235330581665,
        -0.14305540919303894,
        -0.30089041590690613,
        0.8410239219665527,
        1.5357621908187866,
        -1.1184083223342896,
        0.22476203739643097,
        -0.6943628191947937,
        0.19393768906593323,
        -0.27028611302375793,
        -0.7896876335144043,
        0.13403208553791046,
        0.4219154119491577,
        -1.1440531015396118,
        0.12933479249477386,
        -0.06631413102149963,
        1.5235340595245361,
        0.35915639996528625,
        0.14285027980804443,
        -0.08679492771625519,
        0.34647586941719055,
        -0.16120892763137817,
        -0.2830541729927063,
        -0.5093344449996948,
        0.21184900403022766,
        -0.7672082781791687,
        -0.47483035922050476,
        -0.7642644047737122,
        -3.159271001815796,
        1.8316525220870972,
        -2.262627124786377,
        -1.928009271621704,
        -1.1262415647506714,
        -0.1806824803352356,
        0.6940905451774597,
        -0.02086067944765091,
        -1.6516960859298706,
        0.11781758069992065,
        -0.2770595848560333,
        -1.1065784692764282,
        0.6804823279380798,
        1.7691688537597656,
        -0.37633877992630005,
        -0.39578914642333984,
        0.8744723200798035,
        -0.3387887477874756,
        -0.9382377862930298,
        0.20264258980751038,
        -1.1954203844070435,
        0.3494623601436615,
        -2.9029150009155273,
        0.11995647102594376,
        0.852811336517334,
        -0.33135345578193665,
        -0.1049991250038147,
        0.03561588376760483,
        -0.6097506284713745,
        0.15027311444282532,
        0.17390218377113342,
        -0.257614403963089,
        -0.19677329063415527,
        0.6397173404693604,
        -0.13445080816745758,
        -1.9795207977294922,
        -2.196018934249878,
        1.976534366607666,
        -1.3111131191253662,
        -2.2335855960845947,
        0.03857298940420151,
        0.6964350342750549,
        3.0134546756744385,
        -0.0254854504019022,
        -1.682629942893982,
        0.03519552946090698,
        -0.5459734797477722,
        0.2364133596420288,
        0.15721875429153442,
        -0.8217410445213318,
        0.031196506693959236,
        -3.91768479347229,
        0.6217432618141174,
        2.9678750038146973,
        0.607158362865448,
        0.01966925710439682,
        -0.08402051031589508,
        -4.867490768432617,
        -3.6540050506591797,
        0.26099181175231934,
        0.4443996548652649,
        -0.79145348072052,
        -0.0382884182035923,
        0.004702795762568712,
        -0.5148171186447144,
        0.1006574034690857,
        0.18962524831295013,
        0.007864654064178467,
        -0.18052776157855988,
        0.2521096169948578,
        0.18846163153648376,
        -2.653353214263916,
        -2.4714057445526123,
        -2.5886073112487793,
        1.6575050354003906,
        -2.8732824325561523,
        -0.053535934537649155,
        -0.33912867307662964,
        0.04396333545446396,
        0.025790328159928322,
        0.9336482286453247,
        0.2161487191915512,
        -0.9389990568161011,
        -0.38602185249328613,
        0.15778504312038422,
        -0.6752027273178101,
        0.07986807823181152,
        0.8276726603507996,
        0.08984851092100143,
        -0.5484203100204468,
        0.533478319644928,
        0.0352974571287632,
        -0.9323853850364685,
        3.3762054443359375,
        -3.308966875076294,
        -0.11311080306768417,
        -0.6564006805419922,
        0.7569505572319031,
        -0.1274799108505249,
        -0.023672649636864662,
        0.31370317935943604,
        0.5629452466964722,
        -0.7016505002975464,
        -0.6375678777694702,
        -0.6595039367675781,
        -1.106452465057373,
        -0.8713944554328918,
        -0.21745848655700684,
        0.15820208191871643,
        -0.6564466953277588,
        1.2988953590393066,
        1.436212182044983,
        -1.9698108434677124,
        0.4756825268268585,
        2.2177162170410156,
        -0.2294287532567978,
        -0.9341569542884827,
        -0.006602757144719362,
        0.050144363194704056,
        -1.376760482788086,
        1.7219164371490479,
        -1.523450255393982,
        0.2200433760881424,
        1.9043060541152954,
        0.31153106689453125,
        0.6126601099967957,
        -2.3417856693267822,
        -0.08050616830587387,
        1.5289870500564575,
        -1.8666536808013916,
        -1.7190369367599487,
        0.05701679736375809,
        -0.6497523784637451,
        0.2299722284078598,
        -0.0518806129693985,
        -0.03353101387619972,
        2.5495288372039795,
        -0.001790855429135263,
        0.020416563376784325,
        -0.2316449135541916,
        -0.41556745767593384,
        -0.4247717559337616,
        0.345986932516098,
        -2.3786120414733887,
        2.094310760498047,
        0.4643852710723877,
        0.27276086807250977,
        4.538147926330566,
        -0.10289961099624634,
        -0.3923039734363556,
        -0.939134418964386,
        -0.04848761484026909,
        2.9718334674835205,
        -0.033972784876823425,
        0.2162417620420456,
        0.4950389564037323,
        0.7722902297973633,
        -0.513651430606842,
        -0.010354181751608849,
        2.3425233364105225,
        0.1656433641910553,
        0.2097218781709671,
        -0.05637667700648308,
        -0.08489637821912766,
        0.3063691556453705,
        3.2951819896698,
        -1.4289722442626953,
        0.07148159295320511,
        1.0510509014129639,
        0.5213621854782104,
        0.23311127722263336,
        0.060896798968315125,
        -3.890122890472412,
        0.12497743964195251,
        0.11286377161741257,
        -1.3117693662643433,
        0.05406573414802551,
        0.1629015952348709,
        -0.7192344069480896,
        0.4425780475139618,
        -0.47840842604637146,
        -0.7668480277061462,
        0.025986654683947563,
        -2.3131284713745117,
        -0.12100997567176819,
        -1.2292593717575073,
        0.17236833274364471,
        0.2083909958600998,
        -1.2255009412765503,
        -0.12723268568515778,
        -0.14852695167064667,
        0.21662454307079315,
        -0.6143599152565002,
        -0.3142968416213989,
        -0.019818119704723358,
        -1.7920387983322144,
        0.501775860786438,
        -0.8762195110321045,
        0.6710249781608582,
        -0.14537225663661957,
        -0.7367457747459412,
        0.4792652726173401,
        1.7901614904403687,
        0.18079988658428192,
        -0.4798961579799652,
        0.7945041060447693,
        0.06050809472799301,
        0.2621420621871948,
        -0.720175564289093,
        0.10322879999876022,
        -0.05229856073856354,
        0.02217446267604828,
        0.27512237429618835,
        1.7516026496887207,
        0.9302940964698792,
        0.5048984289169312,
        1.0253841876983643,
        -1.346123456954956,
        1.1308693885803223,
        -1.8224599361419678,
        0.3091898560523987,
        -0.07744722068309784,
        2.270414113998413,
        -0.1411394625902176,
        0.5144506692886353,
        -0.18226581811904907,
        -0.11795499175786972,
        0.16941112279891968,
        0.31748124957084656,
        0.2149304747581482,
        -1.3115297555923462,
        -0.17097285389900208,
        -0.463006854057312,
        1.0712381601333618,
        0.815467119216919,
        -0.07825988531112671,
        0.32438814640045166,
        1.5315200090408325,
        0.2783743441104889,
        -0.0172036774456501,
        -0.16135652363300323,
        -0.7770180702209473,
        -0.20573388040065765,
        -0.3835923671722412,
        3.9862558841705322,
        0.019904907792806625,
        0.029642347246408463,
        0.7285612225532532,
        0.10064733773469925,
        0.40870702266693115,
        -0.4573436677455902,
        -0.26062431931495667,
        1.9955735206604004,
        -0.8186375498771667,
        0.9981972575187683,
        0.7003446817398071,
        -0.003249471541494131,
        0.6224717497825623,
        0.6026648283004761,
        -0.31402674317359924,
        2.5163819789886475,
        0.16930851340293884,
        0.6112075448036194,
        0.23162740468978882,
        -0.07062986493110657,
        0.2211112380027771,
        -0.0029928055591881275,
        1.5505293607711792,
        -0.11875785142183304,
        1.5766878128051758,
        0.8033504486083984,
        0.20112058520317078,
        0.2387349009513855,
        0.9407583475112915,
        -3.1374671459198
      ]
    },
    {
      "activation": "rectified",
      "architecture": "dense",
      "bias": [
        2.6350858211517334,
        0.0472969189286232,
        -2.0751421451568604,
        0.38836655020713806,
        1.2355707883834839,
        1.4027522802352905,
        1.1891635656356812,
        2.137493848800659,
        3.5813751220703125,
        -1.7161117792129517,
        -1.83534836769104,
        1.0810819864273071,
        -1.5828051567077637,
        3.4547479152679443,
        -0.49841877818107605,
        0.1933639496564865
      ],
      "weights": [
        -0.33882856369018555,
        -0.7333207726478577,
        0.03642188757658005,
        -0.39034304022789,
        1.317758560180664,
        0.05780787765979767,
        -0.1882205605506897,
        -0.20855118334293365,
        -0.29315441846847534,
        -0.7422329783439636,
        -0.18146459758281708,
        0.24741005897521973,
        -0.0764792412519455,
        -0.340350866317749,
        -0.31239792704582214,
        0.544521689414978,
        0.3064420223236084,
        -0.09974950551986694,
        -0.12289191782474518,
        -0.22878135740756989,
        0.8374137282371521,
        0.17821179330348969,
        -0.25857457518577576,
        0.5533075928688049,
        0.6827430725097656,
        0.2527521848678589,
        0.6849393248558044,
        0.07927462458610535,
        0.006646106019616127,
        0.20281530916690826,
        -0.24825222790241241,
        -0.36108940839767456,
        0.4926563501358032,
        0.12335561215877533,
        0.20904779434204102,
        -1.3948100805282593,
        -0.6974887251853943,
        0.5408524870872498,
        -0.0015305345878005028,
        -0.5910857319831848,
        0.128148153424263,
        0.7107524275779724,
        0.17683060467243195,
        -0.43209347128868103,
        0.6680784821510315,
        0.32128605246543884,
        -1.7759088277816772,
        -0.12718044221401215,
        0.3524235486984253,
        -0.19896267354488373,
        -0.9879269599914551,
        -0.06348200887441635,
        -0.34674808382987976,
        -0.6192945241928101,
        0.09269178658723831,
        0.2744126617908478,
        0.03729875758290291,
        0.8754359483718872,
        0.07027365267276764,
        0.19691579043865204,
        0.13008466362953186,
        0.9396839737892151,
        0.14175422489643097,
        -0.31875160336494446,
        0.16870103776454926,
        0.06918864697217941,
        0.40135297179222107,
        -0.327493816614151,
        0.8496536016464233,
        0.09275535494089127,
        0.49117520451545715,
        0.3097512125968933,
        0.5666083693504333,
        -1.0119194984436035,
        -0.1831510215997696,
        -0.42871490120887756,
        0.12211204320192337,
        0.5150092840194702,
        -0.1493210643529892,
        0.4460538625717163,
        -0.7578054666519165,
        0.35351356863975525,
        -0.9259563684463501,
        -0.4106278419494629,
        0.20460648834705353,
        -0.09458184987306595,
        -0.24262769520282745,
        -0.08669034391641617,
        -0.1843542754650116,
        -0.3035542666912079,
        0.8381286859512329,
        0.01865958981215954,
        -0.7375841736793518,
        -0.09637447446584702,
        0.3859802186489105,
        -0.07235162705183029,
        -1.2873868942260742,
        0.36566823720932007,
        0.5273823142051697,
        -1.207393765449524,
        -1.661322832107544,
        -1.7850079536437988,
        -1.4119815826416016,
        0.04712853953242302,
        -0.6926708221435547,
        0.9718574285507202,
        -2.5449435710906982,
        -0.5651488304138184,
        0.042510468512773514,
        0.6466386318206787,
        -1.3153250217437744,
        -0.013703997246921062,
        -1.4431376457214355,
        -0.470672607421875,
        -1.194791316986084,
        0.00673693185672164,
        -1.2996132373809814,
        -0.9792764782905579,
        0.3186015486717224,
        -0.13020968437194824,
        0.603654682636261,
        0.2048019915819168,
        -1.6763625144958496,
        -1.7033213376998901,
        -0.15794304013252258,
        0.08445693552494049,
        -0.030473828315734863,
        0.736244261264801,
        0.15817932784557343,
        -0.9212501049041748,
        0.13601602613925934,
        -0.7370650768280029,
        1.2684739828109741,
        -0.12328864634037018,
        0.26283732056617737,
        -0.26283156871795654,
        0.4914036691188812,
        -0.8538182973861694,
        -0.3335162401199341,
        0.016646886244416237,
        0.41377711296081543,
        0.273466020822525,
        0.26548099517822266,
        1.055100679397583,
        -0.36758139729499817,
        -0.1315940022468567,
        -0.5659878849983215,
        -0.7121883630752563,
        0.11337566375732422,
        0.20350559055805206,
        -0.23001186549663544,
        0.12860877811908722,
        0.005467263516038656,
        0.37412118911743164,
        0.1608205884695053,
        -0.14111901819705963,
        -0.7734007835388184,
        0.4787864685058594,
        0.2033344805240631,
        -0.3524770140647888,
        0.1669195294380188,
        -0.6095187067985535,
        -0.2628258168697357,
        -0.5832948088645935,
        0.7565786838531494,
        0.6771647334098816,
        -0.009500072337687016,
        0.3251155614852905,
        -0.7542886734008789,
        -0.6148231625556946,
        -0.24822063744068146,
        0.007315143942832947,
        0.03809206187725067,
        -0.2425553947687149,
        -0.22285568714141846,
        -0.4982805848121643,
        0.13562053442001343,
        -0.6674612760543823,
        0.0672958716750145,
        0.44727495312690735,
        0.6423370242118835,
        0.031332891434431076,
        -0.9594523906707764,
        0.39800068736076355,
        0.5257364511489868,
        -0.6863880157470703,
        -0.32445967197418213,
        -0.008866913616657257,
        0.9419813752174377,
        -0.33791694045066833,
        -0.3309384286403656,
        0.803260326385498,
        -0.13402365148067474,
        -1.0091239213943481,
        0.010208619758486748,
        -0.49053069949150085,
        1.8702880144119263,
        0.057114873081445694,
        0.47940587997436523,
        0.19655215740203857,
        -0.04093356430530548,
        0.8699526190757751,
        -0.06537576019763947,
        -0.013508428819477558,
        0.0700291320681572,
        0.5172394514083862,
        0.06604321300983429,
        0.2887510657310486,
        -0.3863792419433594,
        -0.5137986540794373,
        0.05437949299812317,
        -0.4763363003730774,
        0.2616441249847412,
        -0.38654378056526184,
        0.1366664171218872,
        0.5003164410591125,
        0.7044326066970825,
        -0.2775649130344391,
        0.047538742423057556,
        -0.1337120532989502,
        -0.5520562529563904,
        -0.2811889052391052,
        -0.08465498685836792,
        -0.16397309303283691,
        0.25254374742507935,
        -0.6455221772193909,
        0.28871437907218933,
        -0.14069941639900208,
        0.45443424582481384,
        -0.04925931617617607,
        -0.15053993463516235,
        0.0017372178845107555,
        0.06496208906173706,
        1.100690245628357,
        -0.5096968412399292,
        -0.28574854135513306,
        0.5847038626670837,
        0.03188089281320572,
        0.2142145037651062,
        0.13457347452640533,
        -1.3034377098083496,
        -0.09591353684663773,
        0.42570894956588745,
        -0.10448354482650757,
        0.39938297867774963,
        0.006320775020867586,
        -0.18522551655769348,
        -0.02645418979227543,
        0.04947938770055771,
        0.7707132697105408,
        -0.180419921875,
        -0.09350154548883438,
        -0.07543709129095078,
        -0.037073735147714615,
        0.3622438907623291,
        -0.9449469447135925,
        -0.32978060841560364,
        0.03710546717047691,
        0.18703490495681763,
        -0.35370904207229614,
        1.2063934803009033,
        -0.6355991363525391,
        0.18706904351711273,
        0.23488973081111908,
        0.19659094512462616,
        -0.6177361607551575,
        -0.5345486402511597,
        -0.13834859430789948,
        0.2278689593076706,
        -0.018773464486002922,
        0.19388090074062347,
        -1.094390630722046,
        -0.2358977198600769,
        -0.023928381502628326,
        0.40802931785583496,
        -0.16319768130779266,
        0.8652773499488831,
        -0.15626542270183563,
        0.1194903776049614,
        1.2513309717178345,
        0.3924156129360199,
        -0.3139641582965851,
        0.37315893173217773,
        -0.2091134637594223,
        -0.31408101320266724,
        0.0853608176112175,
        -0.33841848373413086,
        -0.18044918775558472,
        0.2731001377105713,
        0.4697011411190033,
        -1.894460678100586,
        0.4857502281665802,
        -0.6330949664115906,
        -1.7448745965957642,
        0.16315673291683197,
        0.5316738486289978,
        0.20357118546962738,
        0.5306692719459534,
        -3.8784899711608887,
        -1.0156761407852173,
        -2.0477631092071533,
        0.9962003827095032,
        -0.2854110896587372,
        -0.26872706413269043,
        0.02792532369494438,
        -0.006114766467362642,
        0.6016296744346619,
        -0.01702764630317688,
        -0.34641632437705994,
        -0.022979704663157463,
        0.7017716765403748,
        -1.8586819171905518,
        -0.11722154170274734,
        -0.42004328966140747,
        0.17770296335220337,
        1.1580272912979126,
        -0.6916857957839966,
        -0.5205938816070557,
        -0.144288569688797,
        -3.8325984477996826,
        0.26753300428390503,
        -0.500897228717804,
        -0.12996244430541992,
        0.4453120231628418,
        -1.3659775257110596,
        -0.2765832245349884,
        -0.1475479006767273,
        0.39899295568466187,
        0.04465547949075699,
        -0.4376526474952698,
        0.899867057800293,
        -0.41052156686782837,
        -1.1718297004699707,
        0.23875175416469574,
        0.06436625123023987,
        0.04082996025681496,
        0.43963342905044556,
        0.5692594051361084,
        0.18802471458911896,
        -3.03883957862854,
        -0.37670251727104187,
        -0.3574918210506439,
        0.46076419949531555,
        -1.071271300315857,
        -0.1578541100025177,
        -0.03133783116936684,
        -0.07683303952217102,
        0.11239679902791977,
        0.3191230297088623,
        -0.7328891754150391,
        -0.025074126198887825,
        0.24954009056091309,
        -0.46276402473449707,
        0.44954150915145874,
        0.37858858704566956,
        -0.04453270509839058,
        0.6957213878631592,
        -0.6890968680381775,
        -0.30593928694725037,
        -0.23659169673919678,
        0.17479515075683594,
        0.260695219039917,
        -0.2876511514186859,
        0.29816821217536926,
        0.01902444288134575,
        -0.2423660308122635,
        0.5869898796081543,
        0.4769892990589142,
        0.11122439801692963,
        -0.05392618104815483,
        0.5844481587409973,
        0.1380380094051361,
        -0.1061309352517128,
        -0.2770550847053528,
        -0.5623714923858643,
        0.023587791249155998,
        -0.08609193563461304,
        0.7032033801078796,
        -0.2938571870326996,
        0.35505446791648865,
        -0.5159891843795776,
        -0.37788790464401245,
        0.2362097054719925,
        -0.506752073764801,
        0.4313502013683319,
        -0.09660699963569641,
        0.16267624497413635,
        0.16946463286876678,
        -0.38197842240333557,
        0.017234059050679207,
        0.5634707808494568,
        0.5465144515037537,
        0.1811559796333313,
        1.7032302618026733,
        0.3928561806678772,
        -0.6970346570014954,
        -0.5955607891082764,
        0.8664082288742065,
        -0.3172716796398163,
        0.15397745370864868,
        -0.5913561582565308,
        0.3277263045310974,
        -0.13595305383205414,
        -0.12407037615776062,
        -0.0741075947880745,
        0.032611310482025146,
        -0.15717525780200958,
        -0.18302632868289948,
        -0.2651934027671814,
        0.623021125793457,
        -0.21492959558963776,
        0.28486594557762146,
        -0.2651887536048889,
        -0.5398233532905579,
        0.47029587626457214,
        0.05276099964976311,
        0.005124002695083618,
        -0.8145307898521423,
        -0.32140037417411804,
        0.2584835886955261,
        0.8037670850753784,
        0.0822654515504837,
        -0.34154605865478516,
        -0.24975410103797913,
        -0.15474499762058258,
        0.4142841696739197,
        0.22735996544361115,
        0.35142454504966736,
        0.15454286336898804,
        -0.471436083316803,
        -0.6943981051445007,
        -0.15416382253170013,
        0.9491601586341858,
        -0.21437513828277588,
        0.17086873948574066,
        -0.8982798457145691,
        0.27172932028770447,
        0.3183183968067169,
        -0.22127307951450348,
        0.12546151876449585,
        -0.10293255001306534,
        -0.13175153732299805,
        -0.07959382236003876,
        0.027273964136838913,
        -0.20711928606033325,
        0.2255224883556366,
        -0.34928226470947266,
        -0.2200690060853958,
        0.0751039981842041,
        0.037187546491622925,
        -0.01697389967739582,
        0.23087604343891144,
        -0.7859501838684082,
        0.9296384453773499,
        0.2919488549232483,
        -0.1085958480834961,
        -0.2034451961517334,
        0.41319626569747925,
        -0.22590956091880798,
        -0.7350019216537476,
        1.4448816776275635,
        -0.22658680379390717,
        -2.688112735748291,
        -0.43414217233657837,
        0.3646185100078583,
        -0.2567330598831177,
        -2.0769479274749756,
        -0.3526211678981781,
        -0.8561728596687317,
        0.41285112500190735,
        -3.997418165206909,
        -0.327778697013855,
        0.5141266584396362,
        -0.7499059438705444,
        0.25156593322753906,
        -0.2690224051475525,
        0.22410966455936432,
        0.30802014470100403,
        -0.35708513855934143,
        -0.23534232378005981,
        0.23909391462802887,
        -0.4170960485935211,
        -0.1189635768532753,
        -0.2134230136871338,
        0.9610241651535034,
        -0.4402908980846405,
        0.06262184679508209,
        -0.2735925316810608,
        -0.5135342478752136,
        0.06717934459447861,
        0.2678745985031128,
        -0.10269401967525482,
        0.1774773746728897,
        -0.380964994430542,
        -1.5964159965515137,
        0.34906962513923645,
        -0.31826478242874146,
        0.00645971205085516,
        -0.1956416368484497,
        -0.380710244178772,
        -0.8375017046928406,
        0.4651098847389221,
        0.453700989484787,
        -0.6458835005760193,
        0.2029627114534378,
        0.5682339668273926,
        -0.42594361305236816,
        -0.03597943112254143,
        -0.192526713013649,
        0.4433624744415283,
        -0.3994797170162201,
        0.0042796568013727665
      ]
    },
    {
      "activation": "rectified",
      "architecture": "dense",
      "bias": [
        0.3533467650413513,
        2.791659355163574,
        0.02777569741010666,
        -0.8649994730949402,
        3.2154171466827393,
        1.1626842021942139,
        -1.0141057968139648,
        -0.26452696323394775,
        -1.91252601146698,
        -1.5308141708374023,
        -0.5450217127799988,
        1.2038580179214478,
        1.6567875146865845,
        1.7464848756790161,
        -1.5447105169296265,
        -0.46516042947769165
      ],
      "weights": [
        -1.108834981918335,
        0.5432345271110535,
        -0.16344626247882843,
        -0.2598937451839447,
        -0.27570682764053345,
        -0.18425361812114716,
        0.8627538084983826,
        0.7388712763786316,
        1.1735385656356812,
        -0.06131070852279663,
        -0.24079479277133942,
        0.2783759832382202,
        -0.1264987289905548,
        0.20409439504146576,
        0.429788202047348,
        -0.02764643169939518,
        -0.10125052183866501,
        -0.20571500062942505,
        0.03487315773963928,
        -0.5855287313461304,
        -0.46687689423561096,
        -0.5069159865379333,
        0.7185698747634888,
        0.21743910014629364,
        0.1150326058268547,
        -0.26308178901672363,
        -0.3883291482925415,
        0.30790087580680847,
        0.17347702383995056,
        0.4745844304561615,
        -0.11074427515268326,
        0.38888490200042725,
        0.47940319776535034,
        0.8966850638389587,
        -0.15609635412693024,
        -0.6066107153892517,
        0.4580898880958557,
        -0.10790136456489563,
        -0.176019549369812,
        -0.16413472592830658,
        -0.19769343733787537,
        -0.5323318243026733,
        -0.4384922683238983,
        0.6221981644630432,
        0.024555278941988945,
        -0.9822738766670227,
        0.4168023467063904,
        -0.08261187374591827,
        0.15308131277561188,
        0.5131697058677673,
        -0.443745493888855,
        -0.6684315204620361,
        0.023030634969472885,
        -0.09450379759073257,
        1.0440688133239746,
        0.2786840796470642,
        -0.3461167812347412,
        -0.537608802318573,
        -0.11772517114877701,
        0.5031582713127136,
        0.24363860487937927,
        0.08016497641801834,
        -1.5246278047561646,
        0.4797622859477997,
        0.4572526514530182,
        0.055562883615493774,
        -0.1098909080028534,
        -0.021467039361596107,
        -0.1811569333076477,
        -0.30924665927886963,
        0.12580424547195435,
        -0.7513169646263123,
        0.17371119558811188,
        -0.2838630974292755,
        -0.19174203276634216,
        0.2627445459365845,
        0.2914707362651825,
        0.5016883015632629,
        -0.3838765323162079,
        0.07235470414161682,
        0.19858327507972717,
        -0.1871829628944397,
        -0.16536353528499603,
        -0.6415922045707703,
        0.6101069450378418,
        -0.1914960891008377,
        0.5118955373764038,
        0.7108039259910583,
        -0.05910075828433037,
        -0.1740490347146988,
        -0.1267833560705185,
        0.27113252878189087,
        0.5219622254371643,
        -0.07227335125207901,
        -0.23595260083675385,
        0.3591884970664978,
        -0.11480309069156647,
        -1.2580105066299438,
        0.4932813048362732,
        0.24915999174118042,
        0.841031551361084,
        -0.36820629239082336,
        0.4575626254081726,
        -0.45646390318870544,
        0.870677649974823,
        -0.4702284336090088,
        -0.3372514247894287,
        -0.21306778490543365,
        0.11309035122394562,
        -0.23121939599514008,
        -0.13554522395133972,
        -0.3448195159435272,
        -0.8268110156059265,
        -0.502421498298645,
        0.49631187319755554,
        0.2543468177318573,
        -0.1967269778251648,
        0.03735136613249779,
        -1.1420615911483765,
        0.19897973537445068,
        -0.547549307346344,
        0.8465482592582703,
        -0.06754299998283386,
        -0.6267270445823669,
        0.43257051706314087,
        -0.6217857003211975,
        0.22518545389175415,
        -0.2544292211532593,
        -2.0388410091400146,
        -0.726579487323761,
        0.3080541491508484,
        0.26104822754859924,
        -0.9852705597877502,
        0.012573185376822948,
        0.9281280040740967,
        -0.704481303691864,
        -0.8316167593002319,
        0.34280985593795776,
        -0.08523603528738022,
        -0.2343459278345108,
        0.7488827705383301,
        -1.3357349634170532,
        -0.20523208379745483,
        -0.9074622392654419,
        0.5579290986061096,
        -0.2704911231994629,
        0.7770084142684937,
        -0.14559923112392426,
        0.10939718037843704,
        -0.6589487791061401,
        0.7719092965126038,
        -0.11132971197366714,
        0.04590273275971413,
        -0.3934643566608429,
        -0.41106247901916504,
        0.17258048057556152,
        -0.250166654586792,
        -0.1514354944229126,
        -0.32487183809280396,
        0.4963032007217407,
        0.2987756133079529,
        0.2502405047416687,
        -0.20048673450946808,
        -0.5134879350662231,
        -0.06661929190158844,
        -0.015893084928393364,
        1.1299543380737305,
        -0.7038221955299377,
        0.46938028931617737,
        -0.48980826139450073,
        0.046563901007175446,
        -0.5649756789207458,
        -0.6444945931434631,
        0.27619990706443787,
        -0.08790072798728943,
        0.4915575087070465,
        0.30942609906196594,
        -0.18508358299732208,
        0.20545783638954163,
        -1.786787986755371,
        0.26646506786346436,
        -0.9151291847229004,
        0.8399115800857544,
        0.5518535375595093,
        0.14467903971672058,
        -0.4676382839679718,
        -0.9260392189025879,
        -0.08562882989645004,
        0.04737764224410057,
        -0.28433293104171753,
        -0.48277392983436584,
        -0.16403472423553467,
        0.5225158929824829,
        -0.04827564209699631,
        -0.4680352807044983,
        -0.8213028907775879,
        0.41579827666282654,
        -0.8166050314903259,
        0.873087465763092,
        -0.04403639957308769,
        0.5173201560974121,
        -0.35110267996788025,
        -0.2615028917789459,
        0.2669665515422821,
        -0.31513750553131104,
        0.10162876546382904,
        -0.17289899289608002,
        0.32404762506484985,
        -0.4482961893081665,
        -0.7118340134620667,
        0.10778442770242691,
        -1.389418601989746,
        0.8477727174758911,
        -0.6084718704223633,
        0.48944610357284546,
        -0.3512227237224579,
        0.4087965190410614,
        0.11137693375349045,
        -0.033754654228687286,
        0.14850124716758728,
        -0.009261632338166237,
        0.09029115736484528,
        -0.4525850713253021,
        0.45822709798812866,
        0.1309417188167572,
        -0.2182394564151764,
        0.47252219915390015,
        -0.8998116254806519,
        -0.024978145956993103,
        -0.01962033100426197,
        -0.4315166771411896,
        -0.06377669423818588,
        0.09383199363946915,
        0.5353507995605469,
        -0.16773934662342072,
        -0.15895619988441467,
        0.6320303082466125,
        -0.18649667501449585,
        0.03379693254828453,
        -0.45623481273651123,
        -0.3164248466491699,
        -0.2673149108886719,
        -1.704289197921753,
        0.13434569537639618,
        -2.2716307640075684,
        0.1499241292476654,
        -1.1741397380828857,
        0.719120979309082,
        -1.121640920639038,
        0.6260929107666016,
        0.07983624190092087,
        0.018302757292985916,
        -0.05003705248236656,
        0.6223970651626587,
        0.640954852104187,
        -0.5227662324905396
      ]
    },
    {
      "activation": "rectified",
      "architecture": "dense",
      "bias": [
        0.05212683230638504,
        -0.10685939341783524,
        -1.1838722229003906,
        -0.8855825066566467,
        -0.15805374085903168,
        -0.40261131525039673,
        1.0093814134597778,
        -2.2342514991760254,
        1.4677915573120117,
        -0.3519259989261627,
        1.8124369382858276,
        0.7076723575592041,
        0.5082248449325562,
        0.7731216549873352,
        -0.5763347744941711,
        0.3203006088733673
      ],
      "weights": [
        0.08818405121564865,
        0.22143229842185974,
        -0.49557745456695557,
        -0.21633820235729218,
        0.4603395462036133,
        -0.539280116558075,
        0.466737300157547,
        -0.23563051223754883,
        -0.8174742460250854,
        0.019847283139824867,
        0.12980149686336517,
        0.5811867713928223,
        0.3230358958244324,
        0.005974182393401861,
        -0.2748759984970093,
        -1.9725537300109863,
        -0.6307761669158936,
        0.9266687035560608,
        0.1028335765004158,
        -0.0830683633685112,
        -0.6166756749153137,
        -0.1923733949661255,
        0.34377321600914,
        -0.09109576046466827,
        -0.12131894379854202,
        -0.1484009474515915,
        -0.26601484417915344,
        0.7841528654098511,
        -0.2357921451330185,
        -0.3346022665500641,
        0.0015033066738396883,
        -0.006818121764808893,
        -0.3389473259449005,
        -0.3753076493740082,
        -0.8134483098983765,
        0.35911646485328674,
        -0.5197649598121643,
        0.6869269013404846,
        0.7500219345092773,
        0.38636723160743713,
        0.23116381466388702,
        -0.08566593378782272,
        -0.16394437849521637,
        0.10080448538064957,
        -0.5650473833084106,
        -0.6273320913314819,
        0.06204091012477875,
        0.4745328426361084,
        0.3146772086620331,
        0.37061595916748047,
        0.06478165835142136,
        0.05421486496925354,
        -0.059240084141492844,
        0.07725484669208527,
        -0.20890849828720093,
        -0.45571744441986084,
        -0.4803805351257324,
        -0.27734047174453735,
        0.02923617511987686,
        0.41480594873428345,
        -0.6505366563796997,
        -0.05103611573576927,
        -0.023626236245036125,
        0.2390376776456833,
        -0.21145099401474,
        -0.36279720067977905,
        0.31156909465789795,
        0.05682352930307388,
        -0.1674070954322815,
        -0.033882301300764084,
        0.30150195956230164,
        -0.049394261091947556,
        -0.16770188510417938,
        -1.2467164993286133,
        -0.3556147813796997,
        0.28651514649391174,
        0.7393254041671753,
        0.5350763201713562,
        0.04601522162556648,
        0.01113093737512827,
        0.577163815498352,
        -0.24701905250549316,
        0.3369781970977783,
        -0.44197407364845276,
        0.023090021684765816,
        -0.5854265093803406,
        -0.20522457361221313,
        -1.3014097213745117,
        -0.10138386487960815,
        0.488563597202301,
        0.7990972399711609,
        -0.061112210154533386,
        -0.20913413166999817,
        -2.105412721633911,
        -0.7680660486221313,
        0.18646551668643951,
        -0.008771989494562149,
        0.2958851158618927,
        1.0138188600540161,
        0.1564422994852066,
        0.06769392639398575,
        -0.07339109480381012,
        0.23449453711509705,
        -0.5671508312225342,
        -1.8215876817703247,
        0.4646609425544739,
        0.1912795603275299,
        0.22947660088539124,
        0.5317263007164001,
        0.15899260342121124,
        -0.2246401160955429,
        -0.05587446317076683,
        0.3805784583091736,
        0.36491650342941284,
        0.09944736957550049,
        -0.10861609131097794,
        -0.23049816489219666,
        -0.7641587853431702,
        -0.24659676849842072,
        0.22771987318992615,
        0.010446974076330662,
        1.2192902565002441,
        -0.5528380274772644,
        0.08828458189964294,
        -0.4989650547504425,
        0.5313609838485718,
        0.04336010292172432,
        -0.32129305601119995,
        0.7271226048469543,
        0.41239333152770996,
        0.423662930727005,
        0.09505130350589752,
        0.6185058951377869,
        0.05479666590690613,
        -0.034428831189870834,
        -0.16009104251861572,
        -0.07397831231355667,
        -0.022671304643154144,
        -0.270271897315979,
        0.25278475880622864,
        0.47745776176452637,
        0.46584752202033997,
        -0.3866039216518402,
        -0.24235478043556213,
        0.025277014821767807,
        0.16904476284980774,
        0.30082589387893677,
        -0.3166595697402954,
        -0.9879539012908936,
        0.38171032071113586,
        -0.17318668961524963,
        -0.07554817199707031,
        -0.5047566890716553,
        0.4399751126766205,
        0.21597521007061005,
        -0.6797149181365967,
        -0.048700686544179916,
        0.47931191325187683,
        -0.1308324784040451,
        -0.19464127719402313,
        0.6375412940979004,
        0.5590485334396362,
        -0.11078173667192459,
        0.6718980073928833,
        0.5420902371406555,
        0.3717532455921173,
        -0.20886629819869995,
        0.02788884937763214,
        -0.10430610179901123,
        -0.26556092500686646,
        -0.38281071186065674,
        0.49378302693367004,
        0.34253618121147156,
        0.5242798924446106,
        -0.03706205636262894,
        -0.3319604694843292,
        -0.016975698992609978,
        -0.24567455053329468,
        0.01983223482966423,
        -0.2125782072544098,
        0.33836790919303894,
        0.6260297894477844,
        0.4093676209449768,
        0.06935577094554901,
        -0.1958136409521103,
        0.5959368348121643,
        -0.3389166593551636,
        0.5362924337387085,
        -0.009505204856395721,
        0.6180745363235474,
        0.1405992954969406,
        -0.525101900100708,
        -0.5914032459259033,
        0.08228051662445068,
        0.34124577045440674,
        0.376458078622818,
        -0.29554691910743713,
        0.11557997018098831,
        -0.1370120346546173,
        -0.28002095222473145,
        -0.37125685811042786,
        -0.1522749662399292,
        -0.01570618525147438,
        -0.16002057492733002,
        0.8455881476402283,
        -0.18951746821403503,
        -1.1063928604125977,
        -0.05777747556567192,
        0.11089979857206345,
        0.1239483654499054,
        0.13163770735263824,
        -0.6976746320724487,
        -0.01465465035289526,
        0.682371973991394,
        0.31486570835113525,
        -0.5663285255432129,
        -0.47596773505210876,
        0.39555779099464417,
        0.0030783400870859623,
        -0.011810163967311382,
        -0.11304423213005066,
        -0.36729657649993896,
        -0.07825207710266113,
        0.11028806865215302,
        0.2658669650554657,
        -0.2608188986778259,
        0.3046710789203644,
        1.0827202796936035,
        -0.23460547626018524,
        -0.2580853998661041,
        -0.22547098994255066,
        -0.33531999588012695,
        -0.0046424102038145065,
        0.1365983486175537,
        -0.00695572467520833,
        0.12992677092552185,
        -0.45561718940734863,
        0.1651419997215271,
        -0.3095259964466095,
        0.16270722448825836,
        0.06473075598478317,
        -0.15304815769195557,
        0.4643004238605499,
        0.021903973072767258,
        0.12308207154273987,
        -0.0867399349808693,
        0.289873331785202,
        -0.04457620903849602,
        -0.128635436296463,
        0.5689923763275146,
        -0.5766626000404358,
        0.2707463502883911,
        -0.1027761772274971,
        0.4918491542339325,
        0.16531787812709808,
        -0.7517607808113098
      ]
    },
    {
      "activation": "rectified",
      "architecture": "dense",
      "bias": [
        0.9280705451965332,
        0.07692108303308487,
        -0.6489598155021667,
        0.8469396829605103,
        -0.4843544065952301,
        0.16763220727443695,
        0.42723792791366577,
        0.4378725588321686,
        1.0844475030899048,
        0.559618353843689,
        0.6346672177314758,
        -0.12106284499168396,
        -0.09106119722127914,
        0.3817351460456848,
        -0.3410983383655548,
        -0.13733619451522827
      ],
      "weights": [
        -0.3080359697341919,
        0.6958735585212708,
        -0.17977328598499298,
        0.5817017555236816,
        -0.364879846572876,
        -0.7422958016395569,
        -0.0918939933180809,
        -0.37009361386299133,
        0.3820978105068207,
        0.24845729768276215,
        0.0821804404258728,
        0.2042936086654663,
        -0.0664597898721695,
        0.13346922397613525,
        0.32101452350616455,
        -0.09427468478679657,
        -1.2940974235534668,
        0.12979891896247864,
        0.07811825722455978,
        0.18165871500968933,
        -1.0534639358520508,
        -0.23836855590343475,
        -0.7955729961395264,
        -0.4604979157447815,
        0.053555335849523544,
        -0.061839260160923004,
        0.2270587831735611,
        0.16313542425632477,
        -0.5899656414985657,
        -0.2674589455127716,
        0.24733953177928925,
        -0.647331178188324,
        -0.1890762597322464,
        -0.13041044771671295,
        0.44348767399787903,
        -0.7218623757362366,
        0.1481734812259674,
        -1.663692593574524,
        -0.3043271005153656,
        0.41151636838912964,
        -0.30061450600624084,
        0.02955806814134121,
        0.1300077885389328,
        0.1344316303730011,
        -1.0013278722763062,
        -0.004139382857829332,
        -1.3880513906478882,
        -0.11222704499959946,
        -0.17222800850868225,
        -0.5625439286231995,
        -1.428941011428833,
        -0.6019238233566284,
        -0.10796365141868591,
        -0.938524067401886,
        -1.0868462324142456,
        0.18713241815567017,
        -1.06659734249115,
        -1.0007802248001099,
        -1.5078599452972412,
        -1.0715022087097168,
        -0.5790132880210876,
        -1.1868680715560913,
        -0.43727898597717285,
        -0.38765519857406616,
        0.44400814175605774,
        0.2608347237110138,
        0.1914324164390564,
        0.09420659393072128,
        -0.13876420259475708,
        0.11020703613758087,
        -0.1988791674375534,
        -0.11517949402332306,
        0.7109217643737793,
        -0.10857164859771729,
        -0.37650415301322937,
        -0.04634091630578041,
        0.9983305931091309,
        -0.07413521409034729,
        -0.4909609854221344,
        -0.10623199492692947,
        0.02643653377890587,
        -0.35329580307006836,
        -0.31154143810272217,
        0.25970104336738586,
        0.12827402353286743,
        0.5574223399162292,
        -0.22904516756534576,
        -0.25084659457206726,
        0.3367522954940796,
        0.22191353142261505,
        0.11313576996326447,
        -0.4879763722419739,
        0.8596926331520081,
        -0.5055515170097351,
        0.20614656805992126,
        -1.0651201009750366,
        0.2903149724006653,
        0.3773612380027771,
        -0.4998229444026947,
        -0.2245129942893982,
        0.10923518985509872,
        0.5818267464637756,
        0.44623488187789917,
        0.025900444015860558,
        0.24443475902080536,
        0.007620636373758316,
        -0.04178495705127716,
        -0.07423281669616699,
        0.40026479959487915,
        0.05579033121466637,
        0.16376866400241852,
        -0.11364641040563583,
        -0.04659884795546532,
        0.4080309271812439,
        0.017961779609322548,
        0.03081853874027729,
        0.9586083292961121,
        0.07015128433704376,
        -0.1100490391254425,
        0.470660001039505,
        -0.21136608719825745,
        0.4827239513397217,
        0.09888031333684921,
        0.6196746826171875,
        -0.1486118584871292,
        0.23464766144752502,
        -0.35371896624565125,
        0.06177312135696411,
        0.508894681930542,
        0.5491638779640198,
        -0.2810104191303253,
        -0.019155390560626984,
        0.5538307428359985,
        0.1031557098031044,
        0.2602582275867462,
        0.630040168762207,
        0.33630502223968506,
        0.607865035533905,
        -0.31661009788513184,
        0.4867270588874817,
        0.2713269889354706,
        0.14025752246379852,
        -0.1292731761932373,
        0.12471336871385574,
        0.6053193807601929,
        0.740247368812561,
        -0.276096373796463,
        -0.07745836675167084,
        -0.22782455384731293,
        -0.25898951292037964,
        -0.07481216639280319,
        0.7221148014068604,
        -0.16062186658382416,
        0.42769336700439453,
        0.05609757453203201,
        -0.2547144591808319,
        -0.20282196998596191,
        -1.0741217136383057,
        0.44808506965637207,
        0.0013209296157583594,
        0.010357005521655083,
        0.72993004322052,
        -0.1411980837583542,
        0.05467114597558975,
        -0.34430992603302,
        -0.020157810300588608,
        0.20889417827129364,
        -0.029400691390037537,
        0.03134595975279808,
        0.4035623073577881,
        1.0077859163284302,
        -0.19106394052505493,
        0.37770938873291016,
        0.327106773853302,
        0.1523958444595337,
        0.017406251281499863,
        -0.5050556659698486,
        -1.1980923414230347,
        -1.014800786972046,
        0.10868106037378311,
        -0.33493342995643616,
        0.12383711338043213,
        0.39029455184936523,
        -0.38599348068237305,
        -0.021539978682994843,
        -0.4155353307723999,
        0.12542016804218292,
        -0.9752453565597534,
        0.3363608121871948,
        -1.151964545249939,
        0.1224108636379242,
        0.29742249846458435,
        0.51295405626297,
        -0.48482248187065125,
        -0.48213228583335876,
        0.09316029399633408,
        0.09469734877347946,
        0.41582509875297546,
        -0.7610248327255249,
        -0.14115840196609497,
        0.23736590147018433,
        0.01094110868871212,
        -0.23004856705665588,
        -0.2097899615764618,
        0.2052435278892517,
        0.10043315589427948,
        0.40665361285209656,
        0.44682174921035767,
        -1.7334539890289307,
        -1.4404336214065552,
        -2.150986909866333,
        -1.1138054132461548,
        -0.3103172481060028,
        0.059479858726263046,
        -0.5011001825332642,
        -0.2578342854976654,
        -1.3568907976150513,
        -0.8278299570083618,
        -0.1990857869386673,
        0.556119441986084,
        -0.2896172106266022,
        -0.6277281045913696,
        -0.36525556445121765,
        -0.5463468432426453,
        0.18353502452373505,
        0.06711286306381226,
        0.062414299696683884,
        -0.051609814167022705,
        0.09369281679391861,
        -0.43160340189933777,
        -0.09255760163068771,
        -0.20938922464847565,
        -0.054414570331573486,
        0.21123279631137848,
        0.2192545086145401,
        -1.7683680057525635,
        0.030641524121165276,
        0.36290690302848816,
        0.07645609974861145,
        0.6820247173309326,
        0.7265868186950684,
        0.43370163440704346,
        -0.2619111239910126,
        0.44171905517578125,
        -0.4348236918449402,
        0.31843143701553345,
        0.35674184560775757,
        -0.6151980757713318,
        -0.8510439991950989,
        0.44254595041275024,
        0.061127204447984695,
        -0.11368940770626068,
        0.363441526889801,
        0.042165789753198624,
        -0.2089124470949173,
        -0.29937922954559326
      ]
    },
    {
      "activation": "rectified",
      "architecture": "dense",
      "bias": [
        -0.1295383721590042,
        -0.1805066019296646,
        0.039387330412864685,
        -0.7471579909324646,
        -0.07524532824754715,
        -0.07538878917694092,
        0.1420370191335678,
        -0.09700591117143631,
        -0.3428281247615814,
        -0.13412131369113922,
        -0.4107853174209595,
        -0.22320282459259033,
        0.5790466070175171,
        -0.583203136920929,
        0.6525033116340637,
        0.20519547164440155
      ],
      "weights": [
        -0.6669949293136597,
        0.08142402023077011,
        -0.2793426513671875,
        -0.0691395252943039,
        -0.34514182806015015,
        -0.37554123997688293,
        -0.12472919374704361,
        -0.35246971249580383,
        -0.5496919751167297,
        -0.3599371016025543,
        -0.4406661093235016,
        -0.6268548965454102,
        0.024095602333545685,
        0.13040657341480255,
        0.12773755192756653,
        -0.35104164481163025,
        -0.5742573738098145,
        -0.7383168935775757,
        -0.5461485981941223,
        -0.5910224914550781,
        0.29797065258026123,
        -0.6755404472351074,
        -0.5872789621353149,
        -0.3936474621295929,
        -0.5170981287956238,
        -0.46652287244796753,
        -0.8150694370269775,
        -0.017089782282710075,
        0.03996076062321663,
        0.25013500452041626,
        0.31388095021247864,
        -0.003178672632202506,
        0.26962870359420776,
        0.12132895737886429,
        0.1059805229306221,
        -0.29263779520988464,
        0.20180119574069977,
        0.7162957191467285,
        0.24856872856616974,
        -0.352439284324646,
        0.017512356862425804,
        0.04291088506579399,
        0.26749464869499207,
        -0.02684369683265686,
        0.2463863044977188,
        -0.20674584805965424,
        -0.3637333810329437,
        0.6801941990852356,
        -0.17100977897644043,
        0.24489563703536987,
        0.33283865451812744,
        -0.4670652747154236,
        -0.05673183128237724,
        -0.5113991498947144,
        -0.2615123987197876,
        0.10492817312479019,
        0.3553665578365326,
        -0.3396173119544983,
        -0.48355045914649963,
        -0.7034744620323181,
        -0.05794890597462654,
        0.5572013258934021,
        0.5508052706718445,
        0.1936475783586502,
        -0.18330982327461243,
        -0.4866054654121399,
        -0.13974827527999878,
        0.4565368592739105,
        -0.8326260447502136,
        -0.15616241097450256,
        -0.16922412812709808,
        -0.13937722146511078,
        -0.6756837368011475,
        -0.26471468806266785,
        -0.22305995225906372,
        -0.2994705140590668,
        0.033292509615421295,
        -0.5616937279701233,
        -0.3869110345840454,
        0.10421419143676758,
        -0.08218173682689667,
        -0.46349501609802246,
        -0.19400516152381897,
        -0.3626999258995056,
        -0.07287546992301941,
        -0.026718884706497192,
        0.46451154351234436,
        0.2850867509841919,
        0.05231247842311859,
        -0.09848764538764954,
        -0.10792744904756546,
        -0.0881214439868927,
        0.23349498212337494,
        -0.041121821850538254,
        0.30336758494377136,
        0.20095565915107727,
        -0.43376675248146057,
        0.07926821708679199,
        -2.040727376937866,
        -0.012938423082232475,
        0.18241572380065918,
        -0.6732494831085205,
        -1.0531574487686157,
        0.5452562570571899,
        -0.3432191014289856,
        -0.4839703142642975,
        -0.1497187465429306,
        -0.1371787190437317,
        -1.281736135482788,
        -1.0063135623931885,
        0.055480897426605225,
        -0.7259500026702881,
        0.013700628653168678,
        0.2803272306919098,
        0.23587098717689514,
        0.648540735244751,
        -0.18044035136699677,
        0.1547406017780304,
        -0.0742364302277565,
        0.27645692229270935,
        -0.09729261696338654,
        0.3743274509906769,
        0.19681662321090698,
        -0.7233182787895203,
        -0.37581560015678406,
        0.5043032765388489,
        0.31844693422317505,
        -0.0544096976518631,
        -0.2344125658273697,
        -0.13549868762493134,
        0.24255220592021942,
        0.4286937415599823,
        0.5618293881416321,
        -0.4495679438114166,
        0.2592202425003052,
        0.22502350807189941,
        -1.0300722122192383,
        0.21868358552455902,
        0.13627669215202332,
        -0.40203166007995605,
        -0.09828194230794907,
        -1.72568941116333,
        -0.1385766863822937,
        -0.6970801949501038,
        0.06746623665094376,
        0.06070251017808914,
        0.24336561560630798,
        -0.38881510496139526,
        -0.21688158810138702,
        -0.7603166699409485,
        -0.2173432558774948,
        -2.4051949977874756,
        0.30175819993019104,
        0.012618842534720898,
        0.05407864600419998,
        -0.9514236450195312,
        -0.3539707362651825,
        0.6169240474700928,
        -0.6071264743804932,
        0.1180158481001854,
        -0.19419953227043152,
        0.6180650591850281,
        0.04271933436393738,
        -0.21356873214244843,
        -0.30165377259254456,
        0.0057191746309399605,
        0.09769563376903534,
        -0.27365344762802124,
        -0.38408637046813965,
        0.1447904407978058,
        0.22274979948997498,
        -0.007678392808884382,
        -0.10772349685430527,
        0.48613905906677246,
        -0.31217724084854126,
        -0.16766901314258575,
        0.8830176591873169,
        0.396707683801651,
        -0.13790014386177063,
        -0.12933801114559174,
        0.2659289538860321,
        -0.011215007863938808,
        0.14678573608398438,
        -0.06243620440363884,
        0.13614481687545776,
        -0.2023642659187317,
        -0.9734976887702942,
        -0.1423395574092865,
        -0.003165912115946412,
        -0.30678293108940125,
        0.5920141935348511,
        0.0480068176984787,
        0.21253293752670288,
        -0.08784337341785431,
        -0.1914326399564743,
        -1.0471724271774292,
        0.0846998393535614,
        -0.04640297219157219,
        0.021292706951498985,
        0.5453911423683167,
        0.08785448223352432,
        0.2848818004131317,
        0.529758870601654,
        -0.39836937189102173,
        0.015998074784874916,
        -0.9394893050193787,
        0.3513304591178894,
        -0.04022391140460968,
        -0.09105532616376877,
        -0.20950600504875183,
        0.18821504712104797,
        0.36472800374031067,
        -0.5357914566993713,
        0.04514088109135628,
        -0.18481162190437317,
        -0.5216413140296936,
        -0.09003522992134094,
        0.3340143859386444,
        0.0450146459043026,
        0.9137757420539856,
        0.23733045160770416,
        0.5280612111091614,
        0.27200770378112793,
        0.13527484238147736,
        -0.09851506352424622,
        -0.3262205123901367,
        -0.463986873626709,
        -0.9359964728355408,
        0.22587892413139343,
        0.03478279337286949,
        0.045075371861457825,
        -0.07132925093173981,
        -0.14411309361457825,
        0.17733997106552124,
        0.3471989333629608,
        -0.4077816307544708,
        -0.06821989268064499,
        -0.07428891956806183,
        -0.2812168598175049,
        0.07084401696920395,
        -0.18175990879535675,
        -0.12096237391233444,
        -0.14065726101398468,
        -0.5863879919052124,
        0.23897625505924225,
        0.06693273037672043,
        0.16355539858341217,
        -0.2232569009065628,
        0.6064055562019348,
        -0.522614061832428,
        0.10612921416759491,
        0.2534095048904419,
        0.8689337372779846,
        -0.17439745366573334,
        0.19448038935661316,
        0.649560272693634
      ]
    },
    {
      "activation": "rectified",
      "architecture": "dense",
      "bias": [
        0.002639254555106163,
        -0.3648144006729126,
        -0.274091511964798,
        -0.22409607470035553,
        -0.29721832275390625,
        -0.09861138463020325,
        0.34050706028938293,
        0.033071428537368774,
        0.3319206237792969,
        -0.13958147168159485,
        0.3218015432357788,
        -0.5030583739280701,
        0.09418155252933502,
        -0.23944580554962158,
        -0.07013701647520065,
        -0.43867531418800354
      ],
      "weights": [
        -0.18330398201942444,
        -0.33742085099220276,
        0.27808767557144165,
        -0.1809656172990799,
        -0.3988208770751953,
        0.04598964750766754,
        -0.547415554523468,
        -0.11536096781492233,
        -0.18214748799800873,
        -0.053649358451366425,
        -0.04323852062225342,
        0.455436646938324,
        0.2948487401008606,
        -0.016151079908013344,
        0.19600793719291687,
        0.3662685453891754,
        -0.1835584044456482,
        -0.15500076115131378,
        -0.2083265632390976,
        -0.5745090842247009,
        -0.44242212176322937,
        0.14896553754806519,
        -0.15293097496032715,
        -0.32337453961372375,
        -0.21829688549041748,
        0.1713338941335678,
        -0.6302729249000549,
        -0.017452780157327652,
        -0.562512218952179,
        -0.15272441506385803,
        -0.3123038113117218,
        -0.21223272383213043,
        -0.1025104820728302,
        0.018445754423737526,
        -0.35726070404052734,
        0.3330751061439514,
        -0.2808673679828644,
        0.17289932072162628,
        0.06595350801944733,
        0.10290569812059402,
        -0.014431706629693508,
        0.9218754172325134,
        -0.43044179677963257,
        0.016674434766173363,
        0.34646812081336975,
        0.40396037697792053,
        -0.05905796214938164,
        0.2425498366355896,
        -0.037454817444086075,
        -0.30081719160079956,
        -0.574042558670044,
        -0.7972295880317688,
        0.048379890620708466,
        0.5133332014083862,
        -0.1458219289779663,
        -0.3649654686450958,
        -0.31470945477485657,
        -0.7152037620544434,
        -0.10497071593999863,
        -0.7247275710105896,
        -0.9798056483268738,
        0.01624947227537632,
        -0.305630087852478,
        -0.1336211860179901,
        -0.15890765190124512,
        0.2674527168273926,
        0.06151711568236351,
        -0.12632639706134796,
        0.017773209139704704,
        -0.08010406047105789,
        0.04519201070070267,
        0.19720891118049622,
        0.023358847945928574,
        0.5203384160995483,
        0.1581544429063797,
        0.5216895937919617,
        0.2247922271490097,
        0.14447028934955597,
        0.10132088512182236,
        -0.1545782834291458,
        -0.08952078223228455,
        0.1438637673854828,
        -0.3910779058933258,
        -0.453060120344162,
        -0.1837407499551773,
        -0.2240542471408844,
        0.4219704568386078,
        -0.49394792318344116,
        0.1966976374387741,
        0.22155146300792694,
        -0.25145530700683594,
        -0.36736685037612915,
        -1.0697764158248901,
        0.21510140597820282,
        -0.5302370190620422,
        -0.07061830163002014,
        -0.21712347865104675,
        0.36755916476249695,
        0.09147555381059647,
        0.30273738503456116,
        0.12434518337249756,
        -0.3246721625328064,
        0.5743061900138855,
        0.0962725430727005,
        0.3223688304424286,
        -0.7471873164176941,
        -0.38718897104263306,
        -0.2219705432653427,
        -0.4962155222892761,
        -0.25959300994873047,
        -0.6517682671546936,
        -1.033510446548462,
        0.37225714325904846,
        0.14648109674453735,
        -0.04549100250005722,
        -0.06024942547082901,
        -0.4476522207260132,
        0.42637017369270325,
        0.17505834996700287,
        -0.40187036991119385,
        -0.08834417164325714,
        0.12899503111839294,
        0.117407888174057,
        -0.09039472788572311,
        -0.4443226456642151,
        0.5653372406959534,
        -0.3019076883792877,
        0.18390674889087677,
        -0.30227795243263245,
        -0.33636364340782166,
        -0.8340478539466858,
        -0.21317295730113983,
        -0.016925880685448647,
        -0.056646738201379776,
        0.13713590800762177,
        -0.08549533039331436,
        -0.5166504979133606,
        0.3352188766002655,
        0.4752442240715027,
        0.09669893234968185,
        -0.058480653911828995,
        0.4017718732357025,
        0.8199809193611145,
        0.11287165433168411,
        -0.22075612843036652,
        -0.054314665496349335,
        0.022822683677077293,
        -0.21356201171875,
        -0.1589871644973755,
        0.8333196640014648,
        -0.001428302377462387,
        -0.24322515726089478,
        0.43632039427757263,
        0.5149904489517212,
        -0.139546200633049,
        0.22943365573883057,
        -0.03698965162038803,
        0.07606272399425507,
        0.3349917531013489,
        -0.5467956066131592,
        0.21407099068164825,
        0.5216240286827087,
        0.18738636374473572,
        -0.6347581744194031,
        -0.17265212535858154,
        -0.0770091563463211,
        0.02499702200293541,
        -0.18771930038928986,
        0.014413504861295223,
        -0.12547758221626282,
        0.6142957210540771,
        0.13525772094726562,
        -0.4555484652519226,
        0.0913572609424591,
        0.38916322588920593,
        -0.25089210271835327,
        0.010406079702079296,
        0.21365290880203247,
        -0.23518234491348267,
        0.4252884089946747,
        -0.05280609056353569,
        0.17608380317687988,
        -0.04214507341384888,
        -0.7848037481307983,
        -0.1486542522907257,
        -0.19145339727401733,
        0.4635257422924042,
        0.011162729933857918,
        -0.35338297486305237,
        -0.7061600089073181,
        0.029273763298988342,
        -0.7692418694496155,
        -0.10891187191009521,
        -0.6341942548751831,
        -0.20488408207893372,
        -0.22774861752986908,
        0.3397357165813446,
        0.22466182708740234,
        0.5754854083061218,
        0.4986668825149536,
        -0.30917268991470337,
        0.364412784576416,
        -0.21134518086910248,
        0.14802394807338715,
        -1.8741118907928467,
        -0.3756329119205475,
        0.5675928592681885,
        0.10628275573253632,
        0.15282827615737915,
        0.1917269080877304,
        -0.5965158939361572,
        -0.217504620552063,
        0.21580275893211365,
        -0.2504432499408722,
        -0.03479573875665665,
        -0.7975193858146667,
        -0.5488855242729187,
        0.1105961725115776,
        0.16065864264965057,
        -0.6465804576873779,
        -0.9720605611801147,
        -0.17070701718330383,
        -0.22874192893505096,
        0.07395579665899277,
        -0.03997783735394478,
        0.4780259430408478,
        -0.040774207562208176,
        0.11499202996492386,
        -0.03376176580786705,
        -0.2587733864784241,
        0.19817449152469635,
        -1.1032894849777222,
        0.22187677025794983,
        -0.24476514756679535,
        0.23701277375221252,
        0.08357468247413635,
        0.22028695046901703,
        -0.0909300372004509,
        -0.13870511949062347,
        -0.13621845841407776,
        0.06975805014371872,
        0.33446234464645386,
        0.04442650452256203,
        0.4410472810268402,
        -0.4614965617656708,
        0.10881336033344269,
        -0.02257472649216652,
        -0.8608328700065613,
        -0.09174011647701263,
        -0.4467778503894806,
        0.7019785046577454,
        -0.2116418033838272,
        -1.3136259317398071,
        0.12423861771821976,
        0.37049660086631775,
        -0.32120221853256226
      ]
    },
    {
      "activation": "rectified",
      "architecture": "dense",
      "bias": [
        0.4191879332065582,
        -0.9634279608726501,
        -0.3313754200935364,
        0.1791965663433075,
        -0.4986923933029175,
        0.04046260565519333,
        -0.16654551029205322,
        -0.08513826876878738,
        0.020558945834636688,
        0.6271693706512451,
        0.4639652371406555,
        0.1456483155488968,
        0.20673660933971405,
        -0.7765539288520813,
        -1.974588394165039,
        -0.24921627342700958
      ],
      "weights": [
        0.4207526445388794,
        -0.1317213624715805,
        0.13690970838069916,
        -0.11546705663204193,
        -0.39752113819122314,
        0.16658271849155426,
        -0.6065282225608826,
        0.34058988094329834,
        0.02879800833761692,
        0.570095956325531,
        -0.101293183863163,
        0.140282541513443,
        0.35218432545661926,
        -0.0860283300280571,
        -0.33574384450912476,
        0.22911424934864044,
        -0.46136772632598877,
        -0.038870956748723984,
        0.14390218257904053,
        0.34723228216171265,
        -0.07659222930669785,
        0.27693840861320496,
        0.3541814684867859,
        -0.3306485414505005,
        -0.15042375028133392,
        -0.21210379898548126,
        0.4084152579307556,
        0.19786344468593597,
        -0.4642927348613739,
        0.3341690003871918,
        0.38902798295021057,
        0.17527174949645996,
        -0.3145303726196289,
        0.20734484493732452,
        -0.2979640066623688,
        0.04263187199831009,
        -0.005250053014606237,
        -0.18902373313903809,
        -0.008237939327955246,
        0.17220187187194824,
        -0.3038586676120758,
        0.00882318802177906,
        -0.1340571939945221,
        0.18916448950767517,
        -0.22814533114433289,
        -0.213494673371315,
        -0.46424970030784607,
        -0.4304440915584564,
        -0.4905625581741333,
        -0.19174738228321075,
        -0.2973509430885315,
        -0.2957691252231598,
        0.4727104604244232,
        0.030196119099855423,
        0.07452613115310669,
        0.411542683839798,
        -0.06377947330474854,
        -0.07006581127643585,
        0.12872055172920227,
        0.6634870767593384,
        -0.2935777008533478,
        0.43457451462745667,
        0.29847174882888794,
        0.26150742173194885,
        -0.3398423194885254,
        -0.44600632786750793,
        -0.48353299498558044,
        -0.03443557396531105,
        -0.4892503023147583,
        0.3078464865684509,
        -0.5055828094482422,
        0.23639442026615143,
        0.14652907848358154,
        0.009118297137320042,
        -0.17041714489459991,
        0.2780812084674835,
        -0.31416553258895874,
        0.2813818156719208,
        0.4690275192260742,
        -0.18777063488960266,
        -0.046699158847332,
        0.014135214500129223,
        0.3912097215652466,
        0.4063921272754669,
        0.10749321430921555,
        0.3512492775917053,
        -0.13931217789649963,
        0.004365281201899052,
        -0.3376212418079376,
        0.16614548861980438,
        -0.30789798498153687,
        0.6247171759605408,
        0.5850905776023865,
        -0.3623051047325134,
        0.14324291050434113,
        0.3331657946109772,
        -0.05982186645269394,
        -0.16146492958068848,
        -0.2096184939146042,
        0.029062867164611816,
        -0.3116672933101654,
        -0.3758837580680847,
        0.04025515168905258,
        -0.3446025252342224,
        -0.6064541935920715,
        -0.06242460012435913,
        0.42190229892730713,
        0.19299350678920746,
        -0.2842998206615448,
        -0.050880491733551025,
        -0.27546799182891846,
        -0.1465754210948944,
        -0.19483837485313416,
        -0.26037949323654175,
        -0.2404673844575882,
        -0.15620651841163635,
        -0.10057921707630157,
        0.03771106153726578,
        -0.14227572083473206,
        -0.2854599356651306,
        -0.2639957368373871,
        -0.32162004709243774,
        0.063266322016716,
        -0.24388447403907776,
        -0.36039307713508606,
        -0.34999880194664,
        0.10082092881202698,
        -0.2929472327232361,
        0.12177109718322754,
        -0.2897292375564575,
        -0.7128759622573853,
        -0.09051644802093506,
        -0.5395104885101318,
        -0.25020962953567505,
        0.13855986297130585,
        0.37172314524650574,
        0.7318991422653198,
        -0.025818709284067154,
        -0.5246024131774902,
        0.6352715492248535,
        -0.13436715304851532,
        0.10089529305696487,
        0.5474081635475159,
        0.5933443307876587,
        -0.08004408329725266,
        -0.1099284440279007,
        -0.8290202617645264,
        -0.015178095549345016,
        -0.8153702616691589,
        0.07756038755178452,
        0.17187339067459106,
        0.16895967721939087,
        0.5360389947891235,
        0.34037643671035767,
        0.013494353741407394,
        0.268350213766098,
        -0.6086245775222778,
        -0.3911658823490143,
        -0.08414764702320099,
        -0.3928022086620331,
        0.04632607847452164,
        -0.16005264222621918,
        -0.6648645997047424,
        0.03180686756968498,
        0.06631942838430405,
        0.5796821117401123,
        0.1698884218931198,
        -0.06672582030296326,
        0.42342743277549744,
        -0.22373321652412415,
        -0.2327117770910263,
        -0.4197213053703308,
        -1.3617628812789917,
        -0.12834523618221283,
        0.07013227045536041,
        0.16015762090682983,
        0.34433284401893616,
        -0.6375614404678345,
        -0.15771502256393433,
        0.04879234731197357,
        0.2822633683681488,
        -0.4214406907558441,
        -0.323892205953598,
        -0.06852106750011444,
        0.3227069079875946,
        0.05271664634346962,
        0.1314258724451065,
        0.1032925695180893,
        0.4721545875072479,
        -1.617688536643982,
        0.014258719980716705,
        0.4948227107524872,
        -0.5605748891830444,
        -0.2318226397037506,
        -0.04832535982131958,
        -0.2762540876865387,
        -0.6344226002693176,
        -0.3765456974506378,
        0.3864733874797821,
        -0.45844653248786926,
        -0.06544788926839828,
        0.27907270193099976,
        -0.3533039391040802,
        0.07814514636993408,
        -1.0516070127487183,
        0.41278842091560364,
        -0.08533094823360443,
        -0.13122345507144928,
        0.012652422301471233,
        -0.0680081695318222,
        0.026695435866713524,
        -0.16948586702346802,
        -0.06741511076688766,
        -0.010039384476840496,
        -0.35357579588890076,
        0.047078393399715424,
        -0.8044416308403015,
        0.042409926652908325,
        -0.21150384843349457,
        -0.3381199538707733,
        0.6075140833854675,
        -0.21609489619731903,
        0.08981189131736755,
        -0.4124164581298828,
        0.11537247896194458,
        -0.450294554233551,
        -0.09851635992527008,
        0.013867274858057499,
        -0.14076800644397736,
        -0.17884381115436554,
        -0.44159239530563354,
        -0.07605727761983871,
        0.11569252610206604,
