{
  "defaults": {},
  "inputs": [
    {
      "name": "jet3_pt",
      "offset": 0,
      "scale": 1
    },
    {
      "name": "jet3_eta",
      "offset": 0,
      "scale": 1
    },
    {
      "name": "lep1_eta",
      "offset": 0,
      "scale": 1
    },
    {
      "name": "jet2_pt",
      "offset": 0,
      "scale": 1
    },
    {
      "name": "jet1_pt",
      "offset": 0,
      "scale": 1
    },
    {
      "name": "jetFwd1_eta",
      "offset": 0,
      "scale": 1
    },
    {
      "name": "mT_lep1",
      "offset": 0,
      "scale": 1
    },
    {
      "name": "mT_lep2",
      "offset": 0,
      "scale": 1
    },
    {
      "name": "jet4_phi",
      "offset": 0,
      "scale": 1
    },
    {
      "name": "lep2_conePt",
      "offset": 0,
      "scale": 1
    },
    {
      "name": "hadTop_BDT",
      "offset": 0,
      "scale": 1
    },
    {
      "name": "jet1_phi",
      "offset": 0,
      "scale": 1
    },
    {
      "name": "jet2_eta",
      "offset": 0,
      "scale": 1
    },
    {
      "name": "n_presel_jetFwd",
      "offset": 0,
      "scale": 1
    },
    {
      "name": "n_presel_jet",
      "offset": 0,
      "scale": 1
    },
    {
      "name": "lep1_charge",
      "offset": 0,
      "scale": 1
    },
    {
      "name": "avg_dr_jet",
      "offset": 0,
      "scale": 1
    },
    {
      "name": "lep1_phi",
      "offset": 0,
      "scale": 1
    },
    {
      "name": "Hj_tagger_hadTop",
      "offset": 0,
      "scale": 1
    },
    {
      "name": "nBJetLoose",
      "offset": 0,
      "scale": 1
    },
    {
      "name": "jet4_pt",
      "offset": 0,
      "scale": 1
    },
    {
      "name": "mindr_lep1_jet",
      "offset": 0,
      "scale": 1
    },
    {
      "name": "lep1_conePt",
      "offset": 0,
      "scale": 1
    },
    {
      "name": "jetFwd1_pt",
      "offset": 0,
      "scale": 1
    },
    {
      "name": "lep2_phi",
      "offset": 0,
      "scale": 1
    },
    {
      "name": "jet2_phi",
      "offset": 0,
      "scale": 1
    },
    {
      "name": "lep2_eta",
      "offset": 0,
      "scale": 1
    },
    {
      "name": "mbb",
      "offset": 0,
      "scale": 1
    },
    {
      "name": "mindr_lep2_jet",
      "offset": 0,
      "scale": 1
    },
    {
      "name": "jet4_eta",
      "offset": 0,
      "scale": 1
    },
    {
      "name": "nBJetMedium",
      "offset": 0,
      "scale": 1
    },
    {
      "name": "Dilep_pdgId",
      "offset": 0,
      "scale": 1
    },
    {
      "name": "metLD",
      "offset": 0,
      "scale": 1
    },
    {
      "name": "jet3_phi",
      "offset": 0,
      "scale": 1
    },
    {
      "name": "maxeta",
      "offset": 0,
      "scale": 1
    },
    {
      "name": "jet1_eta",
      "offset": 0,
      "scale": 1
    }
  ],
  "layers": [
    {
      "activation": "rectified",
      "architecture": "dense",
      "bias": [
        -0.5042591094970703,
        1.3041681051254272,
        1.3659775257110596,
        -0.1108277440071106,
        3.296917200088501,
        -1.3695147037506104,
        0.7704614400863647,
        -0.043008096516132355,
        -2.4735167026519775,
        0.0321686677634716,
        -0.7364054918289185,
        -0.8724256753921509,
        2.932905673980713,
        1.335907220840454,
        -0.17732954025268555,
        -0.49691638350486755,
        1.6069414615631104,
        -2.7012224197387695,
        1.815868616104126,
        0.07685767114162445,
        3.4830567836761475,
        1.728952169418335,
        -0.281059592962265,
        3.513470411300659,
        2.933353900909424,
        0.054692331701517105,
        2.4397192001342773,
        -0.9364027976989746,
        -3.2227816581726074,
        2.3905045986175537,
        0.6718283295631409,
        0.6332020163536072
      ],
      "weights": [
        0.0903143659234047,
        0.4811277985572815,
        -1.3109885454177856,
        0.011562184430658817,
        -0.16508176922798157,
        1.0164743661880493,
        0.040979236364364624,
        0.06800723075866699,
        -0.2440778613090515,
        -0.32014185190200806,
        0.1556652933359146,
        0.6438707709312439,
        1.4896296262741089,
        2.49064302444458,
        0.6185545325279236,
        1.862917423248291,
        3.0764427185058594,
        -0.6776580810546875,
        -0.24201834201812744,
        3.5382354259490967,
        0.3309599757194519,
        0.5823960304260254,
        -0.3169691562652588,
        0.2578863203525543,
        0.826492190361023,
        -0.2729705572128296,
        2.075512409210205,
        0.022662825882434845,
        2.1707499027252197,
        0.49917611479759216,
        3.4458467960357666,
        0.739013135433197,
        -0.19077596068382263,
        -0.01988103613257408,
        3.279278516769409,
        -1.6088573932647705,
        -0.1685723215341568,
        0.07693652808666229,
        0.5968800187110901,
        -0.1850653737783432,
        -0.07574322074651718,
        0.7565217018127441,
        0.037664998322725296,
        0.018626023083925247,
        0.35383403301239014,
        -0.134492427110672,
        0.24074485898017883,
        0.3705504238605499,
        -0.6938309073448181,
        0.14462952315807343,
        1.5186901092529297,
        -1.2850149869918823,
        -0.04369352385401726,
        -0.09138260781764984,
        0.25902265310287476,
        -0.7881301045417786,
        -0.11372711509466171,
        -0.7614178657531738,
        0.0033126124180853367,
        -0.05120883509516716,
        0.35360196232795715,
        0.7491475939750671,
        -0.09496325254440308,
        0.3505043089389801,
        -0.6716921329498291,
        0.2967754006385803,
        -2.0297560691833496,
        4.187932968139648,
        -0.0690855160355568,
        -0.07295705378055573,
        4.250836372375488,
        1.0312482118606567,
        0.03175428509712219,
        -0.7749461531639099,
        -0.07654595375061035,
        0.17985591292381287,
        0.13718309998512268,
        0.06640629470348358,
        -0.1239582821726799,
        0.14789502322673798,
        0.1969350278377533,
        -0.13684029877185822,
        2.942530632019043,
        -1.0109672546386719,
        -3.295866012573242,
        -0.7011957764625549,
        -1.3629467487335205,
        -1.741039752960205,
        -2.91104793548584,
        -0.1131618320941925,
        0.6797778606414795,
        -2.08103084564209,
        5.372569285100326e-05,
        0.8354181051254272,
        0.18986152112483978,
        -0.10182980448007584,
        -0.683591365814209,
        1.6140490770339966,
        0.47123268246650696,
        -0.0348999910056591,
        4.136267185211182,
        -0.6991328001022339,
        -1.481260895729065,
        0.5932689309120178,
        -0.1950744390487671,
        -0.3342001736164093,
        2.4880261421203613,
        -3.9095728397369385,
        0.1254625916481018,
        -0.23254495859146118,
        0.17529816925525665,
        -0.3421419858932495,
        -0.2135022133588791,
        -0.15374808013439178,
        -0.10198365151882172,
        -0.03839536011219025,
        0.16223599016666412,
        -0.11628209054470062,
        -0.5476914048194885,
        -0.4775649309158325,
        0.8906410336494446,
        -0.2304994761943817,
        -0.7122893929481506,
        -1.7756476402282715,
        -0.030498309060931206,
        0.38348624110221863,
        0.13756026327610016,
        -0.8654957413673401,
        -0.21811862289905548,
        -0.5060774087905884,
        -0.10458116978406906,
        -0.32395949959754944,
        0.2258630394935608,
        -0.5391424298286438,
        0.3213140070438385,
        -0.6051700711250305,
        -0.6068102717399597,
        0.15724413096904755,
        -0.36512449383735657,
        -0.3209041953086853,
        0.018386932089924812,
        0.2308121919631958,
        -0.7418385744094849,
        -0.7031131386756897,
        0.13550692796707153,
        0.18353980779647827,
        -0.035431891679763794,
        -0.028551753610372543,
        0.06277056038379669,
        0.11343113332986832,
        -0.0006189519772306085,
        -0.04110541567206383,
        -0.13619600236415863,
        0.05326187610626221,
        11.71160888671875,
        -0.24001573026180267,
        0.17093893885612488,
        1.2580095529556274,
        2.123504638671875,
        -3.2026333808898926,
        -3.0556588172912598,
        0.16630204021930695,
        -0.03650370612740517,
        0.15979790687561035,
        0.14870989322662354,
        -1.4233497381210327,
        0.03287459537386894,
        -0.016994213685393333,
        -0.35393789410591125,
        -0.3742184042930603,
        -0.43347179889678955,
        -0.01635005511343479,
        -1.1085174083709717,
        0.597080409526825,
        -1.1659284830093384,
        0.6327872276306152,
        0.06390365958213806,
        0.8725719451904297,
        -1.6950068473815918,
        -0.957399845123291,
        -0.06588304042816162,
        -0.11387597769498825,
        -0.3088410794734955,
        0.05354110151529312,
        0.0896935984492302,
        0.6821185350418091,
        0.059027139097452164,
        0.1434781551361084,
        0.1626853197813034,
        -0.06309056282043457,
        -0.015778066590428352,
        0.05997350811958313,
        0.8722178339958191,
        2.9288973808288574,
        -3.2378759384155273,
        5.672297954559326,
        -0.21250997483730316,
        -0.1336137354373932,
        0.36172041296958923,
        2.0084235668182373,
        -0.24003595113754272,
        3.0790910720825195,
        0.0006601644563488662,
        0.04319395497441292,
        0.39399027824401855,
        0.3893885016441345,
        0.18772506713867188,
        0.17273487150669098,
        0.8346472978591919,
        -0.18470145761966705,
        1.9744752645492554,
        -2.1161348819732666,
        -0.0545278899371624,
        -0.1745813935995102,
        2.3101751804351807,
        2.2552173137664795,
        -0.020614290609955788,
        0.612915575504303,
        3.27953839302063,
        0.12844344973564148,
        -0.04247090592980385,
        -3.0406343936920166,
        0.11912032216787338,
        0.13338220119476318,
        -0.15805742144584656,
        -0.05005276948213577,
        0.6184483170509338,
        -0.9287405014038086,
        -0.7953554391860962,
        -0.7463634014129639,
        0.9605318307876587,
        -5.840376377105713,
        -2.2512645721435547,
        -0.2890283763408661,
        0.051951341331005096,
        -0.14453302323818207,
        -0.08597968518733978,
        -2.5844357013702393,
        -0.0898398831486702,
        0.006392341572791338,
        0.9537466764450073,
        0.9772024154663086,
        3.0581254959106445,
        0.011171836405992508,
        -1.5876609086990356,
        -0.6693847179412842,
        -1.5941437482833862,
        0.24964752793312073,
        0.14241544902324677,
        -0.5897207260131836,
        0.21471814811229706,
        0.026164056733250618,
        -0.0366218239068985,
        0.36719974875450134,
        0.3258102834224701,
        -0.01631901040673256,
        -0.05627429112792015,
        -6.728673934936523,
        -0.013897153548896313,
        0.011317213997244835,
        0.21611639857292175,
        -0.03266259655356407,
        0.027925042435526848,
        0.21184837818145752,
        1.6021499633789062,
        0.8766300082206726,
        0.5164840817451477,
        -0.6554909944534302,
        0.8337446451187134,
        0.022230787202715874,
        -0.6366186738014221,
        -0.7333447337150574,
        -0.07744167000055313,
        -0.5482178330421448,
        0.04133446142077446,
        0.41687479615211487,
        0.12184036523103714,
        0.08706921339035034,
        0.12499798089265823,
        0.01329477783292532,
        -0.888093888759613,
        -0.08423731476068497,
        -1.2886710166931152,
        0.04925571754574776,
        0.023469850420951843,
        0.12968912720680237,
        3.056046724319458,
        4.16355562210083,
        0.2807598412036896,
        -0.9428427815437317,
        0.9334758520126343,
        0.1636938601732254,
        0.13282494246959686,
        0.10449732840061188,
        -0.06120607629418373,
        0.005354908760637045,
        0.04032924771308899,
        -0.9492047429084778,
        -2.4312350749969482,
        -0.39660754799842834,
        2.1139557361602783,
        -0.2887707054615021,
        1.3304827213287354,
        2.5487563610076904,
        3.399083137512207,
        0.30155107378959656,
        -0.9864944219589233,
        1.1703944206237793,
        0.2667674720287323,
        -1.9534668922424316,
        0.025066740810871124,
        -0.13941338658332825,
        -0.5415423512458801,
        0.20748624205589294,
        -0.9857097864151001,
        -0.10002944618463516,
        -0.5395565032958984,
        -0.4221620559692383,
        2.4321861267089844,
        -1.2615840435028076,
        -0.2222626954317093,
        1.18118155002594,
        -3.407925605773926,
        1.8819208145141602,
        0.12765264511108398,
        -0.7500263452529907,
        -0.13744132220745087,
        -0.14016014337539673,
        -0.24217386543750763,
        -0.2087833285331726,
        -0.0992969423532486,
        -0.24465498328208923,
        0.8376947641372681,
        -0.11448822915554047,
        2.469075918197632,
        0.027510635554790497,
        -0.3051249086856842,
        0.4510745704174042,
        0.5350485444068909,
        -0.47127965092658997,
        -1.1174192428588867,
        -0.38021916151046753,
        0.33801206946372986,
        0.11285290867090225,
        0.31425392627716064,
        -0.6292720437049866,
        -0.10528071224689484,
        -0.06997796148061752,
        -0.3402448296546936,
        -0.10455381125211716,
        0.4294852614402771,
        -0.0018973543774336576,
        -0.7165720462799072,
        -0.7841968536376953,
        -0.4312572181224823,
        -0.19717049598693848,
        -0.1261073648929596,
        0.27888959646224976,
        -0.3501661419868469,
        -0.45716413855552673,
        0.07183870673179626,
        0.591508686542511,
        0.9108474850654602,
        0.0209454745054245,
        -0.21109512448310852,
        1.4722157716751099,
        0.13371817767620087,
        0.038035228848457336,
        -0.17348122596740723,
        -0.355777770280838,
        -0.7865794897079468,
        0.09211896359920502,
        2.1457550525665283,
        2.7736752033233643,
        -0.6323074698448181,
        3.3088245391845703,
        2.297682523727417,
        1.1649458408355713,
        0.290314257144928,
        2.2037453651428223,
        0.011148608289659023,
        -0.6283184885978699,
        -0.1360049992799759,
        0.32745659351348877,
        -0.027206875383853912,
        0.21981532871723175,
        -0.8024283051490784,
        -0.03320671617984772,
        0.18742427229881287,
        0.45257291197776794,
        2.415203332901001,
        0.35470473766326904,
        -0.06060027331113815,
        0.004969141446053982,
        1.2732700109481812,
        3.7099204063415527,
        0.04298577085137367,
        -0.1040584072470665,
        0.7053703665733337,
        0.2297278344631195,
        -0.19980816543102264,
        -0.21990476548671722,
        -0.027881190180778503,
        0.033043425530195236,
        -0.010597704909741879,
        -0.31989437341690063,
        -0.15799590945243835,
        -0.9020522832870483,
        1.8555887937545776,
        1.7619355916976929,
        1.1652050018310547,
        -0.057923972606658936,
        0.8894843459129333,
        0.32374152541160583,
        0.40325790643692017,
        2.2003395557403564,
        -0.05812178924679756,
        -1.8239881992340088,
        0.17798733711242676,
        -0.06673993170261383,
        0.3359905183315277,
        -0.8884365558624268,
        0.21278929710388184,
        0.16009145975112915,
        -3.0550551414489746,
        0.07876574993133545,
        2.1566829681396484,
        -0.942602813243866,
        0.1705557405948639,
        0.03506748378276825,
        -3.2732841968536377,
        1.3937500715255737,
        -0.07245198637247086,
        -1.2377352714538574,
        -0.4225132167339325,
        0.044643037021160126,
        0.005619559437036514,
        0.8747944235801697,
        -0.013360573910176754,
        0.015184017829596996,
        0.7575094699859619,
        -0.05175153538584709,
        9.150035858154297,
        0.1484939306974411,
        -2.11669921875,
        1.290333867073059,
        1.5550222396850586,
        -1.3822566270828247,
        -3.215602397918701,
        0.16743136942386627,
        8.740747451782227,
        0.2565908133983612,
        0.0881207063794136,
        -2.3715193271636963,
        0.05826050043106079,
        0.0044675106182694435,
        0.1016971617937088,
        0.6424323320388794,
        -0.628042459487915,
        -0.00728513253852725,
        -2.338008403778076,
        -1.0545933246612549,
        -0.3155960440635681,
        -0.3535252809524536,
        0.011189589276909828,
        -0.5406923294067383,
        -3.76554274559021,
        -2.018965005874634,
        -0.09871070086956024,
        0.8773547410964966,
        -0.23995156586170197,
        -0.07717809081077576,
        0.04903152212500572,
        1.053552269935608,
        0.06860467791557312,
        -0.13067926466464996,
        -0.10901312530040741,
        0.425918847322464,
        0.9146834015846252,
        -0.7904707789421082,
        -0.5476338863372803,
        0.558142900466919,
        -1.3027631044387817,
        0.9086304306983948,
        -0.769826352596283,
        -0.2777242958545685,
        0.05846167355775833,
        1.5279874801635742,
        0.0832262858748436,
        3.4556288719177246,
        0.2606012225151062,
        0.04947221651673317,
        -0.6553579568862915,
        -0.05430667847394943,
        -0.5297837257385254,
        0.018253475427627563,
        2.191279172897339,
        0.6337510943412781,
        1.3732011318206787,
        -2.874363660812378,
        -0.924472987651825,
        0.009870829060673714,
        -0.7301093339920044,
        1.990153193473816,
        -0.021804723888635635,
        -0.7835885882377625,
        0.7374715805053711,
        -0.09172731637954712,
        0.11592254787683487,
        2.5100600719451904,
        0.0630551129579544,
        0.07490213215351105,
        -0.14976021647453308,
        0.004833871498703957,
        0.4032098948955536,
        0.6805949211120605,
        -2.256394863128662,
        1.1907457113265991,
        0.9041711688041687,
        0.6464756727218628,
        0.011567484587430954,
        -0.20516596734523773,
        0.6334289312362671,
        1.7905763387680054,
        -0.022862505167722702,
        -2.3892509937286377,
        -0.12524311244487762,
        0.441584050655365,
        0.3551948070526123,
        1.137012243270874,
        0.812518835067749,
        0.10644896328449249,
        -2.507927894592285,
        -0.03762947767972946,
        1.8716531991958618,
        -1.5102126598358154,
        -0.09526576846837997,
        0.053173553198575974,
        -3.6664233207702637,
        -1.5977450609207153,
        -0.1734045147895813,
        -0.10469280928373337,
        0.6443006992340088,
        -0.17663049697875977,
        -0.011684257537126541,
        -0.7349689602851868,
        -0.012150122784078121,
        -0.23304787278175354,
        0.4698440432548523,
        -0.2653177082538605,
        -0.11734854429960251,
        -0.09430757164955139,
        -0.6313962936401367,
        -0.31271892786026,
        -0.3625735640525818,
        -0.6936728358268738,
        -0.47405165433883667,
        0.07559556514024734,
        0.14423872530460358,
        -0.64057856798172,
        0.18517279624938965,
        -1.0043500661849976,
        0.08009403944015503,
        -0.07031037658452988,
        0.2563042938709259,
        0.3584183156490326,
        0.17949117720127106,
        -0.17906567454338074,
        -0.5493311882019043,
        -0.2452506572008133,
        -0.4860680103302002,
        -0.33550825715065,
        -0.12872613966464996,
        0.49415159225463867,
        -0.4669584333896637,
        -0.20333975553512573,
        -0.09213875234127045,
        -0.9603994488716125,
        -0.04161114990711212,
        -0.07035131752490997,
        -0.02255976013839245,
        1.9877475500106812,
        -0.010792055167257786,
        0.03373603895306587,
        0.42650312185287476,
        -0.10315021127462387,
        -0.9353641271591187,
        0.09116309881210327,
        -1.5138797760009766,
        1.6918931007385254,
        0.913173258304596,
        -1.364727258682251,
        5.011683464050293,
        -0.03291098400950432,
        -1.066829800605774,
        -3.5229642391204834,
        -0.07543639093637466,
        0.2516231834888458,
        -0.025904523208737373,
        0.14380374550819397,
        0.3969082534313202,
        0.3503764271736145,
        -0.04930473119020462,
        -1.828964114189148,
        0.7555071711540222,
        -0.610174298286438,
        -1.8513660430908203,
        0.9078171253204346,
        -0.002609850140288472,
        0.041683461517095566,
        -1.3596546649932861,
        -1.400011420249939,
        0.013529139570891857,
        -0.6866168975830078,
        0.7521084547042847,
        -0.033716343343257904,
        0.10254234820604324,
        -0.21678730845451355,
        -0.007985622622072697,
        0.03788014501333237,
        0.10962869971990585,
        -0.014766423963010311,
        -1.812719702720642,
        0.37347081303596497,
        1.853047490119934,
        -0.1366092413663864,
        0.5443161725997925,
        2.709258794784546,
        5.073205471038818,
        0.3071290850639343,
        -0.2310800403356552,
        0.29940807819366455,
        -0.05284466594457626,
        0.7044468522071838,
        -0.19590440392494202,
        -0.48305514454841614,
        -0.3174773156642914,
        -0.34709927439689636,
        -0.3249655067920685,
        -0.014055800624191761,
        -0.4519675374031067,
        -0.707423210144043,
        1.3275078535079956,
        -0.1311672180891037,
        -0.09418006241321564,
        0.6257684826850891,
        -2.22473406791687,
        6.2218427658081055,
        0.1507568508386612,
        0.9290513396263123,
        0.18593880534172058,
        0.13384906947612762,
        0.09782516211271286,
        -2.0185694694519043,
        0.10304799675941467,
        0.10459602624177933,
        -0.2346251755952835,
        0.14923878014087677,
        0.35597679018974304,
        0.3648007810115814,
        -0.34197282791137695,
        -0.5477194786071777,
        1.2379260063171387,
        -1.4518882036209106,
        -2.653053045272827,
        0.21833522617816925,
        -0.6114786267280579,
        1.2850738763809204,
        0.2549913823604584,
        -1.476999282836914,
        0.20689328014850616,
        -0.3867489695549011,
        0.6385823488235474,
        -0.26119664311408997,
        0.22280627489089966,
        -0.02145637758076191,
        -0.7633504271507263,
        0.8540322780609131,
        -1.1527106761932373,
        1.1861863136291504,
        0.016391688957810402,
        -0.020043425261974335,
        -1.6417750120162964,
        -1.8714439868927002,
        -0.15964758396148682,
        -0.12976603209972382,
        -0.06454664468765259,
        -0.1370541751384735,
        -0.15631522238254547,
        0.3556108772754669,
        -0.3709445595741272,
        -0.3831309974193573,
        -0.17444099485874176,
        0.018871599808335304,
        0.11843191832304001,
        0.03186234459280968,
        -0.038471322506666183,
        -0.1682521402835846,
        -0.1894054114818573,
        0.7973921895027161,
        0.04808695241808891,
        0.1796872913837433,
        -0.06871886551380157,
        -0.25404173135757446,
        0.2425691932439804,
        -0.05967146158218384,
        -0.4139745533466339,
        0.12302927672863007,
        0.4274277091026306,
        -0.08703485876321793,
        0.015070244669914246,
        -0.458459734916687,
        0.13432328402996063,
        -0.2037450522184372,
        0.11978829652070999,
        -0.2919034957885742,
        0.006203840486705303,
        0.14205694198608398,
        -0.4296746850013733,
        0.017320027574896812,
        0.10745613276958466,
        -0.2221129983663559,
        0.11355442553758621,
        -0.024314407259225845,
        0.0233298446983099,
        0.2125703990459442,
        0.04679720476269722,
        0.038463346660137177,
        0.1628943830728531,
        0.020242800936102867,
        13.750618934631348,
        -0.03010382689535618,
        0.6674354672431946,
        -0.3928048014640808,
        0.4026763141155243,
        0.032834526151418686,
        -4.690391540527344,
        0.29167404770851135,
        -0.7512497305870056,
        0.6392650604248047,
        0.16649341583251953,
        0.31268131732940674,
        -0.05380478501319885,
        0.03970564156770706,
        0.24829411506652832,
        0.08973199874162674,
        -0.868857204914093,
        -0.002563618589192629,
        -0.5393919944763184,
        0.2911101281642914,
        -0.8485909700393677,
        0.07684370875358582,
        -0.01876085065305233,
        0.8935859799385071,
        0.04906034842133522,
        -0.005282109137624502,
        -0.03787536546587944,
        0.6940256357192993,
        -2.8776140213012695,
        0.10580556094646454,
        -0.037178512662649155,
        -2.3772075176239014,
        -0.01945353113114834,
        -0.01085729245096445,
        -0.7419437766075134,
        0.1740153729915619,
        0.9546253085136414,
        -0.24221737682819366,
        -0.7477806806564331,
        -0.10326427221298218,
        2.520444393157959,
        -0.8275796175003052,
        -2.2732760906219482,
        0.052346087992191315,
        0.04529965668916702,
        0.04158640280365944,
        0.1357114613056183,
        -3.713860034942627,
        0.01429805438965559,
        -0.13482257723808289,
        0.6457346081733704,
        0.3689434826374054,
        -2.917877674102783,
        0.045407604426145554,
        -3.4868083000183105,
        0.9069451689720154,
        -1.5295950174331665,
        0.621497631072998,
        0.03774327412247658,
        -0.717444121837616,
        -1.8233643770217896,
        2.4287593364715576,
        0.036085158586502075,
        0.2323008030653,
        -0.9443684220314026,
        -1.1275136470794678,
        0.008691982366144657,
        1.2180979251861572,
        0.05793147534132004,
        0.09320587664842606,
        -0.22124287486076355,
        0.09508886933326721,
        -0.3866712152957916,
        -0.17382417619228363,
        1.6648892164230347,
        -0.7535988688468933,
        -0.9529751539230347,
        -2.0182204246520996,
        -2.2479519844055176,
        0.8648948669433594,
        -0.5030655264854431,
        -0.23942969739437103,
        0.2689845561981201,
        0.40665024518966675,
        -0.002018667757511139,
        0.03995472192764282,
        0.8051746487617493,
        -0.9912025332450867,
        0.822282075881958,
        0.019183054566383362,
        1.1472229957580566,
        0.15721789002418518,
        -0.18798299133777618,
        0.8608465194702148,
        0.03793368861079216,
        -0.4448126554489136,
        -0.229303777217865,
        -3.447152614593506,
        0.22041140496730804,
        -1.2197667360305786,
        1.3234765529632568,
        0.09432822465896606,
        -0.07604098320007324,
        0.5904067754745483,
        -0.047692567110061646,
        -0.038748130202293396,
        0.10081134736537933,
        0.016807163134217262,
        14.49251651763916,
        -0.008520899340510368,
        -0.30769944190979004,
        0.18697957694530487,
        0.868794858455658,
        0.0068254549987614155,
        -4.821398735046387,
        -0.16337187588214874,
        -0.31923118233680725,
        -0.08645017445087433,
        -0.05166267231106758,
        -0.37753304839134216,
        0.041590385138988495,
        -0.06181532144546509,
        0.0138921607285738,
        -0.006436668802052736,
        1.18844735622406,
        0.013613449409604073,
        0.3180365562438965,
        0.18772900104522705,
        -1.3469398021697998,
        0.3378489017486572,
        0.0014597210101783276,
        0.3415822386741638,
        -0.7322873473167419,
        -1.2558547258377075,
        0.11146137118339539,
        0.8620750904083252,
        1.422701358795166,
        -0.010333681479096413,
        0.10793530941009521,
        0.8506218194961548,
        -0.4553479552268982,
        -0.14467622339725494,
        -0.20312544703483582,
        0.07118647545576096,
        0.8448828458786011,
        -0.423838347196579,
        0.05528640002012253,
        3.272071599960327,
        2.813328266143799,
        0.8999084234237671,
        -1.1909676790237427,
        -1.2983808517456055,
        0.7402271032333374,
        2.3507163524627686,
        -0.04978397116065025,
        0.15725436806678772,
        -0.06523291766643524,
        -0.08498117327690125,
        -0.7613821029663086,
        1.218027114868164,
        0.7774933576583862,
        -0.006825339049100876,
        0.7358993291854858,
        0.8768072724342346,
        1.5988067388534546,
        0.8082612156867981,
        -0.04635879397392273,
        -0.34367093443870544,
        -1.1493489742279053,
        0.7933065891265869,
        0.09943254292011261,
        0.5729022026062012,
        -0.2896250784397125,
        0.04517009109258652,
        0.034328997135162354,
        -1.6819645166397095,
        0.027406560257077217,
        -0.028514238074421883,
        0.3576916456222534,
        0.04478486254811287,
        2.4453067779541016,
        0.35194382071495056,
        -1.231482744216919,
        -3.140721321105957,
        -2.98266339302063,
        2.6010711193084717,
        -2.7149620056152344,
        -0.014361695386469364,
        -0.5304939150810242,
        -0.8128595352172852,
        0.31886303424835205,
        4.679544448852539,
        0.06694957613945007,
        -0.19860564172267914,
        0.16947561502456665,
        0.1831597238779068,
        -1.305751919746399,
        -0.0005375009495764971,
        2.2538299560546875,
        -0.306376576423645,
        -1.0570331811904907,
        -0.3767714500427246,
        0.10733850300312042,
        -0.14359484612941742,
        3.750199317932129,
        -1.1757091283798218,
        -0.00956030935049057,
        0.8351479768753052,
        1.8611953258514404,
        -0.07996691018342972,
        -0.16418451070785522,
        0.48040392994880676,
        -0.009595202282071114,
        0.10274935513734818,
        -0.10713773965835571,
        0.032905809581279755,
        0.32362717390060425,
        0.7154684662818909,
        -2.0136210918426514,
        0.2005937099456787,
        0.8633053302764893,
        0.3449043929576874,
        -1.7810178995132446,
        0.040840234607458115,
        -0.5344129800796509,
        0.7091245651245117,
        -0.38877037167549133,
        -1.770725131034851,
        0.13006950914859772,
        -0.9812580943107605,
        -0.798025369644165,
        1.2082544565200806,
        1.161427617073059,
        0.1198713406920433,
        -0.3712899386882782,
        0.8704297542572021,
        -1.6008144617080688,
        1.4093067646026611,
        0.2796868085861206,
        -0.3738534450531006,
        -1.2256602048873901,
        -3.459651231765747,
        -0.04719105362892151,
        -0.6448190212249756,
        -0.8737199306488037,
        -0.17613863945007324,
        0.054698530584573746,
        1.2562376260757446,
        0.14722155034542084,
        -0.39937448501586914,
        -0.13877958059310913,
        -0.2964526116847992,
        -0.4103323221206665,
        -0.5590834021568298,
        1.817415475845337,
        3.0150279998779297,
        -0.3893098533153534,
        3.332069158554077,
        1.8371456861495972,
        -0.21535031497478485,
        0.38334494829177856,
        1.6995302438735962,
        0.007805872708559036,
        0.37287962436676025,
        -0.3568035960197449,
        0.02978205308318138,
        -0.3399961590766907,
        0.06611532717943192,
        0.5055091381072998,
        0.04092872887849808,
        1.393881916999817,
        0.0933312401175499,
        2.4891397953033447,
        1.5302246809005737,
        0.23423412442207336,
        -0.24671055376529694,
        -0.4464683532714844,
        1.9901690483093262,
        0.24998155236244202,
        -1.7653096914291382,
        1.380355954170227,
        0.11627491563558578,
        -0.01283214334398508,
        0.6521508693695068,
        -0.04447309300303459,
        -0.033722005784511566,
        0.5731649994850159,
        0.11360536515712738,
        -1.2527722120285034,
        -0.17721828818321228,
        -0.874683141708374,
        0.45983144640922546,
        -1.1004763841629028,
        0.1736414134502411,
        6.304940223693848,
        0.15429691970348358,
        -0.6860682964324951,
        -0.47075411677360535,
        0.1623137891292572,
        1.9471766948699951,
        0.1273507922887802,
        0.10283360630273819,
        0.07069341093301773,
        0.6492186784744263,
        -1.032277226448059,
        0.07468720525503159,
        0.2900671064853668,
        -0.6476241946220398,
        0.8556219339370728,
        -0.6364508867263794,
        0.009910658933222294,
        0.9738134145736694,
        -0.023067457601428032,
        2.1107921600341797,
        -0.19554352760314941,
        0.8375359773635864,
        0.4254763126373291,
        0.2918950617313385,
        0.06389313191175461,
        -0.896653413772583,
        0.22102908790111542,
        0.28533339500427246,
        -0.3865528106689453,
        -0.059779733419418335,
        2.213064432144165,
        -0.5948967933654785,
        -2.183159351348877,
        -1.4193991422653198,
        -0.983999490737915,
        3.435009479522705,
        -3.698859691619873,
        0.9033792018890381,
        -0.24220487475395203,
        0.6739946603775024,
        0.18309639394283295,
        -0.07674151659011841,
        -0.028893133625388145,
        -0.4709326922893524,
        1.320302128791809,
        -0.41734862327575684,
        0.34636205434799194,
        0.05438029021024704,
        0.38942670822143555,
        0.29275748133659363,
        -1.8757755756378174,
        1.2958563566207886,
        -0.31507450342178345,
        -0.4428993761539459,
        1.398647427558899,
        -1.0197829008102417,
        -1.4508856534957886,
        0.9598366022109985,
        0.03497690707445145,
        0.029278168454766273,
        -0.1067611426115036,
        -1.3154386281967163,
        -0.08904147893190384,
        -0.11397087574005127,
        -0.9456644654273987,
        -0.10380246490240097,
        -0.9411535263061523,
        -0.0015418641269207,
        -0.10597975552082062,
        -2.7260797023773193,
        0.888914942741394,
        -1.2903621196746826,
        -0.6156049966812134,
        0.16715943813323975,
        -3.5397791862487793,
        0.43909814953804016,
        -0.7431712746620178,
        -1.8938424587249756,
        0.01011703535914421,
        -0.24716010689735413,
        -0.7062624096870422,
        -0.8339259028434753,
        0.3353551924228668,
        -0.8985172510147095,
        -0.9388682246208191,
        0.3174518346786499,
        0.5041982531547546,
        -0.1815689355134964,
        -0.002155269728973508,
        -1.1191529035568237,
        0.13925594091415405,
        -0.9288201928138733,
        -0.33083415031433105,
        -0.5808959007263184,
        -0.020786218345165253,
        -0.11226432770490646,
        -0.2420172095298767,
        3.771829128265381,
        -0.05219708010554314,
        -0.016462454572319984,
        0.4679522216320038,
        -0.10509369522333145,
        0.7925730347633362,
        -0.08256465196609497,
        0.13153094053268433,
        1.6646438837051392,
        0.02718873880803585,
        -0.4850553870201111,
        0.9372369647026062,
        0.0062578655779361725,
        -0.34163784980773926,
        1.0184179544448853,
        -0.3471592366695404,
        4.209496021270752,
        0.03852028399705887,
        0.43938034772872925,
        0.3273436725139618,
        -0.11609763652086258,
        -0.18723082542419434,
        0.0013894762378185987,
        3.2444448471069336,
        0.13992278277873993,
        1.9994676113128662,
        0.9031184315681458,
        0.06842456758022308,
        0.2882249653339386,
        2.240382194519043,
        -2.2587203979492188
      ]
    },
    {
      "activation": "rectified",
      "architecture": "dense",
      "bias": [
        1.9118355512619019,
        -1.088754415512085,
        -1.7157509326934814,
        -0.9387654662132263,
        -0.5442797541618347,
        -0.289845734834671,
        2.4277122020721436,
        -1.5774815082550049,
        -1.0656352043151855,
        0.33963102102279663,
        -3.4295897483825684,
        1.4058860540390015,
        -0.7564758062362671,
        1.459368109703064,
        0.9149526953697205,
        2.8539576530456543
      ],
      "weights": [
        0.22572866082191467,
        -0.13952971994876862,
        -0.13306695222854614,
        -0.010304558090865612,
        0.6691197752952576,
        0.09999660402536392,
        -0.2245655059814453,
        0.08493506908416748,
        -0.06051988899707794,
        0.22238971292972565,
        0.20120257139205933,
        0.1578313410282135,
        1.7000478506088257,
        0.04216472804546356,
        0.23342810571193695,
        -0.06682907044887543,
        -0.9580038785934448,
        -0.2678394913673401,
        -0.4175691306591034,
        0.04199317842721939,
        1.102330207824707,
        -0.06936605274677277,
        0.25488367676734924,
        1.0953842401504517,
        0.0734722912311554,
        -0.07386665046215057,
        -0.23615162074565887,
        0.2946932017803192,
        -0.7710167169570923,
        0.026372155174613,
        -0.008786492049694061,
        -1.026871919631958,
        0.4694605767726898,
        -0.5351032018661499,
        -1.7081575393676758,
        -0.018300218507647514,
        -1.134501576423645,
        0.3286493420600891,
        -1.611028790473938,
        -1.4053518772125244,
        0.932925283908844,
        -0.22082434594631195,
        0.3968278169631958,
        0.2765504717826843,
        -1.3628889322280884,
        0.3604016602039337,
        0.26040196418762207,
        -0.6288902163505554,
        -0.22844882309436798,
        -0.3207651674747467,
        -0.6826573610305786,
        0.0017076716758310795,
        -0.3813815116882324,
        -1.3068989515304565,
        0.28526362776756287,
        -1.660722255706787,
        -0.37048402428627014,
        -0.60104900598526,
        -1.5312292575836182,
        0.2337927371263504,
        0.33336031436920166,
        -0.5219877362251282,
        -0.5192915797233582,
        0.618576169013977,
        0.39202287793159485,
        -0.22635746002197266,
        -0.7544310092926025,
        -0.29980728030204773,
        -1.0147209167480469,
        0.17105507850646973,
        -0.4008532464504242,
        -1.5117770433425903,
        0.5296501517295837,
        0.028320571407675743,
        0.5225396752357483,
        0.10100692510604858,
        -0.4226069450378418,
        0.16796793043613434,
        0.14972689747810364,
        -0.0316447988152504,
        0.3593127429485321,
        0.20832471549510956,
        -0.28459545969963074,
        -0.4455202519893646,
        -0.4653286039829254,
        -0.4197477698326111,
        0.37527933716773987,
        -1.717995524406433,
        0.11125805974006653,
        -0.611423134803772,
        -0.2895126938819885,
        0.04374489560723305,
        0.8203288912773132,
        -0.4416435956954956,
        0.18271183967590332,
        0.4558354914188385,
        0.4086289703845978,
        -0.49558591842651367,
        -0.5743879675865173,
        -0.08054529130458832,
        0.35102564096450806,
        0.19477760791778564,
        -0.2322632223367691,
        -1.2807085514068604,
        0.12982407212257385,
        0.15213468670845032,
        0.2062646597623825,
        0.5700139999389648,
        0.5233229994773865,
        0.06351707130670547,
        0.8963518142700195,
        -0.1236962378025055,
        -0.03652697801589966,
        0.19708287715911865,
        0.04808024317026138,
        0.028285058215260506,
        -0.22919508814811707,
        -0.033300239592790604,
        0.06347333639860153,
        -0.6788662672042847,
        0.1821637749671936,
        -0.6493178009986877,
        -0.20605246722698212,
        0.1583048701286316,
        0.32103922963142395,
        -0.3669106960296631,
        -0.18073105812072754,
        0.41020873188972473,
        -0.2547430694103241,
        -0.08863159269094467,
        0.3852479159832001,
        -0.43083566427230835,
        -0.18695490062236786,
        0.5505443811416626,
        0.012239011004567146,
        0.793059229850769,
        -0.24331006407737732,
        0.3481861650943756,
        0.19277635216712952,
        -0.15611578524112701,
        -0.31744784116744995,
        0.3276243209838867,
        -0.32737743854522705,
        -0.17362241446971893,
        -1.254353642463684,
        -0.2594545781612396,
        -0.1655343919992447,
        -0.3782261610031128,
        0.874398410320282,
        -0.2620847523212433,
        -0.6070474982261658,
        0.6184449791908264,
        -0.06183541566133499,
        1.0129834413528442,
        0.18451343476772308,
        0.02623005211353302,
        -0.37053221464157104,
        0.13301022350788116,
        -0.13174214959144592,
        -1.0717353820800781,
        -0.16664007306098938,
        -0.7579370141029358,
        -0.06488268822431564,
        -0.5462439656257629,
        -0.6400578022003174,
        1.1839816570281982,
        -0.3230515718460083,
        0.6191419363021851,
        -0.23486272990703583,
        -0.24170158803462982,
        0.18951158225536346,
        0.1631195843219757,
        -0.7483898401260376,
        0.4750816226005554,
        -0.33235791325569153,
        -0.1920766979455948,
        -0.8265929222106934,
        -0.09991796314716339,
        0.1084338128566742,
        0.13024701178073883,
        0.9140917062759399,
        -0.4257091283798218,
        -0.4087660610675812,
        0.16112563014030457,
        0.24571742117404938,
        0.8570412993431091,
        0.17656609416007996,
        0.18584203720092773,
        -0.025257347151637077,
        0.018459554761648178,
        -0.6449397206306458,
        -0.24216757714748383,
        -0.5355716347694397,
        -0.052486028522253036,
        0.06178467348217964,
        0.06414574384689331,
        0.6965402364730835,
        -0.16628950834274292,
        0.415479838848114,
        0.31017428636550903,
        -0.44775277376174927,
        0.1297573447227478,
        -0.1888088881969452,
        0.2314545065164566,
        1.2279680967330933,
        0.11474897712469101,
        0.23843128979206085,
        0.02318389341235161,
        -0.39582574367523193,
        -0.7477628588676453,
        0.5901723504066467,
        -0.2510754466056824,
        1.007214069366455,
        0.2849542498588562,
        -0.2927984893321991,
        0.8963232636451721,
        0.5257204174995422,
        0.14312385022640228,
        0.4981699287891388,
        0.04985012486577034,
        -0.5521671175956726,
        0.3740485906600952,
        0.47791972756385803,
        -1.0461398363113403,
        0.3892461359500885,
        -0.345106303691864,
        -0.46518269181251526,
        0.17439933121204376,
        0.014739924110472202,
        -0.2710339426994324,
        -0.39020687341690063,
        -0.20949043333530426,
        0.06286830455064774,
        0.34975600242614746,
        0.009686687961220741,
        0.2674637734889984,
        -0.3355213701725006,
        -0.16209284961223602,
        0.319256991147995,
        0.2717340886592865,
        -1.0426139831542969,
        0.4834256172180176,
        0.2310519963502884,
        -0.3923809826374054,
        -0.4113830029964447,
        0.029221737757325172,
        -0.7180870771408081,
        -0.5147400498390198,
        0.28090906143188477,
        0.2480163425207138,
        0.11057484894990921,
        0.04462457075715065,
        0.5763601064682007,
        0.018197475001215935,
        -1.5547285079956055,
        -0.3154914081096649,
        -2.8696298599243164,
        -0.11526763439178467,
        -0.2727436125278473,
        -0.03743603080511093,
        -0.28540828824043274,
        0.7155992984771729,
        -0.668173611164093,
        -0.20492450892925262,
        -1.2714265584945679,
        -0.11832350492477417,
        -0.8100306391716003,
        -0.44296541810035706,
        0.6254240274429321,
        0.9783881902694702,
        0.5376365184783936,
        -0.3304945230484009,
        -0.6405929327011108,
        -0.35043206810951233,
        -0.03340476006269455,
        -0.10847684741020203,
        0.4165145456790924,
        -0.6380281448364258,
        0.053769584745168686,
        -2.037383556365967,
        0.45311978459358215,
        -0.560106098651886,
        -0.9658074975013733,
        -0.32421237230300903,
        -0.16683688759803772,
        0.14504508674144745,
        -1.286888599395752,
        0.043963268399238586,
        0.07978866249322891,
        0.5087180733680725,
        -0.22156304121017456,
        0.185537651181221,
        0.027175024151802063,
        -0.050546739250421524,
        0.3635578453540802,
        -2.1848747730255127,
        -0.19288356602191925,
        -0.11655547469854355,
        0.3978722393512726,
        -0.3979290723800659,
        -0.2602008283138275,
        -0.3203263282775879,
        -0.6113988757133484,
        -0.22058194875717163,
        0.5873398780822754,
        -0.3152908384799957,
        0.07196453213691711,
        -0.33214953541755676,
        -0.15017592906951904,
        -0.06913348287343979,
        0.1467330902814865,
        0.08514387160539627,
        0.010432807728648186,
        -0.09161710739135742,
        -0.06802424788475037,
        -0.1129455417394638,
        0.47194725275039673,
        0.23018930852413177,
        0.5589407682418823,
        0.5893694758415222,
        0.22109898924827576,
        -0.954805850982666,
        -0.6935058236122131,
        -0.07937648892402649,
        -0.7721094489097595,
        0.06657158583402634,
        -0.2424931824207306,
        0.29766032099723816,
        0.028859322890639305,
        0.30999550223350525,
        0.060858700424432755,
        0.4044567048549652,
        -0.1393141895532608,
        -0.010033976286649704,
        -0.4190097153186798,
        0.0295750442892313,
        -0.6433704495429993,
        0.936618983745575,
        0.030051251873373985,
        -0.09953730553388596,
        -1.0711727142333984,
        -0.07518758624792099,
        -0.6343810558319092,
        -0.7232919931411743,
        0.02821570448577404,
        0.30433282256126404,
        0.133976548910141,
        0.35682928562164307,
        0.9094374775886536,
        -0.26086145639419556,
        -0.12728500366210938,
        -1.1376667022705078,
        -0.3970485329627991,
        0.2422420084476471,
        0.062056876718997955,
        0.17133595049381256,
        0.13454267382621765,
        -0.3458033800125122,
        0.10036604106426239,
        -0.7031689882278442,
        0.4927138388156891,
        -0.15973538160324097,
        -0.9042245149612427,
        -0.14418856799602509,
        0.049967728555202484,
        -0.20669956505298615,
        -0.09660705924034119,
        0.11412032693624496,
        0.9502251148223877,
        -0.6083030104637146,
        -0.17386963963508606,
        -0.3285360038280487,
        -0.027156196534633636,
        0.747784435749054,
        0.3102554678916931,
        1.0385229587554932,
        -0.2438066005706787,
        -0.0715220719575882,
        0.2639552056789398,
        -0.4373113512992859,
        0.145635724067688,
        -0.6221571564674377,
        0.44956669211387634,
        -0.09038426727056503,
        0.3243608772754669,
        -0.2823743224143982,
        -0.28681203722953796,
        0.0723147764801979,
        -0.374129980802536,
        0.6796265244483948,
        -0.8191975951194763,
        -1.575411319732666,
        -0.22702603042125702,
        -0.09375422447919846,
        0.1773151457309723,
        -0.32999110221862793,
        -0.6441749930381775,
        0.027197344228625298,
        0.34870317578315735,
        -0.12874089181423187,
        -0.2690223455429077,
        0.15558019280433655,
        -0.09786604344844818,
        0.13460832834243774,
        0.14933225512504578,
        -0.7900752425193787,
        0.3205360770225525,
        -0.6201258301734924,
        0.40927261114120483,
        -0.273481160402298,
        -0.7220476269721985,
        0.33282116055488586,
        0.19507694244384766,
        -0.5908626317977905,
        -0.3305203914642334,
        0.8336928486824036,
        -0.03463258966803551,
        -0.19422085583209991,
        -0.19882915914058685,
        0.14733494818210602,
        0.7840006947517395,
        0.1557748019695282,
        0.3664131164550781,
        0.9779900908470154,
        -0.2479362040758133,
        -0.3224925994873047,
        -0.01980965957045555,
        0.44611310958862305,
        1.6362406015396118,
        0.030107107013463974,
        -0.10689990967512131,
        0.0076240794733166695,
        -0.3113158643245697,
        -0.14724841713905334,
        0.34022486209869385,
        -0.16804011166095734,
        0.26123136281967163,
        0.5553945302963257,
        -0.320537805557251,
        0.058106083422899246,
        0.36817726492881775,
        -0.23670336604118347,
        0.07520455867052078,
        0.11533534526824951,
        -0.11801356822252274,
        0.004631666000932455,
        -0.028681350871920586,
        -0.4852129817008972,
        -0.5670748949050903,
        -0.0433228574693203,
        -0.5241117477416992,
        0.11388763785362244,
        0.15230253338813782,
        -0.014754507690668106,
        0.15862827003002167,
        -1.5643898248672485,
        -0.06381914019584656,
        -0.13591712713241577,
        -0.007289455272257328,
        0.19961966574192047,
        0.7181877493858337,
        0.5342916250228882,
        0.33971595764160156,
        0.40591952204704285,
        -1.166929006576538,
        -0.03905181214213371,
        -0.20744574069976807,
        -0.4607469141483307,
        0.5970298647880554,
        -0.04012826830148697,
        0.21619725227355957,
        0.7987720966339111,
        -0.022658586502075195,
        -0.3624576926231384,
        -0.11703470349311829,
        -0.19956965744495392,
        -0.14125344157218933,
        0.12527912855148315,
        -0.48343420028686523,
        -2.0130486488342285,
        0.13311105966567993,
        -0.0931730568408966,
        0.007271531969308853,
        -0.3036559820175171,
        0.3576942980289459,
        0.24109625816345215,
        0.07100345939397812,
        0.8489533066749573,
        -0.5055555105209351,
        0.12222016602754593,
        0.27106666564941406,
        0.10918209701776505,
        0.5364627242088318,
        0.2613259553909302,
        -0.35767310857772827,
        0.09106260538101196,
        -0.8855610489845276,
        -0.03734276816248894,
        0.007241522427648306,
        -0.12116728723049164,
        1.0433509349822998,
        0.4191717505455017,
        -0.5072972178459167,
        0.3745189607143402,
        0.3471051752567291,
        -0.1679915189743042,
        0.15500503778457642,
        0.1672450304031372,
        -0.47641757130622864,
        0.1281125396490097,
        0.43922656774520874,
        -0.6100026965141296
      ]
    },
    {
      "activation": "rectified",
      "architecture": "dense",
      "bias": [
        -1.5080881118774414,
        0.609169602394104,
        0.09761250764131546,
        0.9574781060218811,
        0.9854836463928223,
        0.005088398698717356,
        -0.025176476687192917,
        -1.8318417072296143,
        -0.8722067475318909,
        0.8963949084281921,
        0.1523381918668747,
        -1.3294398784637451,
        2.973414659500122,
        -1.0397769212722778,
        -2.155975818634033,
        -0.014745336025953293
      ],
      "weights": [
        -0.3166906237602234,
        -1.0953917503356934,
        -0.11190902441740036,
        -0.6513795256614685,
        -0.22424888610839844,
        -0.15076947212219238,
        -0.02287878282368183,
        0.9974350929260254,
        0.14531832933425903,
        -0.8646557331085205,
        -0.045439817011356354,
        -0.2952652871608734,
        -0.3210270404815674,
        0.09064310789108276,
        0.23849666118621826,
        0.41566386818885803,
        1.0820651054382324,
        -0.04666731506586075,
        -0.18492525815963745,
        0.09301932901144028,
        -1.738539218902588,
        -0.6358115673065186,
        0.09856344014406204,
        -0.5540082454681396,
        -0.052630677819252014,
        -0.051019299775362015,
        0.08575278520584106,
        0.45544561743736267,
        -0.4748368263244629,
        0.05684876814484596,
        0.10745958983898163,
        0.06130213662981987,
        0.18015971779823303,
        0.2732597291469574,
        -0.2304036021232605,
        -0.27851906418800354,
        0.530377209186554,
        -0.05217508599162102,
        -1.2054945230484009,
        0.13049304485321045,
        0.07393966615200043,
        0.0029126780573278666,
        -0.31276875734329224,
        0.20679518580436707,
        -0.07539563626050949,
        0.6789037585258484,
        0.5058634281158447,
        0.5047956109046936,
        0.9595598578453064,
        -0.47263190150260925,
        -1.041460633277893,
        0.016200164332985878,
        -0.19676972925662994,
        -0.05328752472996712,
        0.3946469724178314,
        -0.10755185782909393,
        -0.20338912308216095,
        -0.8274123668670654,
        -0.25674140453338623,
        -0.3022654950618744,
        -0.8669261932373047,
        -0.23215994238853455,
        0.2762880325317383,
        0.4233599901199341,
        0.9814826846122742,
        0.07573553919792175,
        -0.4117267429828644,
        -0.11094889044761658,
        -0.27690571546554565,
        -0.07720114290714264,
        0.6315971612930298,
        -0.05819953233003616,
        -0.5982170701026917,
        -0.14087599515914917,
        -0.7470400333404541,
        0.2911398708820343,
        -0.8133592009544373,
        0.4793509244918823,
        0.35316234827041626,
        0.2841796278953552,
        0.7197905778884888,
        -1.5098172426223755,
        -1.0765665769577026,
        -0.45106640458106995,
        -1.060388445854187,
        -0.6250110268592834,
        0.37026911973953247,
        -0.09189438819885254,
        -0.3911215662956238,
        -0.29183071851730347,
        -0.6418209075927734,
        -0.23452652990818024,
        0.018540043383836746,
        0.025757189840078354,
        0.3838163912296295,
        0.5302726030349731,
        0.3242197632789612,
        -0.11731567233800888,
        -0.12202271819114685,
        -0.19033576548099518,
        1.0993469953536987,
        0.16897766292095184,
        -0.04197968170046806,
        -0.3074537217617035,
        -0.16380608081817627,
        -1.2581415176391602,
        -0.3347713351249695,
        -0.29324397444725037,
        -0.489862322807312,
        -0.023143911734223366,
        0.5934174656867981,
        0.3213970959186554,
        -1.4215418100357056,
        1.4250503778457642,
        0.9347190260887146,
        0.3665669560432434,
        -0.08370284736156464,
        0.08894797414541245,
        -0.731820821762085,
        0.07525356113910675,
        0.8411375284194946,
        -0.36720341444015503,
        0.7636017203330994,
        -0.7157850861549377,
        0.8061614036560059,
        -0.2457578182220459,
        -0.6411699652671814,
        -1.027564525604248,
        0.35894474387168884,
        0.05354359745979309,
        -1.008241891860962,
        0.03262699022889137,
        0.04048280417919159,
        0.012442965991795063,
        -0.5288122296333313,
        -1.0802648067474365,
        0.1843351423740387,
        0.07448121160268784,
        0.5375070571899414,
        -1.1227680444717407,
        0.9043136835098267,
        -0.4785051643848419,
        -1.6755435466766357,
        -0.050296515226364136,
        0.25214317440986633,
        -0.0885511115193367,
        -0.119545117020607,
        -0.6308317184448242,
        -0.779350996017456,
        0.21647225320339203,
        0.4337747097015381,
        -0.6456364989280701,
        -0.26115643978118896,
        -0.1170225515961647,
        -0.49088823795318604,
        0.3096156120300293,
        -0.5143775343894958,
        0.042736150324344635,
        0.3848012387752533,
        0.4992629587650299,
        0.22653880715370178,
        -0.2583896219730377,
        -0.021047435700893402,
        0.6177138686180115,
        -0.5224399566650391,
        -0.29799723625183105,
        -0.09047821909189224,
        0.24050168693065643,
        -0.14402709901332855,
        -0.1507635861635208,
        -0.06362538784742355,
        -0.043927278369665146,
        -0.06314358860254288,
        0.42814189195632935,
        0.2624199688434601,
        -0.1906694918870926,
        -1.3788172006607056,
        0.2914859652519226,
        0.39625489711761475,
        -0.1594364196062088,
        -1.6125720739364624,
        -0.026000555604696274,
        -3.2391014099121094,
        -0.7220807671546936,
        -0.22125522792339325,
        -0.044113047420978546,
        0.07006076723337173,
        -2.0365283489227295,
        0.25397223234176636,
        -0.23512177169322968,
        -0.4767666161060333,
        -0.42678627371788025,
        0.28769493103027344,
        -0.17515693604946136,
        -0.18662837147712708,
        0.27673858404159546,
        -0.039383139461278915,
        0.1527857780456543,
        0.3574574291706085,
        0.16808564960956573,
        0.07452388107776642,
        -0.4554438889026642,
        -0.25186648964881897,
        -0.1737746298313141,
        -0.05746764689683914,
        0.20237919688224792,
        0.44231775403022766,
        0.33095645904541016,
        0.061251990497112274,
        -0.24948106706142426,
        0.20011483132839203,
        -0.39703649282455444,
        1.1965534687042236,
        0.8681941628456116,
        0.10760507732629776,
        -0.011910528875887394,
        -0.04339207336306572,
        -0.31983938813209534,
        -0.35703399777412415,
        -0.4286077916622162,
        -0.05416630208492279,
        0.14596045017242432,
        -0.025391342118382454,
        0.24586474895477295,
        0.24214546382427216,
        0.9347164630889893,
        0.3387446403503418,
        -0.0136300353333354,
        -0.5025458931922913,
        0.015070956200361252,
        -0.6167735457420349,
        -0.1769842952489853,
        0.49773505330085754,
        0.2918742895126343,
        0.4812090992927551,
        -0.11623876541852951,
        0.4179927706718445,
        -1.0260140895843506,
        -0.5001567006111145,
        -1.2949844598770142,
        -0.28715047240257263,
        0.6809076070785522,
        0.17262601852416992,
        0.2722078561782837,
        0.1784459799528122,
        0.6527678966522217,
        -0.29354599118232727,
        0.280590295791626,
        0.2616764307022095,
        -0.1792062371969223,
        0.23859165608882904,
        -0.46274280548095703,
        0.2687067687511444,
        0.20545892417430878,
        0.05801193043589592,
        -0.1267251819372177
      ]
    },
    {
      "activation": "rectified",
      "architecture": "dense",
      "bias": [
        0.8063921332359314,
        1.1547836065292358,
        0.822248637676239,
        -0.8625285625457764,
        0.42316994071006775,
        0.21923528611660004,
        1.019184947013855,
        0.7669270038604736,
        2.889625072479248,
        0.8996878862380981,
        -1.7329334020614624,
        0.42138949036598206,
        -0.11721955984830856,
        -0.24508555233478546,
        -0.3757389783859253,
        -1.443294882774353
      ],
      "weights": [
        -0.3634134531021118,
        0.345203161239624,
        0.9499372839927673,
        -0.042163144797086716,
        0.46897777915000916,
        0.622630774974823,
        -1.4435886144638062,
        -0.08277060836553574,
        -0.43076977133750916,
        0.6764237880706787,
        -0.2544216215610504,
        0.39546483755111694,
        0.1722995936870575,
        -1.3656024932861328,
        0.11988149583339691,
        -0.702064037322998,
        0.32594382762908936,
        0.13692912459373474,
        0.3645066022872925,
        -0.22963404655456543,
        -0.08378079533576965,
        -0.24243402481079102,
        -0.18049268424510956,
        -0.018789391964673996,
        -0.20108634233474731,
        -0.18109269440174103,
        0.05454828590154648,
        -0.01293155550956726,
        0.7497560977935791,
        -0.22717885673046112,
        -0.07147166132926941,
        -0.006343253888189793,
        0.1317666620016098,
        -1.1744716167449951,
        -0.275912880897522,
        -0.135429248213768,
        0.04786555841565132,
        -0.21926075220108032,
        0.6357914805412292,
        0.07741590589284897,
        0.16698668897151947,
        0.338522732257843,
        -0.2920118272304535,
        0.018226375803351402,
        -0.12864241003990173,
        -0.5259740948677063,
        -0.6044270992279053,
        0.46689069271087646,
        -0.133855402469635,
        0.21235612034797668,
        -0.23907870054244995,
        0.5555823445320129,
        0.02394806407392025,
        0.4212803840637207,
        0.5264971256256104,
        0.12596136331558228,
        -0.22862838208675385,
        -0.15823005139827728,
        0.3421342074871063,
        -0.001695049344561994,
        -0.9472833275794983,
        0.3887211084365845,
        -0.3801725208759308,
        0.010512566193938255,
        -0.383358895778656,
        -0.2908312976360321,
        0.3461349308490753,
        0.1396314948797226,
        0.10379891842603683,
        -0.023608393967151642,
        0.34038418531417847,
        0.0052560665644705296,
        -0.6022810339927673,
        -0.05713272839784622,
        -0.28804221749305725,
        0.37204328179359436,
        0.23560898005962372,
        0.5059060454368591,
        -0.28909382224082947,
        0.003496461547911167,
        -0.35974839329719543,
        0.257235586643219,
        -0.2290840446949005,
        0.5644988417625427,
        -0.39416927099227905,
        -0.7989511489868164,
        0.13279318809509277,
        0.1071895882487297,
        0.017191415652632713,
        -1.3104208707809448,
        0.5325291752815247,
        -0.119881272315979,
        0.17419025301933289,
        -0.1159038320183754,
        -0.2054966390132904,
        -0.048093199729919434,
        -0.7975379824638367,
        -0.5406506657600403,
        0.2537005543708801,
        -0.09157342463731766,
        0.3794974088668823,
        0.24231673777103424,
        0.11635904759168625,
        -0.2502695322036743,
        0.17336894571781158,
        0.3134462237358093,
        -0.26156729459762573,
        -0.10115082561969757,
        0.008622384630143642,
        -0.11876381188631058,
        -0.13218256831169128,
        0.020554574206471443,
        -0.3224383294582367,
        0.6535137295722961,
        0.20444101095199585,
        -0.1770770400762558,
        0.09190841764211655,
        0.4484325647354126,
        0.24853259325027466,
        -0.20858266949653625,
        0.1990407556295395,
        0.4628824293613434,
        -0.8653630018234253,
        0.3118992745876312,
        -0.151469886302948,
        -0.37700575590133667,
        0.11088024824857712,
        -1.4150654077529907,
        -0.24370571970939636,
        -0.35982269048690796,
        0.44058871269226074,
        0.1723879724740982,
        -0.0168821532279253,
        -0.3457910418510437,
        0.7527923583984375,
        -0.02629864402115345,
        -0.11772283166646957,
        -0.05692746862769127,
        -0.12388081848621368,
        0.004415623843669891,
        0.8678206205368042,
        0.2824978530406952,
        -0.06704588979482651,
        0.2160511314868927,
        -0.2466268688440323,
        0.2872670292854309,
        0.2811824679374695,
        0.34109145402908325,
        -0.03309641033411026,
        0.502219021320343,
        0.29049113392829895,
        -0.8280903697013855,
        -0.17565958201885223,
        0.13068480789661407,
        0.2033102959394455,
        0.6826413869857788,
        0.5825289487838745,
        -0.2436491996049881,
        -0.4529314637184143,
        -0.27142906188964844,
        -0.12559367716312408,
        -0.22464680671691895,
        -0.6530592441558838,
        -1.0733766555786133,
        -1.2566691637039185,
        -0.25161755084991455,
        -0.2604321539402008,
        0.4602263569831848,
        0.9866151809692383,
        -0.047868672758340836,
        -0.0763392299413681,
        0.4270367920398712,
        -0.2394234985113144,
        0.027720347046852112,
        0.47063887119293213,
        0.3716711699962616,
        0.13307863473892212,
        0.3058013916015625,
        0.5065005421638489,
        0.6129469275474548,
        0.4683126211166382,
        0.0285880658775568,
        0.07492367923259735,
        -0.44778791069984436,
        -0.1091337651014328,
        0.014735951088368893,
        -0.016418548300862312,
        0.016722002997994423,
        0.09718908369541168,
        -0.05198824405670166,
        -0.0013020588085055351,
        -0.24054552614688873,
        -0.20951710641384125,
        -0.10944610834121704,
        0.1323160082101822,
        0.043889712542295456,
        -0.03208332881331444,
        0.15462766587734222,
        0.6799762845039368,
        -0.40716075897216797,
        0.3808363974094391,
        0.1755603700876236,
        -0.3559577465057373,
        0.5040209889411926,
        0.11043138802051544,
        0.5517513155937195,
        -0.10580642521381378,
        -0.5391697287559509,
        -0.17026278376579285,
        -0.15535703301429749,
        0.14102746546268463,
        -0.12324465811252594,
        0.23710286617279053,
        0.3278926908969879,
        -0.08661849796772003,
        -0.7637173533439636,
        0.2904522716999054,
        -0.13008449971675873,
        0.5146357417106628,
        0.6107177734375,
        -0.1666831076145172,
        -0.09720244258642197,
        0.15183819830417633,
        0.37085822224617004,
        -0.7952061891555786,
        0.039491891860961914,
        0.8608847856521606,
        0.20093189179897308,
        -0.24286122620105743,
        -0.04771950840950012,
        0.00245010107755661,
        -1.778891921043396,
        -0.4592406451702118,
        0.2347821742296219,
        -0.31517529487609863,
        0.061544980853796005,
        0.03754541650414467,
        0.33730611205101013,
        -0.12589620053768158,
        -0.6126322746276855,
        -1.1057922840118408,
        -1.2717604637145996,
        -0.6747900247573853,
        -0.842354953289032,
        -1.1177282333374023,
        -0.5809709429740906,
        -1.483808159828186,
        0.47858113050460815,
        0.41401207447052,
        -0.8866872191429138,
        0.1797875016927719,
        0.40849781036376953,
        -0.31857970356941223,
        -0.406460165977478,
        0.02606494538486004,
        -0.4465022385120392
      ]
    },
    {
      "activation": "rectified",
      "architecture": "dense",
      "bias": [
        -1.8718570470809937,
        0.11766090989112854,
        0.2687157690525055,
        -0.14843420684337616,
        -0.26488739252090454,
        0.6290059089660645,
        0.13628748059272766,
        -0.7838074564933777,
        1.8337230682373047,
        -1.0541433095932007,
        -1.0702807903289795,
        -0.7969188094139099,
        -1.041102647781372,
        -0.9813248515129089,
        0.1528281420469284,
        -0.7207729816436768
      ],
      "weights": [
        -0.3851388096809387,
        -0.1822328120470047,
        -0.3673853576183319,
        0.06879042834043503,
        0.0907752737402916,
        0.18734313547611237,
        -2.5161259174346924,
        -0.8012710809707642,
        -0.27453821897506714,
        -0.6435644626617432,
        0.3916356861591339,
        -2.0382659435272217,
        -0.8221047520637512,
        1.0871790647506714,
        -0.7331947088241577,
        0.6073958277702332,
        -2.180121421813965,
        -0.29863178730010986,
        0.17508134245872498,
        0.0186032522469759,
        0.07314661145210266,
        -0.0949782133102417,
        -0.15220846235752106,
        -1.2980196475982666,
        0.49875491857528687,
        -0.07603807002305984,
        -0.05244363844394684,
        -0.27776700258255005,
        -0.19861097633838654,
        -0.02265200950205326,
        0.012839480303227901,
        -0.01357944030314684,
        0.23281025886535645,
        -0.05213448405265808,
        -0.4811798632144928,
        0.06261216104030609,
        -0.4683503210544586,
        -0.0925968736410141,
        0.1031990647315979,
        0.7152389287948608,
        -0.1981547772884369,
        -0.22050592303276062,
        -0.026461519300937653,
        0.3714295029640198,
        -0.08628101646900177,
        -0.19157452881336212,
        0.6718499660491943,
        0.14633436501026154,
        -0.19029143452644348,
        -0.07281357795000076,
        -0.4699821472167969,
        0.11161261796951294,
        0.012162531726062298,
        0.10755044966936111,
        -0.1563948094844818,
        0.38204726576805115,
        0.05314572900533676,
        0.8217548727989197,
        -1.1879215240478516,
        -0.5444307923316956,
        -0.04012840613722801,
        -0.24409222602844238,
        -0.026979168877005577,
        -0.11218709498643875,
        -0.9333512783050537,
        0.13808128237724304,
        0.06360988318920135,
        0.10433448851108551,
        -0.6409962177276611,
        0.3293739855289459,
        -0.7675319910049438,
        -0.25745823979377747,
        0.12629865109920502,
        -0.8774638772010803,
        -0.06104112043976784,
        -3.096452236175537,
        -1.5135183334350586,
        -0.5615113377571106,
        -0.4772621691226959,
        -0.08866894990205765,
        -0.05016389861702919,
        0.46675482392311096,
        0.005647730082273483,
        0.023849407210946083,
        -0.10262767225503922,
        0.36180517077445984,
        -0.1363828033208847,
        -0.19978250563144684,
        0.4589160978794098,
        0.20866894721984863,
        -0.07032018154859543,
        -0.05357730761170387,
        -0.11246306449174881,
        0.12367141991853714,
        -0.44319990277290344,
        0.1223236471414566,
        0.10513848066329956,
        0.09754328429698944,
        -0.5418288707733154,
        0.1690598428249359,
        -1.2827831506729126,
        0.037328872829675674,
        -0.08197080343961716,
        -0.16351301968097687,
        -0.011685964651405811,
        0.42129606008529663,
        -1.407283902168274,
        0.0792616605758667,
        -1.593561053276062,
        0.133847177028656,
        0.16917559504508972,
        -0.3653477132320404,
        -0.5788307189941406,
        -0.15295003354549408,
        0.7522847652435303,
        0.4251844882965088,
        0.05637817084789276,
        -0.3257536292076111,
        -0.807460606098175,
        -0.6332951784133911,
        0.11238289624452591,
        -1.44411039352417,
        -0.43768131732940674,
        -0.2869783937931061,
        -0.5354772210121155,
        -1.1083663702011108,
        -0.5253901481628418,
        0.6241515278816223,
        -0.019853143021464348,
        -0.01967129483819008,
        0.04394543915987015,
        0.2520570158958435,
        0.14570066332817078,
        -0.34986135363578796,
        0.5070573687553406,
        -0.36941295862197876,
        0.43835198879241943,
        0.239969402551651,
        -0.006137823220342398,
        0.3943030834197998,
        0.1892062872648239,
        -0.13385190069675446,
        0.27158135175704956,
        -0.06041264161467552,
        -0.04391935467720032,
        0.5725491642951965,
        0.3239876329898834,
        -0.18809568881988525,
        0.6457981467247009,
        -0.15868383646011353,
        -0.04544717073440552,
        -0.06172660365700722,
        -1.3790794610977173,
        0.17918036878108978,
        0.05840420722961426,
        -0.18263651430606842,
        0.0810413807630539,
        0.032647933810949326,
        -0.39191851019859314,
        -0.09953981637954712,
        -1.1061424016952515,
        -0.10177717357873917,
        0.06761802732944489,
        0.5488411784172058,
        0.2900729179382324,
        0.02856610156595707,
        -0.07904082536697388,
        -0.5522081851959229,
        0.049068305641412735,
        -0.20102524757385254,
        0.6400356888771057,
        -0.24590493738651276,
        -0.021324286237359047,
        0.3108082115650177,
        -0.20035579800605774,
        -0.09874227643013,
        0.2409363090991974,
        -0.409483402967453,
        0.17318928241729736,
        0.28437909483909607,
        -0.006968500092625618,
        0.09007491171360016,
        0.5404561161994934,
        -0.0044019464403390884,
        0.07308915257453918,
        -0.09602615237236023,
        -0.5720905065536499,
        0.16226989030838013,
        0.29084739089012146,
        -0.34877198934555054,
        0.7158742547035217,
        -0.21695543825626373,
        -0.07279042899608612,
        -0.36135491728782654,
        0.08586152642965317,
        0.4637967646121979,
        -0.015002836473286152,
        0.04788050055503845,
        0.01015090849250555,
        -0.25046899914741516,
        -0.06283919513225555,
        -0.875859797000885,
        -0.28011059761047363,
        0.5402256846427917,
        -0.08908772468566895,
        0.5029457211494446,
        0.07931570708751678,
        -0.3039185106754303,
        -0.19162094593048096,
        -0.8011310696601868,
        0.2016916573047638,
        0.887576699256897,
        -0.2505963444709778,
        -0.18413548171520233,
        0.25880300998687744,
        0.4083330035209656,
        -0.27560555934906006,
        -0.4999748766422272,
        -0.07501878589391708,
        -0.4824361503124237,
        -0.05864040181040764,
        0.2010529339313507,
        0.8940730690956116,
        -0.2650649845600128,
        0.21593207120895386,
        0.2322974056005478,
        -0.720913827419281,
        0.06699369847774506,
        -0.02312454767525196,
        -0.09397164732217789,
        0.07798994332551956,
        0.04790380224585533,
        0.09366420656442642,
        0.38384348154067993,
        -2.0690019130706787,
        0.22334319353103638,
        -0.1754104197025299,
        0.24787016212940216,
        -0.1532636284828186,
        -0.2881649434566498,
        -0.6797443628311157,
        -0.753446102142334,
        -1.1766693592071533,
        -0.942071259021759,
        -1.6085469722747803,
        -1.491788625717163,
        -0.5192674994468689,
        -0.3074059784412384,
        -2.167879104614258,
        0.041657865047454834,
        0.5838507413864136,
        -0.25435197353363037,
        -0.6780655384063721,
        0.31559258699417114,
        -1.0983154773712158,
        -0.026327455416321754
      ]
    },
    {
      "activation": "rectified",
      "architecture": "dense",
      "bias": [
        0.805102527141571,
        0.2083791196346283,
        0.9214572310447693,
        0.7597333788871765,
        -1.0154114961624146,
        0.15322713553905487,
        0.4147859215736389,
        0.6165528893470764,
        -0.09550736844539642,
        0.11836682260036469,
        0.1423814296722412,
        1.264761209487915,
        -0.376252144575119,
        -0.09070494771003723,
        -0.27867501974105835,
        -0.8979646563529968
      ],
      "weights": [
        -0.18480439484119415,
        0.4744555354118347,
        -0.27772971987724304,
        -0.09213463217020035,
        -0.0774960145354271,
        0.10600149631500244,
        -0.3713299334049225,
        -0.14736802875995636,
        -0.6934022307395935,
        0.04510724917054176,
        0.22553256154060364,
        0.5175405740737915,
        0.16331331431865692,
        0.0326419472694397,
        0.33922410011291504,
        -1.9443840980529785,
        -0.05238111689686775,
        -1.0313364267349243,
        -0.1337539553642273,
        -0.08364304155111313,
        -0.009514894336462021,
        -0.12371505796909332,
        0.23250064253807068,
        0.03315533325076103,
        -0.12850569188594818,
        -0.1399156004190445,
        -1.312304973602295,
        0.35547056794166565,
        0.22097241878509521,
        0.32760775089263916,
        0.26444900035858154,
        -0.031886402517557144,
        0.12225022166967392,
        0.17166773974895477,
        -0.10719159990549088,
        0.2510308027267456,
        -0.229794442653656,
        0.43548065423965454,
        0.13085640966892242,
        0.004062024410814047,
        0.23510131239891052,
        0.6281920075416565,
        -0.2132846713066101,
        -0.1131080836057663,
        0.545063316822052,
        0.6756200194358826,
        0.22731101512908936,
        -0.17221656441688538,
        -0.4482159912586212,
        -0.29959532618522644,
        0.5899175405502319,
        0.3979783058166504,
        -0.17988170683383942,
        -0.22229687869548798,
        0.038446225225925446,
        0.11177501082420349,
        0.22328226268291473,
        0.10158781707286835,
        -0.33166956901550293,
        0.09653900563716888,
        0.08382212370634079,
        0.24788758158683777,
        0.5113776326179504,
        0.0636817142367363,
        0.22483079135417938,
        -0.06995516270399094,
        0.3916972577571869,
        0.039484161883592606,
        -0.30158731341362,
        -0.6136311292648315,
        -0.6219501495361328,
        1.1778862476348877,
        -1.827598214149475,
        -1.0284373760223389,
        0.1596103310585022,
        -0.6330372095108032,
        0.04038674756884575,
        -0.8185539841651917,
        -1.5066050291061401,
        0.4819376468658447,
        -1.2608555555343628,
        -0.09704147279262543,
        -0.14760373532772064,
        0.9035934209823608,
        -0.18999509513378143,
        -0.38856756687164307,
        0.04968291521072388,
        0.018821105360984802,
        0.3203776776790619,
        -0.23172825574874878,
        0.04024389386177063,
        0.23352281749248505,
        -0.1964147686958313,
        0.008192712441086769,
        -0.10475616902112961,
        0.14486032724380493,
        -0.13941307365894318,
        -0.6472618579864502,
        -0.24255035817623138,
        0.002051109215244651,
        0.03217104822397232,
        -0.16454526782035828,
        -0.5224262475967407,
        0.12970957159996033,
        -0.02579474076628685,
        -0.11423695087432861,
        -1.3780032396316528,
        0.7027753591537476,
        -0.07816537469625473,
        0.39682790637016296,
        0.3990861475467682,
        0.1347559094429016,
        -0.1467563956975937,
        0.4006138741970062,
        -0.024093350395560265,
        -0.03727416694164276,
        0.2898513674736023,
        0.2706960141658783,
        -0.32496532797813416,
        -0.2894859313964844,
        0.6019234657287598,
        0.8108088970184326,
        -0.007763485889881849,
        0.19026152789592743,
        0.11380631476640701,
        0.7216202616691589,
        -0.37779948115348816,
        -0.04487083852291107,
        0.09644894301891327,
        0.510441780090332,
        -0.5805402994155884,
        0.3142614960670471,
        0.9067323207855225,
        -0.8386290073394775,
        0.09423716366291046,
        -0.10843120515346527,
        0.04997303709387779,
        -0.005325485020875931,
        -0.10180523246526718,
        -0.25567445158958435,
        0.1467321515083313,
        -0.4471514821052551,
        0.18689493834972382,
        -0.19019930064678192,
        0.5670381188392639,
        0.6150901317596436,
        -0.17821535468101501,
        -0.72142493724823,
        0.3029439151287079,
        0.03976662829518318,
        -0.9047359228134155,
        0.751210629940033,
        -0.17643965780735016,
        0.25842684507369995,
        -0.9576848745346069,
        0.21016472578048706,
        0.16726458072662354,
        -0.17502127587795258,
        -0.29402685165405273,
        -0.19872602820396423,
        -0.09774530678987503,
        0.27150392532348633,
        -0.1880105584859848,
        0.1026788204908371,
        0.1688135415315628,
        0.34055981040000916,
        -0.10473336279392242,
        -0.08571652323007584,
        -0.3953394889831543,
        0.2910890579223633,
        0.011440152302384377,
        0.16002455353736877,
        -0.12570767104625702,
        0.30344894528388977,
        0.1882648915052414,
        -0.12304769456386566,
        -0.040241435170173645,
        -0.16465997695922852,
        -0.19688469171524048,
        0.12695404887199402,
        -0.5008069276809692,
        -0.1064971536397934,
        -0.21073107421398163,
        -0.10761253535747528,
        0.37876152992248535,
        0.29483506083488464,
        -0.2227506786584854,
        -0.24110165238380432,
        0.19851668179035187,
        0.2575536072254181,
        0.14000244438648224,
        -0.6932437419891357,
        0.16731026768684387,
        0.1865597516298294,
        0.021778788417577744,
        0.04494114965200424,
        -0.004159520845860243,
        -0.02048380672931671,
        -1.0346444845199585,
        0.31407326459884644,
        0.12719206511974335,
        0.2906778156757355,
        0.7060244679450989,
        -0.23803062736988068,
        -0.17787091434001923,
        -0.7060419321060181,
        -0.28293555974960327,
        0.08544401079416275,
        0.19643032550811768,
        -0.2678012549877167,
        -0.46641889214515686,
        -1.9648685455322266,
        0.12371336668729782,
        0.42489445209503174,
        -2.1877827644348145,
        -0.06744350492954254,
        -0.24604710936546326,
        -0.010431921109557152,
        0.10864365845918655,
        -0.5198834538459778,
        0.237419992685318,
        0.36931660771369934,
        -1.3455660343170166,
        -0.3029944598674774,
        -0.18899042904376984,
        -0.6323057413101196,
        0.19684140384197235,
        0.3733648657798767,
        0.35032227635383606,
        -0.21298447251319885,
        -0.35684674978256226,
        0.17945683002471924,
        0.3076072037220001,
        0.07305814325809479,
        0.19559715688228607,
        0.05485173687338829,
        -0.03960718214511871,
        0.5224213004112244,
        -0.42219939827919006,
        -0.4495631456375122,
        -0.3199496567249298,
        -0.2605103552341461,
        0.5922402143478394,
        0.339518666267395,
        -0.23707668483257294,
        0.045132070779800415,
        0.6311128735542297,
        0.19440791010856628,
        0.1743018925189972,
        -0.14046819508075714,
        -0.24842767417430878,
        -0.11314751952886581,
        0.0030140436720103025,
        -0.28649717569351196,
        -1.2768794298171997,
        0.06734666228294373
      ]
    },
    {
      "activation": "rectified",
      "architecture": "dense",
      "bias": [
        0.06426797062158585,
        0.04215744137763977,
        0.8605919480323792,
        0.6293899416923523,
        0.293204665184021,
        -0.2808367609977722,
        0.35275185108184814,
        0.08118117600679398,
        -0.06934183835983276,
        -0.6566750407218933,
        0.3850767910480499,
        0.8983492851257324,
        0.31366339325904846,
        0.9662023782730103,
        0.14684268832206726,
        0.4203716218471527
      ],
      "weights": [
        0.12686273455619812,
        -0.5969993472099304,
        0.2701684534549713,
        -0.44292640686035156,
        -0.37465155124664307,
        -0.15426547825336456,
        -1.4708269834518433,
        0.0336093008518219,
        0.47168681025505066,
        0.39675435423851013,
        0.2626095414161682,
        -0.10252399742603302,
        0.4160546660423279,
        -0.18284453451633453,
        0.020135803148150444,
        -0.1370832324028015,
        -1.022966980934143,
        -0.20992468297481537,
        -0.32901084423065186,
        -0.2543999254703522,
        -0.11015799641609192,
        -0.116147480905056,
        -0.03588983416557312,
        -0.4850246012210846,
        0.05948005989193916,
        0.11532475054264069,
        0.36236080527305603,
        -0.4606706500053406,
        -0.9711663126945496,
        -0.31694021821022034,
        0.09137874841690063,
        -0.13603989779949188,
        -0.40705665946006775,
        -0.6265653967857361,
        0.05678410083055496,
        -0.27048417925834656,
        0.10954201221466064,
        -0.4161343276500702,
        -0.48437583446502686,
        -0.5560289621353149,
        -1.2250694036483765,
        -0.004797419998794794,
        -1.0945662260055542,
        -0.6704391241073608,
        -0.6595624089241028,
        -0.32965219020843506,
        -0.31590601801872253,
        -0.3609025180339813,
        0.5533296465873718,
        -0.006209028419107199,
        0.3657669126987457,
        0.009516656398773193,
        0.024657320231199265,
        -0.13010208308696747,
        -0.20216988027095795,
        -0.06796343624591827,
        0.9207311868667603,
        -0.0077681150287389755,
        0.48778823018074036,
        -0.5054768919944763,
        -0.05863424390554428,
        0.6261103749275208,
        0.06229693070054054,
        0.06410783529281616,
        -0.1687277853488922,
        -0.015893450006842613,
        -0.24331769347190857,
        0.062137626111507416,
        0.4951193630695343,
        0.07410328090190887,
        -0.12559711933135986,
        0.3848554491996765,
        0.05897859111428261,
        0.2806858718395233,
        -0.08018534630537033,
        0.009853558614850044,
        -0.00437742006033659,
        0.5964450240135193,
        0.1378309577703476,
        -0.9446821212768555,
        -0.3623451888561249,
        0.27918097376823425,
        -0.9574430584907532,
        -0.010476842522621155,
        -0.42574796080589294,
        0.23267872631549835,
        -0.028292609378695488,
        -0.5742514729499817,
        0.32613906264305115,
        0.35526081919670105,
        -0.03312937542796135,
        0.13454657793045044,
        -0.7539393305778503,
        -0.015896214172244072,
        -0.1426030695438385,
        -0.04574565589427948,
        0.3854435682296753,
        -0.4725217819213867,
        -0.1320849508047104,
        -0.16692426800727844,
        0.009189694188535213,
        0.26685863733291626,
        -1.0012120008468628,
        -0.22438962757587433,
        0.737394392490387,
        -0.7620915770530701,
        -1.0348457098007202,
        0.08902046829462051,
        -0.6286249756813049,
        -0.1682910919189453,
        -0.8351681232452393,
        -0.1729287952184677,
        -0.3222387135028839,
        -0.6135156154632568,
        -0.5054213404655457,
        -0.2931828796863556,
        0.07622876018285751,
        0.6461008787155151,
        -0.4512377977371216,
        -1.2664462327957153,
        -0.5190789699554443,
        0.30269694328308105,
        -0.5946553945541382,
        -0.6012082099914551,
        -0.31250593066215515,
        -0.3091415464878082,
        -0.5698750019073486,
        -0.2446407675743103,
        -0.4002731144428253,
        0.23060929775238037,
        -1.027840495109558,
        0.06379415839910507,
        -0.08306469023227692,
        -0.04100874811410904,
        -0.18223020434379578,
        0.2335764765739441,
        0.034793805330991745,
        0.02732095494866371,
        0.6302493810653687,
        0.5611331462860107,
        -0.05963790416717529,
        -0.031160274520516396,
        -0.453166663646698,
        -0.048932068049907684,
        -0.36335429549217224,
        -0.7098968029022217,
        0.1767643541097641,
        -0.30113485455513,
        0.21361348032951355,
        0.600390613079071,
        0.028691276907920837,
        -0.5650693774223328,
        -0.5042480230331421,
        0.41239869594573975,
        -0.004049617797136307,
        0.6047152280807495,
        0.2894302308559418,
        -0.06543499231338501,
        0.09241126477718353,
        -0.11685160547494888,
        -1.2040131092071533,
        0.4961363673210144,
        -1.0925687551498413,
        -0.5195658206939697,
        -0.9129259586334229,
        0.2015783041715622,
        -0.2769874632358551,
        -1.130289912223816,
        -1.2931575775146484,
        0.16735297441482544,
        -2.050389051437378,
        -1.118444561958313,
        0.14642150700092316,
        -0.25864288210868835,
        -1.3002320528030396,
        0.13953058421611786,
        0.009907638654112816,
        0.0466439314186573,
        0.5450692772865295,
        0.18205012381076813,
        -0.479533851146698,
        0.12563513219356537,
        -0.033280350267887115,
        0.2597593069076538,
        0.5049387216567993,
        -0.42396631836891174,
        -0.06689919531345367,
        0.2177121788263321,
        -0.13160301744937897,
        -0.10055558383464813,
        0.03701041266322136,
        0.21192024648189545,
        0.4483902156352997,
        -0.4740162789821625,
        -0.19451090693473816,
        -0.8109667897224426,
        0.026812417432665825,
        -0.2715092599391937,
        -0.9431397318840027,
        0.277261883020401,
        -0.06274417787790298,
        -0.7001953125,
        -0.3352401554584503,
        -0.2615656852722168,
        -1.3544949293136597,
        0.10684151947498322,
        0.1770452857017517,
        -0.2658334970474243,
        0.5074514150619507,
        0.032645564526319504,
        -0.1574939340353012,
        0.6137392520904541,
        -0.27343320846557617,
        0.17825493216514587,
        -0.06762433052062988,
        -0.068638876080513,
        -0.776404857635498,
        0.3193505108356476,
        0.0056013064458966255,
        -0.1250249594449997,
        -0.39160656929016113,
        -0.4985911250114441,
        0.09163422137498856,
        0.47512394189834595,
        -0.2760072946548462,
        0.38549479842185974,
        0.006454356014728546,
        -0.17531079053878784,
        -0.32106396555900574,
        0.1939859688282013,
        0.5438547134399414,
        0.11921527236700058,
        -0.1124756932258606,
        -0.2588001489639282,
        0.15041042864322662,
        -0.31956765055656433,
        -0.12521132826805115,
        -0.31052711606025696,
        0.3671548068523407,
        0.07366730272769928,
        0.07542066276073456,
        0.09142311662435532,
        0.22991244494915009,
        -0.29843583703041077,
        -0.7996325492858887,
        -0.14412735402584076,
        0.032277174293994904,
        -0.4403139054775238,
        -0.024499353021383286,
        -0.2266726791858673,
        0.3153395354747772,
        0.13018788397312164,
        -0.7982465624809265,
        -0.01395361591130495,
        -1.0854206085205078,
        0.3671519458293915
      ]
    },
    {
      "activation": "rectified",
      "architecture": "dense",
      "bias": [
        -0.23293288052082062,
        0.08416759222745895,
        -0.5004104375839233,
        0.03842932730913162,
        -0.2621157765388489,
        0.7407563924789429,
        -0.26281261444091797,
        0.1548229157924652,
        -0.5041667222976685,
        0.23746585845947266,
        0.048512428998947144,
        0.3825075924396515,
        0.44067227840423584,
        -0.2131652683019638,
        -1.158446192741394,
        -0.1841336488723755
      ],
      "weights": [
        0.016629477962851524,
        -0.13662949204444885,
        0.9008899331092834,
        0.10551074147224426,
        -0.726207971572876,
        0.3830989599227905,
        0.61737060546875,
        -0.27334365248680115,
        0.6915113925933838,
        0.07292353361845016,
        -0.29847297072410583,
        0.36061638593673706,
        0.06583075225353241,
        -0.09617576003074646,
        0.23163647949695587,
        0.3750589191913605,
        0.18110306560993195,
        -0.08057344704866409,
        -0.14817757904529572,
        -0.1870463639497757,
        0.10763483494520187,
        0.32267311215400696,
        0.04537321999669075,
        -0.005597019102424383,
        0.4299451410770416,
        -0.12009425461292267,
        -0.2018619179725647,
        0.5261006951332092,
        0.01924910955131054,
        -0.0032492750324308872,
        -0.14407797157764435,
        0.10348954051733017,
        -0.09278183430433273,
        -0.5651426315307617,
        -1.0634440183639526,
        0.2469022572040558,
        0.08807608485221863,
        0.06293388456106186,
        -0.38575518131256104,
        -0.5694461464881897,
        0.11819447576999664,
        0.0020726905204355717,
        -0.3076341152191162,
        0.12744691967964172,
        -0.3315453827381134,
        0.406892329454422,
        0.043900467455387115,
        -0.24211283028125763,
        -1.6499361991882324,
        -0.5046961307525635,
        -0.6100619435310364,
        0.2434932440519333,
        0.27359554171562195,
        -0.23400942981243134,
        -0.4009036719799042,
        0.10901918262243271,
        -0.8878849744796753,
        -0.262294203042984,
        -0.6840962171554565,
        -0.7790369391441345,
        -0.35529738664627075,
        -0.17416614294052124,
        -0.6185857653617859,
        -0.16728228330612183,
        -0.06521356850862503,
        -0.7625541090965271,
        -0.05532580986618996,
        0.001579131232574582,
        -0.8260253667831421,
        -0.13862214982509613,
        -0.11602091044187546,
        0.36761417984962463,
        0.46985769271850586,
        0.7775569558143616,
        -0.43034884333610535,
        -0.0266230721026659,
        1.1053203344345093,
        -0.27858585119247437,
        -0.08664429187774658,
        0.04012872651219368,
        -0.1629873365163803,
        0.1996646225452423,
        0.2504361569881439,
        0.20910149812698364,
        -0.1057562530040741,
        0.09642991423606873,
        0.6643697023391724,
        -1.2173534631729126,
        0.02305111102759838,
        -0.0013654453214257956,
        -0.48998427391052246,
        0.15199825167655945,
        -0.41562458872795105,
        -0.6099477410316467,
        -0.06431787461042404,
        -0.46223655343055725,
        -0.1628066897392273,
        -1.1613951921463013,
        -0.969131588935852,
        0.4361209273338318,
        -0.8542843461036682,
        -0.3357725441455841,
        0.2011416256427765,
        -1.4835187196731567,
        -0.08156253397464752,
        0.11697682738304138,
        -0.7481191158294678,
        -0.42740598320961,
        0.13339443504810333,
        0.1534537374973297,
        0.01665090024471283,
        0.0065611302852630615,
        -0.3747437596321106,
        -0.21589495241641998,
        -0.3886232376098633,
        -0.04965830594301224,
        0.4065248966217041,
        0.11099054664373398,
        0.4260101318359375,
        0.22138194739818573,
        -0.23056797683238983,
        -0.004229378886520863,
        -0.8784188032150269,
        -0.11603663861751556,
        -0.600700318813324,
        -0.5975949168205261,
        0.11366263777017593,
        -0.17502842843532562,
        -0.5603129863739014,
        -0.1374572068452835,
        0.07038488239049911,
        0.17644447088241577,
        -0.5658296346664429,
        0.2207990288734436,
        0.2657347321510315,
        0.1125650405883789,
        0.28805267810821533,
        -0.07810340076684952,
        0.5464933514595032,
        -0.14371198415756226,
        0.5133991241455078,
        -0.44904279708862305,
        0.5891240239143372,
        0.2793448567390442,
        0.261504203081131,
        -1.1149954795837402,
        -0.5980511903762817,
        0.1540801078081131,
        0.16378213465213776,
        -0.573084831237793,
        0.3789225220680237,
        -0.9951847195625305,
        0.27682381868362427,
        -0.1275366246700287,
        -0.6404512524604797,
        0.16895782947540283,
        0.532998263835907,
        -0.4000445306301117,
        0.04969441518187523,
        -0.2806512117385864,
        0.006058013532310724,
        0.21179240942001343,
        0.12753893435001373,
        -0.1870301514863968,
        -0.3114297688007355,
        -0.2868247330188751,
        -0.4907030165195465,
        0.01946965418756008,
        0.663750410079956,
        -0.024311058223247528,
        -0.18401053547859192,
        -0.4129370450973511,
        0.17073598504066467,
        0.05093823000788689,
        -0.1440025269985199,
        0.31361764669418335,
        0.3573455810546875,
        -0.479153037071228,
        0.6374173164367676,
        0.11338599026203156,
        0.28054067492485046,
        -0.4088442921638489,
        -0.03241892158985138,
        -0.23976904153823853,
        -0.19669955968856812,
        0.30197378993034363,
        0.39801299571990967,
        -0.26985952258110046,
        0.4481819272041321,
        -0.5482528209686279,
        -0.032886527478694916,
        -0.23505491018295288,
        -0.9334102869033813,
        -0.22011737525463104,
        0.36080899834632874,
        -0.06189883500337601,
        -0.2508145570755005,
        -0.16219179332256317,
        0.43442365527153015,
        0.28456178307533264,
        -0.5315249562263489,
        0.13626933097839355,
        0.03892100229859352,
        -0.27689647674560547,
        0.24486009776592255,
        0.2817075252532959,
        -0.22803732752799988,
        0.17615656554698944,
        -0.12200301140546799,
        0.7228959798812866,
        0.28067827224731445,
        -0.2987661361694336,
        -0.2517104148864746,
        0.523061215877533,
        0.04753308743238449,
        -0.24140579998493195,
        0.16871857643127441,
        -0.010851483792066574,
        0.09939997643232346,
        0.002345580607652664,
        0.8645786046981812,
        -0.43618109822273254,
        0.1931917816400528,
        0.6376519203186035,
        0.07991844415664673,
        0.4834340810775757,
        -0.2311852127313614,
        0.468500018119812,
        -0.9165984988212585,
        -0.10226866602897644,
