{
  "defaults": {},
  "inputs": [
    {
      "name": "jet3_pt",
      "offset": 0,
      "scale": 1
    },
    {
      "name": "jet3_eta",
      "offset": 0,
      "scale": 1
    },
    {
      "name": "lep1_eta",
      "offset": 0,
      "scale": 1
    },
    {
      "name": "jet2_pt",
      "offset": 0,
      "scale": 1
    },
    {
      "name": "min_Deta_mostfwdJet_jet",
      "offset": 0,
      "scale": 1
    },
    {
      "name": "jet1_pt",
      "offset": 0,
      "scale": 1
    },
    {
      "name": "jetFwd1_eta",
      "offset": 0,
      "scale": 1
    },
    {
      "name": "mT_lep1",
      "offset": 0,
      "scale": 1
    },
    {
      "name": "mT_lep2",
      "offset": 0,
      "scale": 1
    },
    {
      "name": "jet4_phi",
      "offset": 0,
      "scale": 1
    },
    {
      "name": "lep2_conePt",
      "offset": 0,
      "scale": 1
    },
    {
      "name": "hadTop_BDT",
      "offset": 0,
      "scale": 1
    },
    {
      "name": "mass_dilep",
      "offset": 0,
      "scale": 1
    },
    {
      "name": "jet1_phi",
      "offset": 0,
      "scale": 1
    },
    {
      "name": "jet2_eta",
      "offset": 0,
      "scale": 1
    },
    {
      "name": "n_presel_jetFwd",
      "offset": 0,
      "scale": 1
    },
    {
      "name": "mT2_top_2particle",
      "offset": 0,
      "scale": 1
    },
    {
      "name": "n_presel_jet",
      "offset": 0,
      "scale": 1
    },
    {
      "name": "lep1_charge",
      "offset": 0,
      "scale": 1
    },
    {
      "name": "avg_dr_jet",
      "offset": 0,
      "scale": 1
    },
    {
      "name": "lep1_phi",
      "offset": 0,
      "scale": 1
    },
    {
      "name": "Hj_tagger_hadTop",
      "offset": 0,
      "scale": 1
    },
    {
      "name": "nBJetLoose",
      "offset": 0,
      "scale": 1
    },
    {
      "name": "jet4_pt",
      "offset": 0,
      "scale": 1
    },
    {
      "name": "mindr_lep1_jet",
      "offset": 0,
      "scale": 1
    },
    {
      "name": "lep1_conePt",
      "offset": 0,
      "scale": 1
    },
    {
      "name": "jetFwd1_pt",
      "offset": 0,
      "scale": 1
    },
    {
      "name": "lep2_phi",
      "offset": 0,
      "scale": 1
    },
    {
      "name": "jet2_phi",
      "offset": 0,
      "scale": 1
    },
    {
      "name": "lep2_eta",
      "offset": 0,
      "scale": 1
    },
    {
      "name": "mbb",
      "offset": 0,
      "scale": 1
    },
    {
      "name": "mindr_lep2_jet",
      "offset": 0,
      "scale": 1
    },
    {
      "name": "jet4_eta",
      "offset": 0,
      "scale": 1
    },
    {
      "name": "nBJetMedium",
      "offset": 0,
      "scale": 1
    },
    {
      "name": "Dilep_pdgId",
      "offset": 0,
      "scale": 1
    },
    {
      "name": "metLD",
      "offset": 0,
      "scale": 1
    },
    {
      "name": "jet3_phi",
      "offset": 0,
      "scale": 1
    },
    {
      "name": "maxeta",
      "offset": 0,
      "scale": 1
    },
    {
      "name": "jet1_eta",
      "offset": 0,
      "scale": 1
    },
    {
      "name": "min_Deta_leadfwdJet_jet",
      "offset": 0,
      "scale": 1
    }
  ],
  "layers": [
    {
      "activation": "rectified",
      "architecture": "dense",
      "bias": [
        -0.5798975229263306,
        0.48976609110832214,
        -0.5178529620170593,
        0.5921766757965088,
        1.9616236686706543,
        0.47606202960014343,
        -0.7515488266944885,
        2.6080801486968994,
        -0.2649540603160858,
        -0.4023762345314026,
        1.2755478620529175,
        0.0536365769803524,
        -3.8002145290374756,
        -2.37528657913208,
        -0.2486502081155777,
        -2.0338799953460693,
        1.6312309503555298,
        -1.724446415901184,
        0.40130433440208435,
        0.24904274940490723,
        1.9059916734695435,
        0.9686890840530396,
        1.8803819417953491,
        -0.5230166912078857,
        2.120121955871582,
        -0.0005835287738591433,
        -2.6621134281158447,
        1.417417049407959,
        -1.5224970579147339,
        -0.8868683576583862,
        0.583613932132721,
        0.569618284702301
      ],
      "weights": [
        -0.12334845215082169,
        -0.013236675411462784,
        1.5162042379379272,
        0.18936370313167572,
        -0.6962283253669739,
        0.1812281459569931,
        -1.5302730798721313,
        0.06383217871189117,
        -0.2387903332710266,
        -0.1714392751455307,
        0.1995253711938858,
        1.1707051992416382,
        0.039685122668743134,
        0.0350213348865509,
        -0.5621076226234436,
        1.5810564756393433,
        0.04314687103033066,
        0.10953179746866226,
        2.008613109588623,
        -2.272752285003662,
        0.12799382209777832,
        0.18891523778438568,
        2.0884602069854736,
        -0.0183345228433609,
        -0.7542397379875183,
        -0.06114445626735687,
        0.011907534673810005,
        0.6066100001335144,
        0.35777708888053894,
        0.26980075240135193,
        -1.1273218393325806,
        -1.0908018350601196,
        0.16400130093097687,
        -0.5096351504325867,
        1.1105961799621582,
        -0.09263381361961365,
        0.6841912865638733,
        1.0313206911087036,
        0.5619102716445923,
        -0.8235192894935608,
        -0.377652108669281,
        -0.3566679060459137,
        -3.6874568462371826,
        -0.3193214535713196,
        0.015502125956118107,
        -0.36281171441078186,
        2.2934553623199463,
        -0.15237414836883545,
        -0.021072158589959145,
        0.20241287350654602,
        -0.14811047911643982,
        0.9159567952156067,
        -0.0011154310777783394,
        0.0180924441665411,
        -0.16612552106380463,
        1.6117937564849854,
        0.15886524319648743,
        0.8078982830047607,
        -1.052748203277588,
        3.3754217624664307,
        0.6233158111572266,
        -1.206973671913147,
        1.7029333114624023,
        -0.17415094375610352,
        3.0312564373016357,
        0.12182198464870453,
        0.024659257382154465,
        0.6546254754066467,
        -0.044403307139873505,
        2.4282050132751465,
        -0.044109195470809937,
        1.9982600212097168,
        0.46440839767456055,
        1.0726079940795898,
        0.48543938994407654,
        0.06340209394693375,
        0.3564322888851166,
        2.477764129638672,
        -1.1529875993728638,
        0.7431926131248474,
        0.09366711229085922,
        0.5951089262962341,
        0.3513067364692688,
        -0.09547902643680573,
        0.16909414529800415,
        0.09571481496095657,
        -0.17935743927955627,
        0.2632061839103699,
        -0.0734742283821106,
        0.591008722782135,
        0.5632335543632507,
        0.03797346353530884,
        -0.36974018812179565,
        -1.0817259550094604,
        -0.011311753652989864,
        1.1815205812454224,
        -0.06882929056882858,
        -0.7381965517997742,
        -3.9058754444122314,
        0.37182047963142395,
        0.08061657100915909,
        0.3221626281738281,
        1.1832401752471924,
        -0.1290314495563507,
        1.6000804901123047,
        0.24344682693481445,
        -0.2596345841884613,
        -0.22256742417812347,
        0.2133689820766449,
        0.665265679359436,
        0.04991770535707474,
        0.011350315064191818,
        0.046052515506744385,
        0.9274365305900574,
        -0.6919111609458923,
        -1.5439914464950562,
        -0.012729121372103691,
        0.19786185026168823,
        1.360811710357666,
        0.18343843519687653,
        -0.7319457530975342,
        0.5816022753715515,
        -0.9591084122657776,
        -1.0528632402420044,
        1.0966705083847046,
        -0.47144395112991333,
        0.37484949827194214,
        0.12915176153182983,
        -0.05403493717312813,
        -0.7252156138420105,
        -0.06133152171969414,
        -0.5808404684066772,
        0.07739295065402985,
        0.09906616061925888,
        0.5938246846199036,
        -4.591243267059326,
        0.1051597073674202,
        0.19457058608531952,
        -2.5489344596862793,
        -1.3440452814102173,
        -0.38257384300231934,
        -0.8828299045562744,
        0.4574241042137146,
        -0.8926350474357605,
        0.8184390664100647,
        -0.17528660595417023,
        -0.3623617887496948,
        -0.17861425876617432,
        -1.1374139785766602,
        -0.8748674988746643,
        -0.9107475280761719,
        0.5164406299591064,
        0.7497226595878601,
        0.6835845708847046,
        0.666201651096344,
        0.09840074181556702,
        -0.8010261058807373,
        -0.6470413208007812,
        0.9634037017822266,
        1.5901607275009155,
        0.12718342244625092,
        1.063393473625183,
        -0.6051152348518372,
        0.4019430875778198,
        0.5095992684364319,
        -0.016289982944726944,
        -1.1251170635223389,
        -0.10409264266490936,
        -0.2039944976568222,
        -0.577805757522583,
        -0.15294967591762543,
        0.895641565322876,
        0.17267149686813354,
        -0.5976214408874512,
        -1.3331897258758545,
        -1.2688809633255005,
        0.02212393283843994,
        1.1313941478729248,
        -0.6331601142883301,
        -3.981515884399414,
        0.001896212575957179,
        0.33870837092399597,
        1.1959446668624878,
        0.11088219285011292,
        -1.4912376403808594,
        0.20049799978733063,
        -0.1841587871313095,
        -1.543948769569397,
        0.5286762118339539,
        0.6783088445663452,
        -0.060236647725105286,
        -1.545767068862915,
        0.23205508291721344,
        0.6121999025344849,
        -0.15105755627155304,
        0.15250268578529358,
        -0.491933137178421,
        -0.9448121786117554,
        -2.5124313831329346,
        0.38125941157341003,
        0.08010091632604599,
        0.25645822286605835,
        -0.9660810828208923,
        -0.04535496234893799,
        0.20851854979991913,
        0.13933685421943665,
        -0.4396395683288574,
        0.1913120001554489,
        0.26449257135391235,
        -0.03401804715394974,
        0.07451220601797104,
        0.770377516746521,
        -0.036283377557992935,
        -0.1346120685338974,
        -1.0329620838165283,
        -1.6403248310089111,
        0.23119200766086578,
        -2.2696409225463867,
        -0.19986294209957123,
        -3.564659833908081,
        -0.13801588118076324,
        -0.12830713391304016,
        1.1285337209701538,
        -0.0582970455288887,
        1.8412623405456543,
        -0.05350639671087265,
        -0.17473351955413818,
        -0.6822549700737,
        -0.05884382128715515,
        -0.007951414212584496,
        -0.04325404390692711,
        3.076878070831299,
        0.20850279927253723,
        2.103177070617676,
        -1.3701874017715454,
        -0.7181639671325684,
        -1.0727382898330688,
        1.6702237129211426,
        -1.9040907621383667,
        0.2958378791809082,
        -0.7172097563743591,
        -0.27180951833724976,
        1.3717195987701416,
        -0.03956030681729317,
        1.2083271741867065,
        0.4007321000099182,
        0.2592478096485138,
        -0.11329986900091171,
        -0.07762692123651505,
        -0.13952471315860748,
        -0.3576061427593231,
        -0.12562446296215057,
        0.11930608004331589,
        0.3459698259830475,
        -1.0022140741348267,
        1.3764008283615112,
        -0.3590274751186371,
        -0.1868048757314682,
        3.1977813243865967,
        -0.7293602228164673,
        0.005718224681913853,
        0.46388980746269226,
        1.2157634496688843,
        0.029822057113051414,
        -0.3186797499656677,
        0.26033297181129456,
        0.2855641543865204,
        -1.2965105772018433,
        -0.4521872401237488,
        -1.859503149986267,
        0.1512557864189148,
        -0.3882109224796295,
        0.5389934778213501,
        0.6305792331695557,
        -1.37318754196167,
        0.0459328331053257,
        1.0177298784255981,
        1.3826898336410522,
        0.3785722851753235,
        1.2405294179916382,
        0.05966370925307274,
        -0.8998416662216187,
        0.38193145394325256,
        -0.03760616481304169,
        0.06046823784708977,
        0.017084194347262383,
        0.16177089512348175,
        0.013163836672902107,
        0.019062655046582222,
        0.09495627135038376,
        -0.014636358246207237,
        13.108125686645508,
        -0.0006428639171645045,
        0.03488769754767418,
        -0.18154391646385193,
        0.6091552376747131,
        0.04783026874065399,
        0.23787523806095123,
        -0.5661212801933289,
        -5.557579040527344,
        -0.03808067739009857,
        -0.7487627863883972,
        0.1556331366300583,
        -0.04678569734096527,
        0.8083699345588684,
        0.009912801906466484,
        -0.01038932241499424,
        0.1800544112920761,
        -0.10292325168848038,
        -0.2748831808567047,
        0.005569536238908768,
        0.8293167352676392,
        -0.41406241059303284,
        -0.9252335429191589,
        0.7340616583824158,
        -0.0007548035937361419,
        0.29767513275146484,
        0.06751420348882675,
        -1.4127049446105957,
        -0.29887425899505615,
        -0.14920639991760254,
        -0.19432231783866882,
        -1.5091135501861572,
        0.19232501089572906,
        -0.2622969448566437,
        0.162271648645401,
        -1.5388647317886353,
        0.25571656227111816,
        0.3656879961490631,
        0.13733839988708496,
        -0.3259132206439972,
        0.07536449283361435,
        0.24308300018310547,
        -0.5465381145477295,
        -2.6599438190460205,
        -3.2769217491149902,
        -0.0790925920009613,
        -1.585495114326477,
        -2.7625181674957275,
        -2.9492647647857666,
        0.26907816529273987,
        0.18498432636260986,
        -0.09189421683549881,
        -0.02377784438431263,
        -0.7486814260482788,
        -0.3280147612094879,
        -0.00961222406476736,
        0.007975391112267971,
        0.9003132581710815,
        -1.8423681259155273,
        0.022177454084157944,
        -3.4299983978271484,
        -1.322136402130127,
        -1.835684061050415,
        0.8578500747680664,
        -0.04499608278274536,
        -1.103198528289795,
        -0.2318696528673172,
        -3.5201544761657715,
        -0.30619895458221436,
        0.2971592843532562,
        0.44350776076316833,
        -0.36047205328941345,
        0.09799756854772568,
        -0.9961366653442383,
        0.06202442944049835,
        -0.09401341527700424,
        -0.43304821848869324,
        0.6635561585426331,
        0.3784683048725128,
        -0.5773652791976929,
        0.8204401731491089,
        -0.0677567794919014,
        1.3801639080047607,
        1.0253450870513916,
        -2.219498634338379,
        -0.1045074313879013,
        -0.44048023223876953,
        -0.47468098998069763,
        0.05903513357043266,
        -0.28799766302108765,
        -0.02545945532619953,
        1.2356152534484863,
        -0.1898423433303833,
        -0.9755698442459106,
        0.3109303116798401,
        -0.0017101186094805598,
        1.1705551147460938,
        0.2373897135257721,
        1.7492283582687378,
        -0.5206823348999023,
        -1.563639521598816,
        0.18402425944805145,
        -0.0778396800160408,
        -1.0095869302749634,
        -0.3999560475349426,
        0.32205289602279663,
        0.9240871667861938,
        -0.6181882619857788,
        -0.13332507014274597,
        -0.04712560772895813,
        -0.4880309998989105,
        -0.49202534556388855,
        0.02053702622652054,
        0.03360302001237869,
        0.13122227787971497,
        0.4340987801551819,
        0.11497834324836731,
        0.08277899771928787,
        0.0771317332983017,
        0.08187413215637207,
        0.19401606917381287,
        0.019027458503842354,
        0.6593675017356873,
        -1.3845232725143433,
        2.405909538269043,
        0.0845138281583786,
        3.528677463531494,
        -3.2742979526519775,
        -0.46581774950027466,
        -0.2723129689693451,
        -0.03763353079557419,
        0.3607929050922394,
        -0.08878455311059952,
        -3.2599222660064697,
        -0.14498935639858246,
        0.18414518237113953,
        0.410843163728714,
        -0.30093470215797424,
        -0.7881684899330139,
        -0.019306914880871773,
        -3.1817739009857178,
        0.22605319321155548,
        1.883795142173767,
        0.8601458668708801,
        -0.1507164090871811,
        1.242614507675171,
        -5.995418071746826,
        -1.8257417678833008,
        -0.005619253031909466,
        0.3369111716747284,
        0.06292250752449036,
        -1.5073670148849487,
        -0.3561074137687683,
        1.585554599761963,
        0.09013328701257706,
        1.9963220357894897,
        -0.0860978364944458,
        -0.08181233704090118,
        -0.0628339946269989,
        0.36206093430519104,
        0.343269407749176,
        0.11369119584560394,
        1.303045630455017,
        0.38466933369636536,
        -1.4384434223175049,
        -0.5841839909553528,
        -0.3415985405445099,
        0.9131051301956177,
        -1.4736818075180054,
        0.7307475209236145,
        -0.6258020401000977,
        -0.23528710007667542,
        0.017603624612092972,
        1.0872533321380615,
        0.1115264743566513,
        0.4753653109073639,
        0.4372160732746124,
        -0.40438953042030334,
        1.0841318368911743,
        -1.13907790184021,
        0.18454910814762115,
        0.04258141666650772,
        0.06603734195232391,
        0.22969937324523926,
        -0.01997370272874832,
        -0.17912669479846954,
        -1.5382020473480225,
        -2.04960298538208,
        3.479983329772949,
        -0.07820118218660355,
        -0.9144488573074341,
        1.29384183883667,
        -0.08140333741903305,
        0.15044325590133667,
        0.25006821751594543,
        -0.9924687743186951,
        -0.010444335639476776,
        -0.017452996224164963,
        0.5959645509719849,
        0.1510673314332962,
        -1.008470892906189,
        0.4872573912143707,
        -0.358965665102005,
        0.01821160688996315,
        0.738508403301239,
        0.1880384385585785,
        -1.3353686332702637,
        1.1494495868682861,
        4.497148513793945,
        -1.1455986499786377,
        0.20424765348434448,
        -0.8202884793281555,
        -0.25289809703826904,
        1.132273554801941,
        -0.030188702046871185,
        0.008634892292320728,
        -0.7031289935112,
        -0.3892730474472046,
        -1.2316274642944336,
        0.13562479615211487,
        -1.534965991973877,
        -0.4372018277645111,
        1.3181174993515015,
        -2.269150733947754,
        -0.08676058053970337,
        1.0840574502944946,
        -1.4031778573989868,
        1.6153552532196045,
        0.3000621497631073,
        0.053457021713256836,
        -0.8621681332588196,
        -0.8399909734725952,
        0.03204551711678505,
        0.1178416982293129,
        0.0608971007168293,
        -0.8582391738891602,
        0.01510179415345192,
        0.056267157196998596,
        -0.38409626483917236,
        -0.019760506227612495,
        -0.2600736916065216,
        -0.03230546787381172,
        -0.40574225783348083,
        2.5498263835906982,
        -3.3865270614624023,
        0.10712319612503052,
        -0.44273462891578674,
        0.012848028913140297,
        5.032588005065918,
        0.3627764582633972,
        -0.32091379165649414,
        -0.19533349573612213,
        0.0012279170332476497,
        2.098728656768799,
        -0.10153183341026306,
        -1.2617413997650146,
        1.1919431686401367,
        -0.01717868447303772,
        0.20425693690776825,
        -0.021668171510100365,
        0.46512842178344727,
        -0.5549956560134888,
        2.7258481979370117,
        -1.3274562358856201,
        -0.013748030178248882,
        0.18841023743152618,
        -1.4548488855361938,
        4.638883113861084,
        -0.0010414529824629426,
        -0.4709876775741577,
        -0.2686123549938202,
        0.8413912057876587,
        -0.18893326818943024,
        -0.3743460774421692,
        -0.42140501737594604,
        2.6900227069854736,
        -0.011146554723381996,
        0.08754199743270874,
        0.5911639928817749,
        0.2552274465560913,
        0.6967689990997314,
        -0.14773397147655487,
        -0.40636008977890015,
        -0.41579341888427734,
        1.87714684009552,
        0.2761978507041931,
        -0.2127561867237091,
        1.3671778440475464,
        3.0280187129974365,
        -0.14799238741397858,
        0.26284363865852356,
        1.5134695768356323,
        -0.2608965337276459,
        -0.08776402473449707,
        -0.1019064411520958,
        0.5166590213775635,
        0.17446208000183105,
        0.8623981475830078,
        -1.9233746528625488,
        0.057902008295059204,
        0.03463073447346687,
        -0.15561069548130035,
        1.7137633562088013,
        -0.0039898669347167015,
        -0.06919917464256287,
        0.4243572950363159,
        1.76626455783844,
        -2.34244966506958,
        0.40487241744995117,
        0.22722254693508148,
        -0.7096408605575562,
        0.08973493427038193,
        -0.1418231874704361,
        0.8863506317138672,
        0.1684124618768692,
        0.9984096884727478,
        0.04630294069647789,
        0.12686781585216522,
        0.028346149250864983,
        0.10939092189073563,
        -0.42014119029045105,
        -0.02599296160042286,
        0.005830689333379269,
        1.1662003993988037,
        0.9509218335151672,
        0.026616554707288742,
        -0.5220953822135925,
        2.2859928607940674,
        3.847146511077881,
        -0.16659805178642273,
        -0.36575865745544434,
        1.0459944009780884,
        0.23321276903152466,
        2.218918561935425,
        -0.1479337215423584,
        0.3999810218811035,
        -0.3362659811973572,
        0.33642059564590454,
        -0.520930290222168,
        -0.055099569261074066,
        1.0096356868743896,
        0.03630780428647995,
        2.441560745239258,
        -1.0823009014129639,
        -0.050640735775232315,
        0.66901695728302,
        0.5313341021537781,
        1.7214797735214233,
        0.9859790205955505,
        -0.10196629911661148,
        0.5084307789802551,
        1.2107713222503662,
        -0.08715670555830002,
        1.1094605922698975,
        0.12305495142936707,
        -0.6100296378135681,
        0.21886460483074188,
        0.254911333322525,
        -0.8082842230796814,
        -0.2562706470489502,
        0.8738875985145569,
        -0.747914731502533,
        -0.511593222618103,
        -1.1058963537216187,
        -2.5803115367889404,
        0.07727360725402832,
        1.5346347093582153,
        0.19995585083961487,
        -3.1789448261260986,
        0.5236861705780029,
        -0.36918044090270996,
        1.1976583003997803,
        0.22229169309139252,
        -1.0658347606658936,
        -0.07560562342405319,
        -0.777235746383667,
        1.1718838214874268,
        0.4855893552303314,
        1.6596382856369019,
        0.10156559944152832,
        -1.015188217163086,
        0.5227264761924744,
        -1.1762163639068604,
        1.568489909172058,
        -0.24720628559589386,
        0.2831093668937683,
        -0.6821300387382507,
        -0.6335522532463074,
        1.0011852979660034,
        -0.12478851526975632,
        -0.00264738779515028,
        -1.3535975217819214,
        0.20734433829784393,
        0.32609444856643677,
        -0.1419021338224411,
        -0.9274148941040039,
        0.42353981733322144,
        0.1196681410074234,
        -0.5686104893684387,
        -0.5395888686180115,
        0.7062039971351624,
        -0.017020901665091515,
        0.6406572461128235,
        -1.253352403640747,
        -1.3030791282653809,
        -0.2185942679643631,
        -0.9441710710525513,
        -0.21388457715511322,
        -0.5388665795326233,
        1.2259162664413452,
        0.17637455463409424,
        1.5797547101974487,
        -0.06246846914291382,
        -3.5913023948669434,
        0.2246621549129486,
        -0.25957033038139343,
        -0.5498605966567993,
        0.3843599855899811,
        1.1850793361663818,
        -0.05110848695039749,
        0.3220869302749634,
        0.240475594997406,
        1.835572361946106,
        -1.932184100151062,
        0.2770194709300995,
        0.10363953560590744,
        -0.8341614603996277,
        -0.4191068410873413,
        0.3788497745990753,
        -0.10666462033987045,
        -0.6558479070663452,
        -0.13408313691616058,
        0.08449966460466385,
        0.07491973787546158,
        -0.07870963215827942,
        1.470880389213562,
        0.010284884832799435,
        -0.049493178725242615,
        -0.3117462992668152,
        -0.34885644912719727,
        -1.1073276996612549,
        -1.164375901222229,
        -0.282296746969223,
        -2.506624698638916,
        0.2541249692440033,
        -0.08723387867212296,
        0.8234399557113647,
        -0.8933457732200623,
        4.149876117706299,
        0.06442432850599289,
        -0.1755875051021576,
        -0.986678957939148,
        -0.2190263271331787,
        0.10377292335033417,
        0.20780058205127716,
        0.155413419008255,
        -0.3191819489002228,
        0.9079065918922424,
        -0.2876490354537964,
        0.01457421574741602,
        1.1345247030258179,
        -0.5362866520881653,
        -2.6481857299804688,
        5.345759391784668,
        0.09438543766736984,
        0.534468948841095,
        0.3203781247138977,
        -0.8517447113990784,
        0.10978830605745316,
        0.09255873411893845,
        0.24363508820533752,
        -1.360131025314331,
        -0.1653192788362503,
        -1.5757797956466675,
        0.12395969033241272,
        -0.5903160572052002,
        -0.12069464474916458,
        -0.08132365345954895,
        -0.19499996304512024,
        -0.07952889055013657,
        -0.45545512437820435,
        -0.20822292566299438,
        -0.40343472361564636,
        -0.7307007908821106,
        0.5312053561210632,
        -0.045438945293426514,
        -0.3083610534667969,
        -7.451350212097168,
        -1.8763011693954468,
        0.5372797250747681,
        0.20539487898349762,
        -1.512162685394287,
        0.13074733316898346,
        1.3769760131835938,
        -0.11368326097726822,
        0.5340598225593567,
        0.9344401359558105,
        0.5419689416885376,
        -1.3509631156921387,
        -0.055631451308727264,
        0.7606966495513916,
        -0.7843274474143982,
        -0.647142767906189,
        -0.7726798057556152,
        0.07889961451292038,
        -0.1447840929031372,
        1.4124895334243774,
        -0.9169996976852417,
        -2.811006784439087,
        0.026935774832963943,
        -0.24045540392398834,
        -0.6198296546936035,
        0.09521766752004623,
        -0.18960414826869965,
        -0.11047107726335526,
        0.48761454224586487,
        -0.003288470907136798,
        0.05008770152926445,
        -0.2023545652627945,
        -0.13220682740211487,
        8.884653091430664,
        0.026300067082047462,
        -0.22748319804668427,
        0.018102053552865982,
        0.9876031279563904,
        -0.09730721265077591,
        2.069295644760132,
        1.2076112031936646,
        -2.4324569702148438,
        -0.07290050387382507,
        0.18840330839157104,
        0.7615606784820557,
        0.18258145451545715,
        -3.2864699363708496,
        0.11317669600248337,
        0.14161723852157593,
        0.344987690448761,
        0.5236033201217651,
        -0.17943371832370758,
        -0.002142534125596285,
        -3.522630453109741,
        -0.011335363611578941,
        2.123014450073242,
        -1.9142321348190308,
        0.06243490055203438,
        -0.40967074036598206,
        -2.438544273376465,
        1.8831831216812134,
        -0.23686161637306213,
        -0.10620149970054626,
        1.1519887447357178,
        -0.079537034034729,
        0.24714350700378418,
        0.07015744596719742,
        0.035215508192777634,
        -1.3930765390396118,
        0.017738865688443184,
        -0.006971797905862331,
        -0.3935662806034088,
        0.712141215801239,
        1.1533163785934448,
        0.2968921661376953,
        0.3535040616989136,
        -1.9378622770309448,
        -2.2497968673706055,
        -0.10092321783304214,
        -2.012920379638672,
        2.134551763534546,
        -4.017208099365234,
        -0.09277129173278809,
        0.17228175699710846,
        1.4403799772262573,
        0.028643641620874405,
        3.624837875366211,
        0.13821089267730713,
        -0.24055613577365875,
        -0.2391820251941681,
        0.5602190494537354,
        -0.2263568937778473,
        -0.02302759885787964,
        0.5870394706726074,
        0.32519471645355225,
        1.7273108959197998,
        -1.1581799983978271,
        0.16802716255187988,
        0.18940073251724243,
        1.9030088186264038,
        -2.2032923698425293,
        0.21294726431369781,
        -0.001601141644641757,
        0.5599203705787659,
        0.2673061192035675,
        -0.007345936726778746,
        -0.007430290337651968,
        -0.01101746316999197,
        0.06313081830739975,
        -0.039246682077646255,
        -0.039082810282707214,
        -0.28386643528938293,
        0.16382715106010437,
        -0.3925391137599945,
        0.22633808851242065,
        -0.5828106999397278,
        -0.3623155951499939,
        1.2782020568847656,
        0.032623857259750366,
        3.907316207885742,
        -2.1991260051727295,
        -1.9558358192443848,
        0.20274096727371216,
        0.6202904582023621,
        1.6714749336242676,
        0.04557573422789574,
        -4.682368755340576,
        -2.0136809325776994e-05,
        -0.07826294749975204,
        -0.37828442454338074,
        0.5501909852027893,
        0.678159773349762,
        0.02191905491054058,
        -4.761780261993408,
        0.4616292119026184,
        0.6370059847831726,
        -0.11954307556152344,
        0.11295770853757858,
        -0.6537706851959229,
        -5.299710273742676,
        -0.10456760972738266,
        0.048727259039878845,
        -0.13707567751407623,
        -0.11065951734781265,
        0.2587350010871887,
        -0.7469340562820435,
        -1.1717091798782349,
        -0.48809677362442017,
        -0.3476669490337372,
        -0.22214050590991974,
        0.43326225876808167,
        -0.10538342595100403,
        -0.1800524890422821,
        -0.6142297387123108,
        -0.00023072246403899044,
        0.24224327504634857,
        -1.697512149810791,
        0.20855377614498138,
        0.12611107528209686,
        -0.019158706068992615,
        0.522491991519928,
        1.0601707696914673,
        3.163667917251587,
        0.8573604822158813,
        -1.5411241054534912,
        0.5030971169471741,
        -0.16640730202198029,
        0.23132705688476562,
        0.6166070103645325,
        -2.2662436962127686,
        0.14876265823841095,
        2.77185320854187,
        0.20258094370365143,
        -0.5548787713050842,
        -0.38924849033355713,
        -0.6336971521377563,
        -0.5484645962715149,
        -0.08266112953424454,
        1.5863142013549805,
        -1.2795379161834717,
        -1.7371413707733154,
        -1.5260024070739746,
        0.041583262383937836,
        0.24702569842338562,
        -0.28931924700737,
        0.24479159712791443,
        0.350443959236145,
        0.0697379857301712,
        1.074469804763794,
        -0.02247503213584423,
        -0.04736463353037834,
        -0.21880371868610382,
        0.3132619559764862,
        -1.2018204927444458,
        -0.09392867982387543,
        -0.16212940216064453,
        -0.5145689249038696,
        -0.8263337016105652,
        -0.025880582630634308,
        1.0110372304916382,
        -0.9773030281066895,
        1.6258924007415771,
        -0.7077947854995728,
        -1.271419882774353,
        -4.164146900177002,
        0.046822723001241684,
        0.27169033885002136,
        0.06231848895549774,
        -0.08339854329824448,
        0.0062644085846841335,
        -0.2215319275856018,
        -0.6151517629623413,
        -0.39952024817466736,
        1.1899757385253906,
        -0.18341295421123505,
        -4.710608959197998,
        0.48895907402038574,
        0.07771194726228714,
        -0.30110228061676025,
        -0.9342507123947144,
        -1.1717031002044678,
        0.34172406792640686,
        0.031602852046489716,
        0.07908555865287781,
        -0.052138835191726685,
        0.1260078251361847,
        0.374289870262146,
        -0.40314164757728577,
        -0.17004889249801636,
        0.0224322360008955,
        -0.2368909865617752,
        -0.13281367719173431,
        -0.08103454113006592,
        -0.23872824013233185,
        0.03846759721636772,
        0.004275054205209017,
        -0.16073554754257202,
        0.17756780982017517,
        0.07527225464582443,
        -0.1843315064907074,
        0.07150883227586746,
        -0.1118534505367279,
        0.14383211731910706,
        0.2432684302330017,
        -0.2554897665977478,
        -0.2797434628009796,
        -0.30436739325523376,
        -0.17175377905368805,
        0.028787683695554733,
        0.05614762753248215,
        -0.0007161364192143083,
        -0.16761739552021027,
        0.022561563178896904,
        0.03822857141494751,
        0.13717664778232574,
        -0.2670168876647949,
        -0.00687030516564846,
        -0.2582014501094818,
        -0.0053269462659955025,
        0.06480731070041656,
        0.3111605644226074,
        0.2902427315711975,
        0.14254222810268402,
        0.7706579566001892,
        -0.8555771112442017,
        0.05867907404899597,
        -1.147672414779663,
        -0.06250935047864914,
        -1.2043616771697998,
        0.06542506814002991,
        0.12576934695243835,
        -0.17671094834804535,
        -0.3257603645324707,
        -1.0688245296478271,
        0.28576231002807617,
        -0.246393084526062,
        1.3080217838287354,
        2.125359058380127,
        0.0728321447968483,
        -1.9325770139694214,
        4.2792768478393555,
        1.4276440143585205,
        -0.23452027142047882,
        0.9138954281806946,
        1.5624947547912598,
        -0.33534181118011475,
        -0.5969064235687256,
        0.03471830114722252,
        0.5020487904548645,
        0.06067835912108421,
        -0.1073523536324501,
        -0.583304762840271,
        0.002347906120121479,
        -1.0717625617980957,
        0.39371728897094727,
        3.465296745300293,
        -2.6813628673553467,
        0.08064907789230347,
        -0.04961072653532028,
        -1.6832518577575684,
        1.9327424764633179,
        -0.9679948091506958,
        -0.15593869984149933,
        0.140058696269989,
        -2.252878189086914,
        0.05350928008556366,
        0.03156006336212158,
        -0.0047881812788546085,
        0.13999640941619873,
        -0.09651897102594376,
        -0.20070864260196686,
        0.11825640499591827,
        0.4232608675956726,
        1.3780542612075806,
        0.2126941829919815,
        -1.2623785734176636,
        2.1178231239318848,
        2.800520181655884,
        0.3168657422065735,
        0.6756573915481567,
        0.3471466600894928,
        -2.6715314388275146,
        0.7257179021835327,
        -0.38626736402511597,
        2.6070332527160645,
        -0.22212497889995575,
        -3.0891125202178955,
        -0.3198474943637848,
        0.07814649492502213,
        -0.19623233377933502,
        0.34227606654167175,
        -2.3448104858398438,
        -0.010807349346578121,
        -0.24923327565193176,
        0.4628484547138214,
        1.3049193620681763,
        -0.33320966362953186,
        -0.4221373498439789,
        -0.5605527758598328,
        -0.8848565220832825,
        1.9559096097946167,
        -0.7418709397315979,
        -0.27772462368011475,
        -1.4950112104415894,
        3.11051082611084,
        0.23564700782299042,
        -0.24278120696544647,
        0.11140678822994232,
        -0.05654206871986389,
        0.07497526705265045,
        -0.10851089656352997,
        0.7634419202804565,
        0.10749712586402893,
        0.02376597374677658,
        0.05808340385556221,
        -0.09888428449630737,
        1.0780563354492188,
        0.14087121188640594,
        -0.00046723400009796023,
        -0.4187805950641632,
        0.3384197950363159,
        5.215060234069824,
        0.5571389198303223,
        -0.26117077469825745,
        -0.6660454869270325,
        -0.019691526889801025,
        -0.22932478785514832,
        -0.04439356550574303,
        -0.08869938552379608,
        0.9212756752967834,
        1.3972529172897339,
        -1.97902512550354,
        -0.36817610263824463,
        -2.7416796684265137,
        -0.3411162793636322,
        -0.20689016580581665,
        -0.5893130898475647,
        -0.20790475606918335,
        -0.18891939520835876,
        -0.07842867076396942,
        3.7817211151123047,
        0.08864223212003708,
        0.13066144287586212,
        -0.2567795515060425,
        -0.47054702043533325,
        -0.10196880251169205,
        3.5164060592651367,
        -0.011431458406150341,
        3.994190216064453,
        0.009711244143545628,
        -0.06571664661169052,
        0.4334506690502167,
        -0.11945973336696625,
        0.17362554371356964,
        0.03828500956296921,
        -0.10256624221801758,
        -0.16461272537708282,
        -0.28032419085502625,
        -0.050158802419900894,
        -1.047055959701538,
        0.38734471797943115,
        -0.2876327931880951,
        0.19653382897377014,
        0.43017762899398804,
        -0.6413875222206116,
        -0.3187844157218933,
        0.13032980263233185,
        -0.025586577132344246,
        0.3486628830432892,
        -0.3815605044364929,
        -0.19406360387802124,
        1.1681594848632812,
        0.020179131999611855,
        0.7854461669921875,
        -0.4244404137134552,
        -0.012688091024756432,
        -0.7004910707473755,
        0.026857102289795876,
        0.14072860777378082,
        -0.9897034168243408,
        -4.052048683166504,
        6.812967300415039,
        -0.2724166214466095,
        -0.39124518632888794,
        0.8639957308769226,
        -0.15116973221302032,
        -0.017501967027783394,
        -0.14214006066322327,
        1.3790881633758545,
        0.4643622040748596,
        0.23047217726707458,
        -0.4613756537437439,
        -0.28970587253570557,
        -0.1800740361213684,
        0.41725268959999084,
        2.412989854812622,
        1.3634233474731445,
        0.812067985534668,
        0.2273450791835785,
        0.9210482835769653,
        1.1189374923706055,
        2.8255810737609863,
        1.2327700853347778,
        -0.07421480119228363,
        -0.7173091173171997,
        -0.11410496383905411,
        2.1261274814605713,
        -0.4841703772544861,
        0.057611700147390366,
        -0.671710729598999,
        -0.2684997022151947,
        0.5969578623771667,
        -0.13678966462612152,
        0.3041588366031647,
        0.04695931077003479,
        0.6693356037139893,
        -2.8067212104797363,
        -0.48514971137046814,
        -0.006447149440646172,
        0.500685453414917,
        -1.4991461038589478,
        0.06050712987780571,
        -0.02214820496737957,
        0.7024921178817749,
        0.25315189361572266,
        -0.09142433106899261,
        -1.5876741409301758,
        -0.08803922683000565,
        -1.9059925079345703,
        0.05115395784378052,
        0.1309925764799118,
        -0.4488694965839386,
        0.3799828588962555,
        0.3103398084640503,
        -0.03446671739220619,
        0.8839765191078186,
        0.030361633747816086,
        1.5027533769607544,
        -0.10872553288936615,
        0.16377748548984528,
        -1.30698823928833,
        -3.3846092224121094,
        -0.5131524205207825,
        -0.0078061167150735855,
        0.21550077199935913,
        -0.3193219006061554,
        -2.0991008281707764,
        0.2872934639453888,
        0.4506669342517853,
        -1.263291597366333,
        0.40880805253982544,
        1.1823707818984985,
        0.06792276352643967,
        -1.5700525045394897,
        0.4564809203147888,
        -1.369911789894104,
        -0.8985748291015625,
        0.012792905792593956,
        -0.1362808346748352,
        -0.30184656381607056,
        1.1646493673324585,
        -2.1052210330963135
      ]
    },
    {
      "activation": "rectified",
      "architecture": "dense",
      "bias": [
        -2.2114624977111816,
        -0.49213311076164246,
        -1.5528647899627686,
        0.09617443382740021,
        -0.7605796456336975,
        3.104243278503418,
        1.7084808349609375,
        -1.4585658311843872,
        -0.5254446268081665,
        -0.09146253019571304,
        -0.5153250098228455,
        1.529703140258789,
        1.7345635890960693,
        1.1006686687469482,
        -0.22948521375656128,
        1.7391759157180786
      ],
      "weights": [
        -0.11814168840646744,
        0.26756322383880615,
        0.2811979055404663,
        -0.6631698608398438,
        -0.3095133900642395,
        0.29551535844802856,
        -0.03854843229055405,
        -0.7803660035133362,
        -0.4181198179721832,
        0.17174719274044037,
        -0.2686680257320404,
        0.32553377747535706,
        0.43755146861076355,
        0.8176234364509583,
        0.3834957778453827,
        0.4921882152557373,
        -0.2141568958759308,
        0.24624893069267273,
        -0.03294253349304199,
        -0.3209688663482666,
        -0.16622020304203033,
        0.4163883626461029,
        -0.2088807225227356,
        -0.4478253722190857,
        -0.29068905115127563,
        0.23937736451625824,
        0.46758103370666504,
        -0.1656990796327591,
        0.29783061146736145,
        0.2604103982448578,
        -0.22244413197040558,
        -0.4034550189971924,
        0.32488781213760376,
        -0.04345963895320892,
        -0.03074307180941105,
        -0.4367365837097168,
        0.0009164336370304227,
        -0.11320805549621582,
        0.4183828830718994,
        0.02386423945426941,
        0.25966426730155945,
        0.17372047901153564,
        -0.33411112427711487,
        0.11968401819467545,
        -0.2202076017856598,
        -0.15494617819786072,
        0.17226925492286682,
        -0.00460412772372365,
        -0.6618900299072266,
        -0.0017416828777641058,
        -0.10607529431581497,
        -0.05184280127286911,
        -0.06632187217473984,
        -0.5053370594978333,
        -0.6634857654571533,
        0.06682118028402328,
        -0.33316120505332947,
        0.11507707834243774,
        0.33703312277793884,
        0.6922009587287903,
        -0.6790472269058228,
        -1.2702158689498901,
        0.24979861080646515,
        0.5920085906982422,
        -0.15422408282756805,
        -0.17804893851280212,
        0.0020341125782579184,
        0.2215443253517151,
        0.05825453996658325,
        -0.9837748408317566,
        0.5898529291152954,
        -1.990586519241333,
        -0.09480605274438858,
        -0.07197321951389313,
        0.15470635890960693,
        0.5145213603973389,
        0.02665974572300911,
        0.6331841349601746,
        0.6106768250465393,
        0.40638217329978943,
        -0.21479074656963348,
        0.04011789709329605,
        -0.17454837262630463,
        -0.6817638874053955,
        0.46341416239738464,
        -0.505167543888092,
        0.3406384587287903,
        -0.12407772988080978,
        -0.029197337105870247,
        -0.27936720848083496,
        0.08262147009372711,
        0.22661644220352173,
        0.23085446655750275,
        -0.07181256264448166,
        -0.16499634087085724,
        -0.48496684432029724,
        -0.8182408213615417,
        0.32759132981300354,
        -0.883371889591217,
        0.3376213610172272,
        0.3239977955818176,
        0.2570766806602478,
        0.5687056183815002,
        1.3391114473342896,
        0.15531466901302338,
        0.7142098546028137,
        0.04844377189874649,
        -0.710493266582489,
        -0.3041917383670807,
        0.24621747434139252,
        0.33962833881378174,
        0.09766453504562378,
        -0.36285367608070374,
        -0.5135731101036072,
        -0.6281956434249878,
        0.10872787237167358,
        0.08425046503543854,
        -0.1411449909210205,
        0.04883899539709091,
        0.04639584198594093,
        0.2774978578090668,
        -0.2860473096370697,
        -0.05517958104610443,
        0.0031512726563960314,
        -0.30460578203201294,
        -0.2565494477748871,
        -0.5170579552650452,
        -0.4707010090351105,
        0.3658813536167145,
        -0.12145911157131195,
        0.4402904510498047,
        -0.2218935787677765,
        0.025732222944498062,
        0.4037417769432068,
        0.06633038818836212,
        0.7703311443328857,
        -0.13477247953414917,
        -0.041591111570596695,
        0.03612113744020462,
        -0.18140649795532227,
        0.09902452677488327,
        0.28625234961509705,
        -0.12468907237052917,
        0.1298927217721939,
        0.09414589405059814,
        0.13940882682800293,
        -0.5100598335266113,
        0.02999131754040718,
        0.30308517813682556,
        0.5578553676605225,
        -0.47502651810646057,
        0.08074048906564713,
        -0.6423217058181763,
        0.14939871430397034,
        0.8140419721603394,
        0.003102060640230775,
        -0.4704412519931793,
        -0.6977731585502625,
        -0.35967183113098145,
        -0.11700928956270218,
        -0.2982982099056244,
        0.01778491772711277,
        -0.9615147709846497,
        -0.5355357527732849,
        -0.5159744024276733,
        -0.4200451672077179,
        -0.30023398995399475,
        0.14562194049358368,
        -0.7044826745986938,
        -0.45875781774520874,
        -0.1032618060708046,
        -0.70062655210495,
        -0.3919968008995056,
        0.19135497510433197,
        0.1501747965812683,
        0.09135453402996063,
        -0.36878594756126404,
        -0.6551671028137207,
        0.8237113356590271,
        -0.32722389698028564,
        -0.31698185205459595,
        0.49247926473617554,
        0.030946195125579834,
        -0.16318632662296295,
        0.2789922058582306,
        -0.23381753265857697,
        -0.15957559645175934,
        0.11107630282640457,
        0.03529614582657814,
        0.2837606370449066,
        -0.5101211667060852,
        -0.3560969829559326,
        -0.1370580643415451,
        0.12528598308563232,
        0.26780015230178833,
        0.1935792714357376,
        0.25704827904701233,
        -0.21500033140182495,
        0.2161293476819992,
        0.7822443842887878,
        -0.3396514058113098,
        -0.07179771363735199,
        0.870010256767273,
        -0.07464120537042618,
        -0.21838544309139252,
        -0.05691128224134445,
        -0.1171543076634407,
        -0.32364845275878906,
        -0.25555509328842163,
        -0.15776656568050385,
        0.3409633934497833,
        -0.031679049134254456,
        0.6574049592018127,
        -0.157523050904274,
        1.0979259014129639,
        0.41782087087631226,
        0.10484272241592407,
        -0.0867166593670845,
        0.04791182279586792,
        0.2938106656074524,
        -0.5096626877784729,
        0.060826510190963745,
        -1.0514127016067505,
        -0.16487504541873932,
        0.03379182890057564,
        0.32498231530189514,
        0.839832603931427,
        0.056524597108364105,
        -0.152487650513649,
        0.44080111384391785,
        0.013184539042413235,
        -0.9951213598251343,
        -1.3182615041732788,
        0.7684954404830933,
        0.21104644238948822,
        -0.03892241045832634,
        -0.209867462515831,
        -0.27225854992866516,
        0.3388332426548004,
        0.2533094882965088,
        -0.717121958732605,
        0.04949840158224106,
        0.10919491201639175,
        -0.8298312425613403,
        -0.13200643658638,
        -0.15384957194328308,
        -0.6560966968536377,
        -0.4154769778251648,
        -0.4049142897129059,
        0.2389487773180008,
        0.27416467666625977,
        0.5093913078308105,
        0.7571164965629578,
        0.3996100425720215,
        -0.15913125872612,
        0.23888809978961945,
        0.3323531448841095,
        -0.41176527738571167,
        0.04026214778423309,
        0.2621568441390991,
        -0.0045306868851184845,
        0.4689463675022125,
        0.31556209921836853,
        1.8250844478607178,
        0.06854292750358582,
        -0.2918285131454468,
        -0.5744828581809998,
        -0.20805701613426208,
        -0.0693245530128479,
        0.043571796268224716,
        -0.013418754562735558,
        -0.4337816834449768,
        -0.12481845170259476,
        -0.1209973618388176,
        -0.11927136033773422,
        -0.25251394510269165,
        0.10343160480260849,
        0.032054491341114044,
        -0.026895925402641296,
        0.051858458667993546,
        0.04970352724194527,
        -0.03553426265716553,
        0.3037460446357727,
        -0.24179470539093018,
        -0.9620468616485596,
        -1.0798754692077637,
        -0.301465779542923,
        0.05792807415127754,
        0.13707636296749115,
        0.7661309242248535,
        -1.0894324779510498,
        0.4603654742240906,
        -0.08982938528060913,
        -0.49154675006866455,
        -0.49888846278190613,
        -0.7656183242797852,
        0.07876980304718018,
        -1.2158581018447876,
        -0.7179994583129883,
        0.6227548122406006,
        0.1592024266719818,
        0.1971091330051422,
        -0.31225451827049255,
        -0.03116258978843689,
        -4.735003471374512,
        -0.6783238053321838,
        -0.21964463591575623,
        -0.8490147590637207,
        -0.9496541023254395,
        -0.7929028272628784,
        0.2836671769618988,
        -1.6077114343643188,
        -0.0961441621184349,
        -0.14791694283485413,
        0.6414954662322998,
        0.8387887477874756,
        0.2707270383834839,
        0.509072482585907,
        0.4249246418476105,
        -0.4531315267086029,
        -0.16953274607658386,
        0.056932609528303146,
        0.3184799551963806,
        1.0231907367706299,
        0.1614760011434555,
        0.8756647109985352,
        0.1858491599559784,
        -0.05316418781876564,
        -0.004498888738453388,
        0.267822802066803,
        0.2500765323638916,
        0.3178122639656067,
        -0.19444040954113007,
        0.07765527814626694,
        0.21271762251853943,
        -0.007890794426202774,
        0.6464806795120239,
        -0.3823665976524353,
        0.08071315288543701,
        -0.08701639622449875,
        -0.017819466069340706,
        -0.8052089214324951,
        -0.5442257523536682,
        0.15676899254322052,
        0.2965720593929291,
        0.30265432596206665,
        0.3653959631919861,
        -0.2288718968629837,
        -0.143440842628479,
        0.07030193507671356,
        0.3158227801322937,
        -0.5233783721923828,
        0.2079426348209381,
        -0.9410290718078613,
        -0.02521267905831337,
        -0.6056575179100037,
        -0.352014422416687,
        0.031587135046720505,
        -0.3455376923084259,
        1.3950527906417847,
        0.3485012650489807,
        0.09011315554380417,
        -0.029907386749982834,
        0.10520908981561661,
        -0.33851951360702515,
        -0.2946892976760864,
        -0.13727591931819916,
        0.07257046550512314,
        0.19722838699817657,
        -0.02521456405520439,
        -0.292039155960083,
        -0.39228227734565735,
        0.11270724982023239,
        -0.06176995113492012,
        0.4359164535999298,
        -0.5483970046043396,
        -0.3290937840938568,
        -0.07303273677825928,
        0.4645994305610657,
        0.4811358153820038,
        0.3062308430671692,
        -0.7458261847496033,
        -0.3037748634815216,
        0.18926173448562622,
        0.3275074362754822,
        0.21618400514125824,
        0.2236080765724182,
        -0.47464898228645325,
        -0.055346790701150894,
        0.2845018208026886,
        -0.03619403392076492,
        -0.27903497219085693,
        -0.13967393338680267,
        -0.02426748350262642,
        0.8701320886611938,
        -0.10844343155622482,
        0.16057884693145752,
        0.09350910037755966,
        -0.07556896656751633,
        -0.06843442469835281,
        0.02333837002515793,
        0.2563382387161255,
        -0.5979796648025513,
        -0.21022498607635498,
        0.7008261680603027,
        -0.35717326402664185,
        1.1294158697128296,
        0.01436652522534132,
        -0.23874086141586304,
        0.18590815365314484,
        -0.0026519254315644503,
        -0.0008363642846234143,
        -0.1451665610074997,
        0.44546443223953247,
        -0.17142316699028015,
        0.0018301747040823102,
        0.01212324295192957,
        -0.7964164018630981,
        0.5474122762680054,
        -0.4556378424167633,
        0.07132674753665924,
        0.24495451152324677,
        0.1957385241985321,
        1.5932565927505493,
        0.1090458557009697,
        0.04696287959814072,
        -0.17787162959575653,
        -0.03285444900393486,
        -0.07447533309459686,
        -0.05374152958393097,
        -0.19289423525333405,
        -0.007252044510096312,
        -0.020124636590480804,
        0.23355324566364288,
        -0.5959219932556152,
        -0.03452003747224808,
        0.6589157581329346,
        0.4955146908760071,
        -0.18700644373893738,
        0.5095228552818298,
        -0.33482035994529724,
        -0.2030482143163681,
        -0.37850573658943176,
        0.30436113476753235,
        -0.08288532495498657,
        0.33407917618751526,
        -0.06453504413366318,
        -0.5687620043754578,
        -0.44795528054237366,
        -0.1411830484867096,
        0.28603222966194153,
        0.7524258494377136,
        -1.0335297584533691,
        0.42084428668022156,
        0.6069604158401489,
        -0.36703255772590637,
        -0.35975247621536255,
        0.19100061058998108,
        -0.3597457706928253,
        0.08027570694684982,
        0.07582489401102066,
        -0.29485613107681274,
        0.43823155760765076,
        0.5226576924324036,
        -0.6353215575218201,
        -0.09113174676895142,
        -0.15409091114997864,
        -0.310703843832016,
        -1.1805360317230225,
        0.2696377635002136,
        -0.8903399705886841,
        0.7293574810028076,
        -1.0305578708648682,
        -0.025516605004668236,
        -0.27050742506980896,
        -0.4895237982273102,
        -3.3325610160827637,
        0.5598485469818115,
        0.27246594429016113,
        -0.30356937646865845,
        -0.033476121723651886,
        -0.5494275689125061,
        -0.11852964013814926,
        0.09564666450023651,
        0.3982039988040924,
        0.39382362365722656,
        0.014530730433762074,
        1.1555345058441162,
        0.2975323796272278,
        0.2992129325866699,
        -0.31418243050575256,
        -0.6614592671394348,
        -0.5288907289505005,
        -0.41214218735694885,
        -0.46618199348449707,
        -0.1694299876689911,
        0.5603914856910706,
        -0.0051332623697817326,
        0.1541203409433365,
        -0.10754385590553284,
        0.03202478960156441,
        0.6466237902641296,
        0.05263650044798851,
        0.10025772452354431,
        0.007657117675989866,
        0.013299754820764065,
        0.00552269397303462,
        0.4059083163738251,
        -0.15624713897705078,
        -0.2348894625902176,
        -0.1497906893491745,
        -0.12754549086093903
      ]
    },
    {
      "activation": "rectified",
      "architecture": "dense",
      "bias": [
        0.5999860763549805,
        -1.7470670938491821,
        -1.6310940980911255,
        -1.080704927444458,
        2.4395968914031982,
        0.5468446016311646,
        -0.12133284658193588,
        -0.7605012655258179,
        -0.8903623819351196,
        -0.14599129557609558,
        -1.4565290212631226,
        -1.0588490962982178,
        -2.174896001815796,
        0.29203367233276367,
        0.3969057500362396,
        0.06449871510267258
      ],
      "weights": [
        -0.1543755978345871,
        -0.06925953179597855,
        -0.36878085136413574,
        0.0850963369011879,
        0.04445197805762291,
        -0.41847407817840576,
        0.40918296575546265,
        -0.22171761095523834,
        0.2562413513660431,
        -0.7756176590919495,
        -0.2136320024728775,
        0.2662585377693176,
        -0.14817455410957336,
        0.8652855157852173,
        -0.8019458651542664,
        -0.446081280708313,
        0.44880473613739014,
        -0.8282464146614075,
        -0.09870059043169022,
        0.11966004967689514,
        -0.21329514682292938,
        -0.45647507905960083,
        0.13178658485412598,
        0.5457783341407776,
        -0.9177170991897583,
        0.8690772652626038,
        0.13424482941627502,
        -0.5416532158851624,
        0.24423497915267944,
        -0.36420825123786926,
        -0.19369344413280487,
        -0.39806047081947327,
        0.19250813126564026,
        -1.075846791267395,
        0.7489228844642639,
        -1.2631624937057495,
        0.20093509554862976,
        -0.22915427386760712,
        -0.33830592036247253,
        0.1932329386472702,
        -0.13811880350112915,
        1.3086501359939575,
        0.021655507385730743,
        -0.016627237200737,
        0.09934405237436295,
        0.007903611287474632,
        0.5196114778518677,
        -0.25171107053756714,
        -0.5030983090400696,
        0.27291423082351685,
        -0.35302284359931946,
        0.1489914208650589,
        -0.17672701179981232,
        0.5341616272926331,
        0.3459363579750061,
        -1.0277286767959595,
        0.4042952358722687,
        -0.7472683191299438,
        0.17886653542518616,
        0.20813727378845215,
        0.010628062300384045,
        -0.04729441925883293,
        -0.32687634229660034,
        -0.11937203258275986,
        0.06129444018006325,
        0.02930334396660328,
        -0.13359683752059937,
        0.004005860537290573,
        -0.0008648217190057039,
        -0.32554107904434204,
        0.18680088222026825,
        0.12098737806081772,
        0.013144767843186855,
        -0.23608164489269257,
        -0.3223346769809723,
        0.3494894504547119,
        0.6455733180046082,
        0.19796445965766907,
        -0.04681745171546936,
        0.06486831605434418,
        -0.038433436304330826,
        0.17679183185100555,
        -0.247308149933815,
        0.07863114774227142,
        0.6001696586608887,
        -0.2657144367694855,
        0.059203892946243286,
        0.07520934194326401,
        -0.19337300956249237,
        -0.7808169722557068,
        -0.30484798550605774,
        0.03243551030755043,
        0.12912864983081818,
        0.2533336579799652,
        -0.3927496671676636,
        0.19615286588668823,
        -0.2416101098060608,
        -0.10434821248054504,
        -0.07082606852054596,
        -0.2793201208114624,
        -0.019585372880101204,
        -0.1381930559873581,
        -0.17548519372940063,
        -0.15509569644927979,
        -0.05278170481324196,
        -0.1298297941684723,
        -0.0709347352385521,
        -0.34084126353263855,
        -0.0018051248043775558,
        -0.40937092900276184,
        -0.34159454703330994,
        -0.1207679957151413,
        -1.1196638345718384,
        -0.3199845254421234,
        0.11847005039453506,
        -1.0911242961883545,
        0.6430133581161499,
        0.36130863428115845,
        -0.18759344518184662,
        0.612421989440918,
        0.06160423159599304,
        0.22234411537647247,
        -0.07024938613176346,
        -0.34977734088897705,
        0.11643990129232407,
        -0.3214479684829712,
        -0.3667718470096588,
        -0.5514492392539978,
        0.4483143985271454,
        0.3397778272628784,
        0.2494681179523468,
        -2.0900609493255615,
        -0.5171721577644348,
        -0.24084855616092682,
        -1.2844700813293457,
        0.05359286814928055,
        0.7048267126083374,
        -0.11895855516195297,
        -0.3161088228225708,
        -3.053762197494507,
        -0.7521151304244995,
        -3.099057674407959,
        0.22944246232509613,
        -0.41907164454460144,
        0.2174765020608902,
        -0.05469324812293053,
        0.7984453439712524,
        -0.1263028383255005,
        0.11521638929843903,
        -0.4002416729927063,
        0.4834372103214264,
        0.15869158506393433,
        -0.5935860872268677,
        -0.23473164439201355,
        0.08839613199234009,
        -0.4738010764122009,
        0.06429879367351532,
        0.05054110288619995,
        0.07764709740877151,
        -0.20677974820137024,
        0.07249872386455536,
        -1.6820499897003174,
        0.6285240054130554,
        -1.1947214603424072,
        -0.9310621023178101,
        -0.016621289774775505,
        0.1281270682811737,
        0.5154619812965393,
        -2.3099544048309326,
        0.4930107593536377,
        0.06070505082607269,
        -0.43553271889686584,
        0.021612951532006264,
        -1.4108644723892212,
        0.117985799908638,
        -1.6165486574172974,
        -0.2538192570209503,
        -0.088480144739151,
        -0.20207998156547546,
        0.20687103271484375,
        -0.09888575971126556,
        -0.6949502825737,
        -0.27471309900283813,
        0.21395127475261688,
        -0.25909197330474854,
        -0.7096920013427734,
        -0.29294100403785706,
        0.12671735882759094,
        0.9326381087303162,
        -0.16745182871818542,
        0.15664348006248474,
        0.03205624967813492,
        0.5932044386863708,
        0.3423048257827759,
        -0.2108517289161682,
        -0.14779269695281982,
        0.1919926255941391,
        -0.5094106793403625,
        -0.4033277630805969,
        0.2692861557006836,
        0.2331169694662094,
        0.18762198090553284,
        -0.5607688426971436,
        -0.0007970774313434958,
        -0.20981773734092712,
        0.6062093377113342,
        0.36467280983924866,
        0.29553720355033875,
        -0.23035486042499542,
        0.47693192958831787,
        0.043716318905353546,
        0.10273958742618561,
        0.46273764967918396,
        -0.5010882616043091,
        -0.35611847043037415,
        0.13449719548225403,
        0.6845591068267822,
        -0.02872837334871292,
        -0.4889429211616516,
        0.4765586256980896,
        -0.06424236297607422,
        0.061736635863780975,
        -0.4629382789134979,
        -0.03463511914014816,
        0.01848173700273037,
        -0.20431312918663025,
        0.3050121068954468,
        0.13957864046096802,
        -0.5096665024757385,
        0.4285706877708435,
        -0.6064116358757019,
        -0.004549623467028141,
        -0.0299343541264534,
        0.6350195407867432,
        0.44334641098976135,
        -1.4695169925689697,
        -0.13664665818214417,
        -2.3069560527801514,
        0.518455982208252,
        -0.8654870986938477,
        -0.009917144663631916,
        -0.02020982652902603,
        -0.5052756667137146,
        0.28445473313331604,
        -0.3124762177467346,
        -0.18376456201076508,
        -0.12374889850616455,
        0.32623985409736633,
        0.3086015582084656,
        0.4637201130390167,
        0.1106179729104042,
        0.3255382180213928,
        0.22076918184757233,
        0.43941816687583923,
        -0.5410264730453491,
        0.41715773940086365
      ]
    },
    {
      "activation": "rectified",
      "architecture": "dense",
      "bias": [
        0.13209687173366547,
        -1.504012942314148,
        0.13699081540107727,
        0.3573911488056183,
        -0.9291872382164001,
        -0.4835880696773529,
        1.1310540437698364,
        -0.03771328926086426,
        0.6867127418518066,
        -0.1234494149684906,
        0.14670944213867188,
        -1.316887617111206,
        -0.7886372804641724,
        1.5347135066986084,
        -1.0723466873168945,
        0.22538572549819946
      ],
      "weights": [
        -0.31443294882774353,
        -0.07744189351797104,
        -0.09219041466712952,
        -0.06876862049102783,
        0.8604164123535156,
        -0.31117963790893555,
        0.05425455793738365,
        0.1787046641111374,
        0.17469656467437744,
        0.16366130113601685,
        0.17147722840309143,
        -0.0012193055590614676,
        -0.01895890198647976,
        0.02628176286816597,
        -0.08162863552570343,
        0.0357409343123436,
        0.27677229046821594,
        -0.04857117682695389,
        0.10788730531930923,
        0.02257728762924671,
        -0.27056875824928284,
        0.034599632024765015,
        -0.15140029788017273,
        0.25933754444122314,
        -0.6525042057037354,
        -0.46800824999809265,
        0.5342375040054321,
        -0.28921905159950256,
        0.5533232688903809,
        -0.45815324783325195,
        -0.8188212513923645,
        0.19362236559391022,
        -0.34591883420944214,
        -0.15564773976802826,
        0.16703452169895172,
        0.11756690591573715,
        -1.9763400554656982,
        -2.125741481781006,
        0.40990394353866577,
        0.4702285826206207,
        -0.5991473197937012,
        -0.9916303157806396,
        0.39596378803253174,
        0.02584766410291195,
        -1.3559049367904663,
        -0.5910604596138,
        -0.029427219182252884,
        -1.2251427173614502,
        -0.26576459407806396,
        0.1531650573015213,
        0.5425081253051758,
        0.07509806752204895,
        -0.29517415165901184,
        0.7702327370643616,
        -0.20659388601779938,
        0.42004281282424927,
        0.5734174251556396,
        -0.09716532379388809,
        -0.3798310160636902,
        -0.1207270696759224,
        -0.6387487649917603,
        0.07475607097148895,
        -0.41998863220214844,
        -0.24892014265060425,
        0.7368886470794678,
        -0.1603594571352005,
        0.11445869505405426,
        -0.7431041598320007,
        0.1266477257013321,
        -0.6101531982421875,
        -0.40997233986854553,
        -0.10656852275133133,
        0.15685422718524933,
        -0.1824178397655487,
        -0.31001055240631104,
        0.08330298960208893,
        0.13957850635051727,
        0.6783875823020935,
        -1.2517039775848389,
        0.19298036396503448,
        -1.0765259265899658,
        0.3381280303001404,
        0.2967621684074402,
        -0.04753696173429489,
        0.09769204258918762,
        -0.031890396028757095,
        -0.37185341119766235,
        0.7844757437705994,
        0.9459697604179382,
        0.3040730655193329,
        0.48811736702919006,
        0.06237438693642616,
        0.5231552124023438,
        -0.9893714785575867,
        0.3381146192550659,
        -0.6899846196174622,
        0.17078471183776855,
        -0.06419986486434937,
        -0.14037160575389862,
        -0.1791529506444931,
        0.34610965847969055,
        0.43633460998535156,
        0.039750829339027405,
        0.0026467679999768734,
        0.08177625387907028,
        -0.12865298986434937,
        -0.08003675937652588,
        -0.2904824912548065,
        0.15431784093379974,
        0.01895698718726635,
        -0.25419941544532776,
        0.12709864974021912,
        -0.337831974029541,
        0.17127148807048798,
        0.26020362973213196,
        -0.4727768003940582,
        0.3072804808616638,
        -0.31025761365890503,
        0.4211984872817993,
        0.5110778212547302,
        0.052315715700387955,
        0.32796037197113037,
        -0.03293127566576004,
        -0.10209920257329941,
        0.6860573291778564,
        -0.1416916400194168,
        -0.10644660145044327,
        -0.220709890127182,
        0.06576664000749588,
        -0.18370145559310913,
        -0.15355706214904785,
        -0.5174025297164917,
        0.11959431320428848,
        0.26185959577560425,
        -0.3234555721282959,
        -0.24942512810230255,
        -0.3216400742530823,
        0.06444117426872253,
        -0.17676860094070435,
        -0.32777494192123413,
        0.4616565704345703,
        0.4709364175796509,
        -0.2621597945690155,
        0.031499233096838,
        -0.4982527792453766,
        -0.009314406663179398,
        0.06936202198266983,
        -0.12184873223304749,
        -0.4309768080711365,
        0.12057463079690933,
        -0.2782074213027954,
        0.5623093247413635,
        0.31367605924606323,
        0.040699515491724014,
        -0.6926404237747192,
        -1.2995508909225464,
        0.3417792320251465,
        0.2749701142311096,
        -0.02004016935825348,
        0.1658535599708557,
        0.3393807113170624,
        -1.4107569456100464,
        -0.15879131853580475,
        0.3312929570674896,
        0.20863954722881317,
        0.20605725049972534,
        0.0750109925866127,
        -0.7962884306907654,
        0.22232428193092346,
        -0.7034489512443542,
        0.17840495705604553,
        0.021416671574115753,
        0.14631497859954834,
        0.10014525800943375,
        0.03312782570719719,
        0.2868301272392273,
        0.49461132287979126,
        0.025965360924601555,
        -0.08698337525129318,
        0.6815624237060547,
        -0.3268369138240814,
        0.19024810194969177,
        0.07242417335510254,
        -0.19399958848953247,
        0.13090592622756958,
        0.11984957754611969,
        0.44564372301101685,
        0.5416746735572815,
        -0.2175881564617157,
        -0.018697276711463928,
        -0.3384898900985718,
        -0.017821678891777992,
        -3.5844483375549316,
        -0.049966853111982346,
        0.042795442044734955,
        -0.932182252407074,
        -0.8718451261520386,
        -0.43913325667381287,
        -0.2703116238117218,
        0.5967877507209778,
        0.5052297711372375,
        0.034988440573215485,
        0.7604602575302124,
        -1.1838475465774536,
        0.5472005605697632,
        0.17351391911506653,
        -0.043122854083776474,
        -0.01969171315431595,
        0.42360720038414,
        -0.13752500712871552,
        -0.01378916297107935,
        -0.5717408061027527,
        -0.027139952406287193,
        0.34227311611175537,
        0.22445525228977203,
        -0.8268789052963257,
        -0.7584736347198486,
        0.13147947192192078,
        -0.2496052235364914,
        0.6582779288291931,
        -0.1746019423007965,
        -0.010469578206539154,
        -0.9795559644699097,
        -0.08730209618806839,
        -0.24375487864017487,
        -0.10650894045829773,
        0.4890502691268921,
        -0.7534351348876953,
        -0.10903440415859222,
        0.3739204704761505,
        -0.26356691122055054,
        0.20151060819625854,
        -0.5673338770866394,
        0.012419812381267548,
        -0.2098313570022583,
        0.5534123182296753,
        0.08490334451198578,
        -0.12077436596155167,
        -0.7378960847854614,
        -0.3833320438861847,
        0.6111834645271301,
        -0.18902981281280518,
        -0.7165758013725281,
        0.08607703447341919,
        0.021486306563019753,
        0.059463564306497574,
        -0.296611487865448,
        -0.04057547450065613,
        -0.23073522746562958,
        0.02251063659787178,
        -0.05556061118841171,
        0.25815632939338684,
        -0.23307472467422485,
        -0.30676203966140747,
        -1.2378854751586914,
        0.17872466146945953
      ]
    },
    {
      "activation": "rectified",
      "architecture": "dense",
      "bias": [
        -0.8591997623443604,
        -0.8141190409660339,
        -0.2935982644557953,
        0.20765618979930878,
        -0.23613129556179047,
        -0.3269769251346588,
        0.26893576979637146,
        -0.47903525829315186,
        -0.7558206915855408,
        -0.9220442175865173,
        0.5657987594604492,
        -1.0409821271896362,
        -0.4042450487613678,
        0.2198876291513443,
        0.2530435621738434,
        -1.336300015449524
      ],
      "weights": [
        0.14758338034152985,
        0.44055476784706116,
        0.5103505253791809,
        0.19459673762321472,
        -1.625962734222412,
        -0.1836816966533661,
        -0.42853984236717224,
        0.5792527198791504,
        -0.16789840161800385,
        0.08496277779340744,
        -0.8190765976905823,
        -0.07857818901538849,
        0.8419817686080933,
        -0.23322731256484985,
        0.4398212134838104,
        -0.32330378890037537,
        -0.34205275774002075,
        0.5447916984558105,
        -0.4775192141532898,
        0.568908154964447,
        -0.09610076993703842,
        -0.06144505739212036,
        -0.20887118577957153,
        0.02491854690015316,
        0.6476176977157593,
        0.18624095618724823,
        0.09709296375513077,
        -0.04477874934673309,
        0.22039872407913208,
        0.13183362782001495,
        -0.09999050945043564,
        0.013924880884587765,
        -1.1029717922210693,
        -1.6846532821655273,
        -0.09098245948553085,
        -0.17411141097545624,
        -0.876792848110199,
        0.48534220457077026,
        -1.2167285680770874,
        -0.449017733335495,
        -1.8729223012924194,
        -0.1121566966176033,
        -0.22808341681957245,
        -0.49685215950012207,
        -0.12718002498149872,
        -0.8146489262580872,
        -1.8984843492507935,
        -1.2607148885726929,
        -0.9727157354354858,
        0.24590328335762024,
        -0.5987098217010498,
        -0.05112849175930023,
        0.5678299069404602,
        0.055351290851831436,
        -0.28738999366760254,
        0.05511069670319557,
        0.10501071065664291,
        0.4988040626049042,
        0.33312657475471497,
        -0.30939528346061707,
        0.31307709217071533,
        -0.5439510345458984,
        -0.16012658178806305,
        0.07071707397699356,
        0.3316742777824402,
        0.29094046354293823,
        0.35105228424072266,
        0.051024727523326874,
        0.10632102936506271,
        -0.08161460608243942,
        -0.847236692905426,
        -0.007843831554055214,
        0.37210649251937866,
        -0.20819950103759766,
        0.26837942004203796,
        -0.43377628922462463,
        0.03781474381685257,
        -0.14820174872875214,
        0.048121608793735504,
        0.46497586369514465,
        0.19794529676437378,
        0.12229857593774796,
        -0.2814409136772156,
        0.6990086436271667,
        -0.28950753808021545,
        0.747729480266571,
        -0.22407379746437073,
        -0.1400722861289978,
        0.22068700194358826,
        -0.16105405986309052,
        -0.7297891974449158,
        -0.7753781080245972,
        0.32679277658462524,
        -0.22974734008312225,
        0.27073320746421814,
        -0.5497662425041199,
        0.044796090573072433,
        0.09411518275737762,
        -0.37239760160446167,
        0.42962849140167236,
        0.29561546444892883,
        -0.13466298580169678,
        0.6225793957710266,
        0.49770841002464294,
        0.26328739523887634,
        0.2090066820383072,
        -0.13502542674541473,
        -0.1794895976781845,
        -0.09272859245538712,
        0.0012680247891694307,
        0.3060600161552429,
        -0.2314436435699463,
        0.16948366165161133,
        -0.02368198335170746,
        0.6876918077468872,
        -0.07179062068462372,
        0.044442079961299896,
        0.15661363303661346,
        -0.4908660650253296,
        -0.4096389710903168,
        -0.03627371788024902,
        0.06947635859251022,
        0.38780319690704346,
        0.2806931138038635,
        -0.14414048194885254,
        -1.215649962425232,
        -2.1358628273010254,
        -0.3491838872432709,
        -0.6024315357208252,
        -0.01117655448615551,
        0.8744773268699646,
        -0.05203476548194885,
        -0.2104453146457672,
        -0.6356831789016724,
        -0.09317948669195175,
        0.43345722556114197,
        -0.16354608535766602,
        -0.4522733986377716,
        0.051983173936605453,
        0.5579478740692139,
        0.5024492144584656,
        0.4040673077106476,
        -0.09351672232151031,
        -0.3188166618347168,
        -0.32692286372184753,
        0.40259432792663574,
        -0.5240376591682434,
        0.35437390208244324,
        -1.3535698652267456,
        0.5783747434616089,
        -0.2575521469116211,
        -0.05142709240317345,
        -0.34800297021865845,
        -0.048140980303287506,
        -0.4292859137058258,
        -0.5943275690078735,
        0.4600658118724823,
        -1.2628425359725952,
        0.20574818551540375,
        -1.3723514080047607,
        -0.23585690557956696,
        0.3136962056159973,
        0.38939496874809265,
        0.1708105504512787,
        0.5140283703804016,
        -0.619813084602356,
        0.20791210234165192,
        -0.573563277721405,
        0.26543915271759033,
        0.15224356949329376,
        0.30570703744888306,
        0.10780573636293411,
        -0.3619304597377777,
        -0.06722075492143631,
        -0.5012294054031372,
        -0.07871007919311523,
        0.62107253074646,
        -0.14922204613685608,
        -0.4633217751979828,
        0.15250903367996216,
        -0.54735267162323,
        0.10418019443750381,
        -0.04583575949072838,
        -0.039365656673908234,
        -0.3954249322414398,
        -1.084394097328186,
        -0.18887624144554138,
        0.24281053245067596,
        0.16753891110420227,
        -0.46235010027885437,
        -0.08291824162006378,
        0.4641803503036499,
        0.13065023720264435,
        -0.11602799594402313,
        0.3187181353569031,
        -0.1823415905237198,
        -0.21826252341270447,
        0.08416902273893356,
        -0.16807405650615692,
        -0.28690776228904724,
        0.13531014323234558,
        -0.07466129213571548,
        -0.09538817405700684,
        0.21588104963302612,
        -0.13125796616077423,
        0.6209738850593567,
        0.2912076413631439,
        -0.09932583570480347,
        0.1265759915113449,
        -0.3543355464935303,
        -1.027479648590088,
        0.1907721608877182,
        -0.40242499113082886,
        0.13291557133197784,
        0.06075909733772278,
        0.5505836606025696,
        -0.18981772661209106,
        -0.8008756041526794,
        -0.8293574452400208,
        -0.08897633850574493,
        -0.3571076989173889,
        0.3653031587600708,
        0.12754826247692108,
        -0.2171393185853958,
        0.401540070772171,
        0.043378908187150955,
        -0.2764051556587219,
        0.15509340167045593,
        0.3651977479457855,
        -0.3605220913887024,
        0.39066994190216064,
        -0.2289630025625229,
        0.18650181591510773,
        0.0050068385899066925,
        0.280897319316864,
        0.3083627223968506,
        -0.380892813205719,
        0.33073413372039795,
        0.03752002492547035,
        0.38696417212486267,
        -0.033086612820625305,
        0.7698521018028259,
        -0.7077204585075378,
        0.4941154718399048,
        0.07726415246725082,
        0.15538132190704346,
        0.23761862516403198,
        -0.032393861562013626,
        -0.552657961845398,
        0.12519410252571106,
        0.5166165828704834,
        0.0452846959233284,
        0.21966882050037384,
        -0.20895692706108093,
        -0.4524013102054596,
        0.001917279209010303
      ]
    },
    {
      "activation": "rectified",
      "architecture": "dense",
      "bias": [
        0.6176027059555054,
        0.28279611468315125,
        0.5526071786880493,
        -0.1147499531507492,
        0.19962282478809357,
        -0.1936969757080078,
        0.36513805389404297,
        -0.4523729681968689,
        0.08648312836885452,
        -0.07299942523241043,
        -0.5177217721939087,
        0.08610066771507263,
        -0.11454091966152191,
        -0.6476760506629944,
        -0.33902084827423096,
        -0.06820794194936752
      ],
      "weights": [
        -0.09546748548746109,
        0.6289145350456238,
        -0.29748427867889404,
        -0.10139520466327667,
        0.47980886697769165,
        -0.12454072386026382,
        0.23711703717708588,
        -0.40801501274108887,
        -0.1384551227092743,
        0.11082959175109863,
        0.34079688787460327,
        -0.38595715165138245,
        -0.222762793302536,
        -0.1664499193429947,
        0.3910564184188843,
        0.3436708450317383,
        -0.16268518567085266,
        0.11778980493545532,
        0.4968065321445465,
        -0.5589033961296082,
        0.0012616210151463747,
        -0.10597353428602219,
        0.05963073670864105,
        -0.5695192217826843,
        0.09746184945106506,
        -0.16901114583015442,
        -0.3256167471408844,
        -0.20763316750526428,
        -0.05572570115327835,
        0.375000536441803,
        0.32271385192871094,
        -0.2935768663883209,
        -0.02058388851583004,
        0.3466910719871521,
        -0.34919214248657227,
        0.20324929058551788,
        -0.054503802210092545,
        0.21035513281822205,
        0.23835931718349457,
        -0.6716312170028687,
        -0.21014311909675598,
        -0.019147727638483047,
        -0.2266664206981659,
        -0.49618759751319885,
        -0.344830721616745,
        -0.07276696711778641,
        -0.2261415272951126,
        0.13724590837955475,
        0.38694706559181213,
        -0.2737176716327667,
        0.6036457419395447,
        -0.12074331939220428,
        0.08543244749307632,
        -0.026318615302443504,
        -0.2125462293624878,
        0.2016724944114685,
        0.7453216314315796,
        -0.4374074935913086,
        0.22597509622573853,
        0.5427321195602417,
        0.2425849735736847,
        -0.2006717324256897,
        0.13134828209877014,
        0.24622377753257751,
        0.2455073744058609,
        -0.05009321868419647,
        0.2451128512620926,
        0.7151972055435181,
        -0.5522743463516235,
        0.4598771929740906,
        -0.22671572864055634,
        0.4380207359790802,
        0.5837054252624512,
        0.1264360398054123,
        0.2807750403881073,
        -0.5298385620117188,
        -0.699295163154602,
        0.018192511051893234,
        -0.26367151737213135,
        0.3677351474761963,
        -0.25293830037117004,
        -0.3888298571109772,
        -0.24435670673847198,
        0.005435056984424591,
        0.4372907876968384,
        -0.3224148154258728,
        0.3211553394794464,
        0.24302038550376892,
        0.2664508819580078,
        -0.028162185102701187,
        0.3660733103752136,
        0.0568976029753685,
        -0.19432954490184784,
        -0.2891567051410675,
        -0.03345535323023796,
        0.47139713168144226,
        0.2951776385307312,
        0.34305641055107117,
        -0.6209094524383545,
        -0.4960775077342987,
        -0.09290595352649689,
        0.355407178401947,
        -0.2837303578853607,
        0.25473618507385254,
        -0.004220571368932724,
        -0.22269783914089203,
        -0.5604659914970398,
        0.3285330832004547,
        0.1331133395433426,
        0.6328228712081909,
        -0.1130269318819046,
        -0.2263210266828537,
        -0.048362068831920624,
        0.6087297201156616,
        -0.8926966786384583,
        -0.11606668680906296,
        -0.06659731268882751,
        0.2935112416744232,
        -0.5675329566001892,
        -0.7019218802452087,
        0.1296883225440979,
        -0.16827274858951569,
        0.0410761721432209,
        -0.2186376452445984,
        0.028026588261127472,
        0.14132823050022125,
        0.11806316673755646,
        -0.3181287348270416,
        -0.4434216618537903,
        0.017929807305336,
        -0.1450340747833252,
        -0.19802020490169525,
        -0.048500657081604004,
        -0.19164255261421204,
        0.1540234237909317,
        -0.5837394595146179,
        0.4094068109989166,
        -0.36343783140182495,
        0.17643602192401886,
        0.2967359721660614,
        0.6826395392417908,
        0.052594851702451706,
        -0.9281195402145386,
        0.10641168057918549,
        0.5811204314231873,
        0.18477950990200043,
        0.44621527194976807,
        -0.4220832884311676,
        -0.35161900520324707,
        -1.1380482912063599,
        0.131995290517807,
        -0.20880524814128876,
        0.4339818060398102,
        0.3359919488430023,
        -0.8635216355323792,
        -0.17935849726200104,
        -0.32300853729248047,
        0.26499438285827637,
        -0.36719679832458496,
        -0.1007751002907753,
        0.041633762419223785,
        0.1432315856218338,
        0.17381393909454346,
        -0.04056404531002045,
        -0.8306027054786682,
        0.5390141606330872,
        -0.16897842288017273,
        -0.1205979436635971,
        1.0787619352340698,
        0.6373571753501892,
        -0.410612553358078,
        0.3744400441646576,
        -0.04809004068374634,
        0.19389238953590393,
        -0.7624274492263794,
        0.5883821845054626,
        -0.08786780387163162,
        -0.1881965696811676,
        0.040441203862428665,
        -0.2167011797428131,
        0.36049357056617737,
        -0.15213747322559357,
        0.04903696849942207,
        -0.38862812519073486,
        0.3695940673351288,
        -0.16276085376739502,
        -0.09274876862764359,
        0.303839772939682,
        0.07864850759506226,
        -0.05034719407558441,
        0.5643590688705444,
        0.05065608769655228,
        -0.6519810557365417,
        -0.08014076948165894,
        -0.20372913777828217,
        -0.2102421373128891,
        0.6146833300590515,
        -0.07802997529506683,
        0.22618556022644043,
        -0.2114015370607376,
        0.25109580159187317,
        -0.4642059803009033,
        0.34319832921028137,
        0.38515689969062805,
        0.4967527687549591,
        -0.2700319290161133,
        -1.4216861724853516,
        0.28983789682388306,
        -0.07159768044948578,
        0.4964018762111664,
        -0.2018241435289383,
        0.280591756105423,
        -0.3594777584075928,
        0.08099779486656189,
        -1.1467686891555786,
        0.2983493506908417,
        0.34563198685646057,
        -0.22389264404773712,
        -0.11934421956539154,
        0.15956050157546997,
        -0.23824015259742737,
        0.10173463076353073,
        0.22939956188201904,
        -0.17545299232006073,
        -0.20602752268314362,
        -0.27664914727211,
        0.26708054542541504,
        -0.6862069964408875,
        0.009592348709702492,
        -0.10706517100334167,
        -0.6696054339408875,
        0.6661829352378845,
        0.46058788895606995,
        0.04637429490685463,
        -0.042577825486660004,
        -0.23315949738025665,
        0.2782895267009735,
        0.16730664670467377,
        -0.2501825988292694,
        -0.012257901951670647,
        -0.01776178926229477,
        -0.03621767833828926,
        -0.5706997513771057,
        -0.15601088106632233,
        0.43239572644233704,
        0.35276684165000916,
        0.7550433874130249,
        -0.13873659074306488,
        0.16599050164222717,
        0.06723272800445557,
        -0.27185073494911194,
        0.1426359862089157,
        0.4192080497741699,
        0.15977820754051208,
        -0.17772524058818817,
        0.11261209845542908
      ]
    },
    {
      "activation": "rectified",
      "architecture": "dense",
      "bias": [
        0.23643618822097778,
        -0.1460430771112442,
        -0.17203661799430847,
        -0.22006067633628845,
        0.13347364962100983,
        0.2906864285469055,
        0.4344150722026825,
        0.33759599924087524,
        -0.05572037398815155,
        -0.4668058454990387,
        0.054882124066352844,
        -1.052939534187317,
        -0.024119488894939423,
        -0.37443676590919495,
        -0.05282125622034073,
        -0.06720305234193802
      ],
      "weights": [
        -0.561454713344574,
        -0.6287050843238831,
        -0.38836437463760376,
        0.221836119890213,
        -0.47226643562316895,
        -0.3848903775215149,
        -0.5441597700119019,
        0.47624117136001587,
        -0.09424851834774017,
        -0.1403912603855133,
        0.089449942111969,
        0.17808426916599274,
        0.13755595684051514,
        -0.7551660537719727,
        0.15648972988128662,
        0.3545128405094147,
        -0.4385566711425781,
        -0.33546897768974304,
        -0.3287031948566437,
        0.2522292733192444,
        -0.25183627009391785,
        0.6064091324806213,
        -0.5728164315223694,
        -0.04410237446427345,
        -0.31656569242477417,
        0.03930080309510231,
        0.26311126351356506,
        0.08034352213144302,
        0.09487632662057877,
        0.3238660395145416,
        0.2785014510154724,
        -0.4030520021915436,
        0.03665969520807266,
        0.6401140093803406,
        -0.20674799382686615,
        0.5155068039894104,
        -0.24704515933990479,
        0.25701749324798584,
        -0.1858600527048111,
        -0.04943247511982918,
        0.2896482050418854,
        -0.17068997025489807,
        -0.14089824259281158,
        -1.2466362714767456,
        0.17778100073337555,
        0.10862594842910767,
        -0.35265690088272095,
        -0.04406824707984924,
        0.14165279269218445,
        -0.15438030660152435,
        -0.07850838452577591,
        0.09380903840065002,
        0.7399992942810059,
        0.2842114567756653,
        -0.1418057084083557,
        0.24860776960849762,
        0.05872432142496109,
        0.1810237616300583,
        -0.2962205410003662,
        -0.2428678572177887,
        0.0798625722527504,
        0.061381395906209946,
        -0.04734806343913078,
        -0.14741985499858856,
        -1.4717707633972168,
        0.2520908713340759,
        0.6655301451683044,
        -0.33244314789772034,
        0.04047223553061485,
        0.5230386257171631,
        -0.2125226855278015,
        0.7947784662246704,
        -0.484225332736969,
        0.30262207984924316,
        -0.12496501207351685,
        0.27516061067581177,
        0.49141770601272583,
        -0.09995174407958984,
        -0.38607487082481384,
        -0.12535600364208221,
        -0.05955958738923073,
        0.22390049695968628,
        -0.08964600414037704,
        -0.022835029289126396,
        0.10389748960733414,
        -0.033471494913101196,
        0.15123701095581055,
        0.5022978782653809,
        0.14903448522090912,
        0.21956947445869446,
        -0.15149244666099548,
        0.09514143317937851,
        -0.23507176339626312,
        -0.06615794450044632,
        -0.01969864033162594,
        0.656930685043335,
        -0.07762925326824188,
        -0.32510876655578613,
        -0.2959232032299042,
        0.4714547395706177,
        0.835307240486145,
        0.20253726840019226,
        0.41818609833717346,
        -1.3561958074569702,
        0.17446476221084595,
        -0.02925153262913227,
        -0.8622382879257202,
        -0.15041090548038483,
        -0.34459856152534485,
        -0.3294471502304077,
        0.26572728157043457,
        -0.15008428692817688,
        0.5171731114387512,
        -0.16759425401687622,
        0.16251549124717712,
        -0.15501193702220917,
        0.0044854446314275265,
        0.08973582834005356,
        -0.21965491771697998,
        0.012024767696857452,
        0.004254866391420364,
        -0.049785956740379333,
        -0.023939747363328934,
        -0.33061251044273376,
        0.19282852113246918,
        0.4379504919052124,
        -0.10211366415023804,
        0.1534998118877411,
        -0.13138379156589508,
        -0.6872820258140564,
        -0.002476015128195286,
        -0.19089975953102112,
        -0.15476736426353455,
        -0.08587558567523956,
        -0.05744147673249245,
        -0.1442379504442215,
        -0.23758642375469208,
        0.22072388231754303,
        -0.12741155922412872,
        0.47893449664115906,
        0.609168291091919,
        0.5583429932594299,
        0.4159207046031952,
        -0.008109602145850658,
        -0.4326356053352356,
        -0.032420918345451355,
        0.1604735106229782,
        -0.22651717066764832,
        0.054453447461128235,
        0.9721099734306335,
        -0.19375887513160706,
        0.47443240880966187,
        -0.3302029073238373,
        0.1335047334432602,
        -0.0844423696398735,
        0.08067958801984787,
        -0.36650747060775757,
        -0.8557819724082947,
        -0.02570277452468872,
        0.02578946202993393,
        -0.006395863369107246,
        -0.10799268633127213,
        -0.3016514480113983,
        -0.06038222834467888,
        -0.6454575657844543,
        -0.08598631620407104,
        -0.4751617908477783,
        0.4882642328739166,
        0.10651309788227081,
        -0.12250136584043503,
        0.3366541564464569,
        0.004476303234696388,
        0.19521543383598328,
        -0.22200360894203186,
        -0.31152787804603577,
        -0.4281737506389618,
        -0.613766074180603,
        -0.8832429051399231,
        -0.7153763771057129,
        0.3001297414302826,
        0.3091002106666565,
        -0.7022927403450012,
        -0.2737828493118286,
        0.052010487765073776,
        0.22958222031593323,
        -0.04700952023267746,
        0.04780596122145653,
        -0.5357819199562073,
        0.05095607042312622,
        -0.10943152755498886,
        0.4966762661933899,
        -0.3763519823551178,
        0.31029921770095825,
        0.1754131019115448,
        -0.2663570046424866,
        0.19139452278614044,
        -0.0894366055727005,
        0.1877507120370865,
        -0.2622656226158142,
        0.31821903586387634,
        0.3905874788761139,
        -0.07748698443174362,
        -0.3658974766731262,
        0.571446418762207,
        0.764263391494751,
        -0.04026462510228157,
        -0.22172857820987701,
        -0.07827159762382507,
        -0.2591695785522461,
        -0.303707093000412,
        -0.006253774743527174,
        0.1414048969745636,
        0.3262139558792114,
        -0.5147682428359985,
        0.05097968876361847,
        -0.265264630317688,
        -0.5272157192230225,
        1.1215853691101074,
        0.7821542024612427,
        -0.6751282215118408,
        -1.1780256032943726,
        -0.7912467122077942,
        -0.029096342623233795,
        0.3124527335166931,
        -0.04254850372672081,
        0.6414852738380432,
        0.5655342936515808,
        -0.31879138946533203,
        -0.2548072934150696,
        -0.05291025713086128,
        0.3953026235103607,
        0.08206021785736084,
        0.6117320656776428,
        0.1401664912700653,
        0.2048109769821167,
        -0.04171820729970932,
        -0.09392213076353073,
        0.09692434221506119,
        -0.07066590338945389,
        -1.0317784547805786,
        -0.6857673525810242,
        0.27083298563957214,
        -0.5416297316551208,
        0.3459262251853943,
        -0.18278926610946655,
        -0.3164620101451874,
        0.28938770294189453,
        -0.4558725953102112,
        0.26095718145370483,
        0.010174352675676346,
        0.22583554685115814,
        0.45319652557373047,
        -0.04245668277144432,
        -0.20135636627674103,
        0.21841812133789062,
        -0.2621122896671295
      ]
    },
    {
      "activation": "rectified",
      "architecture": "dense",
      "bias": [
        -0.2549978494644165,
        -0.43342697620391846,
        0.09556378424167633,
        -0.44783490896224976,
        -0.33164864778518677,
        0.3234134316444397,
        0.13186216354370117,
        0.3000774681568146,
        -0.026644250378012657,
        0.19273699820041656,
        -0.22923965752124786,
        -0.4069446325302124,
        0.20536810159683228,
        -0.2928534150123596,
        0.3718825876712799,
        -0.7131071090698242
      ],
      "weights": [
        0.6872531771659851,
        -0.7778258919715881,
        0.10425899177789688,
        -0.5024200677871704,
        -0.36697253584861755,
        -0.17129383981227875,
        -0.8432791233062744,
        0.04879142716526985,
        0.43192705512046814,
        0.13791699707508087,
        -0.3036905825138092,
        -0.5660548806190491,
        -0.11859672516584396,
        -0.10961545258760452,
        -0.6568788290023804,
        -0.3837781846523285,
        0.3866982161998749,
        -0.3231942057609558,
        -0.18472705781459808,
        0.19235005974769592,
        -0.01606568694114685,
        0.3875972032546997,
        0.3066379725933075,
        -0.10173951089382172,
        -0.1678098887205124,
        -0.26058700680732727,
        -0.2601226568222046,
        -0.5911872982978821,
        -0.44041159749031067,
        0.2697649300098419,
        0.24194593727588654,
        0.07966496050357819,
        0.30813756585121155,
        0.12377791851758957,
        -0.1255291998386383,
        0.10536119341850281,
        0.9849749803543091,
        -0.33894968032836914,
        0.19058012962341309,
        0.4170796573162079,
        -0.13200883567333221,
        0.2573974132537842,
        0.065555140376091,
        0.19176346063613892,
        0.1254473477602005,
        -0.07335395365953445,
        -0.36930546164512634,
        -0.21624548733234406,
        -0.5552811622619629,
        -0.229035422205925,
        0.2607761323451996,
        -0.24397648870944977,
        0.26556462049484253,
        -0.507929801940918,
        -0.03258886560797691,
        0.09687549620866776,
        0.692840039730072,
        0.12705446779727936,
        -0.13932955265045166,
        0.49216604232788086,
        -0.6475586891174316,
        -0.1683710366487503,
        0.2971227467060089,
        -0.22748404741287231,
        0.07690028846263885,
        0.057481393218040466,
        0.044605549424886703,
        -0.3820177912712097,
        0.17697453498840332,
        0.44733840227127075,
        -0.1838066577911377,
        0.5334742665290833,
        0.1708984076976776,
        0.547753632068634,
        -0.11773241311311722,
        0.32749348878860474,
        0.13501456379890442,
        -0.023665666580200195,
        0.7145366668701172,
        -0.39880725741386414,
        -0.43067213892936707,
        -0.3965214490890503,
        0.4507167935371399,
        -0.231919527053833,
        -0.1458216905593872,
        0.1981177181005478,
        -0.2214013785123825,
