{
  "defaults": {},
  "inputs": [
    {
      "name": "jet3_pt",
      "offset": 0,
      "scale": 1
    },
    {
      "name": "jet3_eta",
      "offset": 0,
      "scale": 1
    },
    {
      "name": "lep1_eta",
      "offset": 0,
      "scale": 1
    },
    {
      "name": "jet2_pt",
      "offset": 0,
      "scale": 1
    },
    {
      "name": "jet1_pt",
      "offset": 0,
      "scale": 1
    },
    {
      "name": "jetFwd1_eta",
      "offset": 0,
      "scale": 1
    },
    {
      "name": "mT_lep1",
      "offset": 0,
      "scale": 1
    },
    {
      "name": "mT_lep2",
      "offset": 0,
      "scale": 1
    },
    {
      "name": "jet4_phi",
      "offset": 0,
      "scale": 1
    },
    {
      "name": "lep2_conePt",
      "offset": 0,
      "scale": 1
    },
    {
      "name": "hadTop_BDT",
      "offset": 0,
      "scale": 1
    },
    {
      "name": "jet1_phi",
      "offset": 0,
      "scale": 1
    },
    {
      "name": "jet2_eta",
      "offset": 0,
      "scale": 1
    },
    {
      "name": "n_presel_jetFwd",
      "offset": 0,
      "scale": 1
    },
    {
      "name": "n_presel_jet",
      "offset": 0,
      "scale": 1
    },
    {
      "name": "lep1_charge",
      "offset": 0,
      "scale": 1
    },
    {
      "name": "avg_dr_jet",
      "offset": 0,
      "scale": 1
    },
    {
      "name": "lep1_phi",
      "offset": 0,
      "scale": 1
    },
    {
      "name": "Hj_tagger_hadTop",
      "offset": 0,
      "scale": 1
    },
    {
      "name": "nBJetLoose",
      "offset": 0,
      "scale": 1
    },
    {
      "name": "jet4_pt",
      "offset": 0,
      "scale": 1
    },
    {
      "name": "mindr_lep1_jet",
      "offset": 0,
      "scale": 1
    },
    {
      "name": "lep1_conePt",
      "offset": 0,
      "scale": 1
    },
    {
      "name": "jetFwd1_pt",
      "offset": 0,
      "scale": 1
    },
    {
      "name": "lep2_phi",
      "offset": 0,
      "scale": 1
    },
    {
      "name": "jet2_phi",
      "offset": 0,
      "scale": 1
    },
    {
      "name": "lep2_eta",
      "offset": 0,
      "scale": 1
    },
    {
      "name": "mbb",
      "offset": 0,
      "scale": 1
    },
    {
      "name": "mindr_lep2_jet",
      "offset": 0,
      "scale": 1
    },
    {
      "name": "jet4_eta",
      "offset": 0,
      "scale": 1
    },
    {
      "name": "nBJetMedium",
      "offset": 0,
      "scale": 1
    },
    {
      "name": "Dilep_pdgId",
      "offset": 0,
      "scale": 1
    },
    {
      "name": "metLD",
      "offset": 0,
      "scale": 1
    },
    {
      "name": "jet3_phi",
      "offset": 0,
      "scale": 1
    },
    {
      "name": "maxeta",
      "offset": 0,
      "scale": 1
    },
    {
      "name": "jet1_eta",
      "offset": 0,
      "scale": 1
    }
  ],
  "layers": [
    {
      "activation": "rectified",
      "architecture": "dense",
      "bias": [
        -2.1018741130828857,
        -0.026557333767414093,
        -6.1183390617370605,
        0.2569524645805359,
        1.4421504735946655,
        2.140136957168579,
        -0.3221513330936432,
        -0.8083502650260925,
        -0.8138977885246277,
        -3.550522565841675,
        2.931598424911499,
        -3.2231125831604004,
        -0.20558086037635803,
        -2.426382303237915,
        0.7186204791069031,
        0.6710507273674011,
        2.2125227451324463,
        -3.1694705486297607,
        -1.391478419303894,
        0.3558184504508972,
        2.2683987617492676,
        -1.0896378755569458,
        3.666693687438965,
        5.18934965133667,
        2.1379129886627197,
        0.8140040636062622,
        -1.3047971725463867,
        0.533854067325592,
        -3.8553686141967773,
        2.107672929763794,
        1.7257943153381348,
        1.3157176971435547
      ],
      "weights": [
        -0.05117402225732803,
        0.8000904321670532,
        0.007710524834692478,
        -0.004331307020038366,
        -0.010242723859846592,
        -8.042499542236328,
        -0.004485382232815027,
        -0.004614080302417278,
        0.19833151996135712,
        -0.026723939925432205,
        0.00811812374740839,
        0.025144800543785095,
        1.8953818082809448,
        1.5173166990280151,
        0.40567001700401306,
        -0.14761042594909668,
        1.0819482803344727,
        -0.017368201166391373,
        -0.7108694314956665,
        -1.1359152793884277,
        -0.11859987676143646,
        -0.3855600357055664,
        0.016008557751774788,
        0.613289475440979,
        -0.015700265765190125,
        -0.043084628880023956,
        -0.1889113187789917,
        0.0006206661928445101,
        -1.455310344696045,
        -0.21168363094329834,
        -1.8083786964416504,
        0.24108658730983734,
        0.020349904894828796,
        0.10636568069458008,
        2.8679816722869873,
        3.4891064167022705,
        -0.08321648091077805,
        -0.148851215839386,
        0.2235325425863266,
        -0.13732996582984924,
        -0.34213176369667053,
        0.012823807075619698,
        0.0318574421107769,
        0.1040910854935646,
        0.2364397943019867,
        -0.18111731112003326,
        0.10786475986242294,
        -0.10779527574777603,
        0.0816362202167511,
        0.08136013150215149,
        0.11527141183614731,
        -0.08488421887159348,
        -0.11614683270454407,
        0.1085568517446518,
        0.3075765371322632,
        -0.29224926233291626,
        -0.2955648601055145,
        0.0701606348156929,
        -0.3885522186756134,
        -0.1072683334350586,
        -0.2037660926580429,
        0.07175393402576447,
        0.19356073439121246,
        0.07408339530229568,
        -0.08246877789497375,
        -0.2790378928184509,
        0.009729948826134205,
        -0.040947698056697845,
        -0.20301657915115356,
        0.10988260805606842,
        0.050454143434762955,
        -0.13954415917396545,
        0.031566690653562546,
        -0.5957985520362854,
        0.6323238015174866,
        -0.0484086312353611,
        -0.015088002197444439,
        -1.5894910097122192,
        0.0482548363506794,
        0.0386202298104763,
        -0.043493449687957764,
        0.11176466941833496,
        0.004715876653790474,
        -0.004130134359002113,
        -0.7363294959068298,
        -4.942651748657227,
        -0.2990082800388336,
        -1.5859752893447876,
        -0.5028106570243835,
        -0.09026406705379486,
        3.960697889328003,
        2.186741828918457,
        -0.09907212853431702,
        -0.8627519607543945,
        -0.005366386845707893,
        -0.022599751129746437,
        -0.25351861119270325,
        -0.12165690958499908,
        -0.445123553276062,
        0.21019893884658813,
        -0.9746159315109253,
        -0.6431739330291748,
        -4.449617862701416,
        3.6685500144958496,
        0.017085175961256027,
        0.27156177163124084,
        6.571059703826904,
        1.1850557327270508,
        0.051638487726449966,
        0.2850625216960907,
        0.5129967927932739,
        0.025128120556473732,
        -0.029465017840266228,
        0.28987157344818115,
        0.5410390496253967,
        0.013788451440632343,
        -0.3006587326526642,
        0.23393192887306213,
        -0.007199842482805252,
        -0.045947618782520294,
        0.6118453145027161,
        -1.0272654294967651,
        -0.9281899929046631,
        0.23022015392780304,
        -0.37308740615844727,
        0.2107757180929184,
        1.7677180767059326,
        -0.18236909806728363,
        0.011271103285253048,
        -8.51402473449707,
        -0.28253689408302307,
        0.06755632162094116,
        0.2558806538581848,
        0.375059574842453,
        0.14185304939746857,
        -0.007492596283555031,
        -1.4105900526046753,
        0.05544031038880348,
        2.3464136123657227,
        -2.157921075820923,
        -0.290971964597702,
        0.02444584108889103,
        -1.559462308883667,
        1.79353928565979,
        -0.02221284620463848,
        0.06052835285663605,
        0.3658980131149292,
        -0.00024071717052720487,
        -0.018112992867827415,
        1.311282992362976,
        0.008363739587366581,
        -0.10442732274532318,
        -0.13202637434005737,
        0.18533548712730408,
        0.07159873098134995,
        -0.12945030629634857,
        -0.33411502838134766,
        0.23943881690502167,
        0.6741636991500854,
        2.9253575801849365,
        5.111039161682129,
        -0.19384834170341492,
        1.2250715494155884,
        -0.6778762340545654,
        -0.021345041692256927,
        -1.4739423990249634,
        0.07282233238220215,
        0.492375910282135,
        0.018643086776137352,
        -0.5160595774650574,
        0.19154711067676544,
        -0.008202007040381432,
        0.5197281837463379,
        0.11386769264936447,
        0.9074806571006775,
        0.36290276050567627,
        0.030139224603772163,
        -0.3502233028411865,
        3.2909152507781982,
        -1.989962100982666,
        -0.004037810489535332,
        0.9723900556564331,
        -0.13388071954250336,
        0.08876333385705948,
        -0.07952320575714111,
        0.20076023042201996,
        -0.07148213684558868,
        0.3317561149597168,
        0.2658950090408325,
        0.3129865229129791,
        0.013500778935849667,
        -0.0043413336388766766,
        2.276028633117676,
        3.0419182777404785,
        -0.6228017807006836,
        -0.5156348943710327,
        0.7364155650138855,
        -0.301190584897995,
        0.32102170586586,
        0.6408188343048096,
        -0.002513255923986435,
        1.287967324256897,
        0.41311565041542053,
        0.02360663376748562,
        0.14263397455215454,
        0.1651001125574112,
        0.4309748411178589,
        -0.006128828972578049,
        -5.634226322174072,
        0.6523902416229248,
        2.231987714767456,
        -4.3723835945129395,
        -0.7730997800827026,
        -0.07767994701862335,
        -1.874036192893982,
        0.6989314556121826,
        0.06546992808580399,
        0.2936558723449707,
        0.6724982857704163,
        0.0035373042337596416,
        -0.036370351910591125,
        1.2424116134643555,
        -0.06794310361146927,
        0.19483087956905365,
        -0.0725233256816864,
        -0.18429817259311676,
        -0.01933312974870205,
        0.2902980446815491,
        1.858279824256897,
        1.1523641347885132,
        -0.6956835985183716,
        2.1394309997558594,
        2.5720133781433105,
        0.08916259557008743,
        2.8678138256073,
        1.2202119827270508,
        -0.1395280510187149,
        1.4080551862716675,
        0.14293867349624634,
        0.670977771282196,
        -0.18742188811302185,
        -0.09696019440889359,
        -0.010822844691574574,
        0.2831557095050812,
        -1.1148858070373535,
        0.34207242727279663,
        4.92076301574707,
        -0.20496872067451477,
        0.045589350163936615,
        0.08283302187919617,
        -3.4985718727111816,
        1.862108588218689,
        0.16206498444080353,
        0.7137073278427124,
        -1.6644001007080078,
        0.06371883302927017,
        -0.07577447593212128,
        0.0667799860239029,
        -0.007633194327354431,
        -0.02216942235827446,
        0.42828699946403503,
        -0.050199661403894424,
        -0.0012935111299157143,
        0.029694760218262672,
        1.2787472009658813,
        -1.718219518661499,
        -1.904359221458435,
        1.7275859117507935,
        -0.40100598335266113,
        1.0835210084915161,
        -4.840815544128418,
        -2.603389024734497,
        0.17652948200702667,
        -0.3814874291419983,
        0.11229340732097626,
        0.031606100499629974,
        0.3949158191680908,
        1.1093978881835938,
        1.2032142877578735,
        0.21023230254650116,
        -0.9068405628204346,
        0.32250770926475525,
        -4.124751091003418,
        -0.04882892593741417,
        -0.08472840487957001,
        -0.1330520212650299,
        1.2854292392730713,
        -0.2931966781616211,
        -1.0106916427612305,
        -0.16255109012126923,
        0.04964398592710495,
        -0.4312831163406372,
        -0.18074586987495422,
        2.302288055419922,
        0.13208310306072235,
        -0.046013910323381424,
        0.34376025199890137,
        -0.5922890901565552,
        -0.11676475405693054,
        -0.11284211277961731,
        0.44999709725379944,
        0.6011751294136047,
        -1.6930959224700928,
        3.630171298980713,
        2.603008270263672,
        -0.010625460185110569,
        -4.595819473266602,
        0.5070051550865173,
        -0.09316190332174301,
        3.1677942276000977,
        -0.20252427458763123,
        0.6786609292030334,
        0.38724544644355774,
        0.10885147005319595,
        -0.09954173117876053,
        0.12576903402805328,
        3.1189587116241455,
        -0.6759334206581116,
        -1.1087782382965088,
        1.4791069030761719,
        -0.05706755071878433,
        0.4372718632221222,
        -2.250488519668579,
        -1.8924813270568848,
        0.026823541149497032,
        -0.4675762951374054,
        0.704092264175415,
        0.21757210791110992,
        -0.12225852906703949,
        -2.386990547180176,
        -0.0024271002039313316,
        -0.38065844774246216,
        0.09497563540935516,
        0.7322186827659607,
        -0.008921446278691292,
        0.20734739303588867,
        0.8762678503990173,
        -0.006518115755170584,
        -1.200947642326355,
        -0.08365844190120697,
        1.004804015159607,
        -0.10384857654571533,
        -6.770768642425537,
        0.44023528695106506,
        0.0155943613499403,
        3.682220458984375,
        0.24694885313510895,
        -0.18615952134132385,
        -0.16080787777900696,
        0.002593137789517641,
        -0.2896452844142914,
        -0.036356110125780106,
        2.705789566040039,
        -0.6974126696586609,
        0.9828742146492004,
        1.2440712451934814,
        0.3670956790447235,
        0.16831792891025543,
        1.060957908630371,
        -0.1772647500038147,
        -0.0004096225602552295,
        0.6037983298301697,
        -0.10704296827316284,
        -0.053874362260103226,
        0.041158732026815414,
        0.47247573733329773,
        -0.014162428677082062,
        -0.04777006804943085,
        0.16462329030036926,
        -0.008257230743765831,
        9.005036354064941,
        0.03506432846188545,
        -0.007029363885521889,
        -1.133636236190796,
        -0.669340193271637,
        -1.396748661994934,
        -4.201627254486084,
        0.3347422480583191,
        -0.15100398659706116,
        -0.31648150086402893,
        0.030332665890455246,
        0.08266954123973846,
        0.04068378731608391,
        0.06978824734687805,
        -0.09227684885263443,
        -0.17924028635025024,
        0.2047419399023056,
        0.16295191645622253,
        -1.2729756832122803,
        0.6731284260749817,
        -4.281320571899414,
        -0.10245919227600098,
        -0.009015033021569252,
        -0.1662629246711731,
        -1.9465839862823486,
        2.3282883167266846,
        0.08576977998018265,
        1.0243288278579712,
        0.007265521679073572,
        0.07419975847005844,
        0.03624940291047096,
        -0.8734570145606995,
        -0.03541097417473793,
        0.18010076880455017,
        0.06092105060815811,
        0.6163058280944824,
        5.959468841552734,
        0.0651240274310112,
        -0.026533592492341995,
        -1.0904842615127563,
        -0.7719289660453796,
        0.9556354284286499,
        0.4114035367965698,
        -0.3617989122867584,
        -1.5867016315460205,
        -0.4748731851577759,
        0.1675744354724884,
        0.9909799695014954,
        0.03538009896874428,
        0.006312942132353783,
        0.12279444187879562,
        -0.14086654782295227,
        0.11657807976007462,
        0.022417379543185234,
        -5.018982410430908,
        0.4488103985786438,
        -3.4763095378875732,
        -0.04086919128894806,
        -0.06613591313362122,
        -0.34117597341537476,
        -1.0104178190231323,
        0.12475751340389252,
        -0.5155300498008728,
        -0.30796316266059875,
        -0.0655226781964302,
        -0.10168346762657166,
        -0.24295741319656372,
        -1.234894037246704,
        -0.055479995906353,
        -0.12663878500461578,
        0.024150174111127853,
        0.3435097932815552,
        -0.09647388756275177,
        0.1570442169904709,
        -1.2702027559280396,
        -3.405545711517334,
        -0.6537225246429443,
        1.5532536506652832,
        -0.31683245301246643,
        -0.07724346220493317,
        -8.728630065917969,
        -6.047369480133057,
        -0.42822161316871643,
        -2.969305992126465,
        -0.05288361385464668,
        -0.05941310524940491,
        -0.30313199758529663,
        -0.29672038555145264,
        0.7437369227409363,
        -0.022581635043025017,
        -5.371321201324463,
        -0.21583962440490723,
        -2.373983383178711,
        -0.12115945667028427,
        0.06908753514289856,
        0.0634092465043068,
        4.7505574226379395,
        -2.800640106201172,
        -0.020923038944602013,
        0.2672348916530609,
        -0.46842342615127563,
        0.10128680616617203,
        -0.07235559821128845,
        -1.5344030857086182,
        0.3237663209438324,
        0.21819423139095306,
        -0.10049521923065186,
        -0.49455365538597107,
        -0.008355287835001945,
        0.3656855821609497,
        -1.1856000423431396,
        -3.8482449054718018,
        -2.3069911003112793,
        0.14952561259269714,
        -2.46079158782959,
        0.48386454582214355,
        -2.296055316925049,
        0.4106553792953491,
        0.01597275771200657,
        -3.7360122203826904,
        0.01993614248931408,
        -0.11861252039670944,
        0.31798794865608215,
        -0.10716377943754196,
        -0.41900184750556946,
        0.02018747851252556,
        -2.794130563735962,
        -0.4079560339450836,
        -0.6926537156105042,
        -2.0517938137054443,
        0.2744196653366089,
        -0.19060704112052917,
        0.38497114181518555,
        -0.4009876251220703,
        -0.0028095899615436792,
        -0.0651266798377037,
        0.05834352225065231,
        -0.005881873890757561,
        -0.0008895602659322321,
        -0.23224978148937225,
        0.0010591060854494572,
        0.009632171131670475,
        0.03644373267889023,
        -0.00528824282810092,
        13.500834465026855,
        -0.006916467100381851,
        -0.24526415765285492,
        -1.1781654357910156,
        0.11102303862571716,
        0.10676958411931992,
        -3.8748347759246826,
        0.009486108087003231,
        0.7325789928436279,
        0.34899261593818665,
        0.01198060717433691,
        -0.48600324988365173,
        -0.006612969562411308,
        -0.005308681633323431,
        -0.001637531560845673,
        0.010303574614226818,
        -0.041005365550518036,
        0.00034815375693142414,
        0.16744539141654968,
        -0.29462072253227234,
        0.4582167863845825,
        -0.2884378731250763,
        -0.0005078492686152458,
        -0.01774805784225464,
        -0.09619209170341492,
        -0.25280845165252686,
        -0.26890769600868225,
        0.0823156014084816,
        -0.05550186336040497,
        -0.8247699737548828,
        -0.1952129453420639,
        -0.5524868965148926,
        -0.0898611843585968,
        -0.13773757219314575,
        -0.6674320101737976,
        0.3326962888240814,
        -0.006829383317381144,
        0.2525416314601898,
        0.7358413338661194,
        -3.2179369926452637,
        -0.2187069058418274,
        -3.0150413513183594,
        -2.2008824348449707,
        0.6641147136688232,
        -6.782114505767822,
        2.158853769302368,
        0.3209278881549835,
        2.655609607696533,
        -0.01004089042544365,
        -0.07029824703931808,
        0.41306668519973755,
        -0.4194990396499634,
        0.08967630565166473,
        -1.0645500421524048,
        -3.448763370513916,
        0.6202484965324402,
        1.323931336402893,
        -0.14414960145950317,
        0.5053851008415222,
        -0.0721031129360199,
        1.2652406692504883,
        -1.0204510688781738,
        0.07521332800388336,
        -0.6076340079307556,
        -0.10980506241321564,
        0.03349951654672623,
        0.01620870642364025,
        0.3059179186820984,
        0.02496570348739624,
        0.049596697092056274,
        0.02599276788532734,
        -0.03591816872358322,
        11.539154052734375,
        -0.3025136888027191,
        -0.4878499507904053,
        -1.094223141670227,
        0.6298356652259827,
        -0.3938395380973816,
        -4.7546868324279785,
        -0.10300512611865997,
        1.2193413972854614,
        0.6913576722145081,
        0.04755489155650139,
        0.799131453037262,
        -0.000868573843035847,
        -0.06276674568653107,
        0.25459107756614685,
        -0.13619501888751984,
        0.024306274950504303,
        0.02065175771713257,
        2.377821683883667,
        0.4625856876373291,
        -1.4962114095687866,
        -0.16528911888599396,
        -0.02777598425745964,
        -0.1466761976480484,
        -0.14726169407367706,
        -1.3294492959976196,
        0.1965114325284958,
        0.7360503077507019,
        -0.22498399019241333,
        0.010415343567728996,
        0.20382660627365112,
        -0.4096342921257019,
        -0.00658730324357748,
        -0.019778573885560036,
        0.03324476629495621,
        -0.1898338794708252,
        0.2156996726989746,
        -0.11989473551511765,
        0.12651951611042023,
        -1.0407894849777222,
        -0.08053162693977356,
        1.2510313987731934,
        3.43796968460083,
        0.03089396469295025,
        -1.8951855897903442,
        1.878117561340332,
        0.19918116927146912,
        -1.5637034177780151,
        -0.003118772991001606,
        0.21253712475299835,
        -0.19873468577861786,
        -0.031045662239193916,
        -0.18811878561973572,
        0.209035262465477,
        0.07288265973329544,
        -0.8025669455528259,
        4.960888385772705,
        -0.728782057762146,
        -0.08717327564954758,
        -0.09620539844036102,
        -0.3396357297897339,
        1.3875950574874878,
        -0.1154646947979927,
        1.2921379804611206,
        0.005706943571567535,
        0.07088864594697952,
        0.15645797550678253,
        0.188115656375885,
        -0.0011780664790421724,
        -0.003276475938037038,
        -0.4272449314594269,
        -0.07345789670944214,
        0.06211348623037338,
        0.17638163268566132,
        1.8224796056747437,
        1.6246639490127563,
        -0.3954496383666992,
        1.91934335231781,
        0.7202123403549194,
        -0.13662706315517426,
        5.540827751159668,
        1.791092872619629,
        0.12321905046701431,
        1.3520203828811646,
        -0.05516136810183525,
        0.0001981165842153132,
        -0.028422413393855095,
        -0.23201680183410645,
        0.1112392321228981,
        -1.5285143852233887,
        0.11841955035924911,
        1.2043921947479248,
        -4.412557125091553,
        0.3207579255104065,
        -0.046369519084692,
        -0.07332202792167664,
        1.844853162765503,
        -2.905261516571045,
        -0.12952445447444916,
        -0.466510146856308,
        -0.18477410078048706,
        -0.02341129258275032,
        0.011010968126356602,
        4.652877330780029,
        0.009482208639383316,
        -0.0006890334188938141,
        0.053565699607133865,
        -0.013130517676472664,
        0.014559647999703884,
        0.08846119791269302,
        -1.5162601470947266,
        0.37237903475761414,
        -1.7887629270553589,
        0.602370023727417,
        -3.1258914470672607,
        -0.050354450941085815,
        6.105316162109375,
        -0.4146764576435089,
        -0.27658721804618835,
        -1.322450876235962,
        0.012134906835854053,
        0.7888522148132324,
        -0.08279640227556229,
        0.045954763889312744,
        -0.06418870389461517,
        0.005723545327782631,
        -2.228472948074341,
        -0.3774476647377014,
        0.39861249923706055,
        -0.33247172832489014,
        -0.029355933889746666,
        -0.10935688763856888,
        1.1587351560592651,
        -2.994133710861206,
        0.04524737969040871,
        0.5189045071601868,
        0.40455177426338196,
        0.09293386340141296,
        0.10631753504276276,
        -0.653373122215271,
        -0.025115396827459335,
        0.15639208257198334,
        0.19855964183807373,
        -0.02103959023952484,
        -0.0745137482881546,
        0.00894447322934866,
        -1.9275312423706055,
        2.7969679832458496,
        0.5686618685722351,
        4.508612632751465,
        -3.118222951889038,
        -0.024051528424024582,
        2.1363141536712646,
        -0.4186107814311981,
        0.023923778906464577,
        -1.2291781902313232,
        0.10940691083669662,
        -0.08128230273723602,
        0.06369961053133011,
        -0.3819662034511566,
        0.02259323187172413,
        0.07444162666797638,
        -0.4605996310710907,
        -0.03244597464799881,
        -5.08078145980835,
        0.5783994793891907,
        0.08040282130241394,
        0.1138187125325203,
        1.2733922004699707,
        -1.4475804567337036,
        0.00886185746639967,
        0.5784229040145874,
        -0.28025633096694946,
        -0.03681866079568863,
        0.06897981464862823,
        -0.7773269414901733,
        0.07229121774435043,
        -0.8973367214202881,
        -0.11716898530721664,
        1.319465160369873,
        0.007744426839053631,
        0.2622376084327698,
        -0.6660988330841064,
        -0.020176781341433525,
        -1.8707737922668457,
        0.09995224326848984,
        -0.7349427342414856,
        0.17269419133663177,
        4.731007099151611,
        -0.18767064809799194,
        0.025504998862743378,
        1.3907322883605957,
        -0.08125512301921844,
        -0.047928255051374435,
        -0.39733171463012695,
        0.06325623393058777,
        0.1656782329082489,
        -0.011245847679674625,
        -0.05329420045018196,
        0.1503082513809204,
        0.5518220663070679,
        0.22172516584396362,
        0.22473736107349396,
        0.09956832975149155,
        -2.4872281551361084,
        0.2589845061302185,
        0.032174769788980484,
        0.6482003331184387,
        0.08337606489658356,
        0.024151477962732315,
        -0.027707787230610847,
        0.6186723709106445,
        -0.012835721485316753,
        -0.05018845945596695,
        -0.4360790550708771,
        0.0885687917470932,
        9.799649238586426,
        0.22808502614498138,
        1.5237308740615845,
        0.34690678119659424,
        0.6573840975761414,
        -0.3943990468978882,
        -3.5693862438201904,
        -0.22884097695350647,
        1.1684699058532715,
        -1.5424069166183472,
        0.020861389115452766,
        -0.7247873544692993,
        -0.04322151467204094,
        -0.11081507802009583,
        -0.6839173436164856,
        0.1473902463912964,
        -0.771286129951477,
        0.02207438461482525,
        -1.6009899377822876,
        1.0465079545974731,
        -3.284986734390259,
        0.9280264973640442,
        0.0005829815054312348,
        0.17091739177703857,
        1.140083909034729,
        0.9180091023445129,
        -0.21249224245548248,
        0.304890900850296,
        -0.3183533549308777,
        -0.15253815054893494,
        -0.22089989483356476,
        0.9031308889389038,
        -0.019792189821600914,
        0.0004796625580638647,
        -0.01318325288593769,
        0.08594624698162079,
        0.09756404161453247,
        -0.22170615196228027,
        0.3540165424346924,
        2.1499874591827393,
        1.429976224899292,
        1.2503894567489624,
        0.6673383712768555,
        -0.10698266327381134,
        3.876051187515259,
        0.37742292881011963,
        0.028587045148015022,
        4.215010643005371,
        -0.049583956599235535,
        0.09764429926872253,
        0.3490254878997803,
        0.0569896437227726,
        -0.00918626133352518,
        0.03080861270427704,
        3.1416141986846924,
        1.0028737783432007,
        0.6518051624298096,
        1.0555388927459717,
        0.02875756286084652,
        -0.22953097522258759,
        0.8848708271980286,
        -0.6693916320800781,
        0.027103345841169357,
        -0.6230560541152954,
        0.060471244156360626,
        0.04373859241604805,
        0.00015645800158381462,
        0.5128848552703857,
        -0.009131055325269699,
        -0.0004831223632209003,
        0.01995118521153927,
        0.0011139718117192388,
        -0.006465962156653404,
        -0.09832792729139328,
        -0.2965179681777954,
        0.11444392055273056,
        0.11847663670778275,
        -0.02396080456674099,
        8.305041313171387,
        -0.034689247608184814,
        -2.273160696029663,
        -2.519805431365967,
        -0.03405206277966499,
        -0.1713172197341919,
        0.0005118127446621656,
        0.03667649254202843,
        0.04721008986234665,
        -0.021208630874753,
        -0.07279506325721741,
        -0.0543440543115139,
        -1.0692527294158936,
        -0.49782833456993103,
        -3.843756675720215,
        -0.2323094755411148,
        0.010276286862790585,
        0.09680184721946716,
        -2.521854877471924,
        2.0596578121185303,
        0.15101706981658936,
        0.29857271909713745,
        0.4517352283000946,
        0.08072144538164139,
        0.07984056323766708,
        -1.0093590021133423,
        0.05496827885508537,
        0.2267053723335266,
        -0.028783058747649193,
        -0.143776997923851,
        -0.014112792909145355,
        -0.05582341179251671,
        0.4916737377643585,
        -3.3534061908721924,
        -2.789263963699341,
        7.3158860206604,
        -1.6311194896697998,
        0.020036322996020317,
        -5.041125774383545,
        -0.34770840406417847,
        0.1179143637418747,
        2.9450323581695557,
        0.030543623492121696,
        -0.07300596684217453,
        0.17481744289398193,
        -0.04505758360028267,
        -0.044117022305727005,
        0.04708745330572128,
        2.457453489303589,
        0.2240077555179596,
        2.429095983505249,
        -0.4044128954410553,
        -0.10686905682086945,
        0.08625877648591995,
        6.760970592498779,
        2.2989726066589355,
        -0.07736687362194061,
        0.024719180539250374,
        0.5846693515777588,
        -0.020553110167384148,
        0.05721934884786606,
        -1.722479224205017,
        0.2719064950942993,
        0.3794097900390625,
        0.3751242160797119,
        -0.2290366291999817,
        -0.058936066925525665,
        0.02266712114214897,
        -1.1197551488876343,
        -3.904371738433838,
        -2.0240447521209717,
        -3.8619394302368164,
        -3.7890286445617676,
        0.12527884542942047,
        -10.387921333312988,
        -2.7136619091033936,
        0.13383609056472778,
        -2.496257781982422,
        -0.16467122733592987,
        0.004775045905262232,
        0.2934751510620117,
        0.28198012709617615,
        -0.273489385843277,
        0.026553943753242493,
        -2.3838889598846436,
        -0.3207111954689026,
        -1.6201108694076538,
        0.9308526515960693,
        -0.1683138757944107,
        -0.06889528036117554,
        3.2651736736297607,
        0.32037076354026794,
        0.012175042182207108,
        -0.5498360395431519,
        -0.10177890956401825,
        -0.005540899001061916,
        -0.013378405012190342,
        0.1886211335659027,
        -0.0021926870103925467,
        0.022375086322426796,
        0.08358632773160934,
        -0.01146187074482441,
        0.017787151038646698,
        0.016926437616348267,
        -0.42463499307632446,
        -0.03502335399389267,
        3.857607126235962,
        0.7769966721534729,
        -3.06571888923645,
        -0.05910138785839081,
        11.104012489318848,
        0.20323128998279572,
        0.04976576566696167,
        -4.298426628112793,
        -0.01754404790699482,
        0.009175282903015614,
        -0.019730808213353157,
        0.020794613286852837,
        -0.09657745063304901,
        0.0025421117898076773,
        -4.205540180206299,
        -0.8545820713043213,
        0.7829216718673706,
        -0.6307525634765625,
        -0.014872914180159569,
        -0.032721828669309616,
        -2.1270592212677,
        -0.7589825987815857,
        0.2090780884027481,
        0.20363818109035492,
        0.14503784477710724,
        -0.004047492519021034,
        0.08479268103837967,
        0.18008941411972046,
        0.24142521619796753,
        -0.11231929063796997,
        -0.2361462265253067,
        -0.3364461064338684,
        -0.012998583726584911,
        0.031238071620464325,
        -0.240031436085701,
        -2.394141435623169,
        0.8347945809364319,
        0.23196172714233398,
        -0.5556848645210266,
        -0.008324855007231236,
        -7.210228443145752,
        -3.79508900642395,
        0.16490964591503143,
        -10.00142765045166,
        -0.06870198249816895,
        0.10276836156845093,
        0.20160266757011414,
        -0.3923265039920807,
        -0.8284704685211182,
        -0.010527859441936016,
        2.6932942867279053,
        -0.25021687150001526,
        -1.121442198753357,
        -0.4810348153114319,
        -0.12011851370334625,
        0.03844763711094856,
        -2.4205241203308105,
        0.48403429985046387,
        0.06729485094547272,
        -0.38685765862464905,
        0.356152206659317,
        0.06005733087658882,
        -0.020975260064005852,
        1.1356391906738281,
        0.02556556649506092,
        0.05579623207449913,
        -0.05291740596294403,
        -0.10289835929870605,
        0.6329721808433533,
        -0.04211599752306938,
        0.12007644027471542,
        1.7880362272262573,
        2.2964513301849365,
        -2.1426029205322266,
        -1.917101263999939,
        -0.09421444684267044,
        2.698859214782715,
        1.1241041421890259,
        0.10310687869787216,
        -6.504743576049805,
        0.016463933512568474,
        0.012725344859063625,
        0.09825637936592102,
        -0.014304131269454956,
        -0.11669255793094635,
        -0.023511776700615883,
        -5.3126678466796875,
        0.7985826730728149,
        1.0709130764007568,
        0.42839550971984863,
        0.05070292577147484,
        0.217505544424057,
        -3.683318853378296,
        2.004735231399536,
        0.1795281618833542,
        -0.8171223998069763,
        0.06701897829771042,
        0.13388919830322266,
        0.1519835740327835,
        1.346213936805725,
        -0.0534830205142498,
        -0.12407825887203217,
        0.010795925743877888,
        0.12217732518911362,
        -0.016438359394669533,
        0.08282607048749924,
        -2.2046546936035156,
        -0.09227056801319122,
        1.1909503936767578,
        -2.337695598602295,
        0.41173091530799866,
        -0.21345555782318115,
        -1.627833604812622,
        -4.358037948608398,
        0.05083760246634483,
        -0.6544346213340759,
        0.016639534384012222,
        0.25435328483581543,
        -0.11437839269638062,
        0.10488305985927582,
        0.3217530846595764,
        -0.1743669956922531,
        1.2525125741958618,
        -0.8453933000564575,
        -3.9118990898132324,
        -1.6527910232543945,
        -0.0012143845669925213,
        -0.012176585383713245,
        0.39507946372032166,
        -4.203013896942139,
        0.0014049604069441557,
        2.2978925704956055,
        -0.22937476634979248,
        0.0013990195002406836,
        0.0022927983663976192,
        -5.453649044036865,
        0.01480910275131464,
        0.005767951253801584,
        -0.39429762959480286,
        -0.010331476107239723,
        4.230077266693115,
        0.2110988050699234,
        2.8525454998016357,
        0.45760175585746765,
        2.200667381286621,
        -1.3507208824157715,
        2.138763904571533,
        -0.025613373145461082,
        1.53291916847229,
        0.2101379781961441,
        0.004903330467641354,
        1.6403498649597168,
        -0.026768021285533905,
        0.10817578434944153,
        -0.12903784215450287,
        0.14033611118793488,
        0.05997967720031738,
        0.0032883821986615658,
        1.56804621219635,
        0.4608997702598572,
        0.08149340003728867,
        0.6440991163253784,
        -0.0287579707801342,
        -0.3188907504081726,
        0.10044797509908676,
        3.282193899154663
      ]
    },
    {
      "activation": "rectified",
      "architecture": "dense",
      "bias": [
        -2.9324944019317627,
        1.3268839120864868,
        0.0,
        -0.15969067811965942,
        -3.1313207149505615,
        0.015404811128973961,
        -0.23100873827934265,
        4.082715034484863,
        -0.8374028205871582,
        -2.872042655944824,
        -2.276337146759033,
        -0.12287436425685883,
        0.36408868432044983,
        -2.7226650714874268,
        2.73466157913208,
        2.2922139167785645
      ],
      "weights": [
        -0.1713208556175232,
        0.17988091707229614,
        -0.8067384362220764,
        -0.003017353592440486,
        -0.6802647709846497,
        0.07688257843255997,
        0.5155221819877625,
        -0.2316996157169342,
        -0.2898094356060028,
        0.4451111853122711,
        -0.7072277665138245,
        -0.011068160645663738,
        -0.9480162262916565,
        -0.07343737035989761,
        -0.8063129782676697,
        -0.18347682058811188,
        0.38337770104408264,
        0.46202874183654785,
        0.26041463017463684,
        0.3403356373310089,
        -0.5599915385246277,
        0.08487530052661896,
        -0.7686267495155334,
        -0.26864245533943176,
        -0.48951488733291626,
        0.44101637601852417,
        -0.35433322191238403,
        -0.5950191020965576,
        -0.0668647438287735,
        -0.28727853298187256,
        -0.3260567784309387,
        -0.4093419015407562,
        -2.18841552734375,
        0.288301944732666,
        0.2736864686012268,
        -0.13490022718906403,
        0.28827643394470215,
        -0.21303662657737732,
        -0.2721143066883087,
        -0.0019403590122237802,
        0.03695016726851463,
        0.3378778398036957,
        0.41144558787345886,
        -0.07215036451816559,
        0.31650739908218384,
        0.06939723342657089,
        1.85197114944458,
        0.30074504017829895,
        0.8919047117233276,
        -0.28603029251098633,
        -0.08874382078647614,
        -1.108254075050354,
        0.27439358830451965,
        -0.3049473464488983,
        0.49313485622406006,
        0.17242345213890076,
        -0.09434159845113754,
        0.25810348987579346,
        -0.265422523021698,
        -0.4798145294189453,
        -0.3132613003253937,
        -0.11274931579828262,
        0.111941397190094,
        0.24482230842113495,
        -0.1370832920074463,
        0.0371038019657135,
        0.14005938172340393,
        -0.29071512818336487,
        -0.14656169712543488,
        0.23850849270820618,
        -0.20078429579734802,
        -0.31148281693458557,
        -0.34227532148361206,
        -0.11674356460571289,
        -0.13301114737987518,
        -0.3211749196052551,
        -0.34196409583091736,
        -0.05121314525604248,
        0.1255548596382141,
        0.11210227012634277,
        -0.0919346809387207,
        -0.3093263506889343,
        0.2855038344860077,
        -0.2723820209503174,
        -0.24966299533843994,
        -0.22476762533187866,
        0.29607275128364563,
        -0.12889255583286285,
        -0.20057886838912964,
        -0.33841532468795776,
        -0.3047146201133728,
        -0.3523615598678589,
        0.32540932297706604,
        -0.17216245830059052,
        -0.17761002480983734,
        0.09384897351264954,
        -1.82694673538208,
        -0.056122660636901855,
        -0.0789453312754631,
        -0.018115241080522537,
        -0.36030855774879456,
        -0.029173893854022026,
        0.19658011198043823,
        -0.12141277641057968,
        0.32887381315231323,
        0.22730891406536102,
        0.5714917182922363,
        -0.8255831003189087,
        -0.19009587168693542,
        -0.19795051217079163,
        -1.4368301630020142,
        0.009105009026825428,
        0.613385021686554,
        -1.7436455488204956,
        0.06582501530647278,
        1.2146974802017212,
        -0.20707285404205322,
        0.09082309156656265,
        -0.2856869697570801,
        -0.7004216313362122,
        1.4295397996902466,
        0.2781085968017578,
        -0.2787010371685028,
        -0.5594019293785095,
        0.36133214831352234,
        -1.3971456289291382,
        -0.1418849527835846,
        0.754601001739502,
        0.5103643536567688,
        0.14192917943000793,
        -0.3113100826740265,
        -0.40228763222694397,
        -0.9127740263938904,
        -0.34553253650665283,
        -0.3212692141532898,
        -0.16958536207675934,
        -0.14061465859413147,
        0.12153126299381256,
        0.9926246404647827,
        0.14328964054584503,
        0.728752076625824,
        -0.01383846253156662,
        -1.9546210765838623,
        0.13677452504634857,
        -1.1403483152389526,
        0.3311353623867035,
        -0.2547723054885864,
        0.2550126314163208,
        0.21814262866973877,
        -0.028767740353941917,
        -0.33795416355133057,
        1.2330982685089111,
        0.380582332611084,
        -0.2451184093952179,
        -0.2555386424064636,
        0.23424002528190613,
        0.04842961207032204,
        0.5039657950401306,
        0.17865701019763947,
        0.5219781994819641,
        -0.2518799304962158,
        0.09478988498449326,
        -0.9456360936164856,
        -0.7245360016822815,
        -0.30824169516563416,
        0.375832200050354,
        0.3811360001564026,
        -0.024781635031104088,
        0.03569582477211952,
        -0.6587893962860107,
        -0.02038980834186077,
        0.6376962661743164,
        -0.15344002842903137,
        0.32029688358306885,
        1.3514068126678467,
        -0.2255304902791977,
        0.4284197986125946,
        -0.071175217628479,
        0.008611795492470264,
        -0.13102465867996216,
        0.09954798221588135,
        -0.6372115015983582,
        -0.6154571175575256,
        -0.7008562684059143,
        -0.08846257627010345,
        0.10136865079402924,
        0.17121723294258118,
        -0.938870370388031,
        -0.11522016674280167,
        -0.46020281314849854,
        -0.1732502430677414,
        -0.258764386177063,
        1.061048150062561,
        -0.006918007042258978,
        -0.36415010690689087,
        0.1858055293560028,
        -0.12218470126390457,
        0.40471163392066956,
        -0.09842997044324875,
        0.10647512972354889,
        0.020440155640244484,
        -0.27470213174819946,
        0.05372254177927971,
        -0.1495228260755539,
        0.2708766460418701,
        0.32697421312332153,
        2.936297655105591,
        -0.268273264169693,
        0.8789546489715576,
        -0.05416274070739746,
        0.08906655758619308,
        -0.5426617860794067,
        -0.13062378764152527,
        0.30905285477638245,
        0.3292141258716583,
        -0.04383442550897598,
        -0.6605427265167236,
        1.0494626760482788,
        -0.2190815657377243,
        -1.3102930784225464,
        -0.5416783690452576,
        -0.3244919180870056,
        -0.10309570282697678,
        0.21113725006580353,
        -1.863606572151184,
        -0.21502406895160675,
        -0.24000900983810425,
        0.16093164682388306,
        0.13617081940174103,
        0.04213356971740723,
        0.3108454644680023,
        -0.19003546237945557,
        -0.0409424714744091,
        -0.269016295671463,
        0.887681245803833,
        -0.19840146601200104,
        0.25972622632980347,
        -0.215951070189476,
        1.6515363454818726,
        0.08186693489551544,
        -0.3995257019996643,
        -0.5302680134773254,
        0.07811740040779114,
        1.201585054397583,
        0.04637400060892105,
        0.18271924555301666,
        0.04071907326579094,
        0.6831738352775574,
        0.32966306805610657,
        0.021238628774881363,
        -0.30772122740745544,
        -0.5835797786712646,
        0.3477061688899994,
        0.43037837743759155,
        0.08791191875934601,
        0.03723406419157982,
        -1.0835257768630981,
        0.07492664456367493,
        -0.10140324383974075,
        0.13885711133480072,
        0.11106157302856445,
        0.11611935496330261,
        0.2674410939216614,
        -0.20476919412612915,
        -0.13489922881126404,
        -0.12195814400911331,
        -0.4812256693840027,
        0.029381006956100464,
        -1.7888624668121338,
        -0.011233816854655743,
        -1.93423330783844,
        -0.32103097438812256,
        -0.9035652875900269,
        0.4375099837779999,
        0.06370687484741211,
        0.7269788384437561,
        -0.30892443656921387,
        0.18589109182357788,
        -0.6522235870361328,
        0.4232001304626465,
        1.4237836599349976,
        0.24281783401966095,
        -0.6822854280471802,
        0.3234533667564392,
        0.12348005175590515,
        0.0874074175953865,
        -0.4404357969760895,
        -0.5514740943908691,
        1.3675707578659058,
        0.3167957663536072,
        0.9162228107452393,
        -0.2670675814151764,
        0.004909034818410873,
        -0.1320418268442154,
        -0.6841122508049011,
        -0.18910567462444305,
        -0.12389238178730011,
        0.3506711721420288,
        -0.34031447768211365,
        0.14713452756404877,
        0.16538891196250916,
        -0.003642982104793191,
        -0.05322854220867157,
        -0.07824406772851944,
        -0.16518110036849976,
        0.25939157605171204,
        -0.26359108090400696,
        -0.08163264393806458,
        0.21420113742351532,
        -0.23955509066581726,
        -0.5034925937652588,
        0.055277518928050995,
        -0.5835072994232178,
        0.4570268988609314,
        -0.15645813941955566,
        0.40203362703323364,
        0.14314089715480804,
        -0.45751652121543884,
        0.2811507284641266,
        0.01734301634132862,
        -0.3960219919681549,
        -0.1039879322052002,
        -0.6534466743469238,
        0.43220359086990356,
        -0.3022143840789795,
        0.2672886848449707,
        0.4149046838283539,
        -0.28615736961364746,
        -0.17949846386909485,
        -0.037402186542749405,
        -0.391343355178833,
        -0.038913093507289886,
        -0.3587409555912018,
        0.250995397567749,
        -0.04724918305873871,
        -0.05722526088356972,
        -0.20303447544574738,
        0.29377129673957825,
        0.37204843759536743,
        0.5121577382087708,
        0.513291597366333,
        0.2829973101615906,
        -0.06238492950797081,
        -0.054113660007715225,
        -0.13111405074596405,
        0.21690745651721954,
        -0.934057354927063,
        -0.12887528538703918,
        -0.0793309360742569,
        -0.16894839704036713,
        -0.49043482542037964,
        -0.5031439065933228,
        -1.0741640329360962,
        -0.2660074830055237,
        0.06894431263208389,
        -0.024975283071398735,
        0.054610032588243484,
        0.1914002001285553,
        -0.27771249413490295,
        0.20947183668613434,
        0.8936808109283447,
        -0.1804446578025818,
        0.5958170294761658,
        -0.36658212542533875,
        0.22738227248191833,
        -0.06374303996562958,
        1.78373122215271,
        -0.07461473345756531,
        0.9958919882774353,
        -0.3142763376235962,
        0.03092394582927227,
        0.3372204601764679,
        -0.176119863986969,
        -0.11769769340753555,
        0.7846235632896423,
        -0.6311011910438538,
        -0.9784893989562988,
        -0.015156906098127365,
        -0.19105301797389984,
        0.7196134328842163,
        -0.15248456597328186,
        0.09875908493995667,
        -0.03256853297352791,
        -1.1663614511489868,
        0.18455800414085388,
        0.3427172005176544,
        -0.2748100459575653,
        -0.07988157123327255,
        -0.2573744058609009,
        -0.00288771721534431,
        0.3207956850528717,
        -0.14608503878116608,
        -0.06350982189178467,
        -0.05683115869760513,
        0.05611376091837883,
        0.0973455160856247,
        -0.23863059282302856,
        0.07007328420877457,
        2.1195054054260254,
        -0.174514502286911,
        1.3121169805526733,
        0.08816631883382797,
        0.1947324573993683,
        -0.12750522792339325,
        0.1120099425315857,
        0.22789892554283142,
        -0.11524385958909988,
        -0.5088725686073303,
        -0.6721684336662292,
        -0.4985865354537964,
        -0.1428610384464264,
        1.2916560173034668,
        -0.08324606716632843,
        0.7137199640274048,
        0.03323545306921005,
        0.20531652867794037,
        -0.4419427812099457,
        0.05580810457468033,
        0.09565959125757217,
        -0.0015121093019843102,
        0.4115871489048004,
        -0.11304941773414612,
        0.060271669179201126,
        0.12121009081602097,
        -0.17258097231388092,
        -0.01918320544064045,
        -0.3840169310569763,
        0.3470579981803894,
        -1.1355934143066406,
        0.01362890750169754,
        -2.2222678661346436,
        -0.07072507590055466,
        -1.1336259841918945,
        0.4771283268928528,
        0.14618131518363953,
        0.09575016051530838,
        -0.22986578941345215,
        -0.08590242266654968,
        -0.5890891551971436,
        -0.2397127002477646,
        0.5847399234771729,
        -0.31238624453544617,
        -0.23763956129550934,
        0.7836783528327942,
        0.08829107135534286,
        0.4299536645412445,
        -0.1566619724035263,
        -0.7490567564964294,
        0.5407000780105591,
        0.029147207736968994,
        -0.6382656693458557,
        0.48974350094795227,
        -0.24280120432376862,
        0.4829678237438202,
        0.33456915616989136,
        -0.27577975392341614,
        -0.06779909133911133,
        -0.6289281249046326,
        -0.14162567257881165,
        -0.05833631381392479,
        -0.29119744896888733,
        0.28871607780456543,
        2.784271001815796,
        -0.4015251398086548,
        0.8487359285354614,
        0.10216270387172699,
        0.30528438091278076,
        -0.3467046022415161,
        0.4115044176578522,
        0.6024489402770996,
        0.30549079179763794,
        -0.09142319858074188,
        -1.1277841329574585,
        0.23051847517490387,
        -0.24622459709644318,
        -0.135262593626976,
        -0.5237531661987305,
        0.818699836730957,
        -0.24695906043052673,
        0.39483141899108887,
        -0.2571840286254883,
        0.2477158010005951,
        -0.2476048767566681,
        -0.022139912471175194,
        0.39123818278312683,
        0.023574918508529663,
        -0.2217603623867035,
        -0.14308615028858185,
        -0.16788463294506073,
        -0.16202668845653534,
        0.1265878975391388,
        -1.1106423139572144,
        -2.6945271492004395,
        -0.34255245327949524,
        -0.6126351356506348,
        -0.354503333568573,
        0.8571610450744629,
        0.5220689177513123,
        0.18555232882499695,
        0.0954282283782959,
        -0.011022524908185005,
        -0.18623635172843933,
        0.2253275215625763,
        0.33938711881637573,
        0.06603201478719711,
        0.17166166007518768,
        0.15478689968585968,
        -0.3262042999267578,
        -0.4852350056171417,
        0.08034495264291763,
        -0.10826607048511505,
        0.5706852078437805
      ]
    },
    {
      "activation": "rectified",
      "architecture": "dense",
      "bias": [
        -1.7524460554122925,
        0.3850706219673157,
        -2.153674840927124,
        0.08683087676763535,
        0.8753606081008911,
        -1.564344048500061,
        -0.5146933794021606,
        2.3042829036712646,
        -0.22539667785167694,
        3.957146406173706,
        1.7912496328353882,
        -0.5103751420974731,
        -0.9977203011512756,
        2.0330257415771484,
        0.8971426486968994,
        -0.6929389834403992
      ],
      "weights": [
        0.616929829120636,
        -0.09251613914966583,
        0.08023324608802795,
        -0.5769367218017578,
        -0.5632709860801697,
        0.15704026818275452,
        0.055135224014520645,
        0.19268298149108887,
        0.17859087884426117,
        -0.010841616429388523,
        0.29687240719795227,
        -0.44172653555870056,
        0.055062029510736465,
        0.34399470686912537,
        -0.11155197769403458,
        0.17904552817344666,
        0.1991918981075287,
        0.35143914818763733,
        0.129673033952713,
        -0.23084686696529388,
        -0.47839877009391785,
        0.15283717215061188,
        0.15348941087722778,
        -0.3123704791069031,
        0.12819859385490417,
        0.42375630140304565,
        0.14960941672325134,
        -0.3719315528869629,
        -0.007523699663579464,
        -0.6475732922554016,
        0.4759657382965088,
        -0.49729061126708984,
        0.08946356177330017,
        -0.22755323350429535,
        -0.3721678853034973,
        0.2986726760864258,
        -0.36619895696640015,
        0.13460907340049744,
        1.0492852926254272,
        -0.14575505256652832,
        0.1416371911764145,
        0.1899755895137787,
        0.10812919586896896,
        -0.3699644207954407,
        0.02295459806919098,
        -0.26578783988952637,
        -0.35232850909233093,
        -0.47827574610710144,
        -0.4291893541812897,
        0.007665499113500118,
        -0.20462268590927124,
        0.8452237248420715,
        -0.22723190486431122,
        0.15210218727588654,
        0.08525697886943817,
        -0.29549261927604675,
        1.023382544517517,
        0.01974727027118206,
        -0.06049555540084839,
        0.44955089688301086,
        -0.03741021081805229,
        -0.6367440819740295,
        -0.01839529164135456,
        0.01969132013618946,
        -0.35852786898612976,
        -0.2235400378704071,
        -0.10091489553451538,
        0.07212404906749725,
        0.0712028369307518,
        0.10022696852684021,
        -0.0576198510825634,
        0.119977667927742,
        0.08008293807506561,
        -0.1185673400759697,
        -0.3896647095680237,
        -0.06832452118396759,
        -0.43734362721443176,
        0.15822665393352509,
        0.9004823565483093,
        0.13996362686157227,
        -0.16755180060863495,
        -0.2049456238746643,
        -0.03988867998123169,
        -1.1681749820709229,
        -0.007081769872456789,
        -0.017331719398498535,
        0.520921528339386,
        -0.24040107429027557,
        0.07974021881818771,
        -0.4949330985546112,
        0.22957634925842285,
        0.24244706332683563,
        0.7787107229232788,
        -0.42959287762641907,
        -0.42889052629470825,
        -0.2639840245246887,
        1.0051883459091187,
        0.006869264412671328,
        0.027403146028518677,
        -0.7388879656791687,
        -0.24491019546985626,
        -0.7818745970726013,
        -0.04356089606881142,
        0.20171502232551575,
        0.08056462556123734,
        0.19364161789417267,
        -0.4080044627189636,
        -1.1201272010803223,
        0.02400396019220352,
        -0.3171064257621765,
        -0.1597110629081726,
        0.2880488336086273,
        -0.37097278237342834,
        -0.04470781236886978,
        -0.3840479254722595,
        -0.15600010752677917,
        -0.41836974024772644,
        0.05427829548716545,
        0.02553636208176613,
        0.8392518758773804,
        -0.2353466898202896,
        -0.3824191391468048,
        0.01329894084483385,
        0.5596606731414795,
        -0.11158666014671326,
        -0.7673457264900208,
        0.17054684460163116,
        -0.09403768181800842,
        -0.08243351429700851,
        -0.426167368888855,
        0.25769439339637756,
        0.0342482328414917,
        -0.11372295767068863,
        -0.3103862702846527,
        -0.4184452295303345,
        -0.6099833846092224,
        0.323214054107666,
        0.058830130845308304,
        0.6164111495018005,
        0.02740848809480667,
        0.15230722725391388,
        -1.6087526082992554,
        -0.11318904161453247,
        -0.08491414040327072,
        0.10096903145313263,
        0.18316073715686798,
        0.03569278120994568,
        -0.060919832438230515,
        0.07222694903612137,
        -0.5218231678009033,
        0.3363664448261261,
        0.41057005524635315,
        0.24938823282718658,
        -0.25497081875801086,
        -0.4047173261642456,
        -0.023463476449251175,
        0.08986328542232513,
        -0.10440708696842194,
        -0.1338653862476349,
        -0.29826024174690247,
        0.042247310280799866,
        0.03239871561527252,
        0.21916618943214417,
        0.034160446375608444,
        0.08263961970806122,
        -0.0067191170528531075,
        -0.07141980528831482,
        -0.04307418689131737,
        0.07167690992355347,
        -0.1692991703748703,
        0.08532872051000595,
        -0.0316159687936306,
        0.8842577338218689,
        -0.23814019560813904,
        -0.10019151866436005,
        -0.06163917854428291,
        -0.5411897301673889,
        -0.17815682291984558,
        0.33368024230003357,
        0.827691376209259,
        -0.1121327131986618,
        0.1499941498041153,
        -0.14455832540988922,
        0.2017327845096588,
        0.39833956956863403,
        -0.38237738609313965,
        -0.2788224220275879,
        -0.656633734703064,
        -0.21114814281463623,
        0.5260475873947144,
        -0.14436617493629456,
        0.46236714720726013,
        0.10334987938404083,
        -0.10400788486003876,
        -0.09531131386756897,
        -0.24303995072841644,
        0.006582839880138636,
        -0.17456598579883575,
        -0.5184797644615173,
        0.5719467401504517,
        -0.17511925101280212,
        -0.3068813979625702,
        -0.11773129552602768,
        0.9511731863021851,
        0.4821352958679199,
        0.33191612362861633,
        -0.1435064673423767,
        0.3142867684364319,
        -0.2070097178220749,
        -0.17143292725086212,
        0.11871334910392761,
        -0.2273416817188263,
        -0.3428085148334503,
        0.08825168013572693,
        0.0940343514084816,
        0.40733250975608826,
        -0.6251620054244995,
        0.000918786390684545,
        0.7918193936347961,
        -0.14297930896282196,
        0.0563797652721405,
        0.20527233183383942,
        -0.37002894282341003,
        0.13071344792842865,
        0.12593284249305725,
        0.007405755575746298,
        -0.12591320276260376,
        -0.3184412717819214,
        -0.04158084839582443,
        -0.04042098671197891,
        0.026265649124979973,
        -0.31765836477279663,
        -0.037681467831134796,
        0.13466523587703705,
        -0.16510234773159027,
        0.08054803311824799,
        -0.26888352632522583,
        -0.38987457752227783,
        0.6636688709259033,
        -0.18702681362628937,
        0.7803407311439514,
        -0.25749853253364563,
        0.11993744969367981,
        0.2916838824748993,
        -0.4331676661968231,
        0.1654224693775177,
        -0.20942655205726624,
        0.102852001786232,
        0.541918158531189,
        -0.40591368079185486,
        0.31469181180000305,
        -0.3243907392024994,
        0.13488009572029114,
        0.7270154356956482,
        0.13019639253616333,
        -0.07064077258110046
      ]
    },
    {
      "activation": "rectified",
      "architecture": "dense",
      "bias": [
        0.9462289810180664,
        0.6067568063735962,
        -0.7214217185974121,
        0.7084896564483643,
        2.5370752811431885,
        -0.29630210995674133,
        -0.9729780554771423,
        0.02127761021256447,
        1.746566653251648,
        1.6826916933059692,
        -0.9466487169265747,
        -2.0407912731170654,
        -1.4217966794967651,
        -1.867592215538025,
        -2.8056113719940186,
        0.22785045206546783
      ],
      "weights": [
        0.35987716913223267,
        -0.11530154198408127,
        -0.1910383701324463,
        0.12377843260765076,
        0.58135986328125,
        0.027529828250408173,
        -0.3330956995487213,
        -0.3863455355167389,
        -0.21710550785064697,
        -0.3188195526599884,
        0.6066355109214783,
        -0.10221374034881592,
        0.28583472967147827,
        0.33586639165878296,
        0.08644791692495346,
        -0.16943365335464478,
        -0.057150546461343765,
        -0.45712152123451233,
        -0.5389255285263062,
        0.35511210560798645,
        -0.12893974781036377,
        -0.8367199301719666,
        0.3445679247379303,
        -0.027860252186655998,
        -0.5193184614181519,
        0.3814975917339325,
        -0.34029674530029297,
        0.5143817067146301,
        0.39198681712150574,
        0.555271565914154,
        -0.8097150325775146,
        0.18474742770195007,
        -0.29819411039352417,
        0.03591771051287651,
        -0.908456563949585,
        -0.5565523505210876,
        0.08374661207199097,
        0.19451305270195007,
        -0.3305933475494385,
        -0.3022218644618988,
        -0.26685911417007446,
        0.10197808593511581,
        0.048658404499292374,
        -0.5802382230758667,
        0.914118766784668,
        -0.1654927283525467,
        0.18274307250976562,
        -0.0924157127737999,
        -0.042508553713560104,
        0.12754426896572113,
        -0.2552071809768677,
        0.11891721934080124,
        0.8759111762046814,
        -0.2514253854751587,
        0.49953433871269226,
        0.12659192085266113,
        0.28702589869499207,
        -0.21980662643909454,
        0.040305186063051224,
        -0.09808001667261124,
        0.021801535040140152,
        0.24624918401241302,
        -0.11215293407440186,
        0.5462269186973572,
        0.005174058489501476,
        0.11205403506755829,
        -0.5774673819541931,
        -0.928105354309082,
        0.5076618790626526,
        0.36084818840026855,
        -0.28899097442626953,
        -0.7258591055870056,
        -0.47804075479507446,
        -0.9918668866157532,
        -0.1398041993379593,
        -0.2685434818267822,
        0.5006316900253296,
        -0.517921507358551,
        0.30503225326538086,
        0.07796930521726608,
        -0.005613413639366627,
        0.058396853506565094,
        0.3554389476776123,
        0.5471906661987305,
        0.26255467534065247,
        0.10952319204807281,
        0.4796498715877533,
        0.31690165400505066,
        0.3896171748638153,
        -0.213840514421463,
        -0.1732150763273239,
        -0.12416674196720123,
        -0.10357015579938889,
        0.3159106373786926,
        0.025019561871886253,
        0.7973924875259399,
        0.888956606388092,
        -0.0308860894292593,
        -0.282353937625885,
        0.14297474920749664,
        0.18809138238430023,
        -0.0839543342590332,
        0.1398143768310547,
        0.23495467007160187,
        -0.17437051236629486,
        -0.28267183899879456,
        -0.17870350182056427,
        0.24500413239002228,
        0.25927793979644775,
        -0.13580437004566193,
        -0.05428853631019592,
        -0.6777360439300537,
        0.06873448938131332,
        0.8359361290931702,
        0.3203755021095276,
        -0.4971342086791992,
        -0.07189495116472244,
        0.4218518137931824,
        -0.25033488869667053,
        -0.3828934133052826,
        -0.22347238659858704,
        -0.22235193848609924,
        0.07789741456508636,
        -0.793805718421936,
        -0.03882703185081482,
        -0.07971423864364624,
        0.16332997381687164,
        -0.16910168528556824,
        -1.215775728225708,
        0.07124368101358414,
        0.5524935722351074,
        0.08990193158388138,
        0.3629009425640106,
        -0.3780860900878906,
        -2.274122953414917,
        0.038065165281295776,
        -0.6263687014579773,
        -0.05309393256902695,
        -0.6755053997039795,
        -0.14097332954406738,
        0.22004783153533936,
        0.19417674839496613,
        -0.6005204916000366,
        -0.45924919843673706,
        0.13765479624271393,
        -0.11838659644126892,
        0.3084348738193512,
        -0.05312713608145714,
        -0.30790674686431885,
        0.16049273312091827,
        -0.19233438372612,
        -0.31613126397132874,
        -0.3256383240222931,
        -0.21374423801898956,
        0.7640502452850342,
        0.08789375424385071,
        -0.2544217109680176,
        0.07032737880945206,
        0.9266079068183899,
        -0.1028372272849083,
        -0.24279479682445526,
        -0.06496196985244751,
        0.6190509796142578,
        -0.05878546088933945,
        -0.1897849291563034,
        -0.7899636626243591,
        -0.06177578493952751,
        -0.043291378766298294,
        -0.19800086319446564,
        0.7801309823989868,
        0.2959957420825958,
        -0.5157172679901123,
        -0.1490696519613266,
        -0.08446356654167175,
        0.6183713674545288,
        0.05396405979990959,
        0.5306698083877563,
        0.03147953003644943,
        0.4587480127811432,
        0.6674066185951233,
        0.04915156960487366,
        -0.17869940400123596,
        0.06783471256494522,
        -0.21340888738632202,
        -0.16338472068309784,
        0.09044315665960312,
        -0.2958323359489441,
        0.025229590013623238,
        -0.4339553117752075,
        0.40071481466293335,
        0.19153271615505219,
        -0.1335846483707428,
        -0.019041119143366814,
        -0.28026291728019714,
        -0.08972517400979996,
        0.5453092455863953,
        -0.33595335483551025,
        0.06569577753543854,
        0.11629773676395416,
        0.23575955629348755,
        0.32951998710632324,
        0.2504817843437195,
        -0.1541622281074524,
        0.5337598919868469,
        0.5166123509407043,
        0.01629669778048992,
        -0.1263512670993805,
        0.25457286834716797,
        -0.08625498414039612,
        -0.09937556087970734,
        0.355095237493515,
        0.6796553134918213,
        -0.32543879747390747,
        -0.22285397350788116,
        0.40460607409477234,
        -0.36006319522857666,
        0.035830333828926086,
        -0.3214840888977051,
        0.5995606780052185,
        -0.004650570917874575,
        -0.20897051692008972,
        -0.5510333776473999,
        -0.20228791236877441,
        0.025601167231798172,
        0.43173864483833313,
        0.023539798334240913,
        0.10834889858961105,
        -0.8516720533370972,
        -0.11562429368495941,
        -0.0009058959549292922,
        0.08728741109371185,
        1.0017671585083008,
        -0.1222725659608841,
        -0.009147378616034985,
        -0.22035856544971466,
        0.3023603558540344,
        -0.403462290763855,
        -0.31879574060440063,
        -0.29005560278892517,
        -0.027758993208408356,
        -0.1342662274837494,
        0.11799925565719604,
        0.12421583384275436,
        -0.3513387143611908,
        0.4791666567325592,
        1.2244356870651245,
        -0.06479423493146896,
        0.3561322093009949,
        -0.4464661777019501,
        -0.13840538263320923,
        -0.6307700872421265,
        -0.03768521919846535,
        -0.07512439042329788,
        -0.2850952744483948,
        0.03812499716877937,
        0.15019050240516663
      ]
    },
    {
      "activation": "rectified",
      "architecture": "dense",
      "bias": [
        -1.0536861419677734,
        0.7698200345039368,
        1.0699058771133423,
        -0.5263567566871643,
        -0.055756665766239166,
        0.3623882830142975,
        -0.9581313729286194,
        1.0869698524475098,
        0.1427033692598343,
        0.6965205073356628,
        -0.8293956518173218,
        -1.1458417177200317,
        0.06281520426273346,
        0.4412144422531128,
        0.8880577087402344,
        0.24316376447677612
      ],
      "weights": [
        -0.08780986070632935,
        -0.6471267342567444,
        0.4037523567676544,
        -0.1559172123670578,
        -0.7496018409729004,
        -0.0767383724451065,
        0.1560688614845276,
        -0.25658515095710754,
        -0.48952531814575195,
        -0.31936976313591003,
        0.3901878893375397,
        0.11928907036781311,
        0.5953572988510132,
        0.27006441354751587,
        0.34620165824890137,
        0.41059303283691406,
        0.14847812056541443,
        0.1883203238248825,
        0.624152660369873,
        0.45758405327796936,
        0.3783590793609619,
        0.015869107097387314,
        -0.003536643460392952,
        -0.025098072364926338,
        -0.4505097270011902,
        -0.04708659648895264,
        -0.12750288844108582,
        -0.36425286531448364,
        0.06066889688372612,
        0.49992644786834717,
        0.21160060167312622,
        0.39202797412872314,
        0.6657515168190002,
        -0.18609941005706787,
        -0.08169551193714142,
        0.22276677191257477,
        0.4137097895145416,
        0.41083094477653503,
        0.2691320478916168,
        -0.18383128941059113,
        -0.3537724018096924,
        0.17468933761119843,
        -0.11419585347175598,
        -0.3426658511161804,
        -0.0232071690261364,
        0.25530338287353516,
        0.08026240020990372,
        0.3208516836166382,
        -0.046622756868600845,
        -0.12540118396282196,
        0.1702389121055603,
        -0.01685580238699913,
        0.14650961756706238,
        -0.01870015077292919,
        -0.13959456980228424,
        0.6454681158065796,
        -0.0606733001768589,
        -0.4731922447681427,
        -0.37670958042144775,
        -0.5459464192390442,
        0.1121973991394043,
        0.021762361750006676,
        0.1622188240289688,
        -0.07596588879823685,
        0.16277249157428741,
        -0.8556551337242126,
        -0.32695701718330383,
        -0.25876933336257935,
        0.33770981431007385,
        -0.1352664977312088,
        -0.7635417580604553,
        -0.36519885063171387,
        -0.29136359691619873,
        0.5104153156280518,
        0.388082891702652,
        0.4389500916004181,
        -0.7188873291015625,
        -0.0743892639875412,
        -0.1664094626903534,
        0.7593651413917542,
        -0.5323498249053955,
        0.16275928914546967,
        -0.37008076906204224,
        0.005991360172629356,
        -2.115914821624756,
        0.1900445967912674,
        0.40513989329338074,
        0.07584226131439209,
        0.6049566268920898,
        -0.27724689245224,
        0.309044748544693,
        0.003989647142589092,
        -0.31666332483291626,
        0.6314242482185364,
        0.07352803647518158,
        0.17702749371528625,
        0.06257791817188263,
        0.06970526278018951,
        0.105231873691082,
        -0.9696588516235352,
        0.02045363187789917,
        0.48292645812034607,
        -0.0649324581027031,
        0.02745685540139675,
        0.2720673084259033,
        0.24664142727851868,
        -0.3264423906803131,
        0.014508234336972237,
        0.1912066489458084,
        -0.06318444013595581,
        0.37528935074806213,
        0.2001468986272812,
        0.06748978048563004,
        0.07618100941181183,
        0.755233645439148,
        -0.12925860285758972,
        -0.419728547334671,
        -0.08898266404867172,
        -1.0526597499847412,
        -0.16631849110126495,
        -2.7298195362091064,
        0.5307644605636597,
        -0.035772643983364105,
        -0.5640519857406616,
        0.26037466526031494,
        0.2831875681877136,
        0.14716139435768127,
        -0.053159575909376144,
        0.14801642298698425,
        0.0024098928552120924,
        0.05160469189286232,
        -0.32976073026657104,
        -0.348179429769516,
        0.8612101078033447,
        0.1936989277601242,
        -0.2402360886335373,
        -0.18524526059627533,
        0.10481582581996918,
        -0.06895053386688232,
        -0.014965858310461044,
        -0.3721008598804474,
        -0.22077636420726776,
        0.26688718795776367,
        0.11607755720615387,
        0.22153635323047638,
        0.005362821742892265,
        0.13028335571289062,
        0.03480871021747589,
        0.1294458955526352,
        -0.08617040514945984,
        -0.2774553894996643,
        0.7148223519325256,
        0.04342988133430481,
        0.014478769153356552,
        0.21493534743785858,
        -0.051403310149908066,
        -0.15329279005527496,
        0.11694207042455673,
        -0.30023354291915894,
        0.5276197791099548,
        -1.802503228187561,
        0.9007850885391235,
        0.3736094832420349,
        -0.3267971873283386,
        -1.1503069400787354,
        -0.1705050766468048,
        0.029992925003170967,
        0.0030892216600477695,
        -0.008114630356431007,
        -0.7350131273269653,
        0.5800970196723938,
        0.03948330134153366,
        -0.38470134139060974,
        0.3425265848636627,
        0.2833610773086548,
        -1.2076153755187988,
        -0.03242379426956177,
        0.20878419280052185,
        -0.06699447333812714,
        0.3563327491283417,
        -0.4072158634662628,
        0.298235148191452,
        0.2814512550830841,
        0.0013299292186275125,
        0.3436632454395294,
        -0.0356564000248909,
        -0.1692044883966446,
        0.1814088225364685,
        0.6365770101547241,
        0.3158667981624603,
        0.8050580620765686,
        -0.20924675464630127,
        -0.13863565027713776,
        0.8305011987686157,
        0.22129331529140472,
        0.13429780304431915,
        -0.11153344064950943,
        0.16943445801734924,
        0.5567095279693604,
        -0.14576230943202972,
        -0.0472063273191452,
        -0.33250388503074646,
        -0.26510217785835266,
        0.0027340275701135397,
        0.06765696406364441,
        0.5041929483413696,
        0.5425497889518738,
        -0.2747725546360016,
        -0.4452773332595825,
        -0.107672780752182,
        -0.15499968826770782,
        0.2653758227825165,
        -0.3015863299369812,
        -0.09624723345041275,
        0.042465418577194214,
        -0.49255186319351196,
        -0.4427024722099304,
        1.0429983139038086,
        0.009106644429266453,
        0.2107931226491928,
        -0.14735230803489685,
        -0.26442861557006836,
        -0.330536425113678,
        -0.25272831320762634,
        0.37168067693710327,
        0.17829976975917816,
        -0.28624582290649414,
        0.4557892680168152,
        -0.3443114757537842,
        -0.8079475164413452,
        0.07390778511762619,
        -0.14227059483528137,
        0.05909460410475731,
        0.10952971130609512,
        -0.4215395450592041,
        0.9137582182884216,
        -0.006714156363159418,
        -0.1366729885339737,
        0.15735821425914764,
        -0.15823312103748322,
        -0.08234413713216782,
        -0.3490331768989563,
        -0.18579258024692535,
        0.5463051795959473,
        -0.2753111720085144,
        0.2780154347419739,
        0.10636458545923233,
        0.5535188317298889,
        0.28370341658592224,
        0.25651365518569946,
        0.29894667863845825,
        0.31314969062805176,
        -0.15227010846138,
        -0.1696319282054901,
        0.04642735421657562,
        0.0955238938331604
      ]
    },
    {
      "activation": "rectified",
      "architecture": "dense",
      "bias": [
        -0.0032325140200555325,
        -1.2594174146652222,
        0.4919271171092987,
        0.8527930974960327,
        0.4200405776500702,
        1.6338642835617065,
        0.1032409593462944,
        -1.1996499300003052,
        0.23685206472873688,
        -0.6767955422401428,
        -0.231901615858078,
        -1.577345609664917,
        -0.08732278645038605,
        -0.7734599709510803,
        -0.0865139290690422,
        -0.5860596895217896
      ],
      "weights": [
        0.22960235178470612,
        -0.03272724524140358,
        0.4317170977592468,
        -0.04221496731042862,
        -0.10329140722751617,
        -0.3261452317237854,
        0.2197091430425644,
        -0.2474103569984436,
        -0.05473745986819267,
        -0.17428931593894958,
        -0.042151592671871185,
        0.5263476967811584,
        0.04636833071708679,
        -0.09815465658903122,
        0.18609820306301117,
        -0.13643129169940948,
        -1.369630217552185,
        -0.32432612776756287,
        -0.18078888952732086,
        0.2972128987312317,
        -1.0423872470855713,
        0.19660668075084686,
        -0.034147586673498154,
        0.1794278621673584,
        -0.7320420145988464,
        -0.1323675662279129,
        0.1484510749578476,
        -0.37238451838493347,
        -0.5831500887870789,
        -0.43620187044143677,
        -0.04684729129076004,
        0.44633617997169495,
        -0.21186140179634094,
        -0.016947049647569656,
        0.07581040263175964,
        0.45216789841651917,
        -0.05155706778168678,
        0.007619753014296293,
        0.5356869101524353,
        -0.08709783852100372,
        0.10704092681407928,
        0.37855422496795654,
        -0.15061213076114655,
        -0.08455818891525269,
        -0.07094266265630722,
        -0.10096018016338348,
        0.3515620231628418,
        0.6869857311248779,
        -0.07452549040317535,
        -0.04796036332845688,
        0.4350510239601135,
        0.3544330298900604,
        0.04403945803642273,
        -0.1466326266527176,
        0.17038005590438843,
        -0.11338403075933456,
        0.24299296736717224,
        0.7038659453392029,
        -0.24092185497283936,
        -0.08937621861696243,
        -0.055842768400907516,
        0.4828111231327057,
        0.10269367694854736,
        -0.08140469342470169,
        -0.25011390447616577,
        0.03341609239578247,
        0.5786216855049133,
        0.02233380451798439,
        0.22326548397541046,
        -0.15289661288261414,
        -0.1909750998020172,
        0.5956584811210632,
        -0.3325381875038147,
        -0.05871623009443283,
        -0.19726680219173431,
        0.17867106199264526,
        -0.2717084586620331,
        -0.0836830660700798,
        0.3466493785381317,
        0.04253033176064491,
        -0.23790571093559265,
        0.36405837535858154,
        0.05345851927995682,
        -0.1549227237701416,
        -0.36738231778144836,
        0.3254208564758301,
        0.5514718294143677,
        -0.1583487093448639,
        0.17259390652179718,
        -0.24590860307216644,
        0.4505840241909027,
        -0.8499965071678162,
        0.5794543027877808,
        -0.3306910991668701,
        0.37189045548439026,
        0.12612226605415344,
        0.40675994753837585,
        0.10747068375349045,
        -0.19526983797550201,
        -0.846097469329834,
        -0.5888260006904602,
        -0.5368984341621399,
        0.11145558208227158,
        0.6026401519775391,
        -0.7824726700782776,
        -0.3863554000854492,
        0.10401002317667007,
        0.19397056102752686,
        0.12500029802322388,
        -1.5987505912780762,
        -0.0701766237616539,
        -0.33657094836235046,
        -0.117329902946949,
        -0.06747687608003616,
        -0.2939355671405792,
        0.17167910933494568,
        0.28307875990867615,
        0.5053917765617371,
        -0.05501261726021767,
        -0.2524127662181854,
        0.12785719335079193,
        0.2218872457742691,
        -0.02217763289809227,
        0.595304548740387,
        -0.5321803689002991,
        0.17292174696922302,
        0.4235621690750122,
        -0.05277347192168236,
        0.44247689843177795,
        0.0025948479305952787,
        0.39604341983795166,
        -0.05939547345042229,
        -0.31050994992256165,
        0.18055924773216248,
        0.08802703022956848,
        -0.3456687927246094,
        0.48586317896842957,
        -0.20666399598121643,
        -0.6105164289474487,
        0.33526960015296936,
        0.5305119156837463,
        0.07249093055725098,
        0.7028031945228577,
        0.1736244559288025,
        0.24570374190807343,
        -0.1297156810760498,
        -0.4743119180202484,
        0.23564353585243225,
        0.7214785814285278,
        0.2727387547492981,
        -0.13181181252002716,
        0.8111097812652588,
        -0.26401159167289734,
        0.11525338888168335,
        0.3857591152191162,
        -0.3398192822933197,
        0.06133044883608818,
        -0.3619237244129181,
        -0.623346209526062,
        0.006622922141104937,
        -0.5322046279907227,
        -0.3166143596172333,
        -0.5063847303390503,
        -0.0567837655544281,
        -0.06675437092781067,
        0.04213077947497368,
        -0.5151082277297974,
        -0.25556710362434387,
        -0.25490301847457886,
        -0.31734174489974976,
        -0.09478870779275894,
        0.013546044006943703,
        -0.2781435251235962,
        -0.30003881454467773,
        -0.004976493306457996,
        -0.1466369330883026,
        0.2958649694919586,
        -0.08364924788475037,
        -0.13287091255187988,
        -0.21585656702518463,
        -0.1883527934551239,
        -0.06724373996257782,
        0.3511439859867096,
        -0.24294357001781464,
        -0.2865487039089203,
        0.008279225789010525,
        0.38984501361846924,
        0.36771324276924133,
        -0.02909102477133274,
        -0.7171563506126404,
        -0.1605103611946106,
        0.0135590098798275,
        -0.18594282865524292,
        0.41788795590400696,
        -0.22884610295295715,
        0.632332980632782,
        -0.8963857293128967,
        -0.241111159324646,
        -0.2693738341331482,
        0.24115845561027527,
        -0.9483010768890381,
        -0.20986588299274445,
        -0.04731433466076851,
        -0.4340623617172241,
        -0.14384102821350098,
        0.10946428775787354,
        0.20832714438438416,
        -0.1817835569381714,
        0.02872525155544281,
        0.7051412463188171,
        -0.6673658490180969,
        -0.02193272113800049,
        -0.1273658722639084,
        -0.006870172917842865,
        -0.9407960772514343,
        -0.09595134854316711,
        -0.5840386748313904,
        -0.4307657480239868,
        -0.1223679855465889,
        0.18014195561408997,
        -0.08607710152864456,
        0.6908851265907288,
        -0.4583433270454407,
        0.48173943161964417,
        -0.29106375575065613,
        0.04212760552763939,
        0.07286928594112396,
        1.1725062131881714,
        0.7164847254753113,
        0.09180308878421783,
        0.05938758701086044,
        0.22512094676494598,
        -0.013882833532989025,
        -1.1547194719314575,
        -0.13689395785331726,
        -0.26023775339126587,
        -0.2738436758518219,
        0.4054220914840698,
        0.01965639553964138,
        0.2385907918214798,
        -0.5811929702758789,
        1.0285768508911133,
        -0.2714538872241974,
        0.06264763325452805,
        0.06788770109415054,
        -0.1326984167098999,
        0.09541098773479462,
        0.18991176784038544,
        0.11482101678848267,
        0.17427539825439453,
        -0.1107674315571785,
        0.08489644527435303,
        -0.20299078524112701,
        0.5537599921226501,
        -0.03210026025772095,
        -0.12440744042396545
      ]
    },
    {
      "activation": "rectified",
      "architecture": "dense",
      "bias": [
        0.4463176727294922,
        -1.9156360626220703,
        0.3589296340942383,
        0.9055931568145752,
        0.5690547227859497,
        -0.1665995717048645,
        0.8335099816322327,
        0.9627909660339355,
        0.3558747470378876,
        0.513575553894043,
        1.1104236841201782,
        0.2652619779109955,
        0.1871630847454071,
        1.178760290145874,
        0.1910167634487152,
        0.5919239521026611
      ],
      "weights": [
        -0.12991441786289215,
        0.2774650752544403,
        -0.8016751408576965,
        0.7358351945877075,
        -0.13384829461574554,
        -0.17869985103607178,
        -1.2502228021621704,
        0.47639650106430054,
        0.09212493151426315,
        0.06276705116033554,
        0.22011899948120117,
        -0.32669663429260254,
        -0.2420743852853775,
        0.03743676841259003,
        0.29200655221939087,
        -0.1056889221072197,
        0.07509350776672363,
        0.042250651866197586,
        0.3574139475822449,
        -0.8793048858642578,
        0.36090072989463806,
        -0.033904846757650375,
        -0.1227157786488533,
        -0.1975627988576889,
        -0.03535190597176552,
        0.11596104502677917,
        -0.3691726326942444,
        -0.6776326298713684,
        -0.24810592830181122,
        -0.22347958385944366,
        0.562920093536377,
        0.06986022740602493,
        0.15370644629001617,
        -0.1295129507780075,
        0.00030931277433410287,
        0.03457938879728317,
        -0.15006735920906067,
        0.32738247513771057,
        0.2575269043445587,
        0.04668206349015236,
        0.5746603012084961,
        -0.19856958091259003,
        -0.14509369432926178,
        0.0909009799361229,
        0.17024105787277222,
        0.2737928628921509,
        -0.3262111246585846,
        0.20352399349212646,
        0.649455726146698,
        -0.25384968519210815,
        0.17211265861988068,
        -0.004053404554724693,
        -0.8187751770019531,
        0.12097306549549103,
        0.1576842963695526,
        -0.1748039722442627,
        -0.34983912110328674,
        0.20617267489433289,
        0.05987447872757912,
        -0.8549728989601135,
        0.19126300513744354,
        -0.35276392102241516,
        0.22783061861991882,
        0.6442736983299255,
        -0.8173796534538269,
        -0.7823216319084167,
        -0.08658949285745621,
        -0.08408460021018982,
        -0.35280317068099976,
        0.19889625906944275,
        0.008606034331023693,
        -0.11539927124977112,
        0.4377553462982178,
        -0.36659500002861023,
        -0.24262967705726624,
        0.1176760345697403,
        -0.8303519487380981,
        0.07323142886161804,
        0.3264753818511963,
        0.5139278769493103,
        0.23628927767276764,
        -0.24062064290046692,
        0.001950691337697208,
        0.012391644529998302,
        0.3156948387622833,
        0.4685432016849518,
        0.3437635898590088,
        0.19040048122406006,
        -0.44319644570350647,
        -0.4430431127548218,
        0.3803032636642456,
        0.5999979972839355,
        -1.0547064542770386,
        -0.044209130108356476,
        -0.13421598076820374,
        -0.2729678452014923,
        -0.3642319440841675,
        0.16501377522945404,
        0.17782676219940186,
        -0.23656830191612244,
        -1.129981517791748,
        0.33862605690956116,
        0.26279377937316895,
        0.01068742386996746,
        0.060400355607271194,
        0.2952490448951721,
        0.12104327231645584,
        0.4710621237754822,
        -1.4272829294204712,
        -0.5135211944580078,
        0.2292359173297882,
        -1.3572676181793213,
        0.09711459279060364,
        0.08235013484954834,
        0.00046220608055591583,
        0.5057186484336853,
        0.4569310247898102,
        0.07614258676767349,
        -0.13522200286388397,
        -0.04147617146372795,
        -0.06852461397647858,
        -0.04876825213432312,
        0.0006883846945129335,
        -0.027273016050457954,
        0.2391338050365448,
        0.23405508697032928,
        -0.2219552844762802,
        0.30488529801368713,
        -0.05100863426923752,
        0.1786147952079773,
        0.653788685798645,
        0.26960405707359314,
        -0.24964706599712372,
        -0.20197607576847076,
        0.08354942500591278,
        0.008898308500647545,
        0.010650070384144783,
        -0.09285072237253189,
        -0.10915052145719528,
        -0.25862792134284973,
        -0.06475796550512314,
        0.38552600145339966,
        0.30488380789756775,
        0.020438941195607185,
        0.3218519389629364,
        0.023086370900273323,
        0.01609727554023266,
        0.09903450310230255,
        0.281341552734375,
        -0.023843804374337196,
        0.06167150288820267,
        -0.17895209789276123,
        0.14369167387485504,
        -0.3572382628917694,
        0.3593948483467102,
        -0.12349896878004074,
        -0.6090041399002075,
        0.04033895581960678,
        -0.07342974841594696,
        -0.04948044940829277,
        0.6325255632400513,
        -0.3395613431930542,
        0.20672133564949036,
        -0.1517731249332428,
        0.061579424887895584,
        0.8502641320228577,
        -0.5315362811088562,
        0.11895163357257843,
        -1.3292229175567627,
        -0.804377555847168,
        0.28333476185798645,
        -0.16918125748634338,
        -0.5401023626327515,
        0.07896696776151657,
        -0.10115252435207367,
        -0.29687821865081787,
        -0.027419116348028183,
        -0.21028833091259003,
        0.42661362886428833,
        -0.3898068070411682,
        0.3204507827758789,
        0.13446807861328125,
        -0.467018723487854,
        0.09441591799259186,
        0.226567342877388,
        0.10400479286909103,
        -0.13619497418403625,
        0.03504351153969765,
        0.07113274931907654,
        -0.07249664515256882,
        -0.06749294698238373,
        -0.32975277304649353,
        0.6568489670753479,
        -0.5351825952529907,
        -0.04300833120942116,
        -0.07997660338878632,
        0.2578308880329132,
        -0.41136661171913147,
        0.026394587010145187,
        0.7677363753318787,
        -0.49109458923339844,
        -0.30147063732147217,
        0.25646689534187317,
        0.10672006756067276,
        0.4622665047645569,
        0.3519750237464905,
        -0.30817118287086487,
        -0.030459560453891754,
        -0.24718718230724335,
        0.23824547231197357,
        -0.3994908332824707,
        0.36170241236686707,
        0.4687412977218628,
        -0.4293350875377655,
        0.8598057627677917,
        -0.34641164541244507,
        -0.06729074567556381,
        0.9809423685073853,
        0.10302001982927322,
        0.0014420440420508385,
        0.5950074791908264,
        0.28320935368537903,
        -0.40913939476013184,
        -0.47135913372039795,
        0.04156455770134926,
        -0.0801163986325264,
        -0.2826862335205078,
        0.5997785925865173,
        0.2289215475320816,
        0.05837221071124077,
        -0.10269124805927277,
        -0.3125201463699341,
        0.01974594220519066,
        -0.027371129021048546,
        0.0161939337849617,
        0.16032135486602783,
        1.0852982997894287,
        0.10117145627737045,
        0.17733287811279297,
        -1.1193747520446777,
        -0.017917685210704803,
        -0.11126930266618729,
        0.3092760741710663,
        -0.44658371806144714,
        -0.2103504240512848,
        0.10833296924829483,
        -0.19067031145095825,
        -0.003143585752695799,
        -0.2061438411474228,
        -0.2563454210758209,
        -0.10335701704025269,
        -0.30317509174346924,
        -0.21910224854946136,
        0.5733051300048828,
        -0.6559568643569946,
        0.3722127079963684
      ]
    },
    {
      "activation": "rectified",
      "architecture": "dense",
      "bias": [
        0.7506197690963745,
        0.6580812931060791,
        -0.4797634482383728,
        0.5019721388816833,
        0.2510068714618683,
        1.1250375509262085,
        0.5466390252113342,
        -0.9375529289245605,
        0.4387950003147125,
        0.6474917531013489,
        0.42544227838516235,
        0.37667256593704224,
        0.22223660349845886,
        -0.08769897371530533,
        -1.1609457731246948,
        -0.3153730034828186
      ],
      "weights": [
        0.05623894929885864,
        0.480576753616333,
        -0.3070681095123291,
        0.2721428871154785,
        -0.38386374711990356,
        -0.24761471152305603,
        -0.11002328991889954,
        0.3835003674030304,
        0.27925777435302734,
        -0.6972379088401794,
        -0.4583461284637451,
        -0.04134655371308327,
        -0.19351109862327576,
        0.35606661438941956,
        0.1759570986032486,
        -0.024500438943505287,
        0.17341412603855133,
        0.5065325498580933,
        -0.3175479471683502,
        0.7012441754341125,
        0.5004107356071472,
        0.21935586631298065,
        -0.3733592629432678,
        0.396310955286026,
        0.2521812915802002,
        0.31172919273376465,
        -0.5135725736618042,
        0.09179620444774628,
        0.20688484609127045,
        0.10105466097593307,
        0.042247697710990906,
        -0.2995034158229828,
        -0.45794790983200073,
        0.055524472147226334,
        0.38670825958251953,
        0.2117481678724289,
        -0.04998619854450226,
        0.34940776228904724,
        0.4398949444293976,
        -1.083585262298584,
        -0.39850589632987976,
        -0.2813739478588104,
        0.016198042780160904,
        -0.11541241407394409,
        -0.013131489045917988,
        -0.08153154700994492,
        0.042816709727048874,
        0.21525652706623077,
        0.17101576924324036,
        0.03445085510611534,
        0.1388622671365738,
        0.49126338958740234,
        -0.14229175448417664,
        0.25587549805641174,
        0.020395277068018913,
        -0.12583132088184357,
        -0.08286990225315094,
        -0.020079676061868668,
        0.25229519605636597,
        -0.016043420881032944,
        0.39514100551605225,
        -1.033066987991333,
        -0.22950561344623566,
        0.322709321975708,
        0.758070707321167,
        -0.14405091106891632,
        0.12193635106086731,
        -0.08146781474351883,
        0.015048325061798096,
        -0.11375738680362701,
        0.11327547580003738,
        -0.1415906399488449,
        0.6503129005432129,
        -0.01433730497956276,
        0.4185281991958618,
        0.26310133934020996,
        0.35797861218452454,
        -0.04254540801048279,
        -0.1158667802810669,
        -0.014093165285885334,
        0.2710702121257782,
        0.26766812801361084,
        0.022229375317692757,
        0.1816997528076172,
        0.28707247972488403,
        -0.7407954335212708,
        -0.1880227029323578,
        -0.3349025547504425,
        0.457313597202301,
        -0.05026276037096977,
        -0.44395455718040466,
        -0.20330901443958282,
        -0.2707637548446655,
        0.3920093774795532,
        0.20615790784358978,
        -0.048707567155361176,
        -0.19622725248336792,
        -0.14204126596450806,
        0.5772058963775635,
        0.3737485706806183,
        0.49701541662216187,
        0.14625276625156403,
        -0.08979279547929764,
        -0.03851066529750824,
        -0.1323884129524231,
        0.3037526607513428,
        0.40800753235816956,
        0.018256129696965218,
        0.6206147074699402,
        0.20730052888393402,
        0.09270578622817993,
        -0.027913367375731468,
        -0.5370588302612305,
        0.009115722961723804,
        0.4017309546470642,
        0.6204726099967957,
        0.41670170426368713,
        -0.37022119760513306,
        -0.03218761458992958,
        -0.10238361358642578,
        0.05257702246308327,
        -0.07002943009138107,
        -0.17929621040821075,
        -0.5246724486351013,
        -0.37800201773643494,
        -0.21618196368217468,
        0.7090739011764526,
        0.11285793781280518,
        0.16098260879516602,
        0.41323861479759216,
        0.12976552546024323,
        -0.29313960671424866,
        0.08940412104129791,
        0.22042419016361237,
        -0.3167581856250763,
        0.41950997710227966,
        0.14078566431999207,
        0.21530365943908691,
        -0.004573036450892687,
        -0.0800323560833931,
        -0.3719436526298523,
        -0.06079443171620369,
        0.3211311101913452,
        0.302983820438385,
        -0.18956880271434784,
        0.23841741681098938,
        0.18428394198417664,
        0.12078274041414261,
        -0.23868757486343384,
        -0.055402133613824844,
        -0.08758573234081268,
        0.4792613387107849,
        -0.06738133728504181,
        -0.005773311946541071,
        0.6462860703468323,
        -0.10753240436315536,
        0.06755399703979492,
        0.12091170251369476,
        0.04835127666592598,
        0.27849775552749634,
        1.0298185348510742,
        -0.2524201571941376,
        -0.026531865820288658,
        0.20107248425483704,
        -0.20395271480083466,
        0.07853537052869797,
        0.1008371114730835,
        -0.24158154428005219,
        0.46033957600593567,
        -0.016906969249248505,
        0.0671328753232956,
        0.2284250408411026,
        0.04210052266716957,
        -0.12650670111179352,
        -0.09236787259578705,
        0.09868428856134415,
        0.5668122172355652,
        0.6597825884819031,
        -0.3008224070072174,
        0.506840169429779,
        0.09625882655382156,
        -1.2198985815048218,
        0.1019502729177475,
        -0.3935527205467224,
        -0.3682839870452881,
        -0.4591487944126129,
        0.3550831079483032,
        0.26019537448883057,
        -0.033053237944841385,
        -0.404647558927536,
        0.29299381375312805,
        0.3454185724258423,
        0.07960788905620575,
        0.10800432413816452,
        0.5193911790847778,
        -0.17113365232944489,
        0.26615339517593384,
        -0.2709678113460541,
        -0.04791499674320221,
        0.052470993250608444,
        -0.12833166122436523,
        0.04677237570285797,
        -0.90796959400177,
        0.44598352909088135,
        -0.41343316435813904,
        -0.2650856375694275,
        0.07596147805452347,
        -0.4482507109642029,
        -1.1838390827178955,
        -0.1449556201696396,
        0.08943009376525879,
        -1.1615737676620483,
        0.11431311815977097,
        -0.21164746582508087,
        -0.27145150303840637,
        0.26883506774902344,
        -0.5471051335334778,
        0.06609358638525009,
        0.44430992007255554,
        -0.6301754117012024,
        -0.4443928897380829,
        -0.404488742351532,
